{"learner":{"attributes":{"scikit_learn":"{\"_estimator_type\": \"regressor\"}"},"feature_names":["checkin_date","checkout_date","adults","children"],"feature_types":["int","int","int","int"],"gradient_booster":{"model":{"gbtree_model_param":{"num_parallel_tree":"1","num_trees":"100"},"iteration_indptr":[0,1,2,3,4,5,6,7,8,9,10,11,12,13,14,15,16,17,18,19,20,21,22,23,24,25,26,27,28,29,30,31,32,33,34,35,36,37,38,39,40,41,42,43,44,45,46,47,48,49,50,51,52,53,54,55,56,57,58,59,60,61,62,63,64,65,66,67,68,69,70,71,72,73,74,75,76,77,78,79,80,81,82,83,84,85,86,87,88,89,90,91,92,93,94,95,96,97,98,99,100],"tree_info":[0,0,0,0,0,0,0,0,0,0,0,0,0,0,0,0,0,0,0,0,0,0,0,0,0,0,0,0,0,0,0,0,0,0,0,0,0,0,0,0,0,0,0,0,0,0,0,0,0,0,0,0,0,0,0,0,0,0,0,0,0,0,0,0,0,0,0,0,0,0,0,0,0,0,0,0,0,0,0,0,0,0,0,0,0,0,0,0,0,0,0,0,0,0,0,0,0,0,0,0],"trees":[{"base_weights":[-0E0,-1.0787716E1,2.3463282E1,-8.7222224E-1,-4.1888393E1,-6.5711803E0,5.9193754E0,-9.458333E0,-1.3951563E1,3.5451388E0,-1.5809211E1,-4.378125E0,1.21875E-1,1.665E1,-1.3883928E0,1.484375E1,-2.7816965E1,2.1625001E0,6.1625E0,-1.0992188E0,4.232143E-1,7.9950004E0,-6.628125E0,-3.4050002E0,-9.980625E0],"categories":[],"categories_nodes":[],"categories_segments":[],"categories_sizes":[],"default_left":[0,0,0,0,0,0,0,0,0,0,0,0,0,0,0,0,0,0,0,0,0,0,0,0,0],"id":0,"left_children":[1,3,-1,5,7,9,-1,11,-1,13,15,-1,-1,17,19,21,23,-1,-1,-1,-1,-1,-1,-1,-1],"loss_changes":[5.5685344E4,1.784942E4,0E0,5.413482E3,1.6562695E3,3.4204207E3,0E0,1.5790494E2,0E0,1.1868752E3,7.406299E3,0E0,0E0,3.564795E1,9.434675E1,3.2053584E3,8.7924023E2,0E0,0E0,0E0,0E0,0E0,0E0,0E0,0E0],"parents":[2147483647,0,0,1,1,3,3,4,4,5,5,7,7,9,9,10,10,13,13,14,14,15,15,16,16],"right_children":[2,4,-1,6,8,10,-1,12,-1,14,16,-1,-1,18,20,22,24,-1,-1,-1,-1,-1,-1,-1,-1],"split_conditions":[4E0,4.9E1,2.3463282E1,3.6E1,2E0,2.3E1,5.9193754E0,5.7E1,-1.3951563E1,6E0,2E0,-4.378125E0,1.21875E-1,5E0,3E0,5.9E1,2.7E1,2.1625001E0,6.1625E0,-1.0992188E0,4.232143E-1,7.9950004E0,-6.628125E0,-3.4050002E0,-9.980625E0],"split_indices":[2,1,0,1,3,1,0,0,0,1,2,0,0,0,2,0,0,0,0,0,0,0,0,0,0],"split_type":[0,0,0,0,0,0,0,0,0,0,0,0,0,0,0,0,0,0,0,0,0,0,0,0,0],"sum_hessian":[6.4E1,5.7E1,7E0,4.4E1,1.3E1,3.5E1,9E0,2E0,1.1E1,1.7E1,1.8E1,1E0,1E0,4E0,1.3E1,5E0,1.3E1,2E0,2E0,7E0,6E0,4E0,1E0,4E0,9E0],"tree_param":{"num_deleted":"0","num_feature":"4","num_nodes":"25","size_leaf_vector":"1"}},{"base_weights":[1.046929E-1,-7.838611E0,5.768056E1,-5.7612133E-1,-3.0622427E1,2.801191E1,2.0963812E1,-4.7212114E0,4.3211446E0,-4.5588745E1,-2.0077026E1,1.1469843E1,-3.9761811E-1,2.9065366E0,-1.1699014E1,-1.5578085E1,-3.03539E0,-4.9181213E0,-8.808983E0,1.3319995E1,-1.0201656E0,1.0618442E1,-2.0427994E1,-3.721406E0,5.4691315E-2,1.7299988E0,4.929999E0,-8.1067544E-1,3.1438687E-1,6.0762014E0,-5.633906E0,-7.189454E0,1.5862428E-1,-4.5453033E-1,7.1461034E-1],"categories":[],"categories_nodes":[],"categories_segments":[],"categories_sizes":[],"default_left":[0,0,0,0,0,0,0,0,0,0,0,0,0,0,0,0,0,0,0,0,0,0,0,0,0,0,0,0,0,0,0,0,0,0,0],"id":1,"left_children":[1,3,5,7,9,11,-1,13,-1,15,17,-1,-1,19,21,-1,-1,23,-1,25,27,29,31,-1,33,-1,-1,-1,-1,-1,-1,-1,-1,-1,-1],"loss_changes":[3.0179406E4,9.579458E3,9.379219E2,2.8621965E3,1.2942754E3,1.2500876E3,0E0,1.9501008E3,0E0,5.98709E2,1.2632815E3,0E0,0E0,7.4961847E2,3.9182773E3,0E0,0E0,1.8682484E2,0E0,2.2814758E1,5.1534462E1,2.079969E3,1.0503638E3,0E0,1.8222805E1,0E0,0E0,0E0,0E0,0E0,0E0,0E0,0E0,0E0,0E0],"parents":[2147483647,0,0,1,1,2,2,3,3,4,4,5,5,7,7,9,9,10,10,13,13,14,14,17,17,19,19,20,20,21,21,22,22,24,24],"right_children":[2,4,6,8,10,12,-1,14,-1,16,18,-1,-1,20,22,-1,-1,24,-1,26,28,30,32,-1,34,-1,-1,-1,-1,-1,-1,-1,-1,-1,-1],"split_conditions":[4E0,4.9E1,4.3E1,3.6E1,5.3E1,4.2E1,2.0963812E1,2.3E1,4.3211446E0,2E0,6E1,1.1469843E1,-3.9761811E-1,6E0,2E0,-1.5578085E1,-3.03539E0,5.7E1,-8.808983E0,5E0,3E0,5.9E1,3.8E1,-3.721406E0,2E0,1.7299988E0,4.929999E0,-8.1067544E-1,3.1438687E-1,6.0762014E0,-5.633906E0,-7.189454E0,1.5862428E-1,-4.5453033E-1,7.1461034E-1],"split_indices":[2,1,0,1,1,0,0,1,0,2,0,0,0,1,2,0,0,0,0,0,2,0,0,0,2,0,0,0,0,0,0,0,0,0,0],"split_type":[0,0,0,0,0,0,0,0,0,0,0,0,0,0,0,0,0,0,0,0,0,0,0,0,0,0,0,0,0,0,0,0,0,0,0],"sum_hessian":[6.4E1,5.7E1,7E0,4.4E1,1.3E1,3E0,4E0,3.5E1,9E0,4E0,9E0,2E0,1E0,1.7E1,1.8E1,3E0,1E0,4E0,5E0,4E0,1.3E1,5E0,1.3E1,1E0,3E0,2E0,2E0,7E0,6E0,4E0,1E0,1.1E1,2E0,2E0,1E0],"tree_param":{"num_deleted":"0","num_feature":"4","num_nodes":"35","size_leaf_vector":"1"}},{"base_weights":[1.5095332E-1,-5.952331E0,4.4380898E1,-3.167033E-1,-2.3641684E1,2.2376389E1,1.5932498E1,-4.0032086E0,9.06571E0,-3.563482E1,-1.5280947E1,9.175873E0,-3.379761E-1,2.3770006E0,-1.0930743E1,1.2801794E0,1.3771645E1,-1.2073017E1,-2.580082E0,-4.1349516E0,-6.6067357E0,1.0656E1,-7.4957055E-1,-2.1635666E1,-4.0979905E0,-3.4034853E0,3.1286948E0,7.0111957E0,2.718508E0,-3.1631951E0,1.03302E-1,1.3839997E0,3.9440005E0,-5.978749E-1,2.3354319E-1,-1.9334359E0,-1.0403485E1,2.7098122E0,-3.0453274E0,-3.6362457E-1,6.0741806E-1],"categories":[],"categories_nodes":[],"categories_segments":[],"categories_sizes":[],"default_left":[0,0,0,0,0,0,0,0,0,0,0,0,0,0,0,0,0,0,0,0,0,0,0,0,0,0,0,0,0,0,0,0,0,0,0,0,0,0,0,0,0],"id":2,"left_children":[1,3,5,7,9,11,-1,13,15,17,19,-1,-1,21,23,25,27,-1,-1,29,-1,31,33,35,37,-1,-1,-1,-1,-1,39,-1,-1,-1,-1,-1,-1,-1,-1,-1,-1],"loss_changes":[1.7810787E4,5.7745684E3,3.4796875E2,1.5927662E3,8.592666E2,8.06282E2,0E0,1.4845535E3,4.5866626E2,2.7684863E2,6.603457E2,0E0,0E0,4.7391525E2,1.0816427E3,8.113452E2,1.4990906E2,0E0,0E0,1.3690472E2,0E0,1.460144E1,2.8149918E1,9.652788E2,9.6598755E2,0E0,0E0,0E0,0E0,0E0,1.256378E1,0E0,0E0,0E0,0E0,0E0,0E0,0E0,0E0,0E0,0E0],"parents":[2147483647,0,0,1,1,2,2,3,3,4,4,5,5,7,7,8,8,9,9,10,10,13,13,14,14,15,15,16,16,19,19,21,21,22,22,23,23,24,24,30,30],"right_children":[2,4,6,8,10,12,-1,14,16,18,20,-1,-1,22,24,26,28,-1,-1,30,-1,32,34,36,38,-1,-1,-1,-1,-1,40,-1,-1,-1,-1,-1,-1,-1,-1,-1,-1],"split_conditions":[4E0,4.9E1,4.3E1,3.4E1,5.3E1,4.2E1,1.5932498E1,2.3E1,2E0,2E0,6E1,9.175873E0,-3.379761E-1,6E0,2.9E1,3.8E1,3.3E1,-1.2073017E1,-2.580082E0,5.7E1,-6.6067357E0,5E0,3E0,2.7E1,3.3E1,-3.4034853E0,3.1286948E0,7.0111957E0,2.718508E0,-3.1631951E0,2E0,1.3839997E0,3.9440005E0,-5.978749E-1,2.3354319E-1,-1.9334359E0,-1.0403485E1,2.7098122E0,-3.0453274E0,-3.6362457E-1,6.0741806E-1],"split_indices":[2,1,0,1,1,0,0,1,3,2,0,0,0,1,1,0,0,0,0,0,0,0,2,0,0,0,0,0,0,0,2,0,0,0,0,0,0,0,0,0,0],"split_type":[0,0,0,0,0,0,0,0,0,0,0,0,0,0,0,0,0,0,0,0,0,0,0,0,0,0,0,0,0,0,0,0,0,0,0,0,0,0,0,0,0],"sum_hessian":[6.4E1,5.7E1,7E0,4.4E1,1.3E1,3E0,4E0,3.2E1,1.2E1,4E0,9E0,2E0,1E0,1.7E1,1.5E1,5E0,7E0,3E0,1E0,4E0,5E0,4E0,1.3E1,5E0,1E1,2E0,3E0,1E0,6E0,1E0,3E0,2E0,2E0,7E0,6E0,3E0,2E0,3E0,7E0,2E0,1E0],"tree_param":{"num_deleted":"0","num_feature":"4","num_nodes":"41","size_leaf_vector":"1"}},{"base_weights":[1.4162739E-1,-4.5534077E0,3.416293E1,-1.8288676E-1,-1.8276268E1,1.7872948E1,1.2108699E1,-3.0358424E0,7.0733E0,-2.7874996E1,-1.1649277E1,7.3406987E0,-2.8727877E-1,1.93966E0,-8.4435425E0,5.9595156E0,4.3518996E0,-9.356589E0,-2.1930704E0,-3.4783478E0,-4.9550514E0,8.524798E0,-5.507224E-1,-1.7201117E1,-2.8990896E0,-2.7227876E0,2.3835201E0,-2.6887162E0,1.3325882E-1,1.1071991E0,3.1552002E0,-2.8964928E-1,7.262032E-1,-1.4984117E0,-8.322787E0,2.1001053E0,-2.245927E0,-2.9089966E-1,5.163048E-1],"categories":[],"categories_nodes":[],"categories_segments":[],"categories_sizes":[],"default_left":[0,0,0,0,0,0,0,0,0,0,0,0,0,0,0,0,0,0,0,0,0,0,0,0,0,0,0,0,0,0,0,0,0,0,0,0,0,0,0],"id":3,"left_children":[1,3,5,7,9,11,-1,13,15,17,19,-1,-1,21,23,-1,25,-1,-1,27,-1,29,31,33,35,-1,-1,-1,37,-1,-1,-1,-1,-1,-1,-1,-1,-1,-1],"loss_changes":[1.0538086E4,3.4752686E3,8.651172E1,9.5304443E2,5.658262E2,5.202599E2,0E0,9.042765E2,3.660985E2,1.1272412E2,3.4027368E2,0E0,0E0,2.9988605E2,7.270277E2,0E0,6.5109155E2,0E0,0E0,1.00225266E2,0E0,9.344971E0,1.9591637E1,6.3347766E2,5.5194006E2,0E0,0E0,0E0,8.673514E0,0E0,0E0,0E0,0E0,0E0,0E0,0E0,0E0,0E0,0E0],"parents":[2147483647,0,0,1,1,2,2,3,3,4,4,5,5,7,7,8,8,9,9,10,10,13,13,14,14,16,16,19,19,21,21,22,22,23,23,24,24,28,28],"right_children":[2,4,6,8,10,12,-1,14,16,18,20,-1,-1,22,24,-1,26,-1,-1,28,-1,30,32,34,36,-1,-1,-1,38,-1,-1,-1,-1,-1,-1,-1,-1,-1,-1],"split_conditions":[4E0,4.9E1,4.3E1,3.4E1,5.3E1,4.2E1,1.2108699E1,2.3E1,3.3E1,2E0,6E1,7.3406987E0,-2.8727877E-1,6E0,2.9E1,5.9595156E0,3.8E1,-9.356589E0,-2.1930704E0,5.7E1,-4.9550514E0,5E0,4E0,2.7E1,3.3E1,-2.7227876E0,2.3835201E0,-2.6887162E0,2E0,1.1071991E0,3.1552002E0,-2.8964928E-1,7.262032E-1,-1.4984117E0,-8.322787E0,2.1001053E0,-2.245927E0,-2.9089966E-1,5.163048E-1],"split_indices":[2,1,0,1,1,0,0,1,0,2,0,0,0,1,1,0,0,0,0,0,0,0,3,0,0,0,0,0,2,0,0,0,0,0,0,0,0,0,0],"split_type":[0,0,0,0,0,0,0,0,0,0,0,0,0,0,0,0,0,0,0,0,0,0,0,0,0,0,0,0,0,0,0,0,0,0,0,0,0,0,0],"sum_hessian":[6.4E1,5.7E1,7E0,4.4E1,1.3E1,3E0,4E0,3.2E1,1.2E1,4E0,9E0,2E0,1E0,1.7E1,1.5E1,1E0,1.1E1,3E0,1E0,4E0,5E0,4E0,1.3E1,5E0,1E1,2E0,9E0,1E0,3E0,2E0,2E0,1.2E1,1E0,3E0,2E0,3E0,7E0,2E0,1E0],"tree_param":{"num_deleted":"0","num_feature":"4","num_nodes":"39","size_leaf_vector":"1"}},{"base_weights":[1.0754289E-1,-3.5083485E0,7.892794E0,-1.2019416E-1,-1.4148249E1,-2.2847295E0,5.3836412E0,-2.0724699E1,-8.19192E0,1.6188117E0,-6.5334177E0,5.065588E0,3.0180626E0,-7.251356E0,-2.7663453E0,1.4962769E-1,-3.7162895E0,6.8198423E0,-3.543287E-1,-1.3677648E1,-2.0426178E0,-2.1782289E0,1.7399713E0,-7.757365E-1,4.3885806E-1,8.857605E-1,2.5241609E0,-3.6490288E-1,2.0443465E-1,-1.1612687E0,-6.658231E0,7.1066153E-1,-3.1064827E0,-6.190338E-1,2.6995242E-1],"categories":[],"categories_nodes":[],"categories_segments":[],"categories_sizes":[],"default_left":[0,0,0,0,0,0,0,0,0,0,0,0,0,0,0,0,0,0,0,0,0,0,0,0,0,0,0,0,0,0,0,0,0,0,0],"id":4,"left_children":[1,3,-1,5,7,9,11,13,15,17,19,-1,21,-1,-1,23,-1,25,27,29,31,-1,-1,33,-1,-1,-1,-1,-1,-1,-1,-1,-1,-1,-1],"loss_changes":[6.250581E3,2.0891777E3,0E0,5.4839624E2,3.7862598E2,5.57879E2,3.0274396E2,1.4994873E1,3.1684204E2,1.8713904E2,4.8539478E2,0E0,3.8524045E2,0E0,0E0,5.995667E0,0E0,5.9806976E0,1.3328845E1,4.1520142E2,4.2789658E2,0E0,0E0,8.329746E0,0E0,0E0,0E0,0E0,0E0,0E0,0E0,0E0,0E0,0E0,0E0],"parents":[2147483647,0,0,1,1,3,3,4,4,5,5,6,6,7,7,8,8,9,9,10,10,12,12,15,15,17,17,18,18,19,19,20,20,23,23],"right_children":[2,4,-1,6,8,10,12,14,16,18,20,-1,22,-1,-1,24,-1,26,28,30,32,-1,-1,34,-1,-1,-1,-1,-1,-1,-1,-1,-1,-1,-1],"split_conditions":[4E0,4.9E1,7.892794E0,3.4E1,5.4E1,2.3E1,3.3E1,2E0,6E1,6E0,2.9E1,5.065588E0,3.8E1,-7.251356E0,-2.7663453E0,2E0,-3.7162895E0,5E0,3E0,2.7E1,3.3E1,-2.1782289E0,1.7399713E0,5.8E1,4.3885806E-1,8.857605E-1,2.5241609E0,-3.6490288E-1,2.0443465E-1,-1.1612687E0,-6.658231E0,7.1066153E-1,-3.1064827E0,-6.190338E-1,2.6995242E-1],"split_indices":[2,1,0,1,1,1,0,2,0,1,1,0,0,0,0,2,0,0,2,0,1,0,0,0,0,0,0,0,0,0,0,0,0,0,0],"split_type":[0,0,0,0,0,0,0,0,0,0,0,0,0,0,0,0,0,0,0,0,0,0,0,0,0,0,0,0,0,0,0,0,0,0,0],"sum_hessian":[6.4E1,5.7E1,7E0,4.4E1,1.3E1,3.2E1,1.2E1,5E0,8E0,1.7E1,1.5E1,1E0,1.1E1,3E0,2E0,3E0,5E0,4E0,1.3E1,5E0,1E1,2E0,9E0,2E0,1E0,2E0,2E0,7E0,6E0,3E0,2E0,7E0,3E0,1E0,1E0],"tree_param":{"num_deleted":"0","num_feature":"4","num_nodes":"35","size_leaf_vector":"1"}},{"base_weights":[-4.9181778E-2,-2.73141E0,1.940312E1,-1.3610534E-1,-1.087836E1,8.354824E0,7.3083405E0,5.3141356E0,-1.6462805E0,-4.853072E0,-6.1372886E0,4.2940006E0,-1.428106E0,8.942913E0,-4.10173E0,-3.377103E0,1.4501209E0,1.27182E-1,-2.7872164E0,3.9832003E0,8.459729E-1,5.5460393E-1,-1.2175853E1,-6.5937805E-1,3.7302935E-1,1.6367635E0,-2.7587128E-1,8.829575E-1,-4.3300896E0,-5.261788E-1,2.2945863E-1],"categories":[],"categories_nodes":[],"categories_segments":[],"categories_sizes":[],"default_left":[0,0,0,0,0,0,0,0,0,0,0,0,0,0,0,0,0,0,0,0,0,0,0,0,0,0,0,0,0,0,0],"id":5,"left_children":[1,3,5,7,9,11,-1,13,15,-1,17,-1,-1,19,-1,21,-1,23,-1,-1,-1,25,27,29,-1,-1,-1,-1,-1,-1,-1],"loss_changes":[3.4444062E3,1.2248607E3,2.3468774E2,3.791354E2,2.5240869E2,3.8072412E2,0E0,8.112517E2,4.2009134E2,0E0,1.789729E2,0E0,0E0,2.0141626E2,0E0,1.0099819E3,0E0,4.3318787E0,0E0,0E0,0E0,1.567491E2,3.4970007E2,6.0182247E0,0E0,0E0,0E0,0E0,0E0,0E0,0E0],"parents":[2147483647,0,0,1,1,2,2,3,3,4,4,5,5,7,7,8,8,10,10,13,13,15,15,17,17,21,21,22,22,23,23],"right_children":[2,4,6,8,10,12,-1,14,16,-1,18,-1,-1,20,-1,22,-1,24,-1,-1,-1,26,28,30,-1,-1,-1,-1,-1,-1,-1],"split_conditions":[4E0,4.9E1,4.3E1,2E0,5.4E1,4.2E1,7.3083405E0,5.9E1,3.8E1,-4.853072E0,6E1,4.2940006E0,-1.428106E0,3.5E1,-4.10173E0,2.7E1,1.4501209E0,2E0,-2.7872164E0,3.9832003E0,8.459729E-1,6E0,2.5E1,5.8E1,3.7302935E-1,1.6367635E0,-2.7587128E-1,8.829575E-1,-4.3300896E0,-5.261788E-1,2.2945863E-1],"split_indices":[2,1,0,2,1,0,0,0,0,0,0,0,0,1,0,1,0,2,0,0,0,1,0,0,0,0,0,0,0,0,0],"split_type":[0,0,0,0,0,0,0,0,0,0,0,0,0,0,0,0,0,0,0,0,0,0,0,0,0,0,0,0,0,0,0],"sum_hessian":[6.4E1,5.7E1,7E0,4.4E1,1.3E1,3E0,4E0,9E0,3.5E1,5E0,8E0,2E0,1E0,8E0,1E0,2.8E1,7E0,3E0,5E0,4E0,4E0,2E1,8E0,2E0,1E0,4E0,1.6E1,1E0,7E0,1E0,1E0],"tree_param":{"num_deleted":"0","num_feature":"4","num_nodes":"31","size_leaf_vector":"1"}},{"base_weights":[7.134658E-3,-2.0408258E0,1.4853956E1,-9.3244426E-2,-8.155135E0,6.564846E0,5.5543365E0,-1.5714213E0,3.6662233E0,-1.3035887E1,-4.899246E0,3.4351993E0,-1.2138909E0,1.1492072E0,-4.5339146E0,3.7082703E0,1.9115919E0,-4.527859E0,-7.2119755E-1,-1.4368439E0,-2.0904121E0,2.3537254E-1,1.691977E0,8.625641E-1,-7.858058E0,-8.7656564E-1,3.1704757E0,-1.1424958E0,1.08104706E-1,4.34989E-1,-8.709641E-2,1.8494538E0,-7.4739534E-1,-1.8335266E-1,-3.2629664E0,1.7804513E0,6.6116947E-1,-1.6814119E-1,3.170746E-1],"categories":[],"categories_nodes":[],"categories_segments":[],"categories_sizes":[],"default_left":[0,0,0,0,0,0,0,0,0,0,0,0,0,0,0,0,0,0,0,0,0,0,0,0,0,0,0,0,0,0,0,0,0,0,0,0,0,0,0],"id":6,"left_children":[1,3,5,7,9,11,-1,13,15,17,19,-1,-1,21,23,-1,25,-1,-1,27,-1,29,-1,31,33,-1,35,-1,37,-1,-1,-1,-1,-1,-1,-1,-1,-1,-1],"loss_changes":[2.006685E3,6.8991034E2,1.2119348E2,2.558333E2,1.5861053E2,2.537094E2,0E0,2.7118524E2,1.7469841E2,7.306464E1,6.161801E1,0E0,0E0,7.254042E1,2.937968E2,0E0,8.2281204E1,0E0,0E0,1.8730734E1,0E0,1.0637002E1,0E0,1.3984117E2,2.1209943E2,0E0,1.3639923E1,0E0,3.1297753E0,0E0,0E0,0E0,0E0,0E0,0E0,0E0,0E0,0E0,0E0],"parents":[2147483647,0,0,1,1,2,2,3,3,4,4,5,5,7,7,8,8,9,9,10,10,13,13,14,14,16,16,19,19,21,21,23,23,24,24,26,26,28,28],"right_children":[2,4,6,8,10,12,-1,14,16,18,20,-1,-1,22,24,-1,26,-1,-1,28,-1,30,-1,32,34,-1,36,-1,38,-1,-1,-1,-1,-1,-1,-1,-1,-1,-1],"split_conditions":[4E0,4.9E1,4.3E1,3.4E1,5.3E1,4.2E1,5.5543365E0,2.3E1,3.3E1,2E0,6E1,3.4351993E0,-1.2138909E0,2.2E1,2E0,3.7082703E0,3.8E1,-4.527859E0,-7.2119755E-1,5.7E1,-2.0904121E0,7E0,1.691977E0,2E0,2.7E1,-8.7656564E-1,3.9E1,-1.1424958E0,2E0,4.34989E-1,-8.709641E-2,1.8494538E0,-7.4739534E-1,-1.8335266E-1,-3.2629664E0,1.7804513E0,6.6116947E-1,-1.6814119E-1,3.170746E-1],"split_indices":[2,1,0,1,1,0,0,1,0,2,0,0,0,0,3,0,0,0,0,0,0,0,0,2,0,0,0,0,2,0,0,0,0,0,0,0,0,0,0],"split_type":[0,0,0,0,0,0,0,0,0,0,0,0,0,0,0,0,0,0,0,0,0,0,0,0,0,0,0,0,0,0,0,0,0,0,0,0,0,0,0],"sum_hessian":[6.4E1,5.7E1,7E0,4.4E1,1.3E1,3E0,4E0,3.2E1,1.2E1,4E0,9E0,2E0,1E0,1.7E1,1.5E1,1E0,1.1E1,3E0,1E0,4E0,5E0,1.5E1,2E0,6E0,9E0,2E0,9E0,1E0,3E0,4E0,1.1E1,2E0,4E0,3E0,6E0,1E0,8E0,2E0,1E0],"tree_param":{"num_deleted":"0","num_feature":"4","num_nodes":"39","size_leaf_vector":"1"}},{"base_weights":[7.286647E-2,-1.4865785E0,1.1369734E1,4.5151774E-2,-6.303813E0,5.1507225E0,4.221299E0,-1.1092178E0,2.9720013E0,-1.0174932E1,-3.7378724E0,2.74816E0,-1.0318062E0,9.177738E-1,-3.3202572E0,3.1520302E0,1.4685402E0,-3.50909E0,-6.130188E-1,-1.2045044E0,-1.5678102E0,1.8650627E-1,1.3535827E0,-8.022967E0,-4.5330116E-1,-7.0125127E-1,2.4634995E0,-9.711205E-1,1.12903595E-1,-1.5350037E-2,5.627403E-1,-7.543568E-1,-3.8079712E0,1.7420071E0,-1.0579903E0,1.5133828E0,4.8485923E-1,-1.3451385E-1,2.6951295E-1],"categories":[],"categories_nodes":[],"categories_segments":[],"categories_sizes":[],"default_left":[0,0,0,0,0,0,0,0,0,0,0,0,0,0,0,0,0,0,0,0,0,0,0,0,0,0,0,0,0,0,0,0,0,0,0,0,0,0,0],"id":7,"left_children":[1,3,5,7,9,11,-1,13,15,17,19,-1,-1,21,23,-1,25,-1,-1,27,-1,29,-1,31,33,-1,35,-1,37,-1,-1,-1,-1,-1,-1,-1,-1,-1,-1],"loss_changes":[1.1619967E3,4.2824945E2,6.1917725E1,1.5533658E2,1.0103021E2,1.6928462E2,0E0,1.5094528E2,1.3183734E2,3.7980896E1,3.1405823E1,0E0,0E0,4.6467873E1,2.120826E2,0E0,5.1200745E1,0E0,0E0,1.3754055E1,0E0,6.5199766E0,0E0,1.2243811E2,2.321075E2,0E0,1.3716713E1,0E0,2.166304E0,0E0,0E0,0E0,0E0,0E0,0E0,0E0,0E0,0E0,0E0],"parents":[2147483647,0,0,1,1,2,2,3,3,4,4,5,5,7,7,8,8,9,9,10,10,13,13,14,14,16,16,19,19,21,21,23,23,24,24,26,26,28,28],"right_children":[2,4,6,8,10,12,-1,14,16,18,20,-1,-1,22,24,-1,26,-1,-1,28,-1,30,-1,32,34,-1,36,-1,38,-1,-1,-1,-1,-1,-1,-1,-1,-1,-1],"split_conditions":[4E0,4.9E1,4.3E1,3.4E1,5.3E1,4.2E1,4.221299E0,2.3E1,3.3E1,2E0,6E1,2.74816E0,-1.0318062E0,2.2E1,2.9E1,3.1520302E0,3.8E1,-3.50909E0,-6.130188E-1,5.7E1,-1.5678102E0,4E0,1.3535827E0,2.7E1,3.3E1,-7.0125127E-1,3.9E1,-9.711205E-1,2E0,-1.5350037E-2,5.627403E-1,-7.543568E-1,-3.8079712E0,1.7420071E0,-1.0579903E0,1.5133828E0,4.8485923E-1,-1.3451385E-1,2.6951295E-1],"split_indices":[2,1,0,1,1,0,0,1,0,2,0,0,0,0,1,0,0,0,0,0,0,3,0,0,0,0,0,0,2,0,0,0,0,0,0,0,0,0,0],"split_type":[0,0,0,0,0,0,0,0,0,0,0,0,0,0,0,0,0,0,0,0,0,0,0,0,0,0,0,0,0,0,0,0,0,0,0,0,0,0,0],"sum_hessian":[6.4E1,5.7E1,7E0,4.4E1,1.3E1,3E0,4E0,3.2E1,1.2E1,4E0,9E0,2E0,1E0,1.7E1,1.5E1,1E0,1.1E1,3E0,1E0,4E0,5E0,1.5E1,2E0,5E0,1E1,2E0,9E0,1E0,3E0,1.4E1,1E0,3E0,2E0,3E0,7E0,1E0,8E0,2E0,1E0],"tree_param":{"num_deleted":"0","num_feature":"4","num_nodes":"39","size_leaf_vector":"1"}},{"base_weights":[7.997859E-2,-1.1105087E0,8.701014E0,8.653157E-2,-4.8788157E0,4.0345955E0,3.2081835E0,3.0740952E0,-7.4575084E-1,-7.539566E0,-2.5628917E0,2.1985292E0,-8.7703633E-1,5.5181255E0,-2.8383272E0,-1.8487749E0,3.34593E0,-2.7195454E0,-8.9767915E-1,1.12781525E-1,-1.1758575E0,2.611896E0,3.6789188E-1,2.69997E-1,-6.5871563E0,1.6674076E0,2.721204E-1,-3.839264E-1,2.404358E-1,6.7808014E-1,-2.0303863E-1,5.167145E-1,-2.352344E0,-4.0185243E-1,2.2908555E-1],"categories":[],"categories_nodes":[],"categories_segments":[],"categories_sizes":[],"default_left":[0,0,0,0,0,0,0,0,0,0,0,0,0,0,0,0,0,0,0,0,0,0,0,0,0,0,0,0,0,0,0,0,0,0,0],"id":8,"left_children":[1,3,5,7,9,11,-1,13,15,17,19,-1,-1,21,-1,23,25,-1,-1,27,-1,-1,-1,29,31,-1,-1,33,-1,-1,-1,-1,-1,-1,-1],"loss_changes":[6.767726E2,2.6204944E2,3.1253113E1,1.1418486E2,6.694626E1,1.1309899E2,0E0,3.5857126E2,1.6866188E2,1.4498444E1,3.311122E1,0E0,0E0,1.1247177E2,0E0,2.9292545E2,3.8118454E1,0E0,0E0,1.6759725E0,0E0,0E0,0E0,4.1101566E1,1.0728613E2,0E0,0E0,4.312592E0,0E0,0E0,0E0,0E0,0E0,0E0,0E0],"parents":[2147483647,0,0,1,1,2,2,3,3,4,4,5,5,7,7,8,8,9,9,10,10,13,13,15,15,16,16,19,19,23,23,24,24,27,27],"right_children":[2,4,6,8,10,12,-1,14,16,18,20,-1,-1,22,-1,24,26,-1,-1,28,-1,-1,-1,30,32,-1,-1,34,-1,-1,-1,-1,-1,-1,-1],"split_conditions":[4E0,4.9E1,4.3E1,2E0,5.4E1,4.2E1,3.2081835E0,5.9E1,3.8E1,2E0,6E1,2.1985292E0,-8.7703633E-1,3.5E1,-2.8383272E0,2.7E1,3.8E1,-2.7195454E0,-8.9767915E-1,5.8E1,-1.1758575E0,2.611896E0,3.6789188E-1,8E0,2.5E1,1.6674076E0,2.721204E-1,2E0,2.404358E-1,6.7808014E-1,-2.0303863E-1,5.167145E-1,-2.352344E0,-4.0185243E-1,2.2908555E-1],"split_indices":[2,1,0,2,1,0,0,0,0,2,0,0,0,1,0,1,1,0,0,0,0,0,0,1,0,0,0,2,0,0,0,0,0,0,0],"split_type":[0,0,0,0,0,0,0,0,0,0,0,0,0,0,0,0,0,0,0,0,0,0,0,0,0,0,0,0,0,0,0,0,0,0,0],"sum_hessian":[6.4E1,5.7E1,7E0,4.4E1,1.3E1,3E0,4E0,9E0,3.5E1,5E0,8E0,2E0,1E0,8E0,1E0,2.8E1,7E0,3E0,2E0,3E0,5E0,4E0,4E0,2E1,8E0,3E0,4E0,2E0,1E0,6E0,1.4E1,1E0,7E0,1E0,1E0],"tree_param":{"num_deleted":"0","num_feature":"4","num_nodes":"35","size_leaf_vector":"1"}},{"base_weights":[6.405452E-2,-8.4640974E-1,6.6569138E0,7.657877E-2,-3.7527008E0,3.1545868E0,2.4382179E0,-7.8525704E-1,2.2584252E0,-5.8805695E0,-1.9171549E0,1.7588227E0,-7.454819E-1,-1.9725901E-1,-4.998928E0,2.287443E0,1.1758257E0,-2.1076481E0,-7.1814424E-1,9.586716E-2,-8.818932E-1,-1.9966824E0,2.6682663E0,1.1628709E0,-2.7748184E0,-9.053345E-2,1.5015243E0,-3.2633463E-1,2.0437089E-1,-3.6421868E-1,-2.4125772E0,2.1644114E-1,1.3484452E0,1.0362649E0,2.7022707E-1,-3.415741E-1,1.9472352E-1],"categories":[],"categories_nodes":[],"categories_segments":[],"categories_sizes":[],"default_left":[0,0,0,0,0,0,0,0,0,0,0,0,0,0,0,0,0,0,0,0,0,0,0,0,0,0,0,0,0,0,0,0,0,0,0,0,0],"id":9,"left_children":[1,3,5,7,9,11,-1,13,15,17,19,-1,-1,21,23,-1,25,-1,-1,27,-1,29,31,-1,-1,-1,33,35,-1,-1,-1,-1,-1,-1,-1,-1,-1],"loss_changes":[3.9580106E2,1.5587085E2,1.5562225E1,8.639115E1,4.340724E1,7.565942E1,0E0,8.077572E1,6.655993E1,7.1346893E0,1.8806446E1,0E0,0E0,1.6001648E2,1.867472E2,0E0,6.2281685E0,0E0,0E0,1.2108866E0,0E0,8.012803E1,3.9428185E1,0E0,0E0,0E0,8.619728E0,3.1158528E0,0E0,0E0,0E0,0E0,0E0,0E0,0E0,0E0,0E0],"parents":[2147483647,0,0,1,1,2,2,3,3,4,4,5,5,7,7,8,8,9,9,10,10,13,13,14,14,16,16,19,19,21,21,22,22,26,26,27,27],"right_children":[2,4,6,8,10,12,-1,14,16,18,20,-1,-1,22,24,-1,26,-1,-1,28,-1,30,32,-1,-1,-1,34,36,-1,-1,-1,-1,-1,-1,-1,-1,-1],"split_conditions":[4E0,4.9E1,4.3E1,3.4E1,5.4E1,4.2E1,2.4382179E0,3.3E1,3.3E1,2E0,6E1,1.7588227E0,-7.454819E-1,3E0,2E0,2.287443E0,3.8E1,-2.1076481E0,-7.1814424E-1,5.8E1,-8.818932E-1,5.9E1,2.2E1,1.1628709E0,-2.7748184E0,-9.053345E-2,3.9E1,2E0,2.0437089E-1,-3.6421868E-1,-2.4125772E0,2.1644114E-1,1.3484452E0,1.0362649E0,2.7022707E-1,-3.415741E-1,1.9472352E-1],"split_indices":[2,1,0,1,1,0,0,1,0,2,0,0,0,2,2,0,0,0,0,0,0,0,0,0,0,0,0,2,0,0,0,0,0,0,0,0,0],"split_type":[0,0,0,0,0,0,0,0,0,0,0,0,0,0,0,0,0,0,0,0,0,0,0,0,0,0,0,0,0,0,0,0,0,0,0,0,0],"sum_hessian":[6.4E1,5.7E1,7E0,4.4E1,1.3E1,3E0,4E0,3.2E1,1.2E1,5E0,8E0,2E0,1E0,2.9E1,3E0,1E0,1.1E1,3E0,2E0,3E0,5E0,1.8E1,1.1E1,1E0,2E0,2E0,9E0,2E0,1E0,1.7E1,1E0,6E0,5E0,1E0,8E0,1E0,1E0],"tree_param":{"num_deleted":"0","num_feature":"4","num_nodes":"37","size_leaf_vector":"1"}},{"base_weights":[5.2233417E-2,-6.437078E-1,5.091278E0,6.870151E-2,-2.8876157E0,2.4615479E0,1.853042E0,-1.1548996E0,1.1874733E0,-4.587364E0,-1.4336039E0,1.4070587E0,-6.3365936E-1,-1.8856812E-2,-2.5030656E0,5.508329E0,-2.3950596E-1,-5.4447556E0,-5.745163E-1,8.148575E-2,-6.61419E-1,-4.3910453E-1,6.664028E-1,6.7756045E-1,1.9705777E0,7.861166E-1,-4.2821198E0,-1.8519349E0,-4.8895112E-1,-2.7738443E-1,1.7371446E-1,1.1547089E-2,-4.5699465E-1,6.9949955E-2,3.1240427E-1,5.2498263E-1,-2.0506897E0,-2.2198548E0,7.6051027E-1,-2.903389E-1,1.655159E-1],"categories":[],"categories_nodes":[],"categories_segments":[],"categories_sizes":[],"default_left":[0,0,0,0,0,0,0,0,0,0,0,0,0,0,0,0,0,0,0,0,0,0,0,0,0,0,0,0,0,0,0,0,0,0,0,0,0,0,0,0,0],"id":10,"left_children":[1,3,5,7,9,11,-1,13,15,17,19,-1,-1,21,-1,23,25,27,-1,29,-1,31,33,-1,-1,35,37,-1,-1,39,-1,-1,-1,-1,-1,-1,-1,-1,-1,-1,-1],"loss_changes":[2.3122443E2,9.291608E1,7.632675E0,6.297328E1,2.8023888E1,5.0679703E1,0E0,1.7950822E2,1.4929779E2,3.3202972E0,1.0694576E1,0E0,0E0,6.0521965E0,0E0,5.8384247E0,8.2143974E1,1.0533676E0,0E0,8.748602E-1,0E0,6.790209E0,1.0567095E0,0E0,0E0,1.2949854E2,1.037651E2,0E0,0E0,2.2512221E0,0E0,0E0,0E0,0E0,0E0,0E0,0E0,0E0,0E0,0E0,0E0],"parents":[2147483647,0,0,1,1,2,2,3,3,4,4,5,5,7,7,8,8,9,9,10,10,13,13,15,15,16,16,17,17,19,19,21,21,22,22,25,25,26,26,29,29],"right_children":[2,4,6,8,10,12,-1,14,16,18,20,-1,-1,22,-1,24,26,28,-1,30,-1,32,34,-1,-1,36,38,-1,-1,40,-1,-1,-1,-1,-1,-1,-1,-1,-1,-1,-1],"split_conditions":[4E0,4.9E1,4.3E1,2.9E1,5.4E1,4.2E1,1.853042E0,2.7E1,3.3E1,2E0,6E1,1.4070587E0,-6.3365936E-1,3E0,-2.5030656E0,3.2E1,3E0,5.7E1,-5.745163E-1,5.8E1,-6.61419E-1,1.6E1,3E0,6.7756045E-1,1.9705777E0,5.9E1,3.5E1,-1.8519349E0,-4.8895112E-1,2E0,1.7371446E-1,1.1547089E-2,-4.5699465E-1,6.9949955E-2,3.1240427E-1,5.2498263E-1,-2.0506897E0,-2.2198548E0,7.6051027E-1,-2.903389E-1,1.655159E-1],"split_indices":[2,1,0,0,1,0,0,0,0,2,0,0,0,2,0,0,2,0,0,0,0,1,3,0,0,0,0,0,0,2,0,0,0,0,0,0,0,0,0,0,0],"split_type":[0,0,0,0,0,0,0,0,0,0,0,0,0,0,0,0,0,0,0,0,0,0,0,0,0,0,0,0,0,0,0,0,0,0,0,0,0,0,0,0,0],"sum_hessian":[6.4E1,5.7E1,7E0,4.4E1,1.3E1,3E0,4E0,2.1E1,2.3E1,5E0,8E0,2E0,1E0,1.9E1,2E0,5E0,1.8E1,3E0,2E0,3E0,5E0,1.2E1,7E0,2E0,3E0,1.5E1,3E0,2E0,1E0,2E0,1E0,9E0,3E0,4E0,3E0,1.4E1,1E0,2E0,1E0,1E0,1E0],"tree_param":{"num_deleted":"0","num_feature":"4","num_nodes":"41","size_leaf_vector":"1"}},{"base_weights":[-2.196667E-2,-5.614741E-1,3.892208E0,-1.6421339E-2,-2.2733243E0,1.9164352E0,1.4083154E0,-9.250738E-1,8.171943E-1,-3.6970546E0,-1.071579E0,1.125647E0,-5.386093E-1,-1.6355133E-2,-2.0024521E0,4.2971826E0,-3.2475963E-1,-3.691185E-1,-4.6227856E0,6.926346E-2,-4.9606323E-1,-3.4163958E-1,5.142765E-1,5.4204714E-1,1.527197E0,4.549284E-1,-3.3623219E0,-5.2401404E0,-4.1560823E-1,-2.3577373E-1,1.4765626E-1,2.322449E-1,-1.8446629E-1,5.3162843E-2,2.4211235E-1,3.779886E-1,-1.7430863E0,-1.7758844E0,6.464333E-1,-1.8611608E0,-4.969025E-1,-2.4678726E-1,1.4068909E-1],"categories":[],"categories_nodes":[],"categories_segments":[],"categories_sizes":[],"default_left":[0,0,0,0,0,0,0,0,0,0,0,0,0,0,0,0,0,0,0,0,0,0,0,0,0,0,0,0,0,0,0,0,0,0,0,0,0,0,0,0,0,0,0],"id":11,"left_children":[1,3,5,7,9,11,-1,13,15,17,19,-1,-1,21,-1,23,25,-1,27,29,-1,31,33,-1,-1,35,37,39,-1,41,-1,-1,-1,-1,-1,-1,-1,-1,-1,-1,-1,-1,-1],"loss_changes":[1.3944759E2,5.407949E1,3.6828613E0,3.4841976E1,1.9991768E1,3.3991806E1,0E0,1.1483908E2,9.6771225E1,8.012932E0,6.089905E0,0E0,0E0,3.6278217E0,0E0,2.658287E0,4.6528282E1,0E0,7.350769E-1,6.320751E-1,0E0,4.4395475E0,6.4643526E-1,0E0,0E0,8.802009E1,6.9190796E1,8.569336E-2,0E0,1.6265073E0,0E0,0E0,0E0,0E0,0E0,0E0,0E0,0E0,0E0,0E0,0E0,0E0,0E0],"parents":[2147483647,0,0,1,1,2,2,3,3,4,4,5,5,7,7,8,8,9,9,10,10,13,13,15,15,16,16,18,18,19,19,21,21,22,22,25,25,26,26,27,27,29,29],"right_children":[2,4,6,8,10,12,-1,14,16,18,20,-1,-1,22,-1,24,26,-1,28,30,-1,32,34,-1,-1,36,38,40,-1,42,-1,-1,-1,-1,-1,-1,-1,-1,-1,-1,-1,-1,-1],"split_conditions":[4E0,4.9E1,4.3E1,2.9E1,5.4E1,4.2E1,1.4083154E0,2.7E1,3.3E1,5.6E1,6E1,1.125647E0,-5.386093E-1,3E0,-2.0024521E0,3.2E1,3E0,-3.691185E-1,5.7E1,5.8E1,-4.9606323E-1,5E0,3E0,5.4204714E-1,1.527197E0,5.9E1,3.5E1,5.3E1,-4.1560823E-1,2E0,1.4765626E-1,2.322449E-1,-1.8446629E-1,5.3162843E-2,2.4211235E-1,3.779886E-1,-1.7430863E0,-1.7758844E0,6.464333E-1,-1.8611608E0,-4.969025E-1,-2.4678726E-1,1.4068909E-1],"split_indices":[2,1,0,0,1,0,0,0,0,0,0,0,0,2,0,0,2,0,0,0,0,0,3,0,0,0,0,1,0,2,0,0,0,0,0,0,0,0,0,0,0,0,0],"split_type":[0,0,0,0,0,0,0,0,0,0,0,0,0,0,0,0,0,0,0,0,0,0,0,0,0,0,0,0,0,0,0,0,0,0,0,0,0,0,0,0,0,0,0],"sum_hessian":[6.4E1,5.7E1,7E0,4.4E1,1.3E1,3E0,4E0,2.1E1,2.3E1,5E0,8E0,2E0,1E0,1.9E1,2E0,5E0,1.8E1,2E0,3E0,3E0,5E0,1.2E1,7E0,2E0,3E0,1.5E1,3E0,2E0,1E0,2E0,1E0,2E0,1E1,4E0,3E0,1.4E1,1E0,2E0,1E0,1E0,1E0,1E0,1E0],"tree_param":{"num_deleted":"0","num_feature":"4","num_nodes":"43","size_leaf_vector":"1"}},{"base_weights":[-7.209543E-2,-4.909981E-1,2.9739609E0,-5.782267E-2,-1.8482764E0,1.4775314E0,1.0728937E0,1.165033E0,-3.958986E-1,-3.111735E0,-8.006066E-1,6.753891E-1,4.6917725E-1,2.3919797E0,-1.4816232E0,-8.621679E-1,1.3438148E0,-2.952942E-1,-3.929367E0,5.8872223E-2,-3.7204742E-1,-4.5781863E-1,6.689484E-1,1.2936393E0,-6.5673827E-3,3.4634882E-1,-2.871227E0,8.997368E-1,-7.4758306E-2,-4.454119E0,-3.5326654E-1,-2.0040894E-1,1.2550735E-1,-4.2660523E-2,3.9376833E-2,3.7166017E-1,7.72583E-3,-1.5976411E-1,-1.1044991E0,-1.5819867E0,-4.2236713E-1,-2.0977022E-1,1.19586185E-1],"categories":[],"categories_nodes":[],"categories_segments":[],"categories_sizes":[],"default_left":[0,0,0,0,0,0,0,0,0,0,0,0,0,0,0,0,0,0,0,0,0,0,0,0,0,0,0,0,0,0,0,0,0,0,0,0,0,0,0,0,0,0,0],"id":12,"left_children":[1,3,5,7,9,11,-1,13,15,17,19,-1,21,23,-1,25,27,-1,29,31,-1,-1,-1,-1,33,35,37,-1,-1,39,-1,41,-1,-1,-1,-1,-1,-1,-1,-1,-1,-1,-1],"loss_changes":[8.440028E1,3.399362E1,1.9269028E0,1.9065048E1,1.6040352E1,2.064663E0,0E0,8.670345E1,3.0360891E1,6.5689507E0,3.4730768E0,0E0,1.3941613E1,4.1478474E1,0E0,7.14059E1,2.184273E1,0E0,5.3110886E-1,4.5667407E-1,0E0,0E0,0E0,0E0,1.12132855E-1,5.404715E0,1.8888214E1,0E0,0E0,6.1920166E-2,0E0,1.1751618E0,0E0,0E0,0E0,0E0,0E0,0E0,0E0,0E0,0E0,0E0,0E0],"parents":[2147483647,0,0,1,1,2,2,3,3,4,4,5,5,7,7,8,8,9,9,10,10,12,12,13,13,15,15,16,16,18,18,19,19,24,24,25,25,26,26,29,29,31,31],"right_children":[2,4,6,8,10,12,-1,14,16,18,20,-1,22,24,-1,26,28,-1,30,32,-1,-1,-1,-1,34,36,38,-1,-1,40,-1,42,-1,-1,-1,-1,-1,-1,-1,-1,-1,-1,-1],"split_conditions":[4E0,4.9E1,4E0,2E0,5.4E1,4.2E1,1.0728937E0,5.9E1,3.8E1,5.6E1,6E1,6.753891E-1,4.3E1,3.5E1,-1.4816232E0,2.4E1,3.8E1,-2.952942E-1,5.7E1,5.8E1,-3.7204742E-1,-4.5781863E-1,6.689484E-1,1.2936393E0,2E0,6E0,2.7E1,8.997368E-1,-7.4758306E-2,5.3E1,-3.5326654E-1,2E0,1.2550735E-1,-4.2660523E-2,3.9376833E-2,3.7166017E-1,7.72583E-3,-1.5976411E-1,-1.1044991E0,-1.5819867E0,-4.2236713E-1,-2.0977022E-1,1.19586185E-1],"split_indices":[2,1,3,2,1,0,0,0,0,0,0,0,0,1,0,1,1,0,0,0,0,0,0,0,3,1,0,0,0,1,0,2,0,0,0,0,0,0,0,0,0,0,0],"split_type":[0,0,0,0,0,0,0,0,0,0,0,0,0,0,0,0,0,0,0,0,0,0,0,0,0,0,0,0,0,0,0,0,0,0,0,0,0,0,0,0,0,0,0],"sum_hessian":[6.4E1,5.7E1,7E0,4.4E1,1.3E1,3E0,4E0,9E0,3.5E1,5E0,8E0,1E0,2E0,8E0,1E0,2.8E1,7E0,2E0,3E0,3E0,5E0,1E0,1E0,4E0,4E0,1.8E1,1E1,3E0,4E0,2E0,1E0,2E0,1E0,2E0,2E0,4E0,1.4E1,3E0,7E0,1E0,1E0,1E0,1E0],"tree_param":{"num_deleted":"0","num_feature":"4","num_nodes":"43","size_leaf_vector":"1"}},{"base_weights":[-7.018045E-2,-3.9957416E-1,2.3266964E0,-4.605679E-2,-1.5073389E0,1.1656532E0,8.3705753E-1,-6.394854E-1,4.998385E-1,-2.620369E0,-5.978368E-1,7.2569126E-1,-3.8914493E-1,-1.2902832E-2,-1.3810623E0,2.9818852E0,-3.1027302E-1,-2.3623581E-1,-3.339964E0,5.0045013E-2,-2.7903557E-1,-2.728248E-1,4.1108322E-1,3.9843407E-1,1.2578858E0,2.0871925E-1,-2.3086739E0,-3.786003E0,-3.0027696E-1,-1.7034404E-1,1.0668183E-1,9.310456E-3,-2.8928033E-1,2.5981295E-1,6.6710554E-2,2.3470736E-1,-1.2593789E0,-1.1998078E0,4.145073E-1,-1.3446889E0,-3.590126E-1,-1.7830354E-1,1.0164872E-1],"categories":[],"categories_nodes":[],"categories_segments":[],"categories_sizes":[],"default_left":[0,0,0,0,0,0,0,0,0,0,0,0,0,0,0,0,0,0,0,0,0,0,0,0,0,0,0,0,0,0,0,0,0,0,0,0,0,0,0,0,0,0,0],"id":13,"left_children":[1,3,5,7,9,11,-1,13,15,17,19,-1,-1,21,-1,23,25,-1,27,29,-1,31,33,-1,-1,35,37,39,-1,41,-1,-1,-1,-1,-1,-1,-1,-1,-1,-1,-1,-1,-1],"loss_changes":[5.2248234E1,2.2644192E1,1.0527115E0,1.4897385E1,1.2605692E1,1.5484463E1,0E0,5.4584385E1,4.918283E1,5.28368E0,1.9840612E0,0E0,0E0,2.3162193E0,0E0,6.4482574E0,2.0187803E1,0E0,3.8371658E-1,3.299446E-1,0E0,2.7612467E0,4.9428022E-1,0E0,0E0,4.3729458E1,3.0482857E1,4.471588E-2,0E0,8.490511E-1,0E0,0E0,0E0,0E0,0E0,0E0,0E0,0E0,0E0,0E0,0E0,0E0,0E0],"parents":[2147483647,0,0,1,1,2,2,3,3,4,4,5,5,7,7,8,8,9,9,10,10,13,13,15,15,16,16,18,18,19,19,21,21,22,22,25,25,26,26,27,27,29,29],"right_children":[2,4,6,8,10,12,-1,14,16,18,20,-1,-1,22,-1,24,26,-1,28,30,-1,32,34,-1,-1,36,38,40,-1,42,-1,-1,-1,-1,-1,-1,-1,-1,-1,-1,-1,-1,-1],"split_conditions":[4E0,4.9E1,4.3E1,2.9E1,5.4E1,4.2E1,8.3705753E-1,2.7E1,3.3E1,5.6E1,6E1,7.2569126E-1,-3.8914493E-1,3E0,-1.3810623E0,3.2E1,3E0,-2.3623581E-1,5.7E1,5.8E1,-2.7903557E-1,1.6E1,7E0,3.9843407E-1,1.2578858E0,5.9E1,3.5E1,5.3E1,-3.0027696E-1,2E0,1.0668183E-1,9.310456E-3,-2.8928033E-1,2.5981295E-1,6.6710554E-2,2.3470736E-1,-1.2593789E0,-1.1998078E0,4.145073E-1,-1.3446889E0,-3.590126E-1,-1.7830354E-1,1.0164872E-1],"split_indices":[2,1,0,0,1,0,0,0,0,0,0,0,0,2,0,1,2,0,0,0,0,1,0,0,0,0,0,1,0,2,0,0,0,0,0,0,0,0,0,0,0,0,0],"split_type":[0,0,0,0,0,0,0,0,0,0,0,0,0,0,0,0,0,0,0,0,0,0,0,0,0,0,0,0,0,0,0,0,0,0,0,0,0,0,0,0,0,0,0],"sum_hessian":[6.4E1,5.7E1,7E0,4.4E1,1.3E1,3E0,4E0,2.1E1,2.3E1,5E0,8E0,2E0,1E0,1.9E1,2E0,5E0,1.8E1,2E0,3E0,3E0,5E0,1.2E1,7E0,3E0,2E0,1.5E1,3E0,2E0,1E0,2E0,1E0,9E0,3E0,1E0,6E0,1.4E1,1E0,2E0,1E0,1E0,1E0,1E0,1E0],"tree_param":{"num_deleted":"0","num_feature":"4","num_nodes":"43","size_leaf_vector":"1"}},{"base_weights":[-9.226286E-2,-3.4827843E-1,1.775383E0,-6.531101E-2,-1.2329396E0,9.000931E-1,6.361615E-1,-5.082987E-1,3.4348235E-1,-2.2076275E0,-4.4615427E-1,5.805527E-1,-3.3077317E-1,-6.703949E-3,-1.1048493E0,2.3633702E0,-3.1245503E-1,-6.2996167E-1,-2.8389702E0,4.2533875E-2,-2.092762E-1,-2.1251267E-1,3.2857323E-1,3.0878565E-1,1.006308E0,8.205891E-2,-1.812397E0,-2.2606316E-1,-5.7419587E-2,-3.2181041E0,-2.552353E-1,-1.4479573E-1,9.067841E-2,6.7973332E-3,-2.241932E-1,2.2540284E-2,1.6896859E-1,1.6898835E-1,-1.0704713E0,-9.5984656E-1,3.5233155E-1,-1.1429856E0,-3.051613E-1,-1.515587E-1,8.6400606E-2],"categories":[],"categories_nodes":[],"categories_segments":[],"categories_sizes":[],"default_left":[0,0,0,0,0,0,0,0,0,0,0,0,0,0,0,0,0,0,0,0,0,0,0,0,0,0,0,0,0,0,0,0,0,0,0,0,0,0,0,0,0,0,0,0,0],"id":14,"left_children":[1,3,5,7,9,11,-1,13,15,17,19,-1,-1,21,-1,23,25,27,29,31,-1,33,35,-1,-1,37,39,-1,-1,41,-1,43,-1,-1,-1,-1,-1,-1,-1,-1,-1,-1,-1,-1,-1],"loss_changes":[3.1697847E1,1.4438633E1,5.082054E-1,8.32366E0,9.751238E0,1.0425397E1,0E0,3.5006542E1,3.2536526E1,4.187845E0,1.1355224E0,0E0,0E0,1.4498854E0,0E0,4.4797897E0,1.1391935E1,1.8368602E-2,2.7724075E-1,2.3838474E-1,0E0,1.6519253E0,4.3344873E-1,0E0,0E0,3.0116407E1,2.0329657E1,0E0,0E0,3.229332E-2,0E0,6.134381E-1,0E0,0E0,0E0,0E0,0E0,0E0,0E0,0E0,0E0,0E0,0E0,0E0,0E0],"parents":[2147483647,0,0,1,1,2,2,3,3,4,4,5,5,7,7,8,8,9,9,10,10,13,13,15,15,16,16,17,17,18,18,19,19,21,21,22,22,25,25,26,26,29,29,31,31],"right_children":[2,4,6,8,10,12,-1,14,16,18,20,-1,-1,22,-1,24,26,28,30,32,-1,34,36,-1,-1,38,40,-1,-1,42,-1,44,-1,-1,-1,-1,-1,-1,-1,-1,-1,-1,-1,-1,-1],"split_conditions":[4E0,4.9E1,4.3E1,2.9E1,5.4E1,4.2E1,6.361615E-1,2.7E1,3.3E1,5.6E1,6E1,5.805527E-1,-3.3077317E-1,3E0,-1.1048493E0,3.2E1,3E0,5.1E1,5.7E1,5.8E1,-2.092762E-1,1.6E1,3E0,3.0878565E-1,1.006308E0,5.9E1,3.5E1,-2.2606316E-1,-5.7419587E-2,5.3E1,-2.552353E-1,2E0,9.067841E-2,6.7973332E-3,-2.241932E-1,2.2540284E-2,1.6896859E-1,1.6898835E-1,-1.0704713E0,-9.5984656E-1,3.5233155E-1,-1.1429856E0,-3.051613E-1,-1.515587E-1,8.6400606E-2],"split_indices":[2,1,0,0,1,0,0,0,0,0,0,0,0,2,0,1,2,1,0,0,0,1,3,0,0,0,0,0,0,1,0,2,0,0,0,0,0,0,0,0,0,0,0,0,0],"split_type":[0,0,0,0,0,0,0,0,0,0,0,0,0,0,0,0,0,0,0,0,0,0,0,0,0,0,0,0,0,0,0,0,0,0,0,0,0,0,0,0,0,0,0,0,0],"sum_hessian":[6.4E1,5.7E1,7E0,4.4E1,1.3E1,3E0,4E0,2.1E1,2.3E1,5E0,8E0,2E0,1E0,1.9E1,2E0,5E0,1.8E1,2E0,3E0,3E0,5E0,1.2E1,7E0,3E0,2E0,1.5E1,3E0,1E0,1E0,2E0,1E0,2E0,1E0,9E0,3E0,4E0,3E0,1.4E1,1E0,2E0,1E0,1E0,1E0,1E0,1E0],"tree_param":{"num_deleted":"0","num_feature":"4","num_nodes":"45","size_leaf_vector":"1"}},{"base_weights":[-1.0472741E-1,-3.040577E-1,1.353508E0,-6.145096E-3,-9.1523904E-1,6.925125E-1,4.8348084E-1,-2.3099263E-1,9.2211914E-1,-1.3086375E0,-3.3272552E-1,4.6444246E-1,-2.8115618E-1,3.476154E-1,-6.244686E-1,8.859856E-1,2.1005467E-1,-5.928135E-1,-2.413126E0,7.707596E-2,-4.3854618E-1,5.6885225E-1,-6.8492256E-2,2.589042E-1,-1.5337318E0,6.3428116E-1,-8.0005646E-2,-1.8930556E-1,-4.8806764E-2,-2.7353897E0,-2.1695024E-1,-1.23072304E-1,-1.5695764E-1,1.1659824E-1,-7.645764E-1,2.200367E-1,-3.2203675E-3,-6.729185E-1,2.7308466E-2,-1.1286317E-1,5.4986346E-1,-9.715382E-1,-2.5938722E-1,-1.2882386E-1,7.344132E-2],"categories":[],"categories_nodes":[],"categories_segments":[],"categories_sizes":[],"default_left":[0,0,0,0,0,0,0,0,0,0,0,0,0,0,0,0,0,0,0,0,0,0,0,0,0,0,0,0,0,0,0,0,0,0,0,0,0,0,0,0,0,0,0,0,0],"id":15,"left_children":[1,3,5,7,9,11,-1,13,15,17,19,-1,-1,21,23,-1,25,27,29,-1,31,-1,33,35,37,39,-1,-1,-1,41,-1,43,-1,-1,-1,-1,-1,-1,-1,-1,-1,-1,-1,-1,-1],"loss_changes":[1.9305124E1,1.0554935E1,2.487402E-1,8.56172E0,3.918623E0,7.0285716E0,0E0,7.7301307E0,1.0950218E1,7.2662773E0,6.742411E-1,0E0,0E0,9.151013E0,1.6461458E1,0E0,1.5848742E0,2.8803587E-2,2.0030403E-1,0E0,1.4923823E-1,0E0,1.4595935E1,1.4154055E0,1.1729088E1,5.534237E0,0E0,0E0,0E0,2.3334503E-2,0E0,4.4320875E-1,0E0,0E0,0E0,0E0,0E0,0E0,0E0,0E0,0E0,0E0,0E0,0E0,0E0],"parents":[2147483647,0,0,1,1,2,2,3,3,4,4,5,5,7,7,8,8,9,9,10,10,13,13,14,14,16,16,17,17,18,18,20,20,22,22,23,23,24,24,25,25,29,29,31,31],"right_children":[2,4,6,8,10,12,-1,14,16,18,20,-1,-1,22,24,-1,26,28,30,-1,32,-1,34,36,38,40,-1,-1,-1,42,-1,44,-1,-1,-1,-1,-1,-1,-1,-1,-1,-1,-1,-1,-1],"split_conditions":[4E0,4.3E1,4.3E1,3.4E1,5.4E1,4.2E1,4.8348084E-1,2E0,3.3E1,5.6E1,2E0,4.6444246E-1,-2.8115618E-1,2E0,2.1E1,8.859856E-1,3.9E1,5.1E1,5.7E1,7.707596E-2,5.8E1,5.6885225E-1,3.3E1,8E0,3E0,3.8E1,-8.0005646E-2,-1.8930556E-1,-4.8806764E-2,5.3E1,-2.1695024E-1,2E0,-1.5695764E-1,1.1659824E-1,-7.645764E-1,2.200367E-1,-3.2203675E-3,-6.729185E-1,2.7308466E-2,-1.1286317E-1,5.4986346E-1,-9.715382E-1,-2.5938722E-1,-1.2882386E-1,7.344132E-2],"split_indices":[2,1,0,1,1,0,0,3,0,0,3,0,0,2,1,0,0,1,0,0,0,0,1,1,2,0,0,0,0,1,0,2,0,0,0,0,0,0,0,0,0,0,0,0,0],"split_type":[0,0,0,0,0,0,0,0,0,0,0,0,0,0,0,0,0,0,0,0,0,0,0,0,0,0,0,0,0,0,0,0,0,0,0,0,0,0,0,0,0,0,0,0,0],"sum_hessian":[6.4E1,5.7E1,7E0,3.9E1,1.8E1,3E0,4E0,3.2E1,7E0,1E1,8E0,2E0,1E0,1.3E1,1.9E1,1E0,6E0,7E0,3E0,1E0,7E0,2E0,1.1E1,1E1,9E0,3E0,3E0,6E0,1E0,2E0,1E0,2E0,5E0,1E1,1E0,3E0,7E0,6E0,3E0,2E0,1E0,1E0,1E0,1E0,1E0],"tree_param":{"num_deleted":"0","num_feature":"4","num_nodes":"45","size_leaf_vector":"1"}},{"base_weights":[-7.9761796E-2,-2.31567E-1,1.030796E0,1.3305874E-1,-5.7631963E-1,5.305786E-1,3.6744326E-1,7.594586E-1,-2.4105424E-1,3.0745393E-1,-7.272903E-1,3.7155306E-1,-2.389824E-1,4.2156402E-2,-1.1921158E0,-1.3385987E0,-3.1330788E-1,1.5526795E-1,-1.0014792E-1,3.04097E-1,-1.8360016E0,-3.8391495E-1,-2.0701828E0,-6.498894E-1,-7.6879166E-2,-5.2233413E-2,1.6249008E-1,1.3827668E-1,-7.57639E-1,-2.492981E-2,-1.2823747E-1,-9.095902E-1,-2.9322816E-2,2.5093415E-1,-1.2667343E-1],"categories":[],"categories_nodes":[],"categories_segments":[],"categories_sizes":[],"default_left":[0,0,0,0,0,0,0,0,0,0,0,0,0,0,0,0,0,0,0,0,0,0,0,0,0,0,0,0,0,0,0,0,0,0,0],"id":16,"left_children":[1,3,5,7,9,11,-1,-1,13,-1,15,-1,-1,17,19,21,23,-1,25,-1,27,29,31,-1,33,-1,-1,-1,-1,-1,-1,-1,-1,-1,-1],"loss_changes":[1.1196947E1,7.3676133E0,1.2653732E-1,2.6631899E1,7.9972343E0,4.744836E0,0E0,0E0,7.0533743E0,0E0,6.6665936E0,0E0,0E0,1.4725237E0,1.0382669E1,6.887972E0,7.719258E0,0E0,9.012669E-1,0E0,9.082245E0,4.3069422E-2,1.10860195E1,0E0,5.7155204E0,0E0,0E0,0E0,0E0,0E0,0E0,0E0,0E0,0E0,0E0],"parents":[2147483647,0,0,1,1,2,2,3,3,4,4,5,5,8,8,10,10,13,13,14,14,15,15,16,16,18,18,20,20,21,21,22,22,24,24],"right_children":[2,4,6,8,10,12,-1,-1,14,-1,16,-1,-1,18,20,22,24,-1,26,-1,28,30,32,-1,34,-1,-1,-1,-1,-1,-1,-1,-1,-1,-1],"split_conditions":[4E0,3.4E1,4.3E1,2E0,3.1E1,4.2E1,3.6744326E-1,7.594586E-1,2.7E1,3.0745393E-1,2E0,3.7155306E-1,-2.389824E-1,6E0,2E0,5.6E1,3.5E1,1.5526795E-1,4E0,3.04097E-1,2.5E1,4.4E1,5.3E1,-6.498894E-1,3.8E1,-5.2233413E-2,1.6249008E-1,1.3827668E-1,-7.57639E-1,-2.492981E-2,-1.2823747E-1,-9.095902E-1,-2.9322816E-2,2.5093415E-1,-1.2667343E-1],"split_indices":[2,0,0,2,1,0,0,0,1,0,2,0,0,1,3,0,0,0,3,0,0,0,1,0,1,0,0,0,0,0,0,0,0,0,0],"split_type":[0,0,0,0,0,0,0,0,0,0,0,0,0,0,0,0,0,0,0,0,0,0,0,0,0,0,0,0,0,0,0,0,0,0,0],"sum_hessian":[6.4E1,5.7E1,7E0,2.8E1,2.9E1,3E0,4E0,3E0,2.5E1,2E0,2.7E1,2E0,1E0,2E1,5E0,1E1,1.7E1,4E0,1.6E1,1E0,4E0,5E0,5E0,1E0,1.6E1,1.5E1,1E0,1E0,3E0,1E0,4E0,3E0,2E0,4E0,1.2E1],"tree_param":{"num_deleted":"0","num_feature":"4","num_nodes":"35","size_leaf_vector":"1"}},{"base_weights":[-5.7379268E-2,-1.7245129E-1,7.8406525E-1,1.17611855E-1,-4.4709727E-1,4.0454865E-1,2.7925965E-1,1.9619331E0,-1.7065342E-1,2.4596407E-1,-5.6687707E-1,2.9724276E-1,-2.0313492E-1,1.3884431E-1,6.9221044E-1,4.2150587E-2,-8.870252E-1,-1.6119766E0,-3.769861E-1,-3.9452802E-2,1.6347657E-1,-5.9776765E-1,1.638813E-1,-8.166215E-1,2.5774613E-1,3.6505127E-1,-4.9476624E-1,9.395371E-2,-3.754349E-2,2.5067905E-1,-2.7768975E-1,-1.4047547E-1,4.2974398E-1,-2.1120776E-1,-5.1975634E-2],"categories":[],"categories_nodes":[],"categories_segments":[],"categories_sizes":[],"default_left":[0,0,0,0,0,0,0,0,0,0,0,0,0,0,0,0,0,0,0,0,0,0,0,0,0,0,0,0,0,0,0,0,0,0,0],"id":17,"left_children":[1,3,5,7,9,11,-1,13,15,-1,17,-1,-1,-1,-1,19,21,23,25,27,-1,-1,29,-1,-1,31,33,-1,-1,-1,-1,-1,-1,-1,-1],"loss_changes":[6.42895E0,4.6731353E0,6.91247E-2,1.5752769E1,5.0175204E0,3.2074432E0,0E0,1.0035076E0,4.0010047E0,0E0,4.949047E0,0E0,0E0,0E0,0E0,8.830834E-1,7.297419E0,1.3311433E1,2.365547E0,6.1333054E-1,0E0,0E0,3.7008283E0,0E0,0E0,4.2287264E0,1.3581843E0,0E0,0E0,0E0,0E0,0E0,0E0,0E0,0E0],"parents":[2147483647,0,0,1,1,2,2,3,3,4,4,5,5,7,7,8,8,10,10,15,15,16,16,17,17,18,18,19,19,22,22,25,25,26,26],"right_children":[2,4,6,8,10,12,-1,14,16,-1,18,-1,-1,-1,-1,20,22,24,26,28,-1,-1,30,-1,-1,32,34,-1,-1,-1,-1,-1,-1,-1,-1],"split_conditions":[4E0,3.4E1,4.3E1,2E0,3.1E1,4.2E1,2.7925965E-1,3.2E1,2.7E1,2.4596407E-1,3.4E1,2.9724276E-1,-2.0313492E-1,1.3884431E-1,6.9221044E-1,4E0,2.9E1,3E0,3.9E1,6E0,1.6347657E-1,-5.9776765E-1,3.3E1,-8.166215E-1,2.5774613E-1,3.8E1,5.7E1,9.395371E-2,-3.754349E-2,2.5067905E-1,-2.7768975E-1,-1.4047547E-1,4.2974398E-1,-2.1120776E-1,-5.1975634E-2],"split_indices":[2,0,0,2,1,0,0,1,1,0,1,0,0,0,0,3,1,3,0,1,0,0,0,0,0,0,0,0,0,0,0,0,0,0,0],"split_type":[0,0,0,0,0,0,0,0,0,0,0,0,0,0,0,0,0,0,0,0,0,0,0,0,0,0,0,0,0,0,0,0,0,0,0],"sum_hessian":[6.4E1,5.7E1,7E0,2.8E1,2.9E1,3E0,4E0,3E0,2.5E1,2E0,2.7E1,2E0,1E0,1E0,2E0,2E1,5E0,3E0,2.4E1,1.8E1,2E0,2E0,3E0,2E0,1E0,3E0,2.1E1,3E0,1.5E1,2E0,1E0,2E0,1E0,1.2E1,9E0],"tree_param":{"num_deleted":"0","num_feature":"4","num_nodes":"35","size_leaf_vector":"1"}},{"base_weights":[-3.2279614E-2,-1.1831533E-1,5.955143E-1,1.3554552E-2,-5.3373176E-1,3.067131E-1,2.1223573E-1,-2.1290173E-1,2.2057469E-1,-1.2415024E0,-1.2647323E-1,2.377945E-1,-1.7266388E-1,4.914856E-3,-4.7821352E-1,1.1837031E0,-9.518031E-2,-2.3031616E-1,-1.8388544E0,7.7709965E-2,-1.9808875E-1,-1.9318008E-1,1.2644137E-1,1.5455818E-1,5.041443E-1,-5.9911853E-1,1.2759182E-1,-1.1284104E-1,9.198762E-3,-6.5768856E-1,-1.6979599E-1,-9.165116E-2,-1.2375532E-1,-1.006311E-1,9.88083E-3,2.2161102E-2,1.1359406E-1,2.953148E-1,-3.338086E-1,-1.3059475E-1,1.8125612E-1,8.922272E-2,-7.3055275E-2],"categories":[],"categories_nodes":[],"categories_segments":[],"categories_sizes":[],"default_left":[0,0,0,0,0,0,0,0,0,0,0,0,0,0,0,0,0,0,0,0,0,0,0,0,0,0,0,0,0,0,0,0,0,0,0,0,0,0,0,0,0,0,0],"id":18,"left_children":[1,3,5,7,9,11,-1,13,15,17,19,-1,-1,21,-1,23,25,27,29,-1,31,33,35,-1,-1,37,39,-1,-1,-1,-1,-1,41,-1,-1,-1,-1,-1,-1,-1,-1,-1,-1],"loss_changes":[3.5812838E0,3.1845276E0,4.1638136E-2,2.1566062E0,3.8784218E0,2.1710892E0,0E0,6.626224E0,7.4113684E0,2.5966535E0,3.27394E-1,0E0,0E0,5.0590175E-1,0E0,1.1268291E0,2.209447E0,1.2570153E-1,1.08839035E-1,0E0,3.4053057E-2,2.6838073E-1,1.4439236E-1,0E0,0E0,5.9748144E0,4.0189195E0,0E0,0E0,0E0,0E0,0E0,4.2550147E-1,0E0,0E0,0E0,0E0,0E0,0E0,0E0,0E0,0E0,0E0],"parents":[2147483647,0,0,1,1,2,2,3,3,4,4,5,5,7,7,8,8,9,9,10,10,13,13,15,15,16,16,17,17,18,18,20,20,21,21,22,22,25,25,26,26,32,32],"right_children":[2,4,6,8,10,12,-1,14,16,18,20,-1,-1,22,-1,24,26,28,30,-1,32,34,36,-1,-1,38,40,-1,-1,-1,-1,-1,42,-1,-1,-1,-1,-1,-1,-1,-1,-1,-1],"split_conditions":[4E0,4.9E1,4.3E1,2.9E1,5.7E1,4.2E1,2.1223573E-1,2.7E1,3.3E1,5.6E1,2E0,2.377945E-1,-1.7266388E-1,2E0,-4.7821352E-1,3.2E1,3.8E1,5.1E1,5.3E1,7.7709965E-2,2E0,1.2E1,4E0,1.5455818E-1,5.041443E-1,2E0,2E0,-1.1284104E-1,9.198762E-3,-6.5768856E-1,-1.6979599E-1,-9.165116E-2,5.8E1,-1.006311E-1,9.88083E-3,2.2161102E-2,1.1359406E-1,2.953148E-1,-3.338086E-1,-1.3059475E-1,1.8125612E-1,8.922272E-2,-7.3055275E-2],"split_indices":[2,1,0,0,0,0,0,0,0,0,3,0,0,3,0,1,0,1,1,0,2,0,3,0,0,2,2,0,0,0,0,0,0,0,0,0,0,0,0,0,0,0,0],"split_type":[0,0,0,0,0,0,0,0,0,0,0,0,0,0,0,0,0,0,0,0,0,0,0,0,0,0,0,0,0,0,0,0,0,0,0,0,0,0,0,0,0,0,0],"sum_hessian":[6.4E1,5.7E1,7E0,4.4E1,1.3E1,3E0,4E0,2.1E1,2.3E1,4E0,9E0,2E0,1E0,1.9E1,2E0,5E0,1.8E1,2E0,2E0,1E0,8E0,7E0,1.2E1,3E0,2E0,5E0,1.3E1,1E0,1E0,1E0,1E0,2E0,6E0,4E0,3E0,1.1E1,1E0,1E0,4E0,6E0,7E0,1E0,5E0],"tree_param":{"num_deleted":"0","num_feature":"4","num_nodes":"43","size_leaf_vector":"1"}},{"base_weights":[-2.8963294E-2,-9.473814E-2,4.5152473E-1,4.494346E-2,-4.0763855E-1,1.9023591E-1,2.8497314E-1,-1.08634256E-1,6.0306805E-1,-7.17158E-1,-8.830719E-2,-1.4676362E-1,1.6129579E-1,-4.2836834E-2,-7.523295E-1,4.5971376E-1,2.9535675E-1,-2.521929E-1,-1.5630239E0,6.605301E-2,-1.4704725E-1,2.2599335E-1,-1.5504238E-1,-5.3044283E-1,1.9189455E-1,-4.562073E-2,4.6984354E-1,-9.087372E-2,7.818604E-3,-5.5903476E-1,-1.4432603E-1,-7.3321536E-2,-8.431571E-2,-6.566972E-3,-3.772049E-1,3.380928E-1,3.3906557E-2,7.584E-2,-5.47905E-2],"categories":[],"categories_nodes":[],"categories_segments":[],"categories_sizes":[],"default_left":[0,0,0,0,0,0,0,0,0,0,0,0,0,0,0,0,0,0,0,0,0,0,0,0,0,0,0,0,0,0,0,0,0,0,0,0,0,0,0],"id":19,"left_children":[1,3,5,7,9,-1,11,13,15,17,19,-1,-1,21,23,-1,25,27,29,-1,31,-1,33,-1,-1,-1,35,-1,-1,-1,-1,-1,37,-1,-1,-1,-1,-1,-1],"loss_changes":[2.0970383E0,2.5532937E0,6.258476E-2,3.579849E0,1.7157764E0,0E0,1.4367502E0,1.3654376E0,2.1210372E0,3.1454992E0,2.1358001E-1,0E0,0E0,2.8860939E0,5.3729587E0,0E0,6.960079E-1,1.0668513E-1,7.864332E-2,0E0,3.43595E-2,0E0,4.082175E0,0E0,0E0,0E0,1.2795019E0,0E0,0E0,0E0,0E0,0E0,2.7818495E-1,0E0,0E0,0E0,0E0,0E0,0E0],"parents":[2147483647,0,0,1,1,2,2,3,3,4,4,6,6,7,7,8,8,9,9,10,10,13,13,14,14,16,16,17,17,18,18,20,20,22,22,26,26,32,32],"right_children":[2,4,6,8,10,-1,12,14,16,18,20,-1,-1,22,24,-1,26,28,30,-1,32,-1,34,-1,-1,-1,36,-1,-1,-1,-1,-1,38,-1,-1,-1,-1,-1,-1],"split_conditions":[4E0,4.4E1,4.2E1,3.4E1,5.7E1,1.9023591E-1,4.3E1,5.9E1,3.3E1,5.6E1,2E0,-1.4676362E-1,1.6129579E-1,2E0,2E0,4.5971376E-1,3.8E1,5.1E1,5.3E1,6.605301E-2,2E0,2.2599335E-1,3.3E1,-5.3044283E-1,1.9189455E-1,-4.562073E-2,3.9E1,-9.087372E-2,7.818604E-3,-5.5903476E-1,-1.4432603E-1,-7.3321536E-2,5.8E1,-6.566972E-3,-3.772049E-1,3.380928E-1,3.3906557E-2,7.584E-2,-5.47905E-2],"split_indices":[2,1,0,1,0,0,0,0,0,0,3,0,0,2,2,0,0,1,1,0,2,0,1,0,0,0,0,0,0,0,0,0,0,0,0,0,0,0,0],"split_type":[0,0,0,0,0,0,0,0,0,0,0,0,0,0,0,0,0,0,0,0,0,0,0,0,0,0,0,0,0,0,0,0,0,0,0,0,0,0,0],"sum_hessian":[6.4E1,5.7E1,7E0,4E1,1.7E1,2E0,5E0,3.2E1,8E0,8E0,9E0,1E0,4E0,3E1,2E0,1E0,7E0,6E0,2E0,1E0,8E0,3E0,2.7E1,1E0,1E0,2E0,5E0,5E0,1E0,1E0,1E0,2E0,6E0,2.5E1,2E0,1E0,4E0,1E0,5E0],"tree_param":{"num_deleted":"0","num_feature":"4","num_nodes":"39","size_leaf_vector":"1"}},{"base_weights":[-2.455409E-2,-7.464428E-2,3.4166908E-1,3.852472E-2,-3.2827124E-1,1.5218964E-1,2.0190938E-1,-9.1088496E-2,5.0949264E-1,-5.8939195E-1,-6.0435485E-2,-1.2474976E-1,1.22587286E-1,8.0073886E-2,-2.7795315E-1,3.9075625E-1,2.4754906E-1,-1.8840353E-1,-1.3285675E0,5.6144718E-2,-1.0873922E-1,-2.2859573E-1,1.5704753E-1,2.1963501E-1,-5.9846956E-1,-3.6495972E-2,3.9089203E-1,-6.8156816E-2,6.6467286E-3,-4.751793E-1,-1.2267609E-1,-1.9552612E-1,-5.6010656E-2,3.3898927E-2,-1.8800583E-1,1.2211876E-1,1.8186571E-2,1.6305451E-1,-1.1801301E-1,-2.8829238E-1,5.5659488E-2,2.8737947E-1,2.576935E-2,-1.5426637E-2,-7.2560124E-2,6.446457E-2,-4.1091923E-2],"categories":[],"categories_nodes":[],"categories_segments":[],"categories_sizes":[],"default_left":[0,0,0,0,0,0,0,0,0,0,0,0,0,0,0,0,0,0,0,0,0,0,0,0,0,0,0,0,0,0,0,0,0,0,0,0,0,0,0,0,0,0,0,0,0,0,0],"id":20,"left_children":[1,3,5,7,9,-1,11,13,15,17,19,-1,-1,21,23,-1,25,27,29,-1,31,33,35,37,39,-1,41,-1,-1,-1,-1,43,45,-1,-1,-1,-1,-1,-1,-1,-1,-1,-1,-1,-1,-1,-1],"loss_changes":[1.217876E0,1.6774036E0,8.2758486E-2,2.5491993E0,1.2232542E0,0E0,9.3609804E-1,1.0777354E0,1.5471199E0,2.4173005E0,1.39943E-1,0E0,0E0,4.6357006E-1,2.6832075E0,0E0,4.709337E-1,6.2200576E-2,5.683136E-2,0E0,3.02338E-2,6.1475146E-1,3.3694088E-1,1.6036018E0,3.0203347E0,0E0,9.5537835E-1,0E0,0E0,0E0,0E0,7.5964257E-3,1.8295783E-1,0E0,0E0,0E0,0E0,0E0,0E0,0E0,0E0,0E0,0E0,0E0,0E0,0E0,0E0],"parents":[2147483647,0,0,1,1,2,2,3,3,4,4,6,6,7,7,8,8,9,9,10,10,13,13,14,14,16,16,17,17,18,18,20,20,21,21,22,22,23,23,24,24,26,26,31,31,32,32],"right_children":[2,4,6,8,10,-1,12,14,16,18,20,-1,-1,22,24,-1,26,28,30,-1,32,34,36,38,40,-1,42,-1,-1,-1,-1,44,46,-1,-1,-1,-1,-1,-1,-1,-1,-1,-1,-1,-1,-1,-1],"split_conditions":[4E0,4.4E1,4.2E1,3.4E1,5.7E1,1.5218964E-1,4.3E1,2.3E1,3.3E1,5.6E1,2E0,-1.2474976E-1,1.22587286E-1,6E0,2E0,3.9075625E-1,3.8E1,5.1E1,5.3E1,5.6144718E-2,2E0,5E0,8E0,3E0,3E0,-3.6495972E-2,3.9E1,-6.8156816E-2,6.6467286E-3,-4.751793E-1,-1.2267609E-1,5.3E1,5.8E1,3.3898927E-2,-1.8800583E-1,1.2211876E-1,1.8186571E-2,1.6305451E-1,-1.1801301E-1,-2.8829238E-1,5.5659488E-2,2.8737947E-1,2.576935E-2,-1.5426637E-2,-7.2560124E-2,6.446457E-2,-4.1091923E-2],"split_indices":[2,1,0,1,0,0,0,1,0,0,3,0,0,0,3,0,0,1,1,0,2,0,1,2,2,0,0,0,0,0,0,1,0,0,0,0,0,0,0,0,0,0,0,0,0,0,0],"split_type":[0,0,0,0,0,0,0,0,0,0,0,0,0,0,0,0,0,0,0,0,0,0,0,0,0,0,0,0,0,0,0,0,0,0,0,0,0,0,0,0,0,0,0,0,0,0,0],"sum_hessian":[6.4E1,5.7E1,7E0,4E1,1.7E1,2E0,5E0,3.2E1,8E0,8E0,9E0,1E0,4E0,1.7E1,1.5E1,1E0,7E0,6E0,2E0,1E0,8E0,3E0,1.4E1,6E0,9E0,2E0,5E0,5E0,1E0,1E0,1E0,2E0,6E0,2E0,1E0,3E0,1.1E1,4E0,2E0,6E0,3E0,1E0,4E0,1E0,1E0,1E0,5E0],"tree_param":{"num_deleted":"0","num_feature":"4","num_nodes":"47","size_leaf_vector":"1"}},{"base_weights":[-1.79853E-2,6.486405E-2,-1.7209558E-1,-6.986537E-2,4.6315557E-1,-4.697134E-1,9.297298E-2,-1.999172E-2,-5.61938E-1,3.3214188E-1,2.880432E-1,-2.1144867E-1,-8.6881447E-1,-3.8235135E-2,9.31659E-2,5.743599E-1,-1.04185104E-1,-4.0763286E-1,1.5476075E-1,-2.9196167E-2,3.9654922E-1,-2.4703543E-1,5.648804E-3,-1.1292801E0,-1.3112641E-2,4.7721867E-2,-8.2782745E-2,1.9789277E-1,4.7776796E-2,1.4654306E-3,-2.9552844E-1,7.1149826E-1,6.5280154E-2,-3.2515872E-2,-1.187317E-1,-4.0390208E-1,-1.0427399E-1,-6.167679E-2,-3.5869054E-2,-3.874907E-2,1.7278199E-1,2.4359895E-1,6.1500553E-2,-5.863953E-3,3.8504027E-2,5.4794315E-2,-3.0818941E-2],"categories":[],"categories_nodes":[],"categories_segments":[],"categories_sizes":[],"default_left":[0,0,0,0,0,0,0,0,0,0,0,0,0,0,0,0,0,0,0,0,0,0,0,0,0,0,0,0,0,0,0,0,0,0,0,0,0,0,0,0,0,0,0,0,0,0,0],"id":21,"left_children":[1,3,5,7,9,11,13,15,17,-1,19,21,23,25,-1,27,29,-1,-1,-1,31,33,-1,35,-1,-1,37,-1,-1,39,-1,41,43,-1,-1,-1,-1,-1,45,-1,-1,-1,-1,-1,-1,-1,-1],"loss_changes":[8.4107876E-1,2.3398068E0,1.8581204E0,7.9863393E-1,9.2156124E-1,9.501014E-1,3.8300145E-1,1.6110944E0,3.277464E0,0E0,4.5673525E-1,7.021031E-2,8.1028724E-1,9.22749E-2,0E0,3.655255E-2,2.6073637E0,0E0,0E0,0E0,7.8821623E-1,1.014595E-1,0E0,4.1066647E-2,0E0,0E0,3.871617E-2,0E0,0E0,2.0255094E0,0E0,3.7147284E-2,2.925738E-2,0E0,0E0,0E0,0E0,0E0,1.21034704E-1,0E0,0E0,0E0,0E0,0E0,0E0,0E0,0E0],"parents":[2147483647,0,0,1,1,2,2,3,3,4,4,5,5,6,6,7,7,8,8,10,10,11,11,12,12,13,13,15,15,16,16,20,20,21,21,23,23,26,26,29,29,31,31,32,32,38,38],"right_children":[2,4,6,8,10,12,14,16,18,-1,20,22,24,26,-1,28,30,-1,-1,-1,32,34,-1,36,-1,-1,38,-1,-1,40,-1,42,44,-1,-1,-1,-1,-1,46,-1,-1,-1,-1,-1,-1,-1,-1],"split_conditions":[4.4E1,3.4E1,5.4E1,5.9E1,3.3E1,5.6E1,4E0,2E0,2E0,3.3214188E-1,3.8E1,5.1E1,5.7E1,2E0,9.31659E-2,3.4E1,3.3E1,-4.0763286E-1,1.5476075E-1,-2.9196167E-2,4.2E1,4.9E1,5.648804E-3,5.3E1,-1.3112641E-2,4.7721867E-2,2E0,1.9789277E-1,4.7776796E-2,2.9E1,-2.9552844E-1,3E0,2E0,-3.2515872E-2,-1.187317E-1,-4.0390208E-1,-1.0427399E-1,-6.167679E-2,5.8E1,-3.874907E-2,1.7278199E-1,2.4359895E-1,6.1500553E-2,-5.863953E-3,3.8504027E-2,5.4794315E-2,-3.0818941E-2],"split_indices":[1,1,1,0,0,0,2,2,2,0,0,1,0,3,0,0,1,0,0,0,0,1,0,1,0,0,2,0,0,0,0,3,3,0,0,0,0,0,0,0,0,0,0,0,0,0,0],"split_type":[0,0,0,0,0,0,0,0,0,0,0,0,0,0,0,0,0,0,0,0,0,0,0,0,0,0,0,0,0,0,0,0,0,0,0,0,0,0,0,0,0,0,0,0,0,0,0],"sum_hessian":[6.4E1,4.2E1,2.2E1,3.2E1,1E1,1E1,1.2E1,3E1,2E0,1E0,9E0,7E0,3E0,8E0,4E0,3E0,2.7E1,1E0,1E0,2E0,7E0,6E0,1E0,2E0,1E0,1E0,7E0,2E0,1E0,2.5E1,2E0,3E0,4E0,4E0,2E0,1E0,1E0,1E0,6E0,2.1E1,4E0,2E0,1E0,2E0,2E0,1E0,5E0],"tree_param":{"num_deleted":"0","num_feature":"4","num_nodes":"47","size_leaf_vector":"1"}},{"base_weights":[-1.40025215E-2,5.6378566E-2,-1.4497575E-1,-5.4020505E-2,3.8245046E-1,-3.894251E-1,7.3018E-2,-1.1281906E-2,-4.7764587E-1,2.8232118E-1,2.3248139E-1,-1.6621399E-1,-7.3849106E-1,1.7643738E-1,-2.311325E-2,4.6347046E-1,-7.870074E-2,-3.464882E-1,1.3154756E-1,-2.3358155E-2,3.1979942E-1,-1.9453213E-1,4.801941E-3,-9.598872E-1,-1.1145402E-2,-2.63621E-2,7.452927E-2,1.5831451E-1,4.0610507E-2,6.176875E-3,-2.3642199E-1,5.7431793E-1,5.2224733E-2,-2.4711914E-2,-9.498597E-2,-3.4331703E-1,-8.86322E-2,-5.242539E-2,4.056244E-2,-2.7915027E-2,1.7255631E-1,1.9487764E-1,5.2274324E-2,-4.6920776E-3,3.0804446E-2],"categories":[],"categories_nodes":[],"categories_segments":[],"categories_sizes":[],"default_left":[0,0,0,0,0,0,0,0,0,0,0,0,0,0,0,0,0,0,0,0,0,0,0,0,0,0,0,0,0,0,0,0,0,0,0,0,0,0,0,0,0,0,0,0,0],"id":22,"left_children":[1,3,5,7,9,11,13,15,17,-1,19,21,23,25,-1,27,29,-1,-1,-1,31,33,-1,35,-1,37,-1,-1,-1,39,-1,41,43,-1,-1,-1,-1,-1,-1,-1,-1,-1,-1,-1,-1],"loss_changes":[6.07346E-1,1.5685754E0,1.254069E0,5.9208137E-1,7.02752E-1,7.343217E-1,2.1534485E-1,1.0287004E0,2.3679814E0,0E0,2.958842E-1,4.4394925E-2,5.854347E-1,1.2335114E-1,0E0,1.2879193E-2,1.6907436E0,0E0,0E0,0E0,5.14828E-1,6.9771826E-2,0E0,2.9677391E-2,0E0,9.555362E-2,0E0,0E0,0E0,1.5215129E0,0E0,7.26974E-3,1.8727195E-2,0E0,0E0,0E0,0E0,0E0,0E0,0E0,0E0,0E0,0E0,0E0,0E0],"parents":[2147483647,0,0,1,1,2,2,3,3,4,4,5,5,6,6,7,7,8,8,10,10,11,11,12,12,13,13,15,15,16,16,20,20,21,21,23,23,25,25,29,29,31,31,32,32],"right_children":[2,4,6,8,10,12,14,16,18,-1,20,22,24,26,-1,28,30,-1,-1,-1,32,34,-1,36,-1,38,-1,-1,-1,40,-1,42,44,-1,-1,-1,-1,-1,-1,-1,-1,-1,-1,-1,-1],"split_conditions":[4.4E1,3.4E1,5.4E1,5.9E1,3.3E1,5.6E1,6.2E1,2E0,2E0,2.8232118E-1,3.8E1,5.1E1,5.7E1,2E0,-2.311325E-2,3.4E1,3.3E1,-3.464882E-1,1.3154756E-1,-2.3358155E-2,4.2E1,4.9E1,4.801941E-3,5.3E1,-1.1145402E-2,5.8E1,7.452927E-2,1.5831451E-1,4.0610507E-2,2.9E1,-2.3642199E-1,3E0,2E0,-2.4711914E-2,-9.498597E-2,-3.4331703E-1,-8.86322E-2,-5.242539E-2,4.056244E-2,-2.7915027E-2,1.7255631E-1,1.9487764E-1,5.2274324E-2,-4.6920776E-3,3.0804446E-2],"split_indices":[1,1,1,0,0,0,0,2,2,0,0,1,0,2,0,0,1,0,0,0,0,1,0,1,0,0,0,0,0,1,0,3,3,0,0,0,0,0,0,0,0,0,0,0,0],"split_type":[0,0,0,0,0,0,0,0,0,0,0,0,0,0,0,0,0,0,0,0,0,0,0,0,0,0,0,0,0,0,0,0,0,0,0,0,0,0,0,0,0,0,0,0,0],"sum_hessian":[6.4E1,4.2E1,2.2E1,3.2E1,1E1,1E1,1.2E1,3E1,2E0,1E0,9E0,7E0,3E0,7E0,5E0,3E0,2.7E1,1E0,1E0,2E0,7E0,6E0,1E0,2E0,1E0,2E0,5E0,2E0,1E0,2.5E1,2E0,3E0,4E0,4E0,2E0,1E0,1E0,1E0,1E0,2.2E1,3E0,2E0,1E0,2E0,2E0],"tree_param":{"num_deleted":"0","num_feature":"4","num_nodes":"45","size_leaf_vector":"1"}},{"base_weights":[-1.1249014E-2,4.933202E-2,-1.2402012E-1,-4.1084982E-2,3.160983E-1,-3.2332125E-1,5.415931E-2,7.507179E-2,-2.2556247E-1,2.3997346E-1,1.8772583E-1,-1.307087E-1,-6.2771606E-1,-1.9768609E-2,1.7639771E-1,-1.4855957E-1,1.2059699E-1,-3.102661E-1,1.5486284E-2,-1.8685915E-2,2.5801468E-1,-7.397919E-2,-7.8925E-2,-8.159027E-1,-9.47342E-3,3.447876E-2,-5.0971985E-2,7.852021E-2,2.688904E-2,4.0448E-2,-1.4980775E-1,6.318375E-2,7.1801078E-3,3.259468E-1,-2.975553E-1,1.3914186E-1,4.1778564E-2,-2.898407E-2,4.0809633E-3,-2.9181978E-1,-7.533646E-2,-4.4561006E-2,-1.5814645E-2,-9.044953E-2,4.1533552E-2,1.6758119E-1,2.0990182E-2,9.377747E-2,-2.0423299E-1,-3.7536623E-3,2.4642946E-2,3.5396576E-2,-1.7333986E-2],"categories":[],"categories_nodes":[],"categories_segments":[],"categories_sizes":[],"default_left":[0,0,0,0,0,0,0,0,0,0,0,0,0,0,0,0,0,0,0,0,0,0,0,0,0,0,0,0,0,0,0,0,0,0,0,0,0,0,0,0,0,0,0,0,0,0,0,0,0,0,0,0,0],"id":23,"left_children":[1,3,5,7,9,11,13,15,17,-1,19,21,23,25,27,29,31,-1,33,-1,35,-1,37,39,-1,-1,41,-1,-1,-1,-1,-1,43,45,47,-1,49,-1,-1,-1,-1,-1,51,-1,-1,-1,-1,-1,-1,-1,-1,-1,-1],"loss_changes":[4.5018455E-1,1.0501558E0,8.342721E-1,7.240675E-1,5.330272E-1,5.6288505E-1,1.2096592E-1,2.3171395E-1,2.550054E0,0E0,1.9180146E-1,2.8546423E-2,4.2297626E-1,4.3685406E-2,1.3562873E-2,4.64974E-1,1.8225476E-1,0E0,1.1660447E0,0E0,3.3661926E-1,0E0,1.27711E-2,2.1449566E-2,0E0,0E0,2.5091868E-2,0E0,0E0,0E0,0E0,0E0,4.0640935E-1,3.182488E-1,1.6157327E0,0E0,1.1984914E-2,0E0,0E0,0E0,0E0,0E0,4.6123024E-2,0E0,0E0,0E0,0E0,0E0,0E0,0E0,0E0,0E0,0E0],"parents":[2147483647,0,0,1,1,2,2,3,3,4,4,5,5,6,6,7,7,8,8,10,10,11,11,12,12,13,13,14,14,15,15,16,16,18,18,20,20,22,22,23,23,26,26,32,32,33,33,34,34,36,36,42,42],"right_children":[2,4,6,8,10,12,14,16,18,-1,20,22,24,26,28,30,32,-1,34,-1,36,-1,38,40,-1,-1,42,-1,-1,-1,-1,-1,44,46,48,-1,50,-1,-1,-1,-1,-1,52,-1,-1,-1,-1,-1,-1,-1,-1,-1,-1],"split_conditions":[4.4E1,3.4E1,5.4E1,2.7E1,3.3E1,5.6E1,4E0,6E0,2.9E1,2.3997346E-1,3.8E1,4.3E1,5.7E1,2E0,4E0,5E0,1.6E1,-3.102661E-1,3.4E1,-1.8685915E-2,4.2E1,-7.397919E-2,5.1E1,5.3E1,-9.47342E-3,3.447876E-2,2E0,7.852021E-2,2.688904E-2,4.0448E-2,-1.4980775E-1,6.318375E-2,1.7E1,2E0,3.1E1,1.3914186E-1,2E0,-2.898407E-2,4.0809633E-3,-2.9181978E-1,-7.533646E-2,-4.4561006E-2,5.8E1,-9.044953E-2,4.1533552E-2,1.6758119E-1,2.0990182E-2,9.377747E-2,-2.0423299E-1,-3.7536623E-3,2.4642946E-2,3.5396576E-2,-1.7333986E-2],"split_indices":[1,1,1,1,0,0,2,0,1,0,0,0,0,3,3,0,1,0,0,0,0,0,1,1,0,0,2,0,0,0,0,0,0,3,1,0,3,0,0,0,0,0,0,0,0,0,0,0,0,0,0,0,0],"split_type":[0,0,0,0,0,0,0,0,0,0,0,0,0,0,0,0,0,0,0,0,0,0,0,0,0,0,0,0,0,0,0,0,0,0,0,0,0,0,0,0,0,0,0,0,0,0,0,0,0,0,0,0,0],"sum_hessian":[6.4E1,4.2E1,2.2E1,3.2E1,1E1,1E1,1.2E1,2E1,1.2E1,1E0,9E0,7E0,3E0,8E0,4E0,3E0,1.7E1,2E0,1E1,2E0,7E0,1E0,6E0,2E0,1E0,1E0,7E0,1E0,3E0,2E0,1E0,9E0,8E0,5E0,5E0,3E0,4E0,5E0,1E0,1E0,1E0,1E0,6E0,2E0,6E0,2E0,3E0,2E0,3E0,2E0,2E0,1E0,5E0],"tree_param":{"num_deleted":"0","num_feature":"4","num_nodes":"53","size_leaf_vector":"1"}},{"base_weights":[-1.2613972E-2,3.578878E-2,-1.0255764E-1,-3.8677562E-2,2.5593427E-1,-2.6955068E-1,4.6633206E-2,4.8020862E-2,-1.7575367E-1,2.0397721E-1,1.455429E-1,-1.0385227E-1,-5.335598E-1,-1.2953017E-2,1.4456177E-1,-5.6235418E-2,1.1650438E-1,-2.482132E-1,1.793948E-2,-1.494751E-2,2.0061302E-1,-6.2883E-2,-5.8799744E-2,-6.935196E-1,-8.052063E-3,2.9306032E-2,-3.8993835E-2,6.674194E-2,2.0839691E-2,5.202179E-2,-1.4661953E-1,1.5839712E-1,5.796814E-2,-1.7206097E-1,1.1803666E-1,1.5762635E-1,7.91517E-2,-3.565636E-2,-2.8981527E-2,-2.4804726E-1,-6.403656E-2,-3.7877657E-2,-8.4904265E-3,-1.2733613E-1,-8.87146E-3,2.885895E-2,7.9740144E-2,-4.3524172E-2,3.479691E-2,3.949852E-2,-2.1664582E-1,-3.0029297E-3,3.504547E-2,-1.182129E-2,3.4698488E-3,3.008652E-2,-1.3000489E-2],"categories":[],"categories_nodes":[],"categories_segments":[],"categories_sizes":[],"default_left":[0,0,0,0,0,0,0,0,0,0,0,0,0,0,0,0,0,0,0,0,0,0,0,0,0,0,0,0,0,0,0,0,0,0,0,0,0,0,0,0,0,0,0,0,0,0,0,0,0,0,0,0,0,0,0,0,0],"id":24,"left_children":[1,3,5,7,9,11,13,15,17,-1,19,21,23,25,27,29,31,-1,33,-1,35,-1,37,39,-1,-1,41,-1,-1,-1,43,45,47,49,-1,-1,51,-1,53,-1,-1,-1,55,-1,-1,-1,-1,-1,-1,-1,-1,-1,-1,-1,-1,-1,-1],"loss_changes":[2.866493E-1,7.148164E-1,5.8558816E-1,4.0062115E-1,4.158948E-1,4.257934E-1,7.7730015E-2,1.5648824E-1,1.6556382E0,0E0,1.17584914E-1,2.5792204E-2,3.0560482E-1,2.9739536E-2,1.379998E-2,2.1222809E-1,2.2697195E-2,0E0,8.525287E-1,0E0,2.7402502E-1,0E0,9.090498E-3,1.5494347E-2,0E0,0E0,2.0223055E-2,0E0,0E0,0E0,2.1508779E-1,2.1194816E-2,9.929624E-2,1.4316828E0,0E0,0E0,2.4678145E-2,0E0,2.991472E-3,0E0,0E0,0E0,3.0878427E-2,0E0,0E0,0E0,0E0,0E0,0E0,0E0,0E0,0E0,0E0,0E0,0E0,0E0,0E0],"parents":[2147483647,0,0,1,1,2,2,3,3,4,4,5,5,6,6,7,7,8,8,10,10,11,11,12,12,13,13,14,14,15,15,16,16,18,18,20,20,22,22,23,23,26,26,30,30,31,31,32,32,33,33,36,36,38,38,42,42],"right_children":[2,4,6,8,10,12,14,16,18,-1,20,22,24,26,28,30,32,-1,34,-1,36,-1,38,40,-1,-1,42,-1,-1,-1,44,46,48,50,-1,-1,52,-1,54,-1,-1,-1,56,-1,-1,-1,-1,-1,-1,-1,-1,-1,-1,-1,-1,-1,-1],"split_conditions":[4.4E1,3.4E1,5.4E1,2.7E1,3.3E1,5.6E1,4E0,2E0,2.9E1,2.0397721E-1,3.8E1,4.3E1,5.7E1,2E0,4E0,6E0,1.6E1,-2.482132E-1,3E0,-1.494751E-2,3.9E1,-6.2883E-2,2E0,5.3E1,-8.052063E-3,2.9306032E-2,2E0,6.674194E-2,2.0839691E-2,5.202179E-2,6E0,3E0,1.7E1,2E0,1.1803666E-1,1.5762635E-1,2E0,-3.565636E-2,5.1E1,-2.4804726E-1,-6.403656E-2,-3.7877657E-2,5.8E1,-1.2733613E-1,-8.87146E-3,2.885895E-2,7.9740144E-2,-4.3524172E-2,3.479691E-2,3.949852E-2,-2.1664582E-1,-3.0029297E-3,3.504547E-2,-1.182129E-2,3.4698488E-3,3.008652E-2,-1.3000489E-2],"split_indices":[1,1,1,1,0,0,2,3,1,0,0,0,0,3,3,1,0,0,3,0,0,0,2,1,0,0,2,0,0,0,0,2,0,3,0,0,3,0,0,0,0,0,0,0,0,0,0,0,0,0,0,0,0,0,0,0,0],"split_type":[0,0,0,0,0,0,0,0,0,0,0,0,0,0,0,0,0,0,0,0,0,0,0,0,0,0,0,0,0,0,0,0,0,0,0,0,0,0,0,0,0,0,0,0,0,0,0,0,0,0,0,0,0,0,0,0,0],"sum_hessian":[6.4E1,4.2E1,2.2E1,3.2E1,1E1,1E1,1.2E1,2E1,1.2E1,1E0,9E0,7E0,3E0,8E0,4E0,8E0,1.2E1,2E0,1E1,2E0,7E0,1E0,6E0,2E0,1E0,1E0,7E0,1E0,3E0,2E0,6E0,6E0,6E0,7E0,3E0,1E0,6E0,1E0,5E0,1E0,1E0,1E0,6E0,1E0,5E0,5E0,1E0,1E0,5E0,5E0,2E0,2E0,4E0,4E0,1E0,1E0,5E0],"tree_param":{"num_deleted":"0","num_feature":"4","num_nodes":"57","size_leaf_vector":"1"}},{"base_weights":[-1.258181E-2,2.7076544E-2,-8.617865E-2,-3.5912253E-2,2.1358143E-1,-2.2750369E-1,4.0033195E-2,6.9640023E-3,-2.3001607E-1,1.7338029E-1,1.1935272E-1,-8.60548E-2,-4.5352554E-1,-8.122762E-3,1.1870728E-1,-5.5157207E-2,2.4393463E-1,-4.423462E-1,1.2474518E-1,-1.1956788E-2,1.6413689E-1,-5.3450778E-2,-4.7442846E-2,-5.8949023E-1,-6.8447115E-3,2.4909211E-2,-2.9895782E-2,5.6730654E-2,1.6149903E-2,3.3976745E-2,-4.8703766E-1,3.6373138E-1,2.8940837E-3,2.2373454E-1,-2.8829348E-1,1.3398285E-1,5.99823E-2,-3.030739E-2,-2.167511E-2,-2.1084024E-1,-5.443039E-2,-3.219681E-2,-3.502982E-3,-2.3692133E-2,3.0261349E-2,-1.9857025E-1,5.6327824E-3,2.8994752E-2,1.2616272E-1,2.9894257E-2,-2.859192E-2,1.4527131E-2,8.615342E-2,-2.4017335E-3,2.6633607E-2,-8.983155E-3,2.950287E-3,2.5572969E-2,-9.750366E-3],"categories":[],"categories_nodes":[],"categories_segments":[],"categories_sizes":[],"default_left":[0,0,0,0,0,0,0,0,0,0,0,0,0,0,0,0,0,0,0,0,0,0,0,0,0,0,0,0,0,0,0,0,0,0,0,0,0,0,0,0,0,0,0,0,0,0,0,0,0,0,0,0,0,0,0,0,0,0,0],"id":25,"left_children":[1,3,5,7,9,11,13,15,17,-1,19,21,23,25,27,29,31,33,-1,-1,35,-1,37,39,-1,-1,41,-1,-1,43,45,47,49,51,-1,-1,53,-1,55,-1,-1,-1,57,-1,-1,-1,-1,-1,-1,-1,-1,-1,-1,-1,-1,-1,-1,-1,-1],"loss_changes":[1.9205086E-1,5.1282203E-1,4.1935632E-1,2.762425E-1,3.0867946E-1,3.1264788E-1,5.0216362E-2,4.2564002E-1,1.0067145E0,0E0,7.784212E-2,2.0000897E-2,2.2079569E-1,2.0344444E-2,1.2654148E-2,9.0193784E-1,1.7220262E-1,1.942258E0,0E0,0E0,2.0857789E-1,0E0,7.4750483E-3,1.1198521E-2,0E0,0E0,1.5972156E-2,0E0,0E0,1.5908135E-1,3.6622047E-1,2.0047724E-2,3.800075E-2,1.9460753E-2,0E0,0E0,1.4415417E-2,0E0,1.857734E-3,0E0,0E0,0E0,2.0784894E-2,0E0,0E0,0E0,0E0,0E0,0E0,0E0,0E0,0E0,0E0,0E0,0E0,0E0,0E0,0E0,0E0],"parents":[2147483647,0,0,1,1,2,2,3,3,4,4,5,5,6,6,7,7,8,8,10,10,11,11,12,12,13,13,14,14,15,15,16,16,17,17,20,20,22,22,23,23,26,26,29,29,30,30,31,31,32,32,33,33,36,36,38,38,42,42],"right_children":[2,4,6,8,10,12,14,16,18,-1,20,22,24,26,28,30,32,34,-1,-1,36,-1,38,40,-1,-1,42,-1,-1,44,46,48,50,52,-1,-1,54,-1,56,-1,-1,-1,58,-1,-1,-1,-1,-1,-1,-1,-1,-1,-1,-1,-1,-1,-1,-1,-1],"split_conditions":[4.4E1,3.4E1,5.4E1,3.4E1,3.3E1,5.6E1,4E0,3E1,3E0,1.7338029E-1,3.8E1,4.3E1,5.7E1,2E0,4E0,2.7E1,2E0,3.1E1,1.2474518E-1,-1.1956788E-2,3.9E1,-5.3450778E-2,2E0,5.3E1,-6.8447115E-3,2.4909211E-2,2E0,5.6730654E-2,1.6149903E-2,2E0,2.9E1,3.2E1,3.3E1,2E0,-2.8829348E-1,1.3398285E-1,2E0,-3.030739E-2,5.1E1,-2.1084024E-1,-5.443039E-2,-3.219681E-2,5.8E1,-2.3692133E-2,3.0261349E-2,-1.9857025E-1,5.6327824E-3,2.8994752E-2,1.2616272E-1,2.9894257E-2,-2.859192E-2,1.4527131E-2,8.615342E-2,-2.4017335E-3,2.6633607E-2,-8.983155E-3,2.950287E-3,2.5572969E-2,-9.750366E-3],"split_indices":[1,1,1,0,0,0,2,0,3,0,0,0,0,3,3,0,3,1,0,0,0,0,2,1,0,0,2,0,0,3,0,0,0,2,0,0,3,0,0,0,0,0,0,0,0,0,0,0,0,0,0,0,0,0,0,0,0,0,0],"split_type":[0,0,0,0,0,0,0,0,0,0,0,0,0,0,0,0,0,0,0,0,0,0,0,0,0,0,0,0,0,0,0,0,0,0,0,0,0,0,0,0,0,0,0,0,0,0,0,0,0,0,0,0,0,0,0,0,0,0,0],"sum_hessian":[6.4E1,4.2E1,2.2E1,3.2E1,1E1,1E1,1.2E1,2.7E1,5E0,1E0,9E0,7E0,3E0,8E0,4E0,2.2E1,5E0,4E0,1E0,2E0,7E0,1E0,6E0,2E0,1E0,1E0,7E0,1E0,3E0,1.9E1,3E0,3E0,2E0,2E0,2E0,1E0,6E0,1E0,5E0,1E0,1E0,1E0,6E0,7E0,1.2E1,2E0,1E0,1E0,2E0,1E0,1E0,1E0,1E0,2E0,4E0,4E0,1E0,1E0,5E0],"tree_param":{"num_deleted":"0","num_feature":"4","num_nodes":"59","size_leaf_vector":"1"}},{"base_weights":[-9.630056E-3,2.4232022E-2,-7.251872E-2,-2.7947165E-2,1.7856668E-1,-1.9215184E-1,3.4287672E-2,4.1044448E-2,-1.0381603E-1,1.4737244E-1,9.817505E-2,-7.145977E-2,-3.8549805E-1,-4.7370065E-3,9.767456E-2,-1.1543274E-1,8.00354E-2,-3.0122122E-1,1.3297341E-2,-9.564209E-3,1.3467407E-1,-4.5433044E-2,-3.8398743E-2,-5.010681E-1,-5.8181765E-3,2.1173859E-2,-2.2974014E-2,4.822083E-2,1.2517548E-2,7.8715004E-2,-1.046814E-1,1.4308421E-1,3.4202576E-2,-5.4691315E-2,-1.5885621E-1,1.958669E-1,-1.7148845E-1,1.1388474E-1,4.5451574E-2,-2.5761796E-2,-1.6174316E-2,-1.7921448E-1,-4.6266176E-2,-2.7367402E-2,-1.9182477E-4,-1.5655519E-3,3.6987305E-2,4.7882083E-3,4.9595036E-2,2.0471765E-2,-2.0388795E-2,-6.012955E-2,1.820984E-2,1.0093079E-1,1.2442017E-2,-1.0414948E-1,1.0603409E-1,2.635956E-2,3.273926E-3,-6.826172E-3,2.508545E-3,2.1736909E-2,-7.312775E-3],"categories":[],"categories_nodes":[],"categories_segments":[],"categories_sizes":[],"default_left":[0,0,0,0,0,0,0,0,0,0,0,0,0,0,0,0,0,0,0,0,0,0,0,0,0,0,0,0,0,0,0,0,0,0,0,0,0,0,0,0,0,0,0,0,0,0,0,0,0,0,0,0,0,0,0,0,0,0,0,0,0,0,0],"id":26,"left_children":[1,3,5,7,9,11,13,15,17,-1,19,21,23,25,27,29,31,33,35,-1,37,-1,39,41,-1,-1,43,-1,-1,45,-1,47,49,51,-1,53,55,-1,57,-1,59,-1,-1,-1,61,-1,-1,-1,-1,-1,-1,-1,-1,-1,-1,-1,-1,-1,-1,-1,-1,-1,-1],"loss_changes":[1.4017743E-1,3.5127187E-1,3.0047286E-1,1.7699349E-1,2.282731E-1,2.2914132E-1,3.2620177E-2,1.190602E-1,3.7390602E-1,0E0,5.1762566E-2,1.5339509E-2,1.5952504E-1,1.3983429E-2,1.0934528E-2,2.0880473E-1,3.845174E-2,3.0873573E-1,4.0468776E-1,0E0,1.5758038E-1,0E0,5.9966296E-3,8.089781E-3,0E0,0E0,1.24216955E-2,0E0,0E0,1.1867657E-2,0E0,1.4319114E-2,3.941132E-2,7.9434544E-2,0E0,1.1626455E-1,6.7601717E-1,0E0,9.295435E-3,0E0,1.1588901E-3,0E0,0E0,0E0,1.4064701E-2,0E0,0E0,0E0,0E0,0E0,0E0,0E0,0E0,0E0,0E0,0E0,0E0,0E0,0E0,0E0,0E0,0E0,0E0],"parents":[2147483647,0,0,1,1,2,2,3,3,4,4,5,5,6,6,7,7,8,8,10,10,11,11,12,12,13,13,14,14,15,15,16,16,17,17,18,18,20,20,22,22,23,23,26,26,29,29,31,31,32,32,33,33,35,35,36,36,38,38,40,40,44,44],"right_children":[2,4,6,8,10,12,14,16,18,-1,20,22,24,26,28,30,32,34,36,-1,38,-1,40,42,-1,-1,44,-1,-1,46,-1,48,50,52,-1,54,56,-1,58,-1,60,-1,-1,-1,62,-1,-1,-1,-1,-1,-1,-1,-1,-1,-1,-1,-1,-1,-1,-1,-1,-1,-1],"split_conditions":[4.4E1,3.4E1,5.4E1,2.3E1,3.3E1,5.6E1,4E0,6E0,2.9E1,1.4737244E-1,3.8E1,4.3E1,5.7E1,2E0,4E0,5E0,1E1,2.7E1,3.4E1,-9.564209E-3,3.9E1,-4.5433044E-2,2E0,5.3E1,-5.8181765E-3,2.1173859E-2,2E0,4.822083E-2,1.2517548E-2,3E0,-1.046814E-1,1E0,3E0,1.2E1,-1.5885621E-1,2E0,3E0,1.1388474E-1,4.2E1,-2.5761796E-2,5.1E1,-1.7921448E-1,-4.6266176E-2,-2.7367402E-2,5.8E1,-1.5655519E-3,3.6987305E-2,4.7882083E-3,4.9595036E-2,2.0471765E-2,-2.0388795E-2,-6.012955E-2,1.820984E-2,1.0093079E-1,1.2442017E-2,-1.0414948E-1,1.0603409E-1,2.635956E-2,3.273926E-3,-6.826172E-3,2.508545E-3,2.1736909E-2,-7.312775E-3],"split_indices":[1,1,1,1,0,0,2,0,1,0,0,0,0,3,3,0,1,0,0,0,0,0,2,1,0,0,2,0,0,0,0,1,3,0,0,3,3,0,0,0,0,0,0,0,0,0,0,0,0,0,0,0,0,0,0,0,0,0,0,0,0,0,0],"split_type":[0,0,0,0,0,0,0,0,0,0,0,0,0,0,0,0,0,0,0,0,0,0,0,0,0,0,0,0,0,0,0,0,0,0,0,0,0,0,0,0,0,0,0,0,0,0,0,0,0,0,0,0,0,0,0,0,0,0,0,0,0,0,0],"sum_hessian":[6.4E1,4.2E1,2.2E1,3.2E1,1E1,1E1,1.2E1,1.7E1,1.5E1,1E0,9E0,7E0,3E0,8E0,4E0,3E0,1.4E1,5E0,1E1,2E0,7E0,1E0,6E0,2E0,1E0,1E0,7E0,1E0,3E0,2E0,1E0,5E0,9E0,3E0,2E0,5E0,5E0,1E0,6E0,1E0,5E0,1E0,1E0,1E0,6E0,1E0,1E0,1E0,4E0,7E0,2E0,1E0,2E0,2E0,3E0,4E0,1E0,2E0,4E0,4E0,1E0,1E0,5E0],"tree_param":{"num_deleted":"0","num_feature":"4","num_nodes":"63","size_leaf_vector":"1"}},{"base_weights":[-7.615427E-3,1.7529264E-2,-6.941464E-2,-2.2602659E-2,1.0465088E-1,-2.4284254E-1,2.93092E-2,2.7907478E-2,-7.80139E-2,2.807892E-1,1.5074297E-2,-9.730148E-2,-3.2767296E-1,-2.3998683E-3,8.0523685E-2,-9.811783E-2,5.9653725E-2,-2.4431355E-1,1.9787181E-2,1.2526703E-1,1.422081E-1,2.1086123E-2,-5.004883E-3,-4.0342715E-2,2.1331788E-3,-4.2590842E-1,-4.9449923E-3,1.799698E-2,-1.7697334E-2,4.0988162E-2,9.702302E-3,6.690979E-2,-8.898011E-2,5.5801395E-2,3.7342615E-2,-4.875946E-2,-1.2708436E-1,6.936836E-2,-8.840656E-2,-7.650757E-3,9.6801E-2,-2.8528849E-2,5.7918006E-3,-1.523323E-1,-3.9326478E-2,-2.3261262E-2,1.9280569E-3,-1.3298035E-3,3.143921E-2,1.7966809E-2,-1.0198975E-2,-5.1109318E-2,1.4569093E-2,4.7396395E-2,-1.12289436E-1,-2.7053833E-3,-1.01326E-2,1.2702943E-2,-5.1892092E-3,1.8475343E-2,-5.4836273E-3],"categories":[],"categories_nodes":[],"categories_segments":[],"categories_sizes":[],"default_left":[0,0,0,0,0,0,0,0,0,0,0,0,0,0,0,0,0,0,0,0,0,0,0,0,0,0,0,0,0,0,0,0,0,0,0,0,0,0,0,0,0,0,0,0,0,0,0,0,0,0,0,0,0,0,0,0,0,0,0,0,0],"id":27,"left_children":[1,3,5,7,9,11,13,15,17,19,21,23,25,27,29,31,33,35,37,-1,39,-1,41,-1,-1,43,-1,-1,45,-1,-1,47,-1,-1,49,51,-1,-1,53,-1,-1,55,57,-1,-1,-1,59,-1,-1,-1,-1,-1,-1,-1,-1,-1,-1,-1,-1,-1,-1],"loss_changes":[1.0222173E-1,1.666942E-1,3.3242542E-1,9.453854E-2,2.3243533E-1,5.454108E-2,2.130477E-2,7.7868044E-2,2.6506287E-1,3.538704E-2,1.2546678E-2,1.6481955E-2,1.1525908E-1,9.651314E-3,9.097427E-3,1.5086585E-1,3.5339534E-2,1.8972293E-1,2.7208424E-1,0E0,1.292904E-1,0E0,2.4510606E-3,0E0,0E0,5.8439374E-3,0E0,0E0,9.544596E-3,0E0,0E0,8.573513E-3,0E0,0E0,2.4554564E-2,5.5613387E-2,0E0,0E0,6.226715E-1,0E0,0E0,2.5066547E-6,6.6400035E-3,0E0,0E0,0E0,9.56395E-3,0E0,0E0,0E0,0E0,0E0,0E0,0E0,0E0,0E0,0E0,0E0,0E0,0E0,0E0],"parents":[2147483647,0,0,1,1,2,2,3,3,4,4,5,5,6,6,7,7,8,8,9,9,10,10,11,11,12,12,13,13,14,14,15,15,16,16,17,17,18,18,20,20,22,22,25,25,28,28,31,31,34,34,35,35,38,38,41,41,42,42,46,46],"right_children":[2,4,6,8,10,12,14,16,18,20,22,24,26,28,30,32,34,36,38,-1,40,-1,42,-1,-1,44,-1,-1,46,-1,-1,48,-1,-1,50,52,-1,-1,54,-1,-1,56,58,-1,-1,-1,60,-1,-1,-1,-1,-1,-1,-1,-1,-1,-1,-1,-1,-1,-1],"split_conditions":[4.9E1,3.4E1,5.4E1,2.3E1,3.9E1,5.6E1,4E0,6E0,2.9E1,3.3E1,4.2E1,5.1E1,5.7E1,2E0,4E0,5E0,7E0,2.7E1,3.1E1,1.2526703E-1,3.8E1,2.1086123E-2,4.5E1,-4.0342715E-2,2.1331788E-3,5.3E1,-4.9449923E-3,1.799698E-2,2E0,4.0988162E-2,9.702302E-3,3E0,-8.898011E-2,5.5801395E-2,3E0,1.2E1,-1.2708436E-1,6.936836E-2,3.4E1,-7.650757E-3,9.6801E-2,4.4E1,4.7E1,-1.523323E-1,-3.9326478E-2,-2.3261262E-2,5.8E1,-1.3298035E-3,3.143921E-2,1.7966809E-2,-1.0198975E-2,-5.1109318E-2,1.4569093E-2,4.7396395E-2,-1.12289436E-1,-2.7053833E-3,-1.01326E-2,1.2702943E-2,-5.1892092E-3,1.8475343E-2,-5.4836273E-3],"split_indices":[1,1,1,1,0,0,2,0,1,0,0,1,0,3,3,0,0,0,1,0,0,0,0,0,0,1,0,0,2,0,0,0,0,0,3,0,0,0,0,0,0,0,0,0,0,0,0,0,0,0,0,0,0,0,0,0,0,0,0,0,0],"split_type":[0,0,0,0,0,0,0,0,0,0,0,0,0,0,0,0,0,0,0,0,0,0,0,0,0,0,0,0,0,0,0,0,0,0,0,0,0,0,0,0,0,0,0,0,0,0,0,0,0,0,0,0,0,0,0,0,0,0,0,0,0],"sum_hessian":[6.4E1,4.6E1,1.8E1,3.2E1,1.4E1,6E0,1.2E1,1.7E1,1.5E1,4E0,1E1,3E0,3E0,8E0,4E0,3E0,1.4E1,5E0,1E1,1E0,3E0,2E0,8E0,2E0,1E0,2E0,1E0,1E0,7E0,1E0,3E0,2E0,1E0,1E0,1.3E1,3E0,2E0,3E0,7E0,2E0,1E0,2E0,6E0,1E0,1E0,1E0,6E0,1E0,1E0,1E1,3E0,1E0,2E0,4E0,3E0,1E0,1E0,2E0,4E0,1E0,5E0],"tree_param":{"num_deleted":"0","num_feature":"4","num_nodes":"61","size_leaf_vector":"1"}},{"base_weights":[-6.8793665E-3,1.3882089E-2,-5.787458E-2,-2.0500183E-2,8.859762E-2,-2.035359E-1,2.5010329E-2,-2.187093E-3,-1.5272331E-1,2.3943177E-1,1.1982311E-2,-7.766342E-2,-2.785244E-1,-8.205838E-4,6.6503905E-2,-7.97087E-2,1.2073771E-1,6.6991426E-2,-3.5250092E-1,1.0647584E-1,1.2182999E-1,1.6868591E-2,-4.0978324E-3,-3.2273866E-2,1.8127442E-3,-3.6202493E-1,-4.203415E-3,1.52984625E-2,-1.3671875E-2,3.4840394E-2,7.518769E-3,-2.6479933E-2,-1.5567398E-1,4.6966553E-2,9.7918704E-2,-3.3278275E-2,-1.2534714E-1,-6.121827E-3,8.228073E-2,-2.4251303E-2,5.1247734E-3,-1.2948304E-1,-3.3428192E-2,-1.9773103E-2,3.2065255E-3,-2.4526369E-2,5.622597E-2,4.7431186E-2,5.115255E-3,-2.3002625E-3,-8.612824E-3,1.0160828E-2,-3.944092E-3,1.5703583E-2,-4.1122437E-3],"categories":[],"categories_nodes":[],"categories_segments":[],"categories_sizes":[],"default_left":[0,0,0,0,0,0,0,0,0,0,0,0,0,0,0,0,0,0,0,0,0,0,0,0,0,0,0,0,0,0,0,0,0,0,0,0,0,0,0,0,0,0,0,0,0,0,0,0,0,0,0,0,0,0,0],"id":28,"left_children":[1,3,5,7,9,11,13,15,17,19,21,23,25,27,29,31,33,-1,35,-1,37,-1,39,-1,-1,41,-1,-1,43,-1,-1,45,-1,47,-1,-1,-1,-1,-1,49,51,-1,-1,-1,53,-1,-1,-1,-1,-1,-1,-1,-1,-1,-1],"loss_changes":[6.962119E-2,1.2255407E-1,2.3447987E-1,7.957264E-2,1.7047413E-1,4.444176E-2,1.3988195E-2,2.9550374E-1,3.7920305E-1,2.4667948E-2,8.056777E-3,1.0666672E-2,8.327547E-2,6.6902554E-3,7.3731896E-3,4.3044725E-1,1.6672982E-1,0E0,9.92626E-4,0E0,9.232613E-2,0E0,1.79709E-3,0E0,0E0,4.2204857E-3,0E0,0E0,7.264957E-3,0E0,0E0,2.2814062E-1,0E0,3.0551726E-2,0E0,0E0,0E0,0E0,0E0,1.6660197E-6,4.121785E-3,0E0,0E0,0E0,6.535453E-3,0E0,0E0,0E0,0E0,0E0,0E0,0E0,0E0,0E0,0E0],"parents":[2147483647,0,0,1,1,2,2,3,3,4,4,5,5,6,6,7,7,8,8,9,9,10,10,11,11,12,12,13,13,14,14,15,15,16,16,18,18,20,20,22,22,25,25,28,28,31,31,33,33,39,39,40,40,44,44],"right_children":[2,4,6,8,10,12,14,16,18,20,22,24,26,28,30,32,34,-1,36,-1,38,-1,40,-1,-1,42,-1,-1,44,-1,-1,46,-1,48,-1,-1,-1,-1,-1,50,52,-1,-1,-1,54,-1,-1,-1,-1,-1,-1,-1,-1,-1,-1],"split_conditions":[4.9E1,3.4E1,5.4E1,3.3E1,3.9E1,5.6E1,4E0,3E0,2E0,3.3E1,4.2E1,5.1E1,5.7E1,2E0,4E0,5.9E1,3.2E1,6.6991426E-2,3.4E1,1.0647584E-1,3.8E1,1.6868591E-2,4.5E1,-3.2273866E-2,1.8127442E-3,5.3E1,-4.203415E-3,1.52984625E-2,2E0,3.4840394E-2,7.518769E-3,2.9E1,-1.5567398E-1,7E0,9.7918704E-2,-3.3278275E-2,-1.2534714E-1,-6.121827E-3,8.228073E-2,4.4E1,4.7E1,-1.2948304E-1,-3.3428192E-2,-1.9773103E-2,5.8E1,-2.4526369E-2,5.622597E-2,4.7431186E-2,5.115255E-3,-2.3002625E-3,-8.612824E-3,1.0160828E-2,-3.944092E-3,1.5703583E-2,-4.1122437E-3],"split_indices":[1,1,1,1,0,0,2,2,2,0,0,1,0,3,3,0,0,0,0,0,0,0,0,0,0,1,0,0,2,0,0,0,0,0,0,0,0,0,0,0,0,0,0,0,0,0,0,0,0,0,0,0,0,0,0],"split_type":[0,0,0,0,0,0,0,0,0,0,0,0,0,0,0,0,0,0,0,0,0,0,0,0,0,0,0,0,0,0,0,0,0,0,0,0,0,0,0,0,0,0,0,0,0,0,0,0,0,0,0,0,0,0,0],"sum_hessian":[6.4E1,4.6E1,1.8E1,3.2E1,1.4E1,6E0,1.2E1,2.9E1,3E0,4E0,1E1,3E0,3E0,8E0,4E0,1.8E1,1.1E1,1E0,2E0,1E0,3E0,2E0,8E0,2E0,1E0,2E0,1E0,1E0,7E0,1E0,3E0,1.7E1,1E0,9E0,2E0,1E0,1E0,2E0,1E0,2E0,6E0,1E0,1E0,1E0,6E0,1.4E1,3E0,1E0,8E0,1E0,1E0,2E0,4E0,1E0,5E0],"tree_param":{"num_deleted":"0","num_feature":"4","num_nodes":"55","size_leaf_vector":"1"}},{"base_weights":[-5.099722E-3,1.2475034E-2,-4.8305713E-2,-1.6324824E-2,7.500305E-2,-1.7070007E-1,2.1314768E-2,4.4365518E-2,-5.3117663E-2,2.0412903E-1,9.490967E-3,-6.19812E-2,-2.3674393E-1,2.1616618E-4,5.5029295E-2,-6.501007E-2,8.36792E-2,1.937188E-2,-9.921675E-2,9.050446E-2,1.04320526E-1,1.3494873E-2,-3.3942328E-3,-2.5819398E-2,1.5403748E-3,-3.077189E-1,-3.5728456E-3,1.30027775E-2,-1.0592461E-2,2.9612733E-2,5.8296206E-3,7.322184E-2,-7.1955875E-2,4.831696E-3,8.9397855E-2,1.2843628E-1,-9.3566895E-2,-2.3297773E-1,4.8718043E-2,-4.8980713E-3,6.993943E-2,-2.0614624E-2,4.470825E-3,-1.10060126E-1,-2.8413393E-2,-1.6806794E-2,3.9008004E-3,2.547455E-3,3.0402375E-2,1.7472187E-2,3.9689638E-2,-3.9763644E-2,6.804543E-2,1.8184662E-2,-1.065445E-1,1.6558839E-2,-1.0778595E-1,-1.3710404E-2,9.2285156E-2,-1.954651E-3,-7.32193E-3,8.128357E-3,-2.9992678E-3,1.3348389E-2,-3.084183E-3],"categories":[],"categories_nodes":[],"categories_segments":[],"categories_sizes":[],"default_left":[0,0,0,0,0,0,0,0,0,0,0,0,0,0,0,0,0,0,0,0,0,0,0,0,0,0,0,0,0,0,0,0,0,0,0,0,0,0,0,0,0,0,0,0,0,0,0,0,0,0,0,0,0,0,0,0,0,0,0,0,0,0,0,0,0],"id":29,"left_children":[1,3,5,7,9,11,13,15,17,19,21,23,25,27,29,31,33,35,37,-1,39,-1,41,-1,-1,43,-1,-1,45,-1,-1,47,-1,-1,49,51,53,55,57,-1,-1,59,61,-1,-1,-1,63,-1,-1,-1,-1,-1,-1,-1,-1,-1,-1,-1,-1,-1,-1,-1,-1,-1,-1],"loss_changes":[4.9959373E-2,8.5861914E-2,1.6554035E-1,7.60446E-2,1.249523E-1,3.5587817E-2,9.235387E-3,6.1339438E-2,7.209776E-2,1.7211273E-2,5.183211E-3,6.9074277E-3,6.0165703E-2,4.6543414E-3,5.8562784E-3,1.1423792E-1,2.424486E-3,1.2287577E-1,2.6859295E-1,0E0,6.596912E-2,0E0,1.3111187E-3,0E0,0E0,3.0505657E-3,0E0,0E0,5.485985E-3,0E0,0E0,4.599994E-3,0E0,0E0,4.3249056E-3,1.58443E-1,2.2318383E-1,2.7462345E-1,1.8517421E-1,0E0,0E0,1.3633398E-6,2.5621774E-3,0E0,0E0,0E0,4.487176E-3,0E0,0E0,0E0,0E0,0E0,0E0,0E0,0E0,0E0,0E0,0E0,0E0,0E0,0E0,0E0,0E0,0E0,0E0],"parents":[2147483647,0,0,1,1,2,2,3,3,4,4,5,5,6,6,7,7,8,8,9,9,10,10,11,11,12,12,13,13,14,14,15,15,16,16,17,17,18,18,20,20,22,22,25,25,28,28,31,31,34,34,35,35,36,36,37,37,38,38,41,41,42,42,46,46],"right_children":[2,4,6,8,10,12,14,16,18,20,22,24,26,28,30,32,34,36,38,-1,40,-1,42,-1,-1,44,-1,-1,46,-1,-1,48,-1,-1,50,52,54,56,58,-1,-1,60,62,-1,-1,-1,64,-1,-1,-1,-1,-1,-1,-1,-1,-1,-1,-1,-1,-1,-1,-1,-1,-1,-1],"split_conditions":[4.9E1,3.4E1,5.4E1,1.6E1,3.9E1,5.6E1,4E0,6E0,2E0,3.3E1,4.2E1,5.1E1,5.7E1,2E0,4E0,5E0,1E0,3E0,3E0,9.050446E-2,3.8E1,1.3494873E-2,4.5E1,-2.5819398E-2,1.5403748E-3,5.3E1,-3.5728456E-3,1.30027775E-2,2E0,2.9612733E-2,5.8296206E-3,3E0,-7.1955875E-2,4.831696E-3,3E0,1.2E1,3.3E1,2.7E1,3.4E1,-4.8980713E-3,6.993943E-2,4.4E1,4.7E1,-1.10060126E-1,-2.8413393E-2,-1.6806794E-2,5.8E1,2.547455E-3,3.0402375E-2,1.7472187E-2,3.9689638E-2,-3.9763644E-2,6.804543E-2,1.8184662E-2,-1.065445E-1,1.6558839E-2,-1.0778595E-1,-1.3710404E-2,9.2285156E-2,-1.954651E-3,-7.32193E-3,8.128357E-3,-2.9992678E-3,1.3348389E-2,-3.084183E-3],"split_indices":[1,1,1,1,0,0,2,0,3,0,0,1,0,3,3,0,1,2,2,0,0,0,0,0,0,1,0,0,2,0,0,0,0,0,3,0,0,0,0,0,0,0,0,0,0,0,0,0,0,0,0,0,0,0,0,0,0,0,0,0,0,0,0,0,0],"split_type":[0,0,0,0,0,0,0,0,0,0,0,0,0,0,0,0,0,0,0,0,0,0,0,0,0,0,0,0,0,0,0,0,0,0,0,0,0,0,0,0,0,0,0,0,0,0,0,0,0,0,0,0,0,0,0,0,0,0,0,0,0,0,0,0,0],"sum_hessian":[6.4E1,4.6E1,1.8E1,3.2E1,1.4E1,6E0,1.2E1,1.2E1,2E1,4E0,1E1,3E0,3E0,8E0,4E0,3E0,9E0,8E0,1.2E1,1E0,3E0,2E0,8E0,2E0,1E0,2E0,1E0,1E0,7E0,1E0,3E0,2E0,1E0,1E0,8E0,4E0,4E0,6E0,6E0,2E0,1E0,2E0,6E0,1E0,1E0,1E0,6E0,1E0,1E0,6E0,2E0,1E0,3E0,3E0,1E0,2E0,4E0,5E0,1E0,1E0,1E0,2E0,4E0,1E0,5E0],"tree_param":{"num_deleted":"0","num_feature":"4","num_nodes":"65","size_leaf_vector":"1"}},{"base_weights":[-3.7111721E-3,1.118453E-2,-4.036311E-2,-1.29327485E-2,6.349691E-2,-1.4325169E-1,1.8143287E-2,1.3417562E-3,-1.1675835E-1,1.7399903E-1,7.496227E-3,-4.945755E-2,-2.0123291E-1,8.672078E-4,4.561157E-2,-5.1077593E-2,8.422724E-2,4.673767E-2,-7.7861786E-2,7.692948E-2,8.928299E-2,3.59904E-2,-2.8347438E-3,-2.0655824E-2,1.3092041E-3,-2.6156107E-1,-3.037262E-3,1.1052704E-2,-8.234978E-3,2.5172425E-2,4.5181275E-3,-1.0894775E-2,-1.16155244E-1,3.3784486E-2,6.728821E-2,-3.9184573E-3,5.9447482E-2,2.6367188E-3,1.35589605E-2,-5.2566533E-3,3.8648334E-3,-9.3550876E-2,-2.4151612E-2,-1.4286805E-2,4.195077E-3,-1.4976197E-2,4.145279E-2,3.436432E-2,3.6249799E-3,6.5017706E-3,-2.2778322E-3,1.1345673E-2,-2.313614E-3],"categories":[],"categories_nodes":[],"categories_segments":[],"categories_sizes":[],"default_left":[0,0,0,0,0,0,0,0,0,0,0,0,0,0,0,0,0,0,0,0,0,0,0,0,0,0,0,0,0,0,0,0,0,0,0,0,0,0,0,0,0,0,0,0,0,0,0,0,0,0,0,0,0],"id":30,"left_children":[1,3,5,7,9,11,13,15,17,19,21,23,25,27,29,31,33,-1,-1,-1,35,37,39,-1,-1,41,-1,-1,43,-1,-1,45,-1,47,-1,-1,-1,-1,-1,-1,49,-1,-1,-1,51,-1,-1,-1,-1,-1,-1,-1,-1],"loss_changes":[3.5938606E-2,6.0117904E-2,1.1697222E-1,4.906461E-2,9.151857E-2,2.81156E-2,6.1295214E-3,1.3464622E-1,1.960943E-1,1.202181E-2,3.3401204E-3,4.475992E-3,4.3468848E-2,3.2504674E-3,4.5863194E-3,2.5239018E-1,7.7206604E-2,0E0,0E0,0E0,4.7159396E-2,3.540225E-4,9.533166E-4,0E0,0E0,2.2033304E-3,0E0,0E0,4.1165114E-3,0E0,0E0,1.11614935E-1,0E0,1.6142499E-2,0E0,0E0,0E0,0E0,0E0,0E0,1.5927929E-3,0E0,0E0,0E0,3.0942028E-3,0E0,0E0,0E0,0E0,0E0,0E0,0E0,0E0],"parents":[2147483647,0,0,1,1,2,2,3,3,4,4,5,5,6,6,7,7,8,8,9,9,10,10,11,11,12,12,13,13,14,14,15,15,16,16,20,20,21,21,22,22,25,25,28,28,31,31,33,33,40,40,44,44],"right_children":[2,4,6,8,10,12,14,16,18,20,22,24,26,28,30,32,34,-1,-1,-1,36,38,40,-1,-1,42,-1,-1,44,-1,-1,46,-1,48,-1,-1,-1,-1,-1,-1,50,-1,-1,-1,52,-1,-1,-1,-1,-1,-1,-1,-1],"split_conditions":[4.9E1,3.4E1,5.4E1,3.3E1,3.9E1,5.6E1,4E0,3E0,2E0,3.3E1,4.2E1,5.1E1,5.7E1,2E0,4E0,5.9E1,3.2E1,4.673767E-2,-7.7861786E-2,7.692948E-2,3.8E1,4E1,4.5E1,-2.0655824E-2,1.3092041E-3,5.3E1,-3.037262E-3,1.1052704E-2,2E0,2.5172425E-2,4.5181275E-3,2.9E1,-1.16155244E-1,7E0,6.728821E-2,-3.9184573E-3,5.9447482E-2,2.6367188E-3,1.35589605E-2,-5.2566533E-3,4.7E1,-9.3550876E-2,-2.4151612E-2,-1.4286805E-2,5.8E1,-1.4976197E-2,4.145279E-2,3.436432E-2,3.6249799E-3,6.5017706E-3,-2.2778322E-3,1.1345673E-2,-2.313614E-3],"split_indices":[1,1,1,1,0,0,2,2,2,0,0,1,0,3,3,0,0,0,0,0,0,0,0,0,0,1,0,0,2,0,0,0,0,0,0,0,0,0,0,0,0,0,0,0,0,0,0,0,0,0,0,0,0],"split_type":[0,0,0,0,0,0,0,0,0,0,0,0,0,0,0,0,0,0,0,0,0,0,0,0,0,0,0,0,0,0,0,0,0,0,0,0,0,0,0,0,0,0,0,0,0,0,0,0,0,0,0,0,0],"sum_hessian":[6.4E1,4.6E1,1.8E1,3.2E1,1.4E1,6E0,1.2E1,2.9E1,3E0,4E0,1E1,3E0,3E0,8E0,4E0,1.8E1,1.1E1,1E0,2E0,1E0,3E0,2E0,8E0,2E0,1E0,2E0,1E0,1E0,7E0,1E0,3E0,1.7E1,1E0,9E0,2E0,2E0,1E0,1E0,1E0,2E0,6E0,1E0,1E0,1E0,6E0,1.4E1,3E0,1E0,8E0,2E0,4E0,1E0,5E0],"tree_param":{"num_deleted":"0","num_feature":"4","num_nodes":"53","size_leaf_vector":"1"}},{"base_weights":[-2.1775465E-3,3.9986245E-2,-1.2478523E-2,-4.4029236E-2,6.959381E-2,-7.8754775E-2,4.766065E-3,7.221985E-2,-5.8916476E-2,3.5614015E-3,7.468838E-2,-1.6023424E-2,-7.220917E-2,1.2682451E-1,-1.8454887E-2,4.4105533E-3,2.808838E-2,2.4637496E-2,9.732056E-3,-4.5170598E-2,4.3927874E-2,2.0511246E-1,1.6830444E-2,-1.0744985E-1,2.3329515E-2,3.0700685E-3,1.6607666E-2,1.7951204E-2,7.0077516E-2,1.643219E-2,-1.4550019E-2,-2.8190613E-3,-1.8178341E-1,8.1292726E-2,-8.598328E-3,-4.2037964E-3,1.8842698E-3,1.4022829E-3,-7.71904E-2,-7.8884125E-2,4.167839E-3],"categories":[],"categories_nodes":[],"categories_segments":[],"categories_sizes":[],"default_left":[0,0,0,0,0,0,0,0,0,0,0,0,0,0,0,0,0,0,0,0,0,0,0,0,0,0,0,0,0,0,0,0,0,0,0,0,0,0,0,0,0],"id":31,"left_children":[1,3,5,7,9,11,13,15,-1,-1,17,19,-1,21,23,-1,-1,-1,-1,-1,25,27,29,31,33,-1,-1,-1,-1,-1,-1,35,37,-1,39,-1,-1,-1,-1,-1,-1],"loss_changes":[2.8730303E-2,3.5401583E-2,6.0949396E-2,8.502951E-2,2.054058E-3,1.0789076E-1,1.2421601E-1,2.3175478E-3,0E0,0E0,1.6349927E-4,7.92096E-2,0E0,5.6826323E-2,1.40095E-1,0E0,0E0,0E0,0E0,0E0,2.1296013E-3,2.5718063E-3,1.2572018E-2,9.281848E-2,2.07907E-1,0E0,0E0,0E0,0E0,0E0,0E0,6.991796E-4,9.976897E-2,0E0,1.4094721E-1,0E0,0E0,0E0,0E0,0E0,0E0],"parents":[2147483647,0,0,1,1,2,2,3,3,4,4,5,5,6,6,7,7,10,10,11,11,13,13,14,14,20,20,21,21,22,22,23,23,24,24,31,31,32,32,34,34],"right_children":[2,4,6,8,10,12,14,16,-1,-1,18,20,-1,22,24,-1,-1,-1,-1,-1,26,28,30,32,34,-1,-1,-1,-1,-1,-1,36,38,-1,40,-1,-1,-1,-1,-1,-1],"split_conditions":[1.6E1,6E0,2.9E1,5E0,1E0,2.7E1,3.4E1,3E0,-5.8916476E-2,3.5614015E-3,1.3E1,1.7E1,-7.220917E-2,2E0,2E0,4.4105533E-3,2.808838E-2,2.4637496E-2,9.732056E-3,-4.5170598E-2,2E0,3.2E1,3.3E1,5.6E1,3.2E1,3.0700685E-3,1.6607666E-2,1.7951204E-2,7.0077516E-2,1.643219E-2,-1.4550019E-2,4.5E1,2E0,8.1292726E-2,3.5E1,-4.2037964E-3,1.8842698E-3,1.4022829E-3,-7.71904E-2,-7.8884125E-2,4.167839E-3],"split_indices":[1,0,1,0,1,0,0,0,0,0,1,0,0,2,2,0,0,0,0,0,3,1,0,0,1,0,0,0,0,0,0,0,3,0,0,0,0,0,0,0,0],"split_type":[0,0,0,0,0,0,0,0,0,0,0,0,0,0,0,0,0,0,0,0,0,0,0,0,0,0,0,0,0,0,0,0,0,0,0,0,0,0,0,0,0],"sum_hessian":[6.4E1,1.2E1,5.2E1,3E0,9E0,1E1,4.2E1,2E0,1E0,1E0,8E0,8E0,2E0,6E0,3.6E1,1E0,1E0,6E0,2E0,2E0,6E0,3E0,3E0,1.1E1,2.5E1,2E0,4E0,1E0,2E0,2E0,1E0,5E0,6E0,2E0,2.3E1,2E0,3E0,2E0,4E0,1E0,2.2E1],"tree_param":{"num_deleted":"0","num_feature":"4","num_nodes":"41","size_leaf_vector":"1"}},{"base_weights":[-2.5678196E-3,2.887315E-2,-1.0231306E-2,-3.7425995E-2,5.2505493E-2,-6.400785E-2,3.7634207E-3,6.138611E-2,-5.007935E-2,3.0281069E-3,5.6096394E-2,-1.4046563E-2,-5.7766724E-2,1.01620264E-1,-1.4851751E-2,3.7490847E-3,2.3874665E-2,3.6575317E-2,2.4884034E-2,-3.613739E-2,3.3564977E-2,1.6558456E-1,1.22509E-2,-6.7050934E-2,-2.8474596E-3,4.2572024E-4,1.2659455E-2,2.4566653E-3,1.2623292E-2,1.5259553E-2,5.6060795E-2,1.3145448E-2,-1.236763E-2,-8.172226E-2,3.5126343E-2,-6.310425E-2,-1.0488739E-2,6.503297E-2,2.9716825E-3],"categories":[],"categories_nodes":[],"categories_segments":[],"categories_sizes":[],"default_left":[0,0,0,0,0,0,0,0,0,0,0,0,0,0,0,0,0,0,0,0,0,0,0,0,0,0,0,0,0,0,0,0,0,0,0,0,0,0,0],"id":32,"left_children":[1,3,5,7,9,11,13,15,-1,-1,17,19,-1,21,23,-1,-1,25,-1,-1,27,29,31,-1,33,-1,-1,-1,-1,-1,-1,-1,-1,35,37,-1,-1,-1,-1],"loss_changes":[1.5956994E-2,2.2333527E-2,4.012805E-2,6.1433963E-2,9.567458E-4,6.794186E-2,7.9838976E-2,1.6742414E-3,0E0,0E0,1.6835313E-3,4.9640864E-2,0E0,3.7986584E-2,9.203792E-2,0E0,0E0,1.3238695E-3,0E0,0E0,1.1675572E-3,2.619475E-4,8.5588265E-3,0E0,1.1069694E-1,0E0,0E0,0E0,0E0,0E0,0E0,0E0,0E0,6.4819604E-2,1.1238647E-1,0E0,0E0,0E0,0E0],"parents":[2147483647,0,0,1,1,2,2,3,3,4,4,5,5,6,6,7,7,10,10,11,11,13,13,14,14,17,17,20,20,21,21,22,22,24,24,33,33,34,34],"right_children":[2,4,6,8,10,12,14,16,-1,-1,18,20,-1,22,24,-1,-1,26,-1,-1,28,30,32,-1,34,-1,-1,-1,-1,-1,-1,-1,-1,36,38,-1,-1,-1,-1],"split_conditions":[1.6E1,6E0,2.9E1,5E0,1E0,2.7E1,3.4E1,3E0,-5.007935E-2,3.0281069E-3,3E0,1.7E1,-5.7766724E-2,2E0,3.5E1,3.7490847E-3,2.3874665E-2,8E0,2.4884034E-2,-3.613739E-2,2E0,3.2E1,3.3E1,-6.7050934E-2,2E0,4.2572024E-4,1.2659455E-2,2.4566653E-3,1.2623292E-2,1.5259553E-2,5.6060795E-2,1.3145448E-2,-1.236763E-2,3.2E1,3.2E1,-6.310425E-2,-1.0488739E-2,6.503297E-2,2.9716825E-3],"split_indices":[1,0,1,0,1,0,0,0,0,0,3,0,0,2,0,0,0,0,0,0,3,1,0,0,2,0,0,0,0,0,0,0,0,1,1,0,0,0,0],"split_type":[0,0,0,0,0,0,0,0,0,0,0,0,0,0,0,0,0,0,0,0,0,0,0,0,0,0,0,0,0,0,0,0,0,0,0,0,0,0,0],"sum_hessian":[6.4E1,1.2E1,5.2E1,3E0,9E0,1E1,4.2E1,2E0,1E0,1E0,8E0,8E0,2E0,6E0,3.6E1,1E0,1E0,6E0,2E0,2E0,6E0,3E0,3E0,1E0,3.5E1,1E0,5E0,2E0,4E0,1E0,2E0,2E0,1E0,1.1E1,2.4E1,2E0,9E0,2E0,2.2E1],"tree_param":{"num_deleted":"0","num_feature":"4","num_nodes":"39","size_leaf_vector":"1"}},{"base_weights":[-2.7346096E-3,7.7495133E-3,-2.2216465E-2,-1.196081E-2,6.617598E-2,-6.587728E-2,2.3295721E-2,2.1634616E-2,-3.2188416E-2,1.1877747E-1,1.914978E-2,-2.0409394E-2,-5.864334E-2,1.7077256E-2,-8.856637E-3,-3.1814575E-2,4.085083E-2,-2.8910829E-2,-2.0360446E-2,6.604004E-2,4.9459077E-2,-2.8889973E-3,2.854309E-2,-2.1823883E-2,-6.5112645E-3,1.2634278E-3,-3.5209658E-3,5.2174885E-2,-4.2567447E-2,2.1780396E-2,2.9256186E-2,2.8957367E-2,-5.1542282E-2,4.646759E-2,-4.5623784E-3,-3.2295228E-3,1.929474E-3,1.1695862E-3,1.0118866E-2,-3.786087E-3,4.2800903E-3,3.1860352E-3,2.0292664E-2,3.616333E-4,9.783555E-3,1.965332E-3,1.0600282E-2,-4.621277E-2,-4.6913913E-3,1.6845703E-3,4.119873E-5],"categories":[],"categories_nodes":[],"categories_segments":[],"categories_sizes":[],"default_left":[0,0,0,0,0,0,0,0,0,0,0,0,0,0,0,0,0,0,0,0,0,0,0,0,0,0,0,0,0,0,0,0,0,0,0,0,0,0,0,0,0,0,0,0,0,0,0,0,0,0,0],"id":33,"left_children":[1,3,5,7,9,11,13,15,17,19,21,23,-1,-1,25,27,29,-1,31,33,-1,35,37,-1,39,-1,-1,41,-1,-1,43,45,47,-1,-1,-1,-1,-1,-1,-1,49,-1,-1,-1,-1,-1,-1,-1,-1,-1,-1],"loss_changes":[1.34484265E-2,5.0310515E-2,4.7237936E-2,2.31217E-2,2.493557E-2,6.672236E-2,1.3478968E-2,1.4651836E-2,1.3979629E-2,1.2647137E-3,1.5315807E-3,6.8001775E-3,0E0,0E0,3.1287194E-4,4.438437E-2,1.5573185E-3,0E0,3.0711103E-2,3.1231739E-2,0E0,2.894652E-4,5.0758896E-4,0E0,6.47338E-4,0E0,0E0,1.2098551E-3,0E0,0E0,8.078478E-4,9.115818E-4,4.1753512E-2,0E0,0E0,0E0,0E0,0E0,0E0,0E0,2.1353597E-5,0E0,0E0,0E0,0E0,0E0,0E0,0E0,0E0,0E0,0E0],"parents":[2147483647,0,0,1,1,2,2,3,3,4,4,5,5,6,6,7,7,8,8,9,9,10,10,11,11,14,14,15,15,16,16,18,18,19,19,21,21,22,22,24,24,27,27,30,30,31,31,32,32,40,40],"right_children":[2,4,6,8,10,12,14,16,18,20,22,24,-1,-1,26,28,30,-1,32,34,-1,36,38,-1,40,-1,-1,42,-1,-1,44,46,48,-1,-1,-1,-1,-1,-1,-1,50,-1,-1,-1,-1,-1,-1,-1,-1,-1,-1],"split_conditions":[4.4E1,3.4E1,5.7E1,1.6E1,3.9E1,5.6E1,6.1E1,6E0,1.7E1,3.8E1,2E0,4.3E1,-5.864334E-2,1.7077256E-2,6.2E1,5E0,7E0,-2.8910829E-2,2.7E1,3.3E1,4.9459077E-2,4.5E1,4E1,-2.1823883E-2,5.1E1,1.2634278E-3,-3.5209658E-3,3E0,-4.2567447E-2,2.1780396E-2,8E0,2E0,2.9E1,4.646759E-2,-4.5623784E-3,-3.2295228E-3,1.929474E-3,1.1695862E-3,1.0118866E-2,-3.786087E-3,5.4E1,3.1860352E-3,2.0292664E-2,3.616333E-4,9.783555E-3,1.965332E-3,1.0600282E-2,-4.621277E-2,-4.6913913E-3,1.6845703E-3,4.119873E-5],"split_indices":[1,1,0,1,0,0,0,0,0,0,3,0,0,0,0,0,0,0,0,0,0,0,0,0,1,0,0,0,0,0,0,3,0,0,0,0,0,0,0,0,0,0,0,0,0,0,0,0,0,0,0],"split_type":[0,0,0,0,0,0,0,0,0,0,0,0,0,0,0,0,0,0,0,0,0,0,0,0,0,0,0,0,0,0,0,0,0,0,0,0,0,0,0,0,0,0,0,0,0,0,0,0,0,0,0],"sum_hessian":[6.4E1,4.2E1,2.2E1,3.2E1,1E1,1.1E1,1.1E1,1.2E1,2E1,4E0,6E0,9E0,2E0,5E0,6E0,3E0,9E0,2E0,1.8E1,3E0,1E0,2E0,4E0,1E0,8E0,1E0,5E0,2E0,1E0,1E0,8E0,7E0,1.1E1,1E0,2E0,1E0,1E0,1E0,3E0,5E0,3E0,1E0,1E0,1E0,7E0,2E0,5E0,2E0,9E0,2E0,1E0],"tree_param":{"num_deleted":"0","num_feature":"4","num_nodes":"51","size_leaf_vector":"1"}},{"base_weights":[-2.233652E-3,6.5158578E-3,-1.8494315E-2,-1.0022713E-2,5.5539217E-2,-5.2991867E-2,1.7544428E-2,-1.1159261E-3,-7.431793E-2,1.0141907E-1,1.4833723E-2,-1.6675567E-2,-1.5638225E-1,4.269282E-2,-6.5176827E-3,-1.0107422E-1,1.3734041E-2,2.1508027E-2,-1.4688618E-1,5.6705475E-2,4.204102E-2,-2.4515789E-3,2.223816E-2,-1.8550873E-2,-4.7870213E-3,-5.756836E-2,-1.280365E-2,6.233025E-3,1.7304992E-2,1.0757446E-3,-2.6397707E-3,3.6310833E-2,-7.6984406E-2,-6.352539E-3,5.296326E-2,-9.808731E-3,-5.6290057E-2,3.949814E-2,-3.6499023E-3,-2.7442933E-3,1.6410828E-3,9.933473E-4,7.842637E-3,-2.8400423E-3,3.4294128E-3,1.3673401E-2,2.6664734E-3,1.5951975E-3,-1.6228639E-2,1.348877E-3,3.4332275E-5],"categories":[],"categories_nodes":[],"categories_segments":[],"categories_sizes":[],"default_left":[0,0,0,0,0,0,0,0,0,0,0,0,0,0,0,0,0,0,0,0,0,0,0,0,0,0,0,0,0,0,0,0,0,0,0,0,0,0,0,0,0,0,0,0,0,0,0,0,0,0,0],"id":34,"left_children":[1,3,5,7,9,11,13,15,17,19,21,23,25,27,29,31,33,-1,35,37,-1,39,41,-1,43,-1,-1,-1,-1,-1,-1,45,-1,47,-1,-1,-1,-1,-1,-1,-1,-1,-1,-1,49,-1,-1,-1,-1,-1,-1],"loss_changes":[9.368241E-3,3.542003E-2,2.9524425E-2,1.8814972E-2,1.903876E-2,4.2449307E-2,7.539739E-3,4.5919478E-2,5.2913934E-2,7.095076E-4,9.50434E-4,5.0729364E-3,3.9237738E-3,7.727239E-4,1.9291401E-4,9.479363E-2,8.941958E-2,0E0,7.824041E-3,2.225097E-2,0E0,2.0917591E-4,2.8289063E-4,0E0,3.7852593E-4,0E0,0E0,0E0,0E0,0E0,0E0,3.5728095E-4,0E0,1.4216477E-2,0E0,0E0,0E0,0E0,0E0,0E0,0E0,0E0,0E0,0E0,1.363167E-5,0E0,0E0,0E0,0E0,0E0,0E0],"parents":[2147483647,0,0,1,1,2,2,3,3,4,4,5,5,6,6,7,7,8,8,9,9,10,10,11,11,12,12,13,13,14,14,15,15,16,16,18,18,19,19,21,21,22,22,24,24,31,31,33,33,44,44],"right_children":[2,4,6,8,10,12,14,16,18,20,22,24,26,28,30,32,34,-1,36,38,-1,40,42,-1,44,-1,-1,-1,-1,-1,-1,46,-1,48,-1,-1,-1,-1,-1,-1,-1,-1,-1,-1,50,-1,-1,-1,-1,-1,-1],"split_conditions":[4.4E1,3.4E1,5.7E1,3.3E1,3.9E1,5.6E1,6.1E1,2E0,2E0,3.8E1,2E0,4.3E1,5.3E1,5.8E1,6.2E1,5.9E1,3.3E1,2.1508027E-2,3.4E1,3.3E1,4.204102E-2,4.5E1,4E1,-1.8550873E-2,5.1E1,-5.756836E-2,-1.280365E-2,6.233025E-3,1.7304992E-2,1.0757446E-3,-2.6397707E-3,3.3E1,-7.6984406E-2,2.7E1,5.296326E-2,-9.808731E-3,-5.6290057E-2,3.949814E-2,-3.6499023E-3,-2.7442933E-3,1.6410828E-3,9.933473E-4,7.842637E-3,-2.8400423E-3,5.4E1,1.3673401E-2,2.6664734E-3,1.5951975E-3,-1.6228639E-2,1.348877E-3,3.4332275E-5],"split_indices":[1,1,0,1,0,0,0,2,2,0,3,0,1,0,0,0,0,0,0,0,0,0,0,0,1,0,0,0,0,0,0,0,0,1,0,0,0,0,0,0,0,0,0,0,0,0,0,0,0,0,0],"split_type":[0,0,0,0,0,0,0,0,0,0,0,0,0,0,0,0,0,0,0,0,0,0,0,0,0,0,0,0,0,0,0,0,0,0,0,0,0,0,0,0,0,0,0,0,0,0,0,0,0,0,0],"sum_hessian":[6.4E1,4.2E1,2.2E1,3.2E1,1E1,1.1E1,1.1E1,2.9E1,3E0,4E0,6E0,9E0,2E0,5E0,6E0,3E0,2.6E1,1E0,2E0,3E0,1E0,2E0,4E0,1E0,8E0,1E0,1E0,3E0,2E0,1E0,5E0,2E0,1E0,2.4E1,2E0,1E0,1E0,1E0,2E0,1E0,1E0,1E0,3E0,5E0,3E0,1E0,1E0,2E1,4E0,2E0,1E0],"tree_param":{"num_deleted":"0","num_feature":"4","num_nodes":"51","size_leaf_vector":"1"}},{"base_weights":[-2.3297823E-3,4.9928175E-3,-1.5918566E-2,-9.047537E-3,4.665999E-2,-4.4624966E-2,1.411438E-2,6.373269E-4,-5.2735645E-2,8.656921E-2,1.1487688E-2,-1.3672638E-2,-1.329244E-1,3.3810932E-2,-4.7847205E-3,-1.1201278E-2,4.5912426E-2,-1.1549225E-1,3.9157107E-2,4.865265E-2,3.5735324E-2,-2.085368E-3,1.7333984E-2,-1.5767671E-2,-3.5120647E-3,-4.893265E-2,-1.0883331E-2,1.3648987E-2,1.48269655E-2,9.155274E-4,-1.9798279E-3,3.7914459E-3,-3.372498E-2,1.9935608E-2,1.9029617E-2,5.9254963E-2,-7.552262E-2,3.357239E-2,-2.9205324E-3,-2.332306E-3,1.3938905E-3,8.44574E-4,6.0779573E-3,-2.1305084E-3,2.7503967E-3,5.7525635E-3,5.600739E-3,1.2983704E-2,-7.928949E-4,1.3169861E-2,-8.337021E-3,2.2659302E-3,2.4398806E-2,1.0803223E-3,2.975464E-5,-2.4879456E-3,5.0765993E-3],"categories":[],"categories_nodes":[],"categories_segments":[],"categories_sizes":[],"default_left":[0,0,0,0,0,0,0,0,0,0,0,0,0,0,0,0,0,0,0,0,0,0,0,0,0,0,0,0,0,0,0,0,0,0,0,0,0,0,0,0,0,0,0,0,0,0,0,0,0,0,0,0,0,0,0,0,0],"id":35,"left_children":[1,3,5,7,9,11,13,15,17,19,21,23,25,27,29,31,33,35,-1,37,-1,39,41,-1,43,-1,-1,45,-1,-1,-1,47,-1,-1,49,51,-1,-1,-1,-1,-1,-1,-1,-1,53,55,-1,-1,-1,-1,-1,-1,-1,-1,-1,-1,-1],"loss_changes":[6.5473183E-3,2.55781E-2,2.0459022E-2,1.3996352E-2,1.4446212E-2,3.097945E-2,4.6287416E-3,1.5522109E-2,8.407887E-2,3.752485E-4,5.916125E-4,3.7664766E-3,2.8344393E-3,1.2140675E-3,1.1968617E-4,3.5328563E-2,2.048417E-3,1.3396332E-1,0E0,1.5862778E-2,0E0,1.5101109E-4,1.5536335E-4,0E0,2.2185175E-4,0E0,0E0,5.1169307E-5,0E0,0E0,0E0,5.4500643E-3,0E0,0E0,5.8775777E-3,2.809571E-3,0E0,0E0,0E0,0E0,0E0,0E0,0E0,0E0,8.664152E-6,6.1098475E-4,0E0,0E0,0E0,0E0,0E0,0E0,0E0,0E0,0E0,0E0,0E0],"parents":[2147483647,0,0,1,1,2,2,3,3,4,4,5,5,6,6,7,7,8,8,9,9,10,10,11,11,12,12,13,13,14,14,15,15,16,16,17,17,19,19,21,21,22,22,24,24,27,27,31,31,34,34,35,35,44,44,45,45],"right_children":[2,4,6,8,10,12,14,16,18,20,22,24,26,28,30,32,34,36,-1,38,-1,40,42,-1,44,-1,-1,46,-1,-1,-1,48,-1,-1,50,52,-1,-1,-1,-1,-1,-1,-1,-1,54,56,-1,-1,-1,-1,-1,-1,-1,-1,-1,-1,-1],"split_conditions":[4.4E1,3.4E1,5.7E1,3.4E1,3.9E1,5.6E1,6.1E1,2.9E1,3E0,3.8E1,2E0,4.3E1,5.3E1,3E0,6.2E1,2.7E1,2E0,3.1E1,3.9157107E-2,3.3E1,3.5735324E-2,4.5E1,4E1,-1.5767671E-2,5.1E1,-4.893265E-2,-1.0883331E-2,5.8E1,1.48269655E-2,9.155274E-4,-1.9798279E-3,5E0,-3.372498E-2,1.9935608E-2,3.3E1,2E0,-7.552262E-2,3.357239E-2,-2.9205324E-3,-2.332306E-3,1.3938905E-3,8.44574E-4,6.0779573E-3,-2.1305084E-3,5.4E1,2E0,5.600739E-3,1.2983704E-2,-7.928949E-4,1.3169861E-2,-8.337021E-3,2.2659302E-3,2.4398806E-2,1.0803223E-3,2.975464E-5,-2.4879456E-3,5.0765993E-3],"split_indices":[1,1,0,0,0,0,0,1,3,0,3,0,1,3,0,1,2,1,0,0,0,0,0,0,1,0,0,0,0,0,0,0,0,0,0,2,0,0,0,0,0,0,0,0,0,2,0,0,0,0,0,0,0,0,0,0,0],"split_type":[0,0,0,0,0,0,0,0,0,0,0,0,0,0,0,0,0,0,0,0,0,0,0,0,0,0,0,0,0,0,0,0,0,0,0,0,0,0,0,0,0,0,0,0,0,0,0,0,0,0,0,0,0,0,0,0,0],"sum_hessian":[6.4E1,4.2E1,2.2E1,3.2E1,1E1,1.1E1,1.1E1,2.7E1,5E0,4E0,6E0,9E0,2E0,5E0,6E0,2.2E1,5E0,4E0,1E0,3E0,1E0,2E0,4E0,1E0,8E0,1E0,1E0,3E0,2E0,1E0,5E0,2E1,2E0,2E0,3E0,2E0,2E0,1E0,2E0,1E0,1E0,1E0,3E0,5E0,3E0,2E0,1E0,2E0,1.8E1,2E0,1E0,1E0,1E0,2E0,1E0,1E0,1E0],"tree_param":{"num_deleted":"0","num_feature":"4","num_nodes":"57","size_leaf_vector":"1"}},{"base_weights":[-1.4563927E-3,5.0284807E-3,-1.3516965E-2,-6.528681E-3,3.924283E-2,-3.7618E-2,1.17104845E-2,1.326693E-2,-1.8472217E-2,7.38739E-2,8.900234E-3,-1.1245728E-2,-1.12986244E-1,2.7502695E-2,-3.4986224E-3,-3.453827E-2,3.1062316E-2,-2.328949E-2,-8.159035E-3,4.171753E-2,3.0374909E-2,-1.7700195E-3,1.3522339E-2,-1.3403321E-2,-2.5668675E-3,-4.1592408E-2,-9.251405E-3,1.1600494E-2,1.186142E-2,7.781983E-4,-1.4839172E-3,3.4622192E-2,-3.630295E-2,1.485672E-2,1.6076224E-2,2.1614075E-2,-2.7327856E-2,2.8536988E-2,-2.3376464E-3,-1.9821168E-3,1.185608E-3,7.18689E-4,1.5705109E-2,-1.5968324E-3,2.2087097E-3,4.887899E-3,4.760742E-3,5.195618E-4,1.5060426E-2,9.864807E-4,5.2978517E-3,2.8326416E-3,9.427643E-3,-2.6980592E-2,-1.7438509E-3,6.848145E-3,1.7166139E-3,8.666992E-4,2.5177003E-5,-2.1148683E-3,4.3144226E-3],"categories":[],"categories_nodes":[],"categories_segments":[],"categories_sizes":[],"default_left":[0,0,0,0,0,0,0,0,0,0,0,0,0,0,0,0,0,0,0,0,0,0,0,0,0,0,0,0,0,0,0,0,0,0,0,0,0,0,0,0,0,0,0,0,0,0,0,0,0,0,0,0,0,0,0,0,0,0,0,0,0],"id":36,"left_children":[1,3,5,7,9,11,13,15,17,19,21,23,25,27,29,31,33,-1,35,37,-1,39,41,-1,43,-1,-1,45,-1,-1,-1,47,-1,-1,49,51,53,-1,-1,-1,-1,-1,55,-1,57,59,-1,-1,-1,-1,-1,-1,-1,-1,-1,-1,-1,-1,-1,-1,-1],"loss_changes":[5.151703E-3,1.7259298E-2,1.4424702E-2,8.047246E-3,1.0901269E-2,2.2580972E-2,2.9784464E-3,1.2132094E-2,1.217916E-2,1.7764233E-4,3.69168E-4,2.7868352E-3,2.0471402E-3,6.896723E-4,7.45758E-5,2.8111279E-2,1.9703116E-3,0E0,1.1434259E-2,1.1317626E-2,0E0,1.0914449E-4,8.381158E-5,0E0,1.3020588E-4,0E0,0E0,3.7048012E-5,0E0,0E0,0E0,1.4502744E-3,0E0,0E0,8.365931E-5,6.5866625E-4,1.5641227E-2,0E0,0E0,0E0,0E0,0E0,1.5378115E-4,0E0,5.5394103E-6,4.4136777E-4,0E0,0E0,0E0,0E0,0E0,0E0,0E0,0E0,0E0,0E0,0E0,0E0,0E0,0E0,0E0],"parents":[2147483647,0,0,1,1,2,2,3,3,4,4,5,5,6,6,7,7,8,8,9,9,10,10,11,11,12,12,13,13,14,14,15,15,16,16,18,18,19,19,21,21,22,22,24,24,27,27,31,31,34,34,35,35,36,36,42,42,44,44,45,45],"right_children":[2,4,6,8,10,12,14,16,18,20,22,24,26,28,30,32,34,-1,36,38,-1,40,42,-1,44,-1,-1,46,-1,-1,-1,48,-1,-1,50,52,54,-1,-1,-1,-1,-1,56,-1,58,60,-1,-1,-1,-1,-1,-1,-1,-1,-1,-1,-1,-1,-1,-1,-1],"split_conditions":[4.4E1,3.4E1,5.7E1,1.6E1,3.9E1,5.6E1,6.1E1,6E0,1.7E1,3.8E1,2E0,4.3E1,5.3E1,3E0,6.2E1,5E0,9E0,-2.328949E-2,2.7E1,3.3E1,3.0374909E-2,4.5E1,4E1,-1.3403321E-2,5.1E1,-4.1592408E-2,-9.251405E-3,5.8E1,1.186142E-2,7.781983E-4,-1.4839172E-3,3E0,-3.630295E-2,1.485672E-2,1E0,2.2E1,2.9E1,2.8536988E-2,-2.3376464E-3,-1.9821168E-3,1.185608E-3,7.18689E-4,4.2E1,-1.5968324E-3,5.4E1,2E0,4.760742E-3,5.195618E-4,1.5060426E-2,9.864807E-4,5.2978517E-3,2.8326416E-3,9.427643E-3,-2.6980592E-2,-1.7438509E-3,6.848145E-3,1.7166139E-3,8.666992E-4,2.5177003E-5,-2.1148683E-3,4.3144226E-3],"split_indices":[1,1,0,1,0,0,0,0,0,0,3,0,1,3,0,0,0,0,0,0,0,0,0,0,1,0,0,0,0,0,0,0,0,0,1,0,0,0,0,0,0,0,0,0,0,2,0,0,0,0,0,0,0,0,0,0,0,0,0,0,0],"split_type":[0,0,0,0,0,0,0,0,0,0,0,0,0,0,0,0,0,0,0,0,0,0,0,0,0,0,0,0,0,0,0,0,0,0,0,0,0,0,0,0,0,0,0,0,0,0,0,0,0,0,0,0,0,0,0,0,0,0,0,0,0],"sum_hessian":[6.4E1,4.2E1,2.2E1,3.2E1,1E1,1.1E1,1.1E1,1.2E1,2E1,4E0,6E0,9E0,2E0,5E0,6E0,3E0,9E0,2E0,1.8E1,3E0,1E0,2E0,4E0,1E0,8E0,1E0,1E0,3E0,2E0,1E0,5E0,2E0,1E0,3E0,6E0,7E0,1.1E1,1E0,2E0,1E0,1E0,1E0,3E0,5E0,3E0,2E0,1E0,1E0,1E0,1E0,5E0,4E0,3E0,2E0,9E0,1E0,2E0,2E0,1E0,1E0,1E0],"tree_param":{"num_deleted":"0","num_feature":"4","num_nodes":"61","size_leaf_vector":"1"}},{"base_weights":[-1.3459426E-3,3.4254359E-3,-1.3077986E-2,-5.764123E-3,2.3414103E-2,-5.0200325E-2,7.916964E-3,-1.6780507E-2,1.4912923E-2,6.30249E-2,3.2806396E-3,-6.197993E-2,3.0715943E-3,1.725769E-2,-2.5547573E-3,-4.8537483E-4,-5.3846743E-2,-1.0397339E-2,9.430949E-2,3.5751343E-2,2.5817873E-2,1.4292399E-2,-7.544623E-4,-2.094078E-2,-9.603882E-2,3.8848878E-3,1.013794E-2,6.591797E-4,-1.1138916E-3,9.629991E-3,-4.588318E-2,3.0853271E-2,-4.303996E-2,8.8943485E-3,3.3544924E-2,2.4256898E-2,-1.8707275E-3,6.1111455E-4,5.8204653E-3,-2.8121949E-3,3.047398E-3,-1.1393738E-2,-2.6016235E-3,-3.535309E-2,-7.86438E-3,-1.7967225E-3,7.850647E-3,-1.6057696E-3,1.4896546E-2,1.55502325E-2,-2.8720094E-2,8.5296633E-4,1.457367E-2,-1.760193E-2,5.26886E-3,3.7323E-3,-9.5947273E-4,-1.19133E-3,2.0599366E-5,6.958008E-4,3.666687E-3],"categories":[],"categories_nodes":[],"categories_segments":[],"categories_sizes":[],"default_left":[0,0,0,0,0,0,0,0,0,0,0,0,0,0,0,0,0,0,0,0,0,0,0,0,0,0,0,0,0,0,0,0,0,0,0,0,0,0,0,0,0,0,0,0,0,0,0,0,0,0,0,0,0,0,0,0,0,0,0,0,0],"id":37,"left_children":[1,3,5,7,9,11,13,15,17,19,21,23,-1,25,27,29,-1,31,33,35,-1,37,39,41,43,45,-1,-1,-1,47,49,51,53,-1,-1,-1,-1,-1,-1,-1,55,-1,57,-1,-1,-1,59,-1,-1,-1,-1,-1,-1,-1,-1,-1,-1,-1,-1,-1,-1],"loss_changes":[3.6833691E-3,8.768252E-3,1.5205685E-2,7.7671935E-3,1.1755775E-2,5.61822E-3,1.3156645E-3,5.824277E-2,2.509514E-2,6.4441934E-5,4.9955235E-4,6.3753594E-3,0E0,1.4165938E-3,4.6685425E-5,1.0085378E-2,0E0,1.4793201E-2,8.096546E-5,8.079509E-3,0E0,1.4832144E-4,3.234982E-4,1.1510683E-3,1.4782883E-3,2.428069E-4,0E0,0E0,0E0,1.1060009E-2,2.4447277E-2,2.3443578E-3,6.714942E-3,0E0,0E0,0E0,0E0,0E0,0E0,0E0,4.5047275E-4,0E0,1.1243363E-5,0E0,0E0,0E0,6.837607E-5,0E0,0E0,0E0,0E0,0E0,0E0,0E0,0E0,0E0,0E0,0E0,0E0,0E0,0E0],"parents":[2147483647,0,0,1,1,2,2,3,3,4,4,5,5,6,6,7,7,8,8,9,9,10,10,11,11,13,13,14,14,15,15,17,17,18,18,19,19,21,21,22,22,23,23,24,24,25,25,29,29,30,30,31,31,32,32,40,40,42,42,46,46],"right_children":[2,4,6,8,10,12,14,16,18,20,22,24,-1,26,28,30,-1,32,34,36,-1,38,40,42,44,46,-1,-1,-1,48,50,52,54,-1,-1,-1,-1,-1,-1,-1,56,-1,58,-1,-1,-1,60,-1,-1,-1,-1,-1,-1,-1,-1,-1,-1,-1,-1,-1,-1],"split_conditions":[4.9E1,3.4E1,5.4E1,3E0,3.9E1,5.7E1,6.1E1,5.9E1,3E1,3.8E1,4.2E1,5.6E1,3.0715943E-3,5.8E1,6.2E1,3.3E1,-5.3846743E-2,1.3E1,3.3E1,3.3E1,2.5817873E-2,4E1,4.5E1,4.3E1,5.3E1,2E0,1.013794E-2,6.591797E-4,-1.1138916E-3,2.4E1,2E0,4E0,2.9E1,8.8943485E-3,3.3544924E-2,2.4256898E-2,-1.8707275E-3,6.1111455E-4,5.8204653E-3,-2.8121949E-3,4.7E1,-1.1393738E-2,5.1E1,-3.535309E-2,-7.86438E-3,-1.7967225E-3,5.4E1,-1.6057696E-3,1.4896546E-2,1.55502325E-2,-2.8720094E-2,8.5296633E-4,1.457367E-2,-1.760193E-2,5.26886E-3,3.7323E-3,-9.5947273E-4,-1.19133E-3,2.0599366E-5,6.958008E-4,3.666687E-3],"split_indices":[1,1,1,3,0,0,0,0,0,0,0,0,0,0,0,1,0,1,0,0,0,0,0,0,1,2,0,0,0,1,2,1,1,0,0,0,0,0,0,0,0,0,1,0,0,0,0,0,0,0,0,0,0,0,0,0,0,0,0,0,0],"split_type":[0,0,0,0,0,0,0,0,0,0,0,0,0,0,0,0,0,0,0,0,0,0,0,0,0,0,0,0,0,0,0,0,0,0,0,0,0,0,0,0,0,0,0,0,0,0,0,0,0,0,0,0,0,0,0,0,0,0,0,0,0],"sum_hessian":[6.4E1,4.6E1,1.8E1,3.2E1,1.4E1,6E0,1.2E1,2.1E1,1.1E1,4E0,1E1,5E0,1E0,6E0,6E0,2E1,1E0,9E0,2E0,3E0,1E0,2E0,8E0,3E0,2E0,4E0,2E0,1E0,5E0,1.7E1,3E0,4E0,5E0,1E0,1E0,1E0,2E0,1E0,1E0,2E0,6E0,1E0,2E0,1E0,1E0,1E0,3E0,1.3E1,4E0,1E0,2E0,2E0,2E0,4E0,1E0,2E0,4E0,1E0,1E0,2E0,1E0],"tree_param":{"num_deleted":"0","num_feature":"4","num_nodes":"61","size_leaf_vector":"1"}},{"base_weights":[-8.509709E-4,-2.8770447E-2,9.640109E-4,2.9678345E-2,-3.0617524E-2,1.2092297E-2,-6.88192E-3,3.1356813E-4,1.3041687E-2,2.0697786E-2,1.6708374E-3,-3.1948473E-2,-1.156701E-3,2.1818543E-2,-1.2839726E-2,-4.009247E-2,1.7578736E-2,1.39778145E-2,1.3888889E-2,-1.6711427E-2,-1.0534922E-3,