{"learner":{"attributes":{"scikit_learn":"{\"_estimator_type\": \"regressor\"}"},"feature_names":["room_id","checkin_date","checkout_date","adults","children"],"feature_types":["int","int","int","int","int"],"gradient_booster":{"model":{"gbtree_model_param":{"num_parallel_tree":"1","num_trees":"100"},"iteration_indptr":[0,1,2,3,4,5,6,7,8,9,10,11,12,13,14,15,16,17,18,19,20,21,22,23,24,25,26,27,28,29,30,31,32,33,34,35,36,37,38,39,40,41,42,43,44,45,46,47,48,49,50,51,52,53,54,55,56,57,58,59,60,61,62,63,64,65,66,67,68,69,70,71,72,73,74,75,76,77,78,79,80,81,82,83,84,85,86,87,88,89,90,91,92,93,94,95,96,97,98,99,100],"tree_info":[0,0,0,0,0,0,0,0,0,0,0,0,0,0,0,0,0,0,0,0,0,0,0,0,0,0,0,0,0,0,0,0,0,0,0,0,0,0,0,0,0,0,0,0,0,0,0,0,0,0,0,0,0,0,0,0,0,0,0,0,0,0,0,0,0,0,0,0,0,0,0,0,0,0,0,0,0,0,0,0,0,0,0,0,0,0,0,0,0,0,0,0,0,0,0,0,0,0,0,0],"trees":[{"base_weights":[-0E0,-1.0787716E1,2.3463282E1,-8.7222224E-1,-4.1888393E1,1.9425E1,-1.0665322E1,-9.458333E0,-1.3951563E1,2.146875E1,-1.3781251E0,-3.380682E1,1.9642857E0,-4.378125E0,1.21875E-1,2.1625001E0,2.3244791E1,-3.626875E1,-1.3781251E0,-3.9257812E0,5.203125E0,4.4946427E0,8.703125E0,-4.317188E0,-1.3076787E1,-6.628125E0,-3.725E-1],"categories":[],"categories_nodes":[],"categories_segments":[],"categories_sizes":[],"default_left":[0,0,0,0,0,0,0,0,0,0,0,0,0,0,0,0,0,0,0,0,0,0,0,0,0,0,0],"id":0,"left_children":[1,3,-1,5,7,9,11,13,-1,15,-1,17,19,-1,-1,-1,21,23,-1,25,-1,-1,-1,-1,-1,-1,-1],"loss_changes":[5.5685344E4,1.784942E4,0E0,9.151947E3,1.6562695E3,8.349463E2,9.126715E3,1.5790494E2,0E0,1.8702344E2,0E0,6.245166E2,1.9703954E3,0E0,0E0,0E0,1.3703418E2,9.7431934E2,0E0,7.528055E2,0E0,0E0,0E0,0E0,0E0,0E0,0E0],"parents":[2147483647,0,0,1,1,3,3,4,4,5,5,6,6,7,7,9,9,11,11,12,12,16,16,17,17,19,19],"right_children":[2,4,-1,6,8,10,12,14,-1,16,-1,18,20,-1,-1,-1,22,24,-1,26,-1,-1,-1,-1,-1,-1,-1],"split_conditions":[4E0,4.9E1,2.3463282E1,1.2E1,2E0,5.9E1,1.8E1,3E0,-1.3951563E1,5E0,-1.3781251E0,3.8E1,3.2E1,-4.378125E0,1.21875E-1,2.1625001E0,2E0,2.7E1,-1.3781251E0,1.9E1,5.203125E0,4.4946427E0,8.703125E0,-4.317188E0,-1.3076787E1,-6.628125E0,-3.725E-1],"split_indices":[3,2,0,0,4,1,0,0,0,1,0,1,2,0,0,0,0,1,0,0,0,0,0,0,0,0,0],"split_type":[0,0,0,0,0,0,0,0,0,0,0,0,0,0,0,0,0,0,0,0,0,0,0,0,0,0,0],"sum_hessian":[6.4E1,5.7E1,7E0,4.4E1,1.3E1,1.4E1,3E1,2E0,1.1E1,1.3E1,1E0,1E1,2E1,1E0,1E0,2E0,1.1E1,9E0,1E0,1.5E1,5E0,6E0,5E0,3E0,6E0,1E0,1.4E1],"tree_param":{"num_deleted":"0","num_feature":"5","num_nodes":"27","size_leaf_vector":"1"}},{"base_weights":[-2.0492788E-2,-7.9789057E0,5.768056E1,-7.5694513E-1,-3.0622427E1,2.801191E1,2.0963812E1,1.4529642E1,-8.129263E0,-4.5588745E1,-2.0077026E1,1.1469843E1,-3.9761811E-1,1.6125286E1,-1.1714058E0,-2.537133E1,1.2894033E0,-1.5578085E1,-3.03539E0,-4.9181213E0,-8.808983E0,1.0256918E1,6.158514E0,-2.7127525E1,-1.1714058E0,-3.185588E0,3.902344E0,-1.0015101E1,1.8182322E0,-2.0523217E0,4.1030354E0,-3.3458211E0,-9.714185E0,-5.633906E0,-2.682007E-1,-3.721406E0,-7.853897E-1,7.1461034E-1,1.0359421E-1],"categories":[],"categories_nodes":[],"categories_segments":[],"categories_sizes":[],"default_left":[0,0,0,0,0,0,0,0,0,0,0,0,0,0,0,0,0,0,0,0,0,0,0,0,0,0,0,0,0,0,0,0,0,0,0,0,0,0,0],"id":1,"left_children":[1,3,5,7,9,11,-1,13,15,17,19,-1,-1,21,-1,23,25,-1,-1,27,-1,29,-1,31,-1,33,-1,35,37,-1,-1,-1,-1,-1,-1,-1,-1,-1,-1],"loss_changes":[3.03088E4,9.461597E3,9.379219E2,5.189506E3,1.2942754E3,1.2500876E3,0E0,5.041836E2,5.0670293E3,5.98709E2,1.2632815E3,0E0,0E0,1.5118774E2,0E0,3.0877148E2,1.1426727E3,0E0,0E0,1.8988509E2,0E0,5.613466E2,0E0,4.780376E2,0E0,5.5497424E2,0E0,2.0553192E1,1.6687536E0,0E0,0E0,0E0,0E0,0E0,0E0,0E0,0E0,0E0,0E0],"parents":[2147483647,0,0,1,1,2,2,3,3,4,4,5,5,7,7,8,8,9,9,10,10,13,13,15,15,16,16,19,19,21,21,23,23,25,25,27,27,28,28],"right_children":[2,4,6,8,10,12,-1,14,16,18,20,-1,-1,22,-1,24,26,-1,-1,28,-1,30,-1,32,-1,34,-1,36,38,-1,-1,-1,-1,-1,-1,-1,-1,-1,-1],"split_conditions":[4E0,4.9E1,1.1E1,1.2E1,5.3E1,5E0,2.0963812E1,5.9E1,1.8E1,2E0,2E1,1.1469843E1,-3.9761811E-1,3.3E1,-1.1714058E0,3.8E1,3.2E1,-1.5578085E1,-3.03539E0,4E0,-8.808983E0,2E0,6.158514E0,2.7E1,-1.1714058E0,1.9E1,3.902344E0,3E0,1.5E1,-2.0523217E0,4.1030354E0,-3.3458211E0,-9.714185E0,-5.633906E0,-2.682007E-1,-3.721406E0,-7.853897E-1,7.1461034E-1,1.0359421E-1],"split_indices":[3,2,0,0,2,0,0,1,0,3,0,0,0,2,0,1,2,0,0,0,0,0,0,1,0,0,0,0,0,0,0,0,0,0,0,0,0,0,0],"split_type":[0,0,0,0,0,0,0,0,0,0,0,0,0,0,0,0,0,0,0,0,0,0,0,0,0,0,0,0,0,0,0,0,0,0,0,0,0,0,0],"sum_hessian":[6.4E1,5.7E1,7E0,4.4E1,1.3E1,3E0,4E0,1.4E1,3E1,4E0,9E0,2E0,1E0,1.3E1,1E0,1E1,2E1,3E0,1E0,4E0,5E0,7E0,6E0,9E0,1E0,1.5E1,5E0,2E0,2E0,1E0,6E0,3E0,6E0,1E0,1.4E1,1E0,1E0,1E0,1E0],"tree_param":{"num_deleted":"0","num_feature":"5","num_nodes":"39","size_leaf_vector":"1"}},{"base_weights":[-1.4154945E-1,-6.280136E0,4.4380898E1,-7.3415697E-1,-2.3657917E1,2.2376389E1,1.5932498E1,1.0639936E1,-6.214068E0,-3.563482E1,-1.5303673E1,9.175873E0,-3.379761E-1,6.3299255E0,1.7993973E1,-1.9053694E1,8.073578E-1,-1.2073017E1,-2.580082E0,-4.1804047E0,-6.6067357E0,9.766331E0,-1.8267792E0,6.147265E0,1.2009499E0,-9.279306E0,-1.2977507E1,-2.5987902E0,2.9267578E0,-8.512837E0,1.5454966E0,3.3772748E0,9.093903E-1,-4.130985E0,-9.9569553E-1,-4.7888193E0,-1.9310364E-1,-3.1631951E0,-6.67582E-1,6.0741806E-1,8.8055424E-2],"categories":[],"categories_nodes":[],"categories_segments":[],"categories_sizes":[],"default_left":[0,0,0,0,0,0,0,0,0,0,0,0,0,0,0,0,0,0,0,0,0,0,0,0,0,0,0,0,0,0,0,0,0,0,0,0,0,0,0,0,0],"id":2,"left_children":[1,3,5,7,9,11,-1,13,15,17,19,-1,-1,21,23,25,27,-1,-1,29,-1,31,-1,-1,-1,-1,33,35,-1,37,39,-1,-1,-1,-1,-1,-1,-1,-1,-1,-1],"loss_changes":[1.8043537E4,5.5724863E3,3.4796875E2,2.8709233E3,8.5546826E2,8.06282E2,0E0,3.6153918E2,2.81011E3,2.7684863E2,6.552849E2,0E0,0E0,5.289208E2,9.26405E1,3.9244922E2,6.6543176E2,0E0,0E0,1.3719197E2,0E0,5.6267395E1,0E0,0E0,0E0,0E0,2.3182251E1,4.0777298E2,0E0,1.4849655E1,1.2056642E0,0E0,0E0,0E0,0E0,0E0,0E0,0E0,0E0,0E0,0E0],"parents":[2147483647,0,0,1,1,2,2,3,3,4,4,5,5,7,7,8,8,9,9,10,10,13,13,14,14,15,15,16,16,19,19,21,21,26,26,27,27,29,29,30,30],"right_children":[2,4,6,8,10,12,-1,14,16,18,20,-1,-1,22,24,26,28,-1,-1,30,-1,32,-1,-1,-1,-1,34,36,-1,38,40,-1,-1,-1,-1,-1,-1,-1,-1,-1,-1],"split_conditions":[4E0,4.9E1,1.1E1,1.2E1,5.3E1,5E0,1.5932498E1,7E0,1.8E1,2E0,2E1,9.175873E0,-3.379761E-1,3E0,3.3E1,1.3E1,3.2E1,-1.2073017E1,-2.580082E0,4E0,-6.6067357E0,6E0,-1.8267792E0,6.147265E0,1.2009499E0,-9.279306E0,3.8E1,1.9E1,2.9267578E0,3E0,1.5E1,3.3772748E0,9.093903E-1,-4.130985E0,-9.9569553E-1,-4.7888193E0,-1.9310364E-1,-3.1631951E0,-6.67582E-1,6.0741806E-1,8.8055424E-2],"split_indices":[3,2,0,0,2,0,0,0,0,3,0,0,0,3,1,0,2,0,0,0,0,0,0,0,0,0,1,0,0,0,0,0,0,0,0,0,0,0,0,0,0],"split_type":[0,0,0,0,0,0,0,0,0,0,0,0,0,0,0,0,0,0,0,0,0,0,0,0,0,0,0,0,0,0,0,0,0,0,0,0,0,0,0,0,0],"sum_hessian":[6.4E1,5.7E1,7E0,4.4E1,1.3E1,3E0,4E0,1.4E1,3E1,4E0,9E0,2E0,1E0,1E1,4E0,1E1,2E1,3E0,1E0,4E0,5E0,8E0,2E0,3E0,1E0,2E0,8E0,1.5E1,5E0,2E0,2E0,6E0,2E0,7E0,1E0,1E0,1.4E1,1E0,1E0,1E0,1E0],"tree_param":{"num_deleted":"0","num_feature":"5","num_nodes":"41","size_leaf_vector":"1"}},{"base_weights":[-1.9566675E-1,-4.93141E0,3.416293E1,-6.617564E-1,-1.8303053E1,1.7872948E1,1.2108699E1,8.1018305E0,-4.8808546E0,-2.7874996E1,-1.1686775E1,7.3406987E0,-2.8727877E-1,5.8374176E0,5.970541E0,-1.4647221E1,4.6728298E-1,-9.356589E0,-2.1930704E0,-3.5533447E0,-4.9550514E0,6.656541E0,-7.216782E-1,-7.423444E0,-9.653889E0,1.8474792E0,-4.0704966E0,-7.235911E0,1.3136698E0,7.275116E-1,2.1616342E0,-1.8151671E0,-4.45311E0,2.1950684E0,-1.3903566E-1,-2.6887162E0,-5.6744385E-1,5.163048E-1,7.4846655E-2],"categories":[],"categories_nodes":[],"categories_segments":[],"categories_sizes":[],"default_left":[0,0,0,0,0,0,0,0,0,0,0,0,0,0,0,0,0,0,0,0,0,0,0,0,0,0,0,0,0,0,0,0,0,0,0,0,0,0,0],"id":3,"left_children":[1,3,5,7,9,11,-1,13,15,17,19,-1,-1,21,-1,23,25,-1,-1,27,-1,29,-1,-1,31,33,-1,35,37,-1,-1,-1,-1,-1,-1,-1,-1,-1,-1],"loss_changes":[1.0744848E4,3.2992402E3,8.651172E1,1.7033933E3,5.6086035E2,5.202599E2,0E0,2.84625E2,1.6260323E3,1.1272412E2,3.341598E2,0E0,0E0,1.10541565E2,0E0,3.157434E2,4.3187686E2,0E0,0E0,9.912112E1,0E0,1.2721619E1,0E0,0E0,7.84928E1,2.5617993E2,0E0,1.0728928E1,8.7109566E-1,0E0,0E0,0E0,0E0,0E0,0E0,0E0,0E0,0E0,0E0],"parents":[2147483647,0,0,1,1,2,2,3,3,4,4,5,5,7,7,8,8,9,9,10,10,13,13,15,15,16,16,19,19,21,21,24,24,25,25,27,27,28,28],"right_children":[2,4,6,8,10,12,-1,14,16,18,20,-1,-1,22,-1,24,26,-1,-1,28,-1,30,-1,-1,32,34,-1,36,38,-1,-1,-1,-1,-1,-1,-1,-1,-1,-1],"split_conditions":[4E0,4.9E1,1.1E1,1.2E1,5.3E1,5E0,1.2108699E1,1E1,1.8E1,2E0,2E1,7.3406987E0,-2.8727877E-1,5.9E1,5.970541E0,1.3E1,5.1E1,-9.356589E0,-2.1930704E0,4E0,-4.9550514E0,5E0,-7.216782E-1,-7.423444E0,1.7E1,1.9E1,-4.0704966E0,3E0,1.5E1,7.275116E-1,2.1616342E0,-1.8151671E0,-4.45311E0,2.1950684E0,-1.3903566E-1,-2.6887162E0,-5.6744385E-1,5.163048E-1,7.4846655E-2],"split_indices":[3,2,0,0,2,0,0,0,0,3,0,0,0,1,0,0,1,0,0,0,0,1,0,0,0,0,0,0,0,0,0,0,0,0,0,0,0,0,0],"split_type":[0,0,0,0,0,0,0,0,0,0,0,0,0,0,0,0,0,0,0,0,0,0,0,0,0,0,0,0,0,0,0,0,0,0,0,0,0,0,0],"sum_hessian":[6.4E1,5.7E1,7E0,4.4E1,1.3E1,3E0,4E0,1.4E1,3E1,4E0,9E0,2E0,1E0,1.3E1,1E0,1E1,2E1,3E0,1E0,4E0,5E0,1.2E1,1E0,2E0,8E0,1.9E1,1E0,2E0,2E0,2E0,1E1,6E0,2E0,5E0,1.4E1,1E0,1E0,1E0,1E0],"tree_param":{"num_deleted":"0","num_feature":"5","num_nodes":"39","size_leaf_vector":"1"}},{"base_weights":[-2.535169E-1,-3.9129846E0,7.892794E0,-6.3141006E-1,-1.4181403E1,6.2138143E0,-3.9232473E0,-2.0724699E1,-8.243495E0,4.24101E0,5.0749607E0,-1.1497754E1,2.3117283E-1,-7.251356E0,-2.7663453E0,3.3584595E-2,-3.7162895E0,4.8818197E0,-6.134262E-1,-5.938754E0,-7.454195E0,1.3960388E0,-3.459922E0,-4.8232728E-1,1.1166178E0,1.6810039E0,5.572643E-1,-1.348409E0,-3.5624878E0,-5.2390957E-1,1.0909516E0,4.3885806E-1,6.362E-2],"categories":[],"categories_nodes":[],"categories_segments":[],"categories_sizes":[],"default_left":[0,0,0,0,0,0,0,0,0,0,0,0,0,0,0,0,0,0,0,0,0,0,0,0,0,0,0,0,0,0,0,0,0],"id":4,"left_children":[1,3,-1,5,7,9,11,13,15,17,-1,19,21,-1,-1,23,-1,25,-1,-1,27,29,-1,-1,31,-1,-1,-1,-1,-1,-1,-1,-1],"loss_changes":[6.4213257E3,1.9454473E3,0E0,1.0383798E3,3.7310522E2,2.4497235E2,9.7815625E2,1.4994873E1,3.0912817E2,6.637375E1,0E0,2.2153003E2,3.038798E2,0E0,0E0,8.905763E0,0E0,1.795877E1,0E0,0E0,6.437491E1,1.4715967E2,0E0,0E0,6.293578E-1,0E0,0E0,0E0,0E0,0E0,0E0,0E0,0E0],"parents":[2147483647,0,0,1,1,3,3,4,4,5,5,6,6,7,7,8,8,9,9,11,11,12,12,15,15,17,17,20,20,21,21,24,24],"right_children":[2,4,-1,6,8,10,12,14,16,18,-1,20,22,-1,-1,24,-1,26,-1,-1,28,30,-1,-1,32,-1,-1,-1,-1,-1,-1,-1,-1],"split_conditions":[4E0,4.9E1,7.892794E0,1.2E1,5.4E1,1E1,1.8E1,2E0,2E1,5.9E1,5.0749607E0,1.3E1,5.1E1,-7.251356E0,-2.7663453E0,4E0,-3.7162895E0,3E0,-6.134262E-1,-5.938754E0,1.7E1,1.6E1,-3.459922E0,-4.8232728E-1,1.5E1,1.6810039E0,5.572643E-1,-1.348409E0,-3.5624878E0,-5.2390957E-1,1.0909516E0,4.3885806E-1,6.362E-2],"split_indices":[3,2,0,0,2,0,0,3,0,1,0,0,1,0,0,0,0,3,0,0,0,1,0,0,0,0,0,0,0,0,0,0,0],"split_type":[0,0,0,0,0,0,0,0,0,0,0,0,0,0,0,0,0,0,0,0,0,0,0,0,0,0,0,0,0,0,0,0,0],"sum_hessian":[6.4E1,5.7E1,7E0,4.4E1,1.3E1,1.4E1,3E1,5E0,8E0,1.3E1,1E0,1E1,2E1,3E0,2E0,3E0,5E0,1.2E1,1E0,2E0,8E0,1.9E1,1E0,1E0,2E0,9E0,3E0,6E0,2E0,8E0,1.1E1,1E0,1E0],"tree_param":{"num_deleted":"0","num_feature":"5","num_nodes":"33","size_leaf_vector":"1"}},{"base_weights":[-3.7536657E-1,-3.0969617E0,1.940312E1,-1.05706565E-1,-9.738323E0,8.354824E0,7.3083405E0,5.573708E0,-2.648006E0,-2.3250275E0,-1.1690334E1,4.2940006E0,-1.428106E0,2.541977E0,3.5278828E0,-9.690371E0,1.0055764E0,1.1077576E0,-4.9828033E0,-1.6211681E1,-7.377177E0,4.215746E0,-1.8782914E0,-4.751004E0,-6.1742077E0,1.3735619E0,-4.9064738E-1,4.44413E-1,5.4077912E-2,-1.8704568E0,-3.7180483E-1,-5.6722145E0,-4.0997773E-1,-3.2973734E-1,-2.803088E0,1.5207263E0,2.4580994E-1,-1.0446877E0,-2.8499908E0,-7.0632195E-1,4.3033278E-1,-5.214112E-1,3.7302935E-1],"categories":[],"categories_nodes":[],"categories_segments":[],"categories_sizes":[],"default_left":[0,0,0,0,0,0,0,0,0,0,0,0,0,0,0,0,0,0,0,0,0,0,0,0,0,0,0,0,0,0,0,0,0,0,0,0,0,0,0,0,0,0,0],"id":5,"left_children":[1,3,5,7,9,11,-1,13,15,17,19,-1,-1,21,-1,23,25,27,29,31,33,35,-1,-1,37,-1,39,-1,-1,-1,-1,-1,-1,41,-1,-1,-1,-1,-1,-1,-1,-1,-1],"loss_changes":[3.5589783E3,1.151199E3,2.3468774E2,6.067489E2,2.332948E2,3.8072412E2,0E0,2.1390921E2,7.559103E2,5.1137604E1,1.5342151E2,0E0,0E0,1.7373566E2,0E0,1.1833533E2,1.0916548E2,7.7256036E-1,6.3338394E0,2.142688E2,1.2164496E2,2.1931E1,0E0,0E0,3.8539673E1,0E0,5.7195812E1,0E0,0E0,0E0,0E0,0E0,0E0,8.807607E0,0E0,0E0,0E0,0E0,0E0,0E0,0E0,0E0,0E0],"parents":[2147483647,0,0,1,1,2,2,3,3,4,4,5,5,7,7,8,8,9,9,10,10,13,13,15,15,16,16,17,17,18,18,19,19,20,20,21,21,24,24,26,26,33,33],"right_children":[2,4,6,8,10,12,-1,14,16,18,20,-1,-1,22,-1,24,26,28,30,32,34,36,-1,-1,38,-1,40,-1,-1,-1,-1,-1,-1,42,-1,-1,-1,-1,-1,-1,-1,-1,-1],"split_conditions":[4E0,5.1E1,1.1E1,1.2E1,2E0,5E0,7.3083405E0,7E0,1.8E1,2E0,2E0,4.2940006E0,-1.428106E0,3E0,3.5278828E0,1.3E1,1.9E1,1E1,3E0,5.3E1,1.5E1,6E0,-1.8782914E0,-4.751004E0,1.7E1,1.3735619E0,2.1E1,4.44413E-1,5.4077912E-2,-1.8704568E0,-3.7180483E-1,-5.6722145E0,-4.0997773E-1,2E0,-2.803088E0,1.5207263E0,2.4580994E-1,-1.0446877E0,-2.8499908E0,-7.0632195E-1,4.3033278E-1,-5.214112E-1,3.7302935E-1],"split_indices":[3,1,0,0,4,0,0,0,0,3,3,0,0,3,0,0,0,0,0,2,0,0,0,0,0,0,0,0,0,0,0,0,0,0,0,0,0,0,0,0,0,0,0],"split_type":[0,0,0,0,0,0,0,0,0,0,0,0,0,0,0,0,0,0,0,0,0,0,0,0,0,0,0,0,0,0,0,0,0,0,0,0,0,0,0,0,0,0,0],"sum_hessian":[6.4E1,5.7E1,7E0,4E1,1.7E1,3E0,4E0,1.2E1,2.8E1,4E0,1.3E1,2E0,1E0,9E0,3E0,9E0,1.9E1,2E0,2E0,5E0,8E0,8E0,1E0,2E0,7E0,5E0,1.4E1,1E0,1E0,1E0,1E0,4E0,1E0,2E0,6E0,6E0,2E0,5E0,2E0,7E0,7E0,1E0,1E0],"tree_param":{"num_deleted":"0","num_feature":"5","num_nodes":"43","size_leaf_vector":"1"}},{"base_weights":[-3.3560416E-1,-2.4249296E0,1.4853956E1,-1.7477082E-1,-7.415573E0,6.564846E0,5.5543365E0,4.1643796E0,-2.1138806E0,1.3715108E-1,-8.368236E0,3.4351993E0,-1.2138909E0,2.4088924E0,3.7845337E0,-7.6478243E0,7.5878525E-1,3.7775117E-1,-3.1603318E-1,-1.1532492E1,-4.6257596E0,1.7128075E0,1.5898174E0,-3.8008027E0,-4.808777E0,1.0301706E0,-3.6184692E-1,-4.4319993E-1,-3.8273687E0,2.426529E-2,-2.086445E0,-2.4843903E-1,1.1228386E0,-7.8351444E-1,-2.2799928E0,-2.6371342E-1,1.0318383E0,-3.4848177E-1,2.420273E-1],"categories":[],"categories_nodes":[],"categories_segments":[],"categories_sizes":[],"default_left":[0,0,0,0,0,0,0,0,0,0,0,0,0,0,0,0,0,0,0,0,0,0,0,0,0,0,0,0,0,0,0,0,0,0,0,0,0,0,0],"id":6,"left_children":[1,3,5,7,9,11,-1,13,15,17,19,-1,-1,21,-1,23,25,-1,-1,27,29,-1,31,-1,33,-1,35,-1,-1,37,-1,-1,-1,-1,-1,-1,-1,-1,-1],"loss_changes":[2.0988555E3,6.500289E2,1.2119348E2,3.537806E2,1.3066125E2,2.537094E2,0E0,1.6246854E2,4.6682098E2,5.3340774E0,1.3612793E2,0E0,0E0,2.3363106E1,0E0,8.163922E1,6.1198975E1,0E0,0E0,7.972534E1,9.764032E1,0E0,6.036319E1,0E0,2.9210526E1,0E0,3.251386E1,0E0,0E0,4.6488748E0,0E0,0E0,0E0,0E0,0E0,0E0,0E0,0E0,0E0],"parents":[2147483647,0,0,1,1,2,2,3,3,4,4,5,5,7,7,8,8,9,9,10,10,13,13,15,15,16,16,19,19,20,20,22,22,24,24,26,26,29,29],"right_children":[2,4,6,8,10,12,-1,14,16,18,20,-1,-1,22,-1,24,26,-1,-1,28,30,-1,32,-1,34,-1,36,-1,-1,38,-1,-1,-1,-1,-1,-1,-1,-1,-1],"split_conditions":[4E0,5.1E1,1.1E1,1.2E1,3.1E1,5E0,5.5543365E0,9E0,1.8E1,1E1,5.4E1,3.4351993E0,-1.2138909E0,1E0,3.7845337E0,1.3E1,1.9E1,3.7775117E-1,-3.1603318E-1,2E0,2E1,1.7128075E0,2E0,-3.8008027E0,1.7E1,1.0301706E0,4E0,-4.4319993E-1,-3.8273687E0,4E0,-2.086445E0,-2.4843903E-1,1.1228386E0,-7.8351444E-1,-2.2799928E0,-2.6371342E-1,1.0318383E0,-3.4848177E-1,2.420273E-1],"split_indices":[3,1,0,0,2,0,0,0,0,0,2,0,0,0,0,0,0,0,0,0,0,0,0,0,0,0,4,0,0,0,0,0,0,0,0,0,0,0,0],"split_type":[0,0,0,0,0,0,0,0,0,0,0,0,0,0,0,0,0,0,0,0,0,0,0,0,0,0,0,0,0,0,0,0,0,0,0,0,0,0,0],"sum_hessian":[6.4E1,5.7E1,7E0,4E1,1.7E1,3E0,4E0,1.2E1,2.8E1,2E0,1.5E1,2E0,1E0,1.1E1,1E0,9E0,1.9E1,1E0,1E0,7E0,8E0,1E0,1E1,2E0,7E0,5E0,1.4E1,1E0,6E0,3E0,5E0,5E0,5E0,5E0,2E0,1.3E1,1E0,1E0,2E0],"tree_param":{"num_deleted":"0","num_feature":"5","num_nodes":"39","size_leaf_vector":"1"}},{"base_weights":[-1.936953E-1,-1.7853115E0,1.1369734E1,-9.04902E-2,-5.5465536E0,5.1507225E0,4.221299E0,4.9184647E0,-1.2664063E0,-1.2715485E0,-6.677159E0,2.74816E0,-1.0318062E0,2.9588563E0,4.8795778E-1,-2.2457166E0,1.1033982E0,7.350006E-1,-2.854248E0,-9.752216E0,-3.885214E0,-9.830729E-2,-7.006814E0,3.2108918E-1,9.661103E-3,-1.0157845E0,-2.6862717E-1,-3.3923142E0,-2.9620972E-1,-2.1322124E-1,-1.4711685E0,-4.506761E-1,5.821615E-1,-2.384591E0,7.916565E-2,-3.767189E-1,2.8076935E-1],"categories":[],"categories_nodes":[],"categories_segments":[],"categories_sizes":[],"default_left":[0,0,0,0,0,0,0,0,0,0,0,0,0,0,0,0,0,0,0,0,0,0,0,0,0,0,0,0,0,0,0,0,0,0,0,0,0],"id":7,"left_children":[1,3,5,7,9,11,-1,13,15,17,19,-1,-1,-1,-1,21,-1,23,25,27,29,31,33,-1,-1,-1,-1,-1,-1,35,-1,-1,-1,-1,-1,-1,-1],"loss_changes":[1.2165936E3,3.6922687E2,6.1917725E1,2.4772331E2,7.850983E1,1.6928462E2,0E0,1.1417082E2,1.7289117E2,1.7976696E1,8.230603E1,0E0,0E0,0E0,0E0,2.9580786E2,0E0,6.72469E-1,9.266281E-2,7.063733E1,3.2619675E1,6.30262E1,6.372696E1,0E0,0E0,0E0,0E0,0E0,0E0,4.7691336E0,0E0,0E0,0E0,0E0,0E0,0E0,0E0],"parents":[2147483647,0,0,1,1,2,2,3,3,4,4,5,5,7,7,8,8,9,9,10,10,15,15,17,17,18,18,19,19,20,20,21,21,22,22,29,29],"right_children":[2,4,6,8,10,12,-1,14,16,18,20,-1,-1,-1,-1,22,-1,24,26,28,30,32,34,-1,-1,-1,-1,-1,-1,36,-1,-1,-1,-1,-1,-1,-1],"split_conditions":[4E0,5.1E1,1.1E1,2E0,2E0,5E0,4.221299E0,3.3E1,3.8E1,2E0,2E0,2.74816E0,-1.0318062E0,2.9588563E0,4.8795778E-1,2.7E1,1.1033982E0,1E1,3E0,5.3E1,1.5E1,3E0,1.8E1,3.2108918E-1,9.661103E-3,-1.0157845E0,-2.6862717E-1,-3.3923142E0,-2.9620972E-1,2E0,-1.4711685E0,-4.506761E-1,5.821615E-1,-2.384591E0,7.916565E-2,-3.767189E-1,2.8076935E-1],"split_indices":[3,1,0,3,4,0,0,1,1,3,3,0,0,0,0,2,0,0,0,2,0,3,0,0,0,0,0,0,0,0,0,0,0,0,0,0,0],"split_type":[0,0,0,0,0,0,0,0,0,0,0,0,0,0,0,0,0,0,0,0,0,0,0,0,0,0,0,0,0,0,0,0,0,0,0,0,0],"sum_hessian":[6.4E1,5.7E1,7E0,4E1,1.7E1,3E0,4E0,7E0,3.3E1,4E0,1.3E1,2E0,1E0,2E0,5E0,2.8E1,5E0,2E0,2E0,5E0,8E0,2E1,8E0,1E0,1E0,1E0,1E0,4E0,1E0,2E0,6E0,1.2E1,8E0,7E0,1E0,1E0,1E0],"tree_param":{"num_deleted":"0","num_feature":"5","num_nodes":"37","size_leaf_vector":"1"}},{"base_weights":[-1.032081E-1,-1.315804E0,8.701014E0,-1.9494528E-1,-4.8245783E0,4.0345955E0,3.2081835E0,-1.4772366E0,3.0750978E0,-7.261757E0,-2.6637285E0,2.1985292E0,-8.7703633E-1,2.5219727E-1,-3.3305225E0,2.7730248E0,1.7907867E0,-2.7191231E0,-7.315567E-1,-8.18634E-3,-1.1970406E0,-2.895403E-1,9.172196E-1,5.783447E-1,-4.6816735E0,1.2903763E0,1.1715393E0,-2.517792E-1,5.485942E-1,-1.7079866E-1,5.860932E-1,7.204548E-1,-1.0071511E0,-3.2427245E-1,-1.9040829E0,2.2164918E-2,4.2217615E-1,2.386551E-1,8.21228E-3],"categories":[],"categories_nodes":[],"categories_segments":[],"categories_sizes":[],"default_left":[0,0,0,0,0,0,0,0,0,0,0,0,0,0,0,0,0,0,0,0,0,0,0,0,0,0,0,0,0,0,0,0,0,0,0,0,0,0,0],"id":8,"left_children":[1,3,5,7,9,11,-1,13,15,17,19,-1,-1,21,23,-1,25,-1,-1,27,-1,29,-1,31,33,-1,35,-1,37,-1,-1,-1,-1,-1,-1,-1,-1,-1,-1],"loss_changes":[7.053864E2,2.2716423E2,3.1253113E1,1.9323433E2,5.4385925E1,1.1309899E2,0E0,1.0660942E2,8.643352E1,3.0046295E1,3.1668293E1,0E0,0E0,2.8239529E1,8.721115E1,0E0,1.3616119E1,0E0,0E0,2.3113265E0,0E0,1.115414E1,0E0,4.3937885E1,6.509448E1,0E0,2.742093E0,0E0,3.6432654E-1,0E0,0E0,0E0,0E0,0E0,0E0,0E0,0E0,0E0,0E0],"parents":[2147483647,0,0,1,1,2,2,3,3,4,4,5,5,7,7,8,8,9,9,10,10,13,13,14,14,16,16,19,19,21,21,23,23,24,24,26,26,28,28],"right_children":[2,4,6,8,10,12,-1,14,16,18,20,-1,-1,22,24,-1,26,-1,-1,28,-1,30,-1,32,34,-1,36,-1,38,-1,-1,-1,-1,-1,-1,-1,-1,-1,-1],"split_conditions":[4E0,4.9E1,1.1E1,3.4E1,5.4E1,5E0,3.2081835E0,2.3E1,3.3E1,2E0,2E1,2.1985292E0,-8.7703633E-1,4E0,2E0,2.7730248E0,1E0,-2.7191231E0,-7.315567E-1,4E0,-1.1970406E0,2.2E1,9.172196E-1,5.9E1,2.7E1,1.2903763E0,3.8E1,-2.517792E-1,1.5E1,-1.7079866E-1,5.860932E-1,7.204548E-1,-1.0071511E0,-3.2427245E-1,-1.9040829E0,2.2164918E-2,4.2217615E-1,2.386551E-1,8.21228E-3],"split_indices":[3,2,0,2,2,0,0,2,1,3,0,0,0,4,3,0,0,0,0,0,0,1,0,1,1,0,1,0,0,0,0,0,0,0,0,0,0,0,0],"split_type":[0,0,0,0,0,0,0,0,0,0,0,0,0,0,0,0,0,0,0,0,0,0,0,0,0,0,0,0,0,0,0,0,0,0,0,0,0,0,0],"sum_hessian":[6.4E1,5.7E1,7E0,4.4E1,1.3E1,3E0,4E0,3.2E1,1.2E1,5E0,8E0,2E0,1E0,1.7E1,1.5E1,1E0,1.1E1,3E0,2E0,3E0,5E0,1.5E1,2E0,4E0,1.1E1,1E0,1E1,1E0,2E0,1.4E1,1E0,3E0,1E0,4E0,7E0,2E0,8E0,1E0,1E0],"tree_param":{"num_deleted":"0","num_feature":"5","num_nodes":"39","size_leaf_vector":"1"}},{"base_weights":[-2.298314E-2,-9.4395196E-1,6.6569138E0,-6.257087E-2,-3.7095375E0,3.1545868E0,2.4382179E0,-1.0699024E0,2.4993145E0,-2.1390436E0,-2.5452576E0,1.7588227E0,-7.454819E-1,2.5056118E-1,-2.488555E0,2.357071E0,1.3981069E0,-1.2035993E0,-9.994927E-1,1.5033569E0,-5.0111645E-1,3.4750062E-1,-3.462865E0,1.0968201E0,8.604681E-1,-9.548802E-1,-1.7114563E-1,-1.0158921E-2,7.9942137E-1,-2.826586E-1,2.909851E-2,5.583515E-1,-8.560776E-1,-1.6899747E0,-5.0205517E-1,1.7730713E-2,3.0959475E-1,-2.1401139E-1,4.2826083E-2],"categories":[],"categories_nodes":[],"categories_segments":[],"categories_sizes":[],"default_left":[0,0,0,0,0,0,0,0,0,0,0,0,0,0,0,0,0,0,0,0,0,0,0,0,0,0,0,0,0,0,0,0,0,0,0,0,0,0,0],"id":9,"left_children":[1,3,5,7,9,11,-1,13,15,-1,17,-1,-1,19,21,-1,23,25,-1,27,29,31,33,-1,35,-1,37,-1,-1,-1,-1,-1,-1,-1,-1,-1,-1,-1,-1],"loss_changes":[4.061623E2,1.4114491E2,1.5562225E1,1.1880408E2,3.760756E1,7.565942E1,0E0,6.2441746E1,6.571284E1,0E0,8.650757E0,0E0,0E0,1.770393E1,4.5414528E1,0E0,1.1421675E1,1.17166815E1,0E0,1.2587322E1,3.2571604E0,2.9538033E1,3.7175507E1,0E0,1.4509096E0,0E0,9.528574E-1,0E0,0E0,0E0,0E0,0E0,0E0,0E0,0E0,0E0,0E0,0E0,0E0],"parents":[2147483647,0,0,1,1,2,2,3,3,4,4,5,5,7,7,8,8,10,10,13,13,14,14,16,16,17,17,19,19,20,20,21,21,22,22,24,24,26,26],"right_children":[2,4,6,8,10,12,-1,14,16,-1,18,-1,-1,20,22,-1,24,26,-1,28,30,32,34,-1,36,-1,38,-1,-1,-1,-1,-1,-1,-1,-1,-1,-1,-1,-1],"split_conditions":[4E0,4.9E1,1.1E1,3.4E1,3E0,5E0,2.4382179E0,2.3E1,3.3E1,-2.1390436E0,2E1,1.7588227E0,-7.454819E-1,8E0,2E0,2.357071E0,1E0,5.1E1,-9.994927E-1,6E0,2.1E1,5.9E1,1.3E1,1.0968201E0,3.8E1,-9.548802E-1,4E0,-1.0158921E-2,7.9942137E-1,-2.826586E-1,2.909851E-2,5.583515E-1,-8.560776E-1,-1.6899747E0,-5.0205517E-1,1.7730713E-2,3.0959475E-1,-2.1401139E-1,4.2826083E-2],"split_indices":[3,2,0,2,0,0,0,2,1,0,0,0,0,2,3,0,0,2,0,1,0,1,0,0,1,0,0,0,0,0,0,0,0,0,0,0,0,0,0],"split_type":[0,0,0,0,0,0,0,0,0,0,0,0,0,0,0,0,0,0,0,0,0,0,0,0,0,0,0,0,0,0,0,0,0,0,0,0,0,0,0],"sum_hessian":[6.4E1,5.7E1,7E0,4.4E1,1.3E1,3E0,4E0,3.2E1,1.2E1,2E0,1.1E1,2E0,1E0,1.7E1,1.5E1,1E0,1.1E1,5E0,6E0,6E0,1.1E1,4E0,1.1E1,1E0,1E1,1E0,4E0,3E0,3E0,6E0,5E0,3E0,1E0,4E0,7E0,2E0,8E0,1E0,3E0],"tree_param":{"num_deleted":"0","num_feature":"5","num_nodes":"39","size_leaf_vector":"1"}},{"base_weights":[-4.880465E-4,-7.027922E-1,5.091278E0,-3.197225E-3,-2.901291E0,2.4615479E0,1.853042E0,1.9031271E0,-9.2550904E-1,-4.974982E0,-1.5743164E0,1.4070587E0,-6.3365936E-1,1.0850122E0,2.0035105E0,-1.8449129E0,-3.5316047E-1,-1.8003136E0,-1.3060914E-1,-5.570038E-1,-6.4790726E-1,9.322975E-1,6.9037336E-1,-7.046065E-1,6.5746117E-1,-4.0982667E-1,4.3774924E-1,4.350649E-1,-1.3134384E-1,-3.8746035E-1,2.2128035E-1,5.3223956E-1,7.334682E-2,1.9643098E-1,5.561829E-4],"categories":[],"categories_nodes":[],"categories_segments":[],"categories_sizes":[],"default_left":[0,0,0,0,0,0,0,0,0,0,0,0,0,0,0,0,0,0,0,0,0,0,0,0,0,0,0,0,0,0,0,0,0,0,0],"id":10,"left_children":[1,3,5,7,9,11,-1,13,15,17,19,-1,-1,21,-1,-1,23,-1,-1,25,-1,-1,27,29,31,-1,33,-1,-1,-1,-1,-1,-1,-1,-1],"loss_changes":[2.3601607E2,8.919812E1,7.632675E0,8.088151E1,3.0692085E1,5.0679703E1,0E0,5.135432E1,9.052013E1,2.0677048E1,4.7521324E0,0E0,0E0,9.02956E0,0E0,0E0,1.0763441E1,0E0,0E0,4.6222034E0,0E0,0E0,1.17790985E1,1.957502E1,3.2554715E0,0E0,2.8258097E-1,0E0,0E0,0E0,0E0,0E0,0E0,0E0,0E0],"parents":[2147483647,0,0,1,1,2,2,3,3,4,4,5,5,7,7,8,8,9,9,10,10,13,13,16,16,19,19,22,22,23,23,24,24,26,26],"right_children":[2,4,6,8,10,12,-1,14,16,18,20,-1,-1,22,-1,-1,24,-1,-1,26,-1,-1,28,30,32,-1,34,-1,-1,-1,-1,-1,-1,-1,-1],"split_conditions":[4E0,4.9E1,1.1E1,1.2E1,5.3E1,5E0,1.853042E0,1E1,1.3E1,2E0,2E1,1.4070587E0,-6.3365936E-1,1E0,2.0035105E0,-1.8449129E0,2.1E1,-1.8003136E0,-1.3060914E-1,4E0,-6.4790726E-1,9.322975E-1,3.2E1,3.4E1,7E0,-4.0982667E-1,1.5E1,4.350649E-1,-1.3134384E-1,-3.8746035E-1,2.2128035E-1,5.3223956E-1,7.334682E-2,1.9643098E-1,5.561829E-4],"split_indices":[3,2,0,0,2,0,0,0,0,3,0,0,0,0,0,0,0,0,0,0,0,0,2,2,1,0,0,0,0,0,0,0,0,0,0],"split_type":[0,0,0,0,0,0,0,0,0,0,0,0,0,0,0,0,0,0,0,0,0,0,0,0,0,0,0,0,0,0,0,0,0,0,0],"sum_hessian":[6.4E1,5.7E1,7E0,4.4E1,1.3E1,3E0,4E0,1.4E1,3E1,4E0,9E0,2E0,1E0,1.3E1,1E0,2E0,2.8E1,3E0,1E0,4E0,5E0,1E0,1.2E1,2.1E1,7E0,2E0,2E0,7E0,5E0,1.5E1,6E0,1E0,6E0,1E0,1E0],"tree_param":{"num_deleted":"0","num_feature":"5","num_nodes":"35","size_leaf_vector":"1"}},{"base_weights":[2.5334638E-2,-5.0846404E-1,3.892208E0,3.8520303E-2,-2.230309E0,1.9164352E0,1.4083154E0,-6.37982E-1,1.7528323E0,-4.967405E0,-1.3601761E0,1.125647E0,-5.386093E-1,7.4002944E-2,-1.739036E0,1.702984E0,9.527995E-1,-1.863976E0,-3.7135622E-1,-6.7290497E-1,-5.2648646E-1,-1.6934446E-1,4.7716066E-1,-1.4759308E0,-7.134691E-1,7.9245305E-1,5.5914307E-1,-5.416008E-1,-8.5351564E-2,-8.840434E-2,3.1300735E-1,-5.0790596E-1,4.2719996E-1,-3.0072024E-2,2.1504314E-1,-1.2043763E-1,2.8211975E-2],"categories":[],"categories_nodes":[],"categories_segments":[],"categories_sizes":[],"default_left":[0,0,0,0,0,0,0,0,0,0,0,0,0,0,0,0,0,0,0,0,0,0,0,0,0,0,0,0,0,0,0,0,0,0,0,0,0],"id":11,"left_children":[1,3,5,7,9,11,-1,13,15,17,19,-1,-1,21,23,-1,25,-1,-1,27,-1,29,-1,-1,31,-1,33,-1,35,-1,-1,-1,-1,-1,-1,-1,-1],"loss_changes":[1.3614763E2,5.4711605E1,3.6828613E0,5.3306393E1,2.658638E1,3.3991806E1,0E0,2.5998512E1,3.540032E1,6.2482605E0,2.0749207E0,0E0,0E0,8.019278E0,3.8896606E1,0E0,6.5002794E0,0E0,0E0,3.838094E0,0E0,3.1953835E0,0E0,0E0,2.5442213E1,0E0,1.2154486E0,0E0,3.212878E-1,0E0,0E0,0E0,0E0,0E0,0E0,0E0,0E0],"parents":[2147483647,0,0,1,1,2,2,3,3,4,4,5,5,7,7,8,8,9,9,10,10,13,13,14,14,16,16,19,19,21,21,24,24,26,26,28,28],"right_children":[2,4,6,8,10,12,-1,14,16,18,20,-1,-1,22,24,-1,26,-1,-1,28,-1,30,-1,-1,32,-1,34,-1,36,-1,-1,-1,-1,-1,-1,-1,-1],"split_conditions":[4E0,4.9E1,1.1E1,3.4E1,3E0,5E0,1.4083154E0,2.7E1,3.3E1,5.3E1,2E1,1.125647E0,-5.386093E-1,4E0,2.9E1,1.702984E0,1E0,-1.863976E0,-3.7135622E-1,5.1E1,-5.2648646E-1,2.7E1,4.7716066E-1,-1.4759308E0,3E0,7.9245305E-1,3.8E1,-5.416008E-1,4E0,-8.840434E-2,3.1300735E-1,-5.0790596E-1,4.2719996E-1,-3.0072024E-2,2.1504314E-1,-1.2043763E-1,2.8211975E-2],"split_indices":[3,2,0,2,0,0,0,2,1,2,0,0,0,4,2,0,0,0,0,2,0,1,0,0,4,0,1,0,0,0,0,0,0,0,0,0,0],"split_type":[0,0,0,0,0,0,0,0,0,0,0,0,0,0,0,0,0,0,0,0,0,0,0,0,0,0,0,0,0,0,0,0,0,0,0,0,0],"sum_hessian":[6.4E1,5.7E1,7E0,4.4E1,1.3E1,3E0,4E0,3.2E1,1.2E1,2E0,1.1E1,2E0,1E0,2E1,1.2E1,1E0,1.1E1,1E0,1E0,5E0,6E0,1.8E1,2E0,2E0,1E1,1E0,1E1,1E0,4E0,1.7E1,1E0,7E0,3E0,2E0,8E0,1E0,3E0],"tree_param":{"num_deleted":"0","num_feature":"5","num_nodes":"37","size_leaf_vector":"1"}},{"base_weights":[2.4277555E-2,-3.829939E-1,2.9739609E0,6.75337E-2,-1.8037616E0,1.4775314E0,1.0728937E0,-4.7249025E-1,1.4331689E0,-4.2222953E0,-1.0488148E0,6.753891E-1,4.6917725E-1,2.07567E-1,-1.208024E0,1.4475358E0,7.484131E-1,-1.5843797E0,-3.1565323E-1,-3.7582398E-3,-3.4256518E-1,-4.5781863E-1,6.689484E-1,-5.0678253E-3,3.8172916E-1,3.8397217E-1,-1.7706871E0,6.7358553E-1,4.0821698E-1,-3.709595E-2,2.6605684E-1,4.4066966E-1,-5.933602E-1,-7.0873815E-1,2.376358E-1,-2.4057008E-2,1.5769857E-1],"categories":[],"categories_nodes":[],"categories_segments":[],"categories_sizes":[],"default_left":[0,0,0,0,0,0,0,0,0,0,0,0,0,0,0,0,0,0,0,0,0,0,0,0,0,0,0,0,0,0,0,0,0,0,0,0,0],"id":12,"left_children":[1,3,5,7,9,11,-1,13,15,17,19,-1,21,23,25,-1,27,-1,-1,-1,-1,-1,-1,29,-1,31,33,-1,35,-1,-1,-1,-1,-1,-1,-1,-1],"loss_changes":[7.922493E1,3.7247326E1,1.9269028E0,3.3863567E1,2.113369E1,2.064663E0,0E0,1.6757515E1,2.6583363E1,4.5143547E0,1.1430502E0,0E0,1.3941613E1,4.082135E0,1.5012014E1,0E0,5.1941967E0,0E0,0E0,0E0,0E0,0E0,0E0,1.801968E0,0E0,1.5717398E1,2.0070553E1,0E0,6.731231E-1,0E0,0E0,0E0,0E0,0E0,0E0,0E0,0E0],"parents":[2147483647,0,0,1,1,2,2,3,3,4,4,5,5,7,7,8,8,9,9,10,10,12,12,13,13,14,14,16,16,23,23,25,25,26,26,28,28],"right_children":[2,4,6,8,10,12,-1,14,16,18,20,-1,22,24,26,-1,28,-1,-1,-1,-1,-1,-1,30,-1,32,34,-1,36,-1,-1,-1,-1,-1,-1,-1,-1],"split_conditions":[4E0,4.9E1,4E0,3.4E1,3E0,5E0,1.0728937E0,2.3E1,3.3E1,5.3E1,2E0,6.753891E-1,1.1E1,4E0,2E0,1.4475358E0,1E0,-1.5843797E0,-3.1565323E-1,-3.7582398E-3,-3.4256518E-1,-4.5781863E-1,6.689484E-1,2.2E1,3.8172916E-1,5.9E1,3.5E1,6.7358553E-1,3.8E1,-3.709595E-2,2.6605684E-1,4.4066966E-1,-5.933602E-1,-7.0873815E-1,2.376358E-1,-2.4057008E-2,1.5769857E-1],"split_indices":[3,2,4,2,0,0,0,2,1,2,4,0,0,4,3,0,0,0,0,0,0,0,0,1,0,1,1,0,1,0,0,0,0,0,0,0,0],"split_type":[0,0,0,0,0,0,0,0,0,0,0,0,0,0,0,0,0,0,0,0,0,0,0,0,0,0,0,0,0,0,0,0,0,0,0,0,0],"sum_hessian":[6.4E1,5.7E1,7E0,4.4E1,1.3E1,3E0,4E0,3.2E1,1.2E1,2E0,1.1E1,1E0,2E0,1.7E1,1.5E1,1E0,1.1E1,1E0,1E0,1E0,1E1,1E0,1E0,1.5E1,2E0,4E0,1.1E1,1E0,1E1,1.4E1,1E0,3E0,1E0,9E0,2E0,2E0,8E0],"tree_param":{"num_deleted":"0","num_feature":"5","num_nodes":"37","size_leaf_vector":"1"}},{"base_weights":[4.706609E-2,-2.6817715E-1,2.3266964E0,9.708761E-2,-1.423087E0,1.1656532E0,8.3705753E-1,-3.3114114E-1,1.1766616E0,-3.5889485E0,-7.63031E-1,7.2569126E-1,-3.8914493E-1,1.6217768E-1,-1.1025684E0,1.2304047E0,5.9115857E-1,-1.3467225E0,-2.6830447E-1,-1.2123165E0,-4.7856733E-1,-1.425394E-1,5.843048E-1,-1.0389969E0,-3.5849276E-1,5.725479E-1,2.979015E-1,-4.4235003E-1,-6.38649E-2,2.665596E-1,-2.6866722E-1,2.7235413E-2,-8.9914516E-2,3.4211197E-1,3.4862522E-2,-3.145592E-1,3.3336183E-1,2.7070837E-2,1.5871583E-1,-3.6122132E-2,2.1411897E-1],"categories":[],"categories_nodes":[],"categories_segments":[],"categories_sizes":[],"default_left":[0,0,0,0,0,0,0,0,0,0,0,0,0,0,0,0,0,0,0,0,0,0,0,0,0,0,0,0,0,0,0,0,0,0,0,0,0,0,0,0,0],"id":13,"left_children":[1,3,5,7,9,11,-1,13,15,17,19,-1,-1,21,23,-1,25,-1,-1,27,29,31,33,-1,35,-1,37,-1,-1,39,-1,-1,-1,-1,-1,-1,-1,-1,-1,-1,-1],"loss_changes":[4.733544E1,2.4605341E1,1.0527115E0,2.1193348E1,1.7275778E1,1.5484463E1,0E0,1.2737278E1,1.9836826E1,3.2616463E0,9.534898E-1,0E0,0E0,2.7845027E0,2.1593964E1,0E0,4.067269E0,0E0,0E0,7.3424387E-1,3.0351138E0,5.039568E-1,2.210122E0,0E0,1.2320759E1,0E0,4.8028344E-1,0E0,0E0,7.780982E-1,0E0,0E0,0E0,0E0,0E0,0E0,0E0,0E0,0E0,0E0,0E0],"parents":[2147483647,0,0,1,1,2,2,3,3,4,4,5,5,7,7,8,8,9,9,10,10,13,13,14,14,16,16,19,19,20,20,21,21,22,22,24,24,26,26,29,29],"right_children":[2,4,6,8,10,12,-1,14,16,18,20,-1,-1,22,24,-1,26,-1,-1,28,30,32,34,-1,36,-1,38,-1,-1,40,-1,-1,-1,-1,-1,-1,-1,-1,-1,-1,-1],"split_conditions":[4E0,4.9E1,1.1E1,3.4E1,3E0,5E0,8.3705753E-1,2.7E1,3.3E1,5.3E1,5.3E1,7.2569126E-1,-3.8914493E-1,3E0,2.9E1,1.2304047E0,1E0,-1.3467225E0,-2.6830447E-1,2E0,2E1,1.7E1,8E0,-1.0389969E0,3E0,5.725479E-1,1.5E1,-4.4235003E-1,-6.38649E-2,2E0,-2.6866722E-1,2.7235413E-2,-8.9914516E-2,3.4211197E-1,3.4862522E-2,-3.145592E-1,3.3336183E-1,2.7070837E-2,1.5871583E-1,-3.6122132E-2,2.1411897E-1],"split_indices":[3,2,0,2,0,0,0,2,1,2,2,0,0,3,2,0,0,0,0,3,0,0,2,0,4,0,0,0,0,3,0,0,0,0,0,0,0,0,0,0,0],"split_type":[0,0,0,0,0,0,0,0,0,0,0,0,0,0,0,0,0,0,0,0,0,0,0,0,0,0,0,0,0,0,0,0,0,0,0,0,0,0,0,0,0],"sum_hessian":[6.4E1,5.7E1,7E0,4.4E1,1.3E1,3E0,4E0,3.2E1,1.2E1,2E0,1.1E1,2E0,1E0,2E1,1.2E1,1E0,1.1E1,1E0,1E0,3E0,8E0,1.2E1,8E0,2E0,1E1,1E0,1E1,2E0,1E0,3E0,5E0,5E0,7E0,3E0,5E0,7E0,3E0,6E0,4E0,2E0,1E0],"tree_param":{"num_deleted":"0","num_feature":"5","num_nodes":"41","size_leaf_vector":"1"}},{"base_weights":[3.67076E-2,-2.037426E-1,1.775383E0,9.646878E-2,-1.1541547E0,9.000931E-1,6.361615E-1,-2.5318956E-1,9.766423E-1,-3.0506032E0,-5.8386296E-1,5.805527E-1,-3.3077317E-1,1.2849063E-1,-8.502737E-1,1.0458436E0,4.77005E-1,-1.1447136E0,-2.2805788E-1,-9.7517586E-1,-3.4507242E-1,-1.0459665E-1,4.5089552E-1,-8.3119816E-1,-2.4923429E-1,4.866669E-1,2.2541948E-1,-3.5387954E-1,-5.4286197E-2,2.3108673E-1,-2.0149994E-1,2.0426178E-2,-6.63105E-2,2.651356E-1,2.6145935E-2,1.8288651E-1,-3.1996536E-1,-2.4658203E-2,9.087321E-2,-2.8898621E-2,1.8199998E-1],"categories":[],"categories_nodes":[],"categories_segments":[],"categories_sizes":[],"default_left":[0,0,0,0,0,0,0,0,0,0,0,0,0,0,0,0,0,0,0,0,0,0,0,0,0,0,0,0,0,0,0,0,0,0,0,0,0,0,0,0,0],"id":14,"left_children":[1,3,5,7,9,11,-1,13,15,17,19,-1,-1,21,23,-1,25,-1,-1,27,29,31,33,-1,35,-1,37,-1,-1,39,-1,-1,-1,-1,-1,-1,-1,-1,-1,-1,-1],"loss_changes":[2.7535934E1,1.666016E1,5.082054E-1,1.4096477E1,1.3360271E1,1.0425397E1,0E0,7.629793E0,1.4637026E1,2.3565617E0,7.847953E-1,0E0,0E0,1.6252801E0,1.4314423E1,0E0,3.0917623E0,0E0,0E0,4.3597484E-1,1.8487444E0,2.764411E-1,1.3401185E0,0E0,8.371725E0,0E0,2.8710818E-1,0E0,0E0,5.50322E-1,0E0,0E0,0E0,0E0,0E0,0E0,0E0,0E0,0E0,0E0,0E0],"parents":[2147483647,0,0,1,1,2,2,3,3,4,4,5,5,7,7,8,8,9,9,10,10,13,13,14,14,16,16,19,19,20,20,21,21,22,22,24,24,26,26,29,29],"right_children":[2,4,6,8,10,12,-1,14,16,18,20,-1,-1,22,24,-1,26,-1,-1,28,30,32,34,-1,36,-1,38,-1,-1,40,-1,-1,-1,-1,-1,-1,-1,-1,-1,-1,-1],"split_conditions":[4E0,4.9E1,1.1E1,3.4E1,3E0,5E0,6.361615E-1,2.7E1,3.3E1,5.3E1,5.3E1,5.805527E-1,-3.3077317E-1,3E0,2.9E1,1.0458436E0,1E0,-1.1447136E0,-2.2805788E-1,2E0,2E1,1.7E1,8E0,-8.3119816E-1,3E0,4.866669E-1,3.8E1,-3.5387954E-1,-5.4286197E-2,2E0,-2.0149994E-1,2.0426178E-2,-6.63105E-2,2.651356E-1,2.6145935E-2,1.8288651E-1,-3.1996536E-1,-2.4658203E-2,9.087321E-2,-2.8898621E-2,1.8199998E-1],"split_indices":[3,2,0,2,0,0,0,2,1,2,2,0,0,3,2,0,0,0,0,3,0,0,2,0,3,0,1,0,0,3,0,0,0,0,0,0,0,0,0,0,0],"split_type":[0,0,0,0,0,0,0,0,0,0,0,0,0,0,0,0,0,0,0,0,0,0,0,0,0,0,0,0,0,0,0,0,0,0,0,0,0,0,0,0,0],"sum_hessian":[6.4E1,5.7E1,7E0,4.4E1,1.3E1,3E0,4E0,3.2E1,1.2E1,2E0,1.1E1,2E0,1E0,2E1,1.2E1,1E0,1.1E1,1E0,1E0,3E0,8E0,1.2E1,8E0,2E0,1E1,1E0,1E1,2E0,1E0,3E0,5E0,5E0,7E0,3E0,5E0,5E0,5E0,2E0,8E0,2E0,1E0],"tree_param":{"num_deleted":"0","num_feature":"5","num_nodes":"41","size_leaf_vector":"1"}},{"base_weights":[2.4655856E-2,-1.590592E-1,1.353508E0,8.699138E-2,-9.385747E-1,6.925125E-1,4.8348084E-1,-1.9914015E-1,8.066336E-1,-2.5930126E0,-4.4675064E-1,4.6444246E-1,-2.8115618E-1,1.2070312E-1,-6.418348E-1,8.8896793E-1,3.79982E-1,-9.730065E-1,-1.9384919E-1,-7.8466225E-1,-2.4692875E-1,-7.6747015E-2,4.264717E-1,-6.649582E-1,-1.9467545E-1,4.1366732E-1,1.6381836E-1,-2.831032E-1,-4.6142578E-2,2.000351E-1,-1.5112495E-1,1.5318299E-2,-4.8902895E-2,1.8823244E-2,2.3235399E-1,1.1871415E-1,-3.3010894E-1,6.6467286E-3,9.88147E-2,-2.3118593E-2,1.5469895E-1],"categories":[],"categories_nodes":[],"categories_segments":[],"categories_sizes":[],"default_left":[0,0,0,0,0,0,0,0,0,0,0,0,0,0,0,0,0,0,0,0,0,0,0,0,0,0,0,0,0,0,0,0,0,0,0,0,0,0,0,0,0],"id":15,"left_children":[1,3,5,7,9,11,-1,13,15,17,19,-1,-1,21,23,-1,25,-1,-1,27,29,31,33,-1,35,-1,37,-1,-1,39,-1,-1,-1,-1,-1,-1,-1,-1,-1,-1,-1],"loss_changes":[1.6083746E1,1.120606E1,2.487402E-1,9.426688E0,1.023326E1,7.0285716E0,0E0,4.750037E0,1.08355055E1,1.7026157E0,6.165099E-1,0E0,0E0,1.2402115E0,9.426435E0,0E0,2.3652458E0,0E0,0E0,2.561152E-1,1.1338754E0,1.5164915E-1,9.641421E-1,0E0,6.8519287E0,0E0,2.5069875E-1,0E0,0E0,3.8957644E-1,0E0,0E0,0E0,0E0,0E0,0E0,0E0,0E0,0E0,0E0,0E0],"parents":[2147483647,0,0,1,1,2,2,3,3,4,4,5,5,7,7,8,8,9,9,10,10,13,13,14,14,16,16,19,19,20,20,21,21,22,22,24,24,26,26,29,29],"right_children":[2,4,6,8,10,12,-1,14,16,18,20,-1,-1,22,24,-1,26,-1,-1,28,30,32,34,-1,36,-1,38,-1,-1,40,-1,-1,-1,-1,-1,-1,-1,-1,-1,-1,-1],"split_conditions":[4E0,4.9E1,1.1E1,3.4E1,3E0,5E0,4.8348084E-1,2.7E1,3.3E1,5.3E1,5.3E1,4.6444246E-1,-2.8115618E-1,2.1E1,2.9E1,8.8896793E-1,1E0,-9.730065E-1,-1.9384919E-1,2E0,2E1,1.7E1,3E0,-6.649582E-1,1.5E1,4.1366732E-1,1.5E1,-2.831032E-1,-4.6142578E-2,2E0,-1.5112495E-1,1.5318299E-2,-4.8902895E-2,1.8823244E-2,2.3235399E-1,1.1871415E-1,-3.3010894E-1,6.6467286E-3,9.88147E-2,-2.3118593E-2,1.5469895E-1],"split_indices":[3,2,0,2,0,0,0,1,1,2,2,0,0,0,1,0,0,0,0,3,0,0,4,0,0,0,0,0,0,3,0,0,0,0,0,0,0,0,0,0,0],"split_type":[0,0,0,0,0,0,0,0,0,0,0,0,0,0,0,0,0,0,0,0,0,0,0,0,0,0,0,0,0,0,0,0,0,0,0,0,0,0,0,0,0],"sum_hessian":[6.4E1,5.7E1,7E0,4.4E1,1.3E1,3E0,4E0,3.2E1,1.2E1,2E0,1.1E1,2E0,1E0,1.9E1,1.3E1,1E0,1.1E1,1E0,1E0,3E0,8E0,1.2E1,7E0,2E0,1.1E1,1E0,1E1,2E0,1E0,3E0,5E0,5E0,7E0,4E0,3E0,7E0,4E0,6E0,4E0,2E0,1E0],"tree_param":{"num_deleted":"0","num_feature":"5","num_nodes":"41","size_leaf_vector":"1"}},{"base_weights":[1.5725708E-2,-1.24555126E-1,1.030796E0,7.7544145E-2,-7.6526314E-1,5.305786E-1,3.6744326E-1,-1.5936187E-1,6.7295605E-1,-2.2040608E0,-3.4179178E-1,3.7155306E-1,-2.389824E-1,9.536972E-2,-5.118812E-1,7.5562364E-1,3.0924478E-1,-8.270554E-1,-1.6477203E-1,-2.4707451E-1,-2.2312164E-1,-5.6306105E-2,3.2992172E-1,-5.3196716E-1,-1.538887E-1,3.5161746E-1,1.24256484E-1,8.604126E-2,-1.23623334E-1,1.1488343E-2,-3.6065485E-2,1.43042E-2,1.8007278E-1,1.5236741E-1,-2.0974341E-1,4.936001E-3,7.509888E-2,-3.9221194E-2,5.187607E-2],"categories":[],"categories_nodes":[],"categories_segments":[],"categories_sizes":[],"default_left":[0,0,0,0,0,0,0,0,0,0,0,0,0,0,0,0,0,0,0,0,0,0,0,0,0,0,0,0,0,0,0,0,0,0,0,0,0,0,0],"id":16,"left_children":[1,3,5,7,9,11,-1,13,15,17,19,-1,-1,21,23,-1,25,-1,-1,-1,27,29,31,-1,33,-1,35,37,-1,-1,-1,-1,-1,-1,-1,-1,-1,-1,-1],"loss_changes":[9.384061E0,7.569566E0,1.2653732E-1,6.4547925E0,7.776725E0,4.744836E0,0E0,3.0121453E0,7.9484377E0,1.230133E0,5.0232995E-1,0E0,0E0,7.3009396E-1,6.0488377E0,0E0,1.7696887E0,0E0,0E0,0E0,6.780562E-1,8.320337E-2,5.817452E-1,0E0,4.685164E0,0E0,1.4538309E-1,1.16774626E-1,0E0,0E0,0E0,0E0,0E0,0E0,0E0,0E0,0E0,0E0,0E0],"parents":[2147483647,0,0,1,1,2,2,3,3,4,4,5,5,7,7,8,8,9,9,10,10,13,13,14,14,16,16,20,20,21,21,22,22,24,24,26,26,27,27],"right_children":[2,4,6,8,10,12,-1,14,16,18,20,-1,-1,22,24,-1,26,-1,-1,-1,28,30,32,-1,34,-1,36,38,-1,-1,-1,-1,-1,-1,-1,-1,-1,-1,-1],"split_conditions":[4E0,4.9E1,1.1E1,3.4E1,3E0,5E0,3.6744326E-1,2.7E1,3.3E1,5.3E1,5.1E1,3.7155306E-1,-2.389824E-1,2.1E1,2.9E1,7.5562364E-1,1E0,-8.270554E-1,-1.6477203E-1,-2.4707451E-1,2E1,1.7E1,3E0,-5.3196716E-1,3E0,3.5161746E-1,1.5E1,5.6E1,-1.23623334E-1,1.1488343E-2,-3.6065485E-2,1.43042E-2,1.8007278E-1,1.5236741E-1,-2.0974341E-1,4.936001E-3,7.509888E-2,-3.9221194E-2,5.187607E-2],"split_indices":[3,2,0,2,0,0,0,1,1,2,2,0,0,0,1,0,0,0,0,0,0,0,4,0,3,0,0,1,0,0,0,0,0,0,0,0,0,0,0],"split_type":[0,0,0,0,0,0,0,0,0,0,0,0,0,0,0,0,0,0,0,0,0,0,0,0,0,0,0,0,0,0,0,0,0,0,0,0,0,0,0],"sum_hessian":[6.4E1,5.7E1,7E0,4.4E1,1.3E1,3E0,4E0,3.2E1,1.2E1,2E0,1.1E1,2E0,1E0,1.9E1,1.3E1,1E0,1.1E1,1E0,1E0,1E0,1E1,1.2E1,7E0,2E0,1.1E1,1E0,1E1,4E0,6E0,5E0,7E0,4E0,3E0,5E0,6E0,6E0,4E0,1E0,3E0],"tree_param":{"num_deleted":"0","num_feature":"5","num_nodes":"39","size_leaf_vector":"1"}},{"base_weights":[9.746258E-3,-9.72244E-2,7.8406525E-1,1.07089534E-1,-5.572048E-1,4.0454865E-1,2.7925965E-1,1.0613327E0,-1.2058797E-1,-1.236126E0,-1.2788946E-2,2.9724276E-1,-2.0313492E-1,1.8361816E-2,6.138474E-1,-2.4288677E-1,4.9062094E-1,4.840088E-3,-1.6562347E0,1.8392944E-1,-2.1999699E-1,8.6650304E-2,-9.848192E-1,2.988739E-1,5.7073977E-2,-1.9267486E0,-4.5549776E-2,-1.4005738E-1,-1.3078213E-1,1.0245079E-1,-1.1417236E-2,-3.720257E-1,1.5859681E-1,-6.854782E-1,-7.410508E-2,1.2371293E-1,-8.0186136E-2],"categories":[],"categories_nodes":[],"categories_segments":[],"categories_sizes":[],"default_left":[0,0,0,0,0,0,0,0,0,0,0,0,0,0,0,0,0,0,0,0,0,0,0,0,0,0,0,0,0,0,0,0,0,0,0,0,0],"id":17,"left_children":[1,3,5,7,9,11,-1,13,15,17,19,-1,-1,-1,-1,21,23,-1,25,-1,27,29,31,-1,-1,33,-1,-1,35,-1,-1,-1,-1,-1,-1,-1,-1],"loss_changes":[5.460142E0,5.5105343E0,6.91247E-2,9.035631E0,6.6372695E0,3.2074432E0,0E0,7.754361E0,2.6606693E0,4.235402E0,1.5614569E0,0E0,0E0,0E0,0E0,7.1756682E0,7.217288E-1,0E0,2.1492271E0,0E0,1.3715628E-1,6.804199E-1,4.132633E0,0E0,0E0,2.4438038E0,0E0,0E0,7.0337373E-1,0E0,0E0,0E0,0E0,0E0,0E0,0E0,0E0],"parents":[2147483647,0,0,1,1,2,2,3,3,4,4,5,5,7,7,8,8,9,9,10,10,15,15,16,16,18,18,20,20,21,21,22,22,25,25,28,28],"right_children":[2,4,6,8,10,12,-1,14,16,18,20,-1,-1,-1,-1,22,24,-1,26,-1,28,30,32,-1,-1,34,-1,-1,36,-1,-1,-1,-1,-1,-1,-1,-1],"split_conditions":[4E0,5.1E1,1.1E1,2E0,2E0,5E0,2.7925965E-1,2E0,3.8E1,2E0,3.2E1,2.9724276E-1,-2.0313492E-1,1.8361816E-2,6.138474E-1,2.7E1,1E0,4.840088E-3,5.3E1,1.8392944E-1,3E0,8E0,1.8E1,2.988739E-1,5.7073977E-2,1.9E1,-4.5549776E-2,-1.4005738E-1,1.5E1,1.0245079E-1,-1.1417236E-2,-3.720257E-1,1.5859681E-1,-6.854782E-1,-7.410508E-2,1.2371293E-1,-8.0186136E-2],"split_indices":[3,1,0,3,3,0,0,0,1,4,2,0,0,0,0,2,0,0,2,0,0,2,0,0,0,0,0,0,0,0,0,0,0,0,0,0,0],"split_type":[0,0,0,0,0,0,0,0,0,0,0,0,0,0,0,0,0,0,0,0,0,0,0,0,0,0,0,0,0,0,0,0,0,0,0,0,0],"sum_hessian":[6.4E1,5.7E1,7E0,4E1,1.7E1,3E0,4E0,7E0,3.3E1,7E0,1E1,2E0,1E0,4E0,3E0,2.8E1,5E0,2E0,5E0,2E0,8E0,2E1,8E0,1E0,4E0,4E0,1E0,1E0,7E0,6E0,1.4E1,7E0,1E0,3E0,1E0,1E0,6E0],"tree_param":{"num_deleted":"0","num_feature":"5","num_nodes":"37","size_leaf_vector":"1"}},{"base_weights":[1.4918049E-2,-6.54214E-2,5.955143E-1,9.6079014E-2,-4.2964894E-1,3.067131E-1,2.1223573E-1,8.2196236E-1,-7.754292E-2,-9.653244E-1,-1.0077737E-3,2.377945E-1,-1.7266388E-1,1.39563E-2,4.7573206E-1,-2.0654297E-1,3.675251E-1,3.8726807E-3,-1.2935537E0,4.9047852E-1,-1.6472456E-1,6.4988635E-2,-9.916316E-1,2.5404283E-1,5.3424947E-2,-1.5006409E0,-3.8717654E-2,3.796921E-2,1.8274613E-1,-1.1904831E-1,-8.610821E-2,8.167468E-4,1.3130341E-1,-3.920067E-1,1.3480683E-1,-5.3124565E-1,-6.298943E-2,1.05155185E-1,-5.9567153E-2],"categories":[],"categories_nodes":[],"categories_segments":[],"categories_sizes":[],"default_left":[0,0,0,0,0,0,0,0,0,0,0,0,0,0,0,0,0,0,0,0,0,0,0,0,0,0,0,0,0,0,0,0,0,0,0,0,0,0,0],"id":18,"left_children":[1,3,5,7,9,11,-1,13,15,17,19,-1,-1,-1,-1,21,23,-1,25,27,29,31,33,-1,-1,35,-1,-1,-1,-1,37,-1,-1,-1,-1,-1,-1,-1,-1],"loss_changes":[3.0708702E0,3.4530084E0,4.1638136E-2,5.2309375E0,4.132053E0,2.1710892E0,0E0,4.6645546E0,2.027979E0,2.5853772E0,9.65904E-1,0E0,0E0,0E0,0E0,5.8202076E0,5.7556987E-1,0E0,1.2532406E0,5.2465975E-2,1.3005382E-1,4.8613298E-1,3.7651248E0,0E0,0E0,1.3717508E0,0E0,0E0,0E0,0E0,4.6238238E-1,0E0,0E0,0E0,0E0,0E0,0E0,0E0,0E0],"parents":[2147483647,0,0,1,1,2,2,3,3,4,4,5,5,7,7,8,8,9,9,10,10,15,15,16,16,18,18,19,19,20,20,21,21,22,22,25,25,30,30],"right_children":[2,4,6,8,10,12,-1,14,16,18,20,-1,-1,-1,-1,22,24,-1,26,28,30,32,34,-1,-1,36,-1,-1,-1,-1,38,-1,-1,-1,-1,-1,-1,-1,-1],"split_conditions":[4E0,5.1E1,1.1E1,2E0,2E0,5E0,2.1223573E-1,2E0,3.5E1,2E0,3.2E1,2.377945E-1,-1.7266388E-1,1.39563E-2,4.7573206E-1,2.7E1,1E0,3.8726807E-3,5.3E1,2E0,3E0,4E0,1.8E1,2.5404283E-1,5.3424947E-2,1.9E1,-3.8717654E-2,3.796921E-2,1.8274613E-1,-1.1904831E-1,1.5E1,8.167468E-4,1.3130341E-1,-3.920067E-1,1.3480683E-1,-5.3124565E-1,-6.298943E-2,1.05155185E-1,-5.9567153E-2],"split_indices":[3,1,0,3,3,0,0,0,1,4,2,0,0,0,0,2,0,0,2,0,0,4,0,0,0,0,0,0,0,0,0,0,0,0,0,0,0,0,0],"split_type":[0,0,0,0,0,0,0,0,0,0,0,0,0,0,0,0,0,0,0,0,0,0,0,0,0,0,0,0,0,0,0,0,0,0,0,0,0,0,0],"sum_hessian":[6.4E1,5.7E1,7E0,4E1,1.7E1,3E0,4E0,7E0,3.3E1,7E0,1E1,2E0,1E0,4E0,3E0,2.6E1,7E0,2E0,5E0,2E0,8E0,2E1,6E0,1E0,6E0,4E0,1E0,1E0,1E0,1E0,7E0,1.8E1,2E0,5E0,1E0,3E0,1E0,1E0,6E0],"tree_param":{"num_deleted":"0","num_feature":"5","num_nodes":"39","size_leaf_vector":"1"}},{"base_weights":[1.7633995E-2,-3.7376404E-1,9.559298E-2,3.156662E-2,-1.0909843E0,5.732625E-1,-8.14957E-2,-2.3684464E-1,2.6164246E-1,-5.2048874E-1,-8.9401245E-2,2.7183992E-1,9.8008984E-1,-2.7276766E-1,-1.573455E-2,2.1593629E-1,6.5320335E-2,4.1075814E-1,-1.4676362E-1,4.7884142E-1,1.6129579E-1,6.769824E-2,-3.474989E-1,1.0605469E-2,3.227463E-2,3.905487E-2,5.901006E-1,3.1081137E-1,1.116576E-2,-2.754387E-1,-1.3481903E-1,9.490967E-4,2.2009278E-2,2.1095215E-1,3.7101747E-3,1.7506028E-2,1.6314545E-1,-7.1481764E-2,2.8134046E-2,9.3612674E-4,-4.7498707E-2],"categories":[],"categories_nodes":[],"categories_segments":[],"categories_sizes":[],"default_left":[0,0,0,0,0,0,0,0,0,0,0,0,0,0,0,0,0,0,0,0,0,0,0,0,0,0,0,0,0,0,0,0,0,0,0,0,0,0,0,0,0],"id":19,"left_children":[1,3,5,7,9,11,13,-1,15,-1,-1,17,19,-1,21,-1,23,25,-1,-1,-1,27,29,-1,-1,31,33,35,37,-1,39,-1,-1,-1,-1,-1,-1,-1,-1,-1,-1],"loss_changes":[2.019074E0,3.232264E0,4.6991615E0,1.7177898E0,1.5256214E0,1.5729766E0,2.2174246E0,0E0,5.8259135E-1,0E0,0E0,1.2581875E0,7.772083E-1,0E0,1.1030461E0,0E0,3.796002E-3,5.7691336E-1,0E0,0E0,0E0,4.363308E-1,8.4711087E-1,0E0,0E0,4.693523E-3,3.8326073E-1,3.212129E-1,5.787394E-1,0E0,2.3194745E-2,0E0,0E0,0E0,0E0,0E0,0E0,0E0,0E0,0E0,0E0],"parents":[2147483647,0,0,1,1,2,2,3,3,4,4,5,5,6,6,8,8,11,11,12,12,14,14,16,16,17,17,21,21,22,22,25,25,26,26,27,27,28,28,30,30],"right_children":[2,4,6,8,10,12,14,-1,16,-1,-1,18,20,-1,22,-1,24,26,-1,-1,-1,28,30,-1,-1,32,34,36,38,-1,40,-1,-1,-1,-1,-1,-1,-1,-1,-1,-1],"split_conditions":[4E0,2E0,1.2E1,3.3E1,5.3E1,1.1E1,1.3E1,-2.3684464E-1,1E0,-5.2048874E-1,-8.9401245E-2,1E1,3.3E1,-2.7276766E-1,5.9E1,2.1593629E-1,4.7E1,3E1,-1.4676362E-1,4.7884142E-1,1.6129579E-1,1.5E1,1.9E1,1.0605469E-2,3.227463E-2,7E0,9E0,5.6E1,1.8E1,-2.754387E-1,2E1,9.490967E-4,2.2009278E-2,2.1095215E-1,3.7101747E-3,1.7506028E-2,1.6314545E-1,-7.1481764E-2,2.8134046E-2,9.3612674E-4,-4.7498707E-2],"split_indices":[0,0,0,1,2,0,0,0,0,0,0,0,1,0,1,0,1,1,0,0,0,0,0,0,0,0,0,1,0,0,0,0,0,0,0,0,0,0,0,0,0],"split_type":[0,0,0,0,0,0,0,0,0,0,0,0,0,0,0,0,0,0,0,0,0,0,0,0,0,0,0,0,0,0,0,0,0,0,0,0,0,0,0,0,0],"sum_hessian":[6.4E1,1E1,5.4E1,7E0,3E0,1.4E1,4E1,1E0,6E0,1E0,2E0,9E0,5E0,2E0,3.8E1,1E0,5E0,8E0,1E0,1E0,4E0,3.1E1,7E0,4E0,1E0,3E0,5E0,5E0,2.6E1,1E0,6E0,2E0,1E0,4E0,1E0,3E0,2E0,6E0,2E1,1E0,5E0],"tree_param":{"num_deleted":"0","num_feature":"5","num_nodes":"41","size_leaf_vector":"1"}},{"base_weights":[7.5074416E-3,-3.150815E-1,7.188873E-2,2.4843216E-2,-9.161606E-1,4.5002034E-1,-6.820548E-2,-2.0131761E-1,2.2012329E-1,-4.4241488E-1,-2.3840332E-1,1.993744E-1,7.927602E-1,-2.1821444E-1,-1.5750786E-2,1.8354493E-1,5.2871704E-2,-8.7780766E-2,-1.9500732E-2,3.1393433E-1,-1.2474976E-1,3.5271913E-1,9.220276E-2,5.167818E-2,-2.834978E-1,8.0603035E-3,2.7433777E-2,3.3081055E-2,4.4884744E-1,2.51012E-2,1.3133469E-1,-2.3412324E-1,-1.01022996E-1,7.5988774E-4,1.8708803E-2,1.6032349E-1,3.153992E-3,7.430306E-2,-8.168353E-3,7.965088E-4,-3.5623554E-2],"categories":[],"categories_nodes":[],"categories_segments":[],"categories_sizes":[],"default_left":[0,0,0,0,0,0,0,0,0,0,0,0,0,0,0,0,0,0,0,0,0,0,0,0,0,0,0,0,0,0,0,0,0,0,0,0,0,0,0,0,0],"id":20,"left_children":[1,3,5,7,9,11,13,-1,15,-1,17,19,21,-1,23,-1,25,-1,-1,27,-1,-1,-1,29,31,-1,-1,33,35,37,-1,-1,39,-1,-1,-1,-1,-1,-1,-1,-1],"loss_changes":[1.3726158E0,2.2702985E0,2.9442666E0,1.2348818E0,1.162683E0,1.1305394E0,1.4061949E0,0E0,4.262313E-1,0E0,9.17469E-3,8.3532476E-1,7.540505E-1,0E0,7.18753E-1,0E0,3.5615694E-3,0E0,0E0,3.261689E-1,0E0,0E0,0E0,3.1737852E-1,6.465534E-1,0E0,0E0,3.4200284E-3,2.1941566E-1,3.6780602E-1,0E0,0E0,1.3177067E-2,0E0,0E0,0E0,0E0,0E0,0E0,0E0,0E0],"parents":[2147483647,0,0,1,1,2,2,3,3,4,4,5,5,6,6,8,8,10,10,11,11,12,12,14,14,16,16,19,19,23,23,24,24,27,27,28,28,29,29,32,32],"right_children":[2,4,6,8,10,12,14,-1,16,-1,18,20,22,-1,24,-1,26,-1,-1,28,-1,-1,-1,30,32,-1,-1,34,36,38,-1,-1,40,-1,-1,-1,-1,-1,-1,-1,-1],"split_conditions":[4E0,2E0,1.2E1,3.3E1,5.3E1,1.1E1,1.3E1,-2.0131761E-1,1E0,-4.4241488E-1,3E0,1E1,4E0,-2.1821444E-1,5.9E1,1.8354493E-1,4.7E1,-8.7780766E-2,-1.9500732E-2,3E1,-1.2474976E-1,3.5271913E-1,9.220276E-2,4E0,1.9E1,8.0603035E-3,2.7433777E-2,7E0,9E0,1.5E1,1.3133469E-1,-2.3412324E-1,2E1,7.5988774E-4,1.8708803E-2,1.6032349E-1,3.153992E-3,7.430306E-2,-8.168353E-3,7.965088E-4,-3.5623554E-2],"split_indices":[0,0,0,1,2,0,0,0,0,0,0,0,4,0,1,0,1,0,0,1,0,0,0,4,0,0,0,0,0,0,0,0,0,0,0,0,0,0,0,0,0],"split_type":[0,0,0,0,0,0,0,0,0,0,0,0,0,0,0,0,0,0,0,0,0,0,0,0,0,0,0,0,0,0,0,0,0,0,0,0,0,0,0,0,0],"sum_hessian":[6.4E1,1E1,5.4E1,7E0,3E0,1.4E1,4E1,1E0,6E0,1E0,2E0,9E0,5E0,2E0,3.8E1,1E0,5E0,1E0,1E0,8E0,1E0,2E0,3E0,3.1E1,7E0,4E0,1E0,3E0,5E0,3E1,1E0,1E0,6E0,2E0,1E0,4E0,1E0,5E0,2.5E1,1E0,5E0],"tree_param":{"num_deleted":"0","num_feature":"5","num_nodes":"41","size_leaf_vector":"1"}},{"base_weights":[3.5294754E-4,-2.84758E-1,5.1259313E-2,1.9607544E-2,-1.0014801E0,3.1986523E-1,-5.4812733E-2,-1.7111893E-1,1.8537903E-1,-3.760529E-1,-7.461319E-2,1.2211886E-1,6.2908936E-1,-5.052223E-1,-5.958758E-3,1.5601273E-1,4.292806E-2,2.4008009E-1,-2.724711E-1,3.5410768E-1,8.48291E-2,-1.7457125E-1,-4.127655E-2,5.258425E-2,-2.3206806E-1,6.1267093E-3,2.3318483E-2,2.8022766E-2,3.414383E-1,-1.6575623E-2,-1.0603638E-1,2.7793884E-1,8.904351E-3,-1.9900475E-1,-7.569231E-2,6.0729985E-4,1.5902711E-2,1.2184571E-1,2.6802064E-3,2.3315432E-2,1.15654E-1,-5.1000107E-2,2.0434571E-2,6.7749026E-4,-2.671814E-2],"categories":[],"categories_nodes":[],"categories_segments":[],"categories_sizes":[],"default_left":[0,0,0,0,0,0,0,0,0,0,0,0,0,0,0,0,0,0,0,0,0,0,0,0,0,0,0,0,0,0,0,0,0,0,0,0,0,0,0,0,0,0,0,0,0],"id":21,"left_children":[1,3,5,7,9,11,13,-1,15,-1,-1,17,19,21,23,-1,25,27,29,-1,-1,-1,-1,31,33,-1,-1,35,37,-1,-1,39,41,-1,43,-1,-1,-1,-1,-1,-1,-1,-1,-1,-1],"loss_changes":[9.58004E-1,2.2010918E0,1.6130611E0,8.8818616E-1,2.5739884E-1,9.015435E-1,8.991657E-1,0E0,3.1138748E-1,0E0,0E0,5.774244E-1,8.117502E-1,3.2699943E-2,5.152136E-1,0E0,3.1118225E-3,1.8387562E-1,3.324434E-2,0E0,0E0,0E0,0E0,3.0267256E-1,4.8932478E-1,0E0,0E0,2.4911074E-3,1.2547761E-1,0E0,0E0,7.773188E-2,2.9759347E-1,0E0,7.495515E-3,0E0,0E0,0E0,0E0,0E0,0E0,0E0,0E0,0E0,0E0],"parents":[2147483647,0,0,1,1,2,2,3,3,4,4,5,5,6,6,8,8,11,11,12,12,13,13,14,14,16,16,17,17,18,18,23,23,24,24,27,27,28,28,31,31,32,32,34,34],"right_children":[2,4,6,8,10,12,14,-1,16,-1,-1,18,20,22,24,-1,26,28,30,-1,-1,-1,-1,32,34,-1,-1,36,38,-1,-1,40,42,-1,44,-1,-1,-1,-1,-1,-1,-1,-1,-1,-1],"split_conditions":[3E0,2E0,1.2E1,3.3E1,5.3E1,1.1E1,1.4E1,-1.7111893E-1,1E0,-3.760529E-1,-7.461319E-2,4E1,3.3E1,1.3E1,5.9E1,1.5601273E-1,4.7E1,3E1,4E0,3.5410768E-1,8.48291E-2,-1.7457125E-1,-4.127655E-2,1.5E1,1.9E1,6.1267093E-3,2.3318483E-2,7E0,9E0,-1.6575623E-2,-1.0603638E-1,3.8E1,1.8E1,-1.9900475E-1,2E1,6.0729985E-4,1.5902711E-2,1.2184571E-1,2.6802064E-3,2.3315432E-2,1.15654E-1,-5.1000107E-2,2.0434571E-2,6.7749026E-4,-2.671814E-2],"split_indices":[0,0,0,1,2,0,0,0,0,0,0,2,1,0,1,0,1,1,0,0,0,0,0,0,0,0,0,0,0,0,0,1,0,0,0,0,0,0,0,0,0,0,0,0,0],"split_type":[0,0,0,0,0,0,0,0,0,0,0,0,0,0,0,0,0,0,0,0,0,0,0,0,0,0,0,0,0,0,0,0,0,0,0,0,0,0,0,0,0,0,0,0,0],"sum_hessian":[6.4E1,9E0,5.5E1,7E0,2E0,1.5E1,4E1,1E0,6E0,1E0,1E0,1E1,5E0,3E0,3.7E1,1E0,5E0,8E0,2E0,1E0,4E0,2E0,1E0,3E1,7E0,4E0,1E0,3E0,5E0,1E0,1E0,4E0,2.6E1,1E0,6E0,2E0,1E0,4E0,1E0,2E0,2E0,6E0,2E1,1E0,5E0],"tree_param":{"num_deleted":"0","num_feature":"5","num_nodes":"45","size_leaf_vector":"1"}},{"base_weights":[-4.545124E-3,-2.429657E-1,3.8111143E-2,1.5514374E-2,-8.512573E-1,2.5248814E-1,-4.6477713E-2,-1.4545213E-1,1.5625654E-1,-3.1964493E-1,-6.342087E-2,8.71582E-2,5.1351166E-1,-4.0761948E-1,-7.2396933E-3,1.3261186E-1,3.49528E-2,1.8372768E-1,-2.3160298E-1,3.0099106E-1,6.446778E-2,-1.396576E-1,-3.5085298E-2,1.710968E-1,-6.0499318E-2,4.654541E-3,1.9821167E-2,2.3742676E-2,2.597631E-1,-1.4089966E-2,-9.013138E-2,8.780779E-2,9.252167E-2,-1.3121492E-1,-1.7958233E-2,4.852295E-4,1.3517762E-2,9.260376E-2,2.2773743E-3,2.8325655E-2,7.2212224E-3,2.1286927E-2,-6.40653E-2],"categories":[],"categories_nodes":[],"categories_segments":[],"categories_sizes":[],"default_left":[0,0,0,0,0,0,0,0,0,0,0,0,0,0,0,0,0,0,0,0,0,0,0,0,0,0,0,0,0,0,0,0,0,0,0,0,0,0,0,0,0,0,0],"id":22,"left_children":[1,3,5,7,9,11,13,-1,15,-1,-1,17,19,21,23,-1,25,27,29,-1,-1,-1,-1,31,33,-1,-1,35,37,-1,-1,39,-1,-1,41,-1,-1,-1,-1,-1,-1,-1,-1],"loss_changes":[6.7031825E-1,1.5855192E0,1.0272337E0,6.391276E-1,1.8597388E-1,6.457232E-1,5.7803893E-1,0E0,2.2721526E-1,0E0,0E0,3.8116056E-1,6.619648E-1,1.2881935E-2,3.7128037E-1,0E0,2.6040454E-3,1.0331327E-1,2.4017781E-2,0E0,0E0,0E0,0E0,7.5846374E-2,4.7313663E-1,0E0,0E0,1.8136534E-3,7.166833E-2,0E0,0E0,6.76848E-4,0E0,0E0,5.021026E-1,0E0,0E0,0E0,0E0,0E0,0E0,0E0,0E0],"parents":[2147483647,0,0,1,1,2,2,3,3,4,4,5,5,6,6,8,8,11,11,12,12,13,13,14,14,16,16,17,17,18,18,23,23,24,24,27,27,28,28,31,31,34,34],"right_children":[2,4,6,8,10,12,14,-1,16,-1,-1,18,20,22,24,-1,26,28,30,-1,-1,-1,-1,32,34,-1,-1,36,38,-1,-1,40,-1,-1,42,-1,-1,-1,-1,-1,-1,-1,-1],"split_conditions":[3E0,2E0,1.2E1,3.3E1,5.3E1,1.1E1,1.4E1,-1.4545213E-1,1E0,-3.1964493E-1,-6.342087E-2,4E1,3.3E1,1.3E1,1.7E1,1.3261186E-1,4.7E1,3E1,4E0,3.0099106E-1,6.446778E-2,-1.396576E-1,-3.5085298E-2,5.6E1,1.8E1,4.654541E-3,1.9821167E-2,7E0,9E0,-1.4089966E-2,-9.013138E-2,3.8E1,9.252167E-2,-1.3121492E-1,5.1E1,4.852295E-4,1.3517762E-2,9.260376E-2,2.2773743E-3,2.8325655E-2,7.2212224E-3,2.1286927E-2,-6.40653E-2],"split_indices":[0,0,0,1,2,0,0,0,0,0,0,2,1,0,0,0,1,1,0,0,0,0,0,1,0,0,0,0,0,0,0,1,0,0,1,0,0,0,0,0,0,0,0],"split_type":[0,0,0,0,0,0,0,0,0,0,0,0,0,0,0,0,0,0,0,0,0,0,0,0,0,0,0,0,0,0,0,0,0,0,0,0,0,0,0,0,0,0,0],"sum_hessian":[6.4E1,9E0,5.5E1,7E0,2E0,1.5E1,4E1,1E0,6E0,1E0,1E0,1E1,5E0,3E0,3.7E1,1E0,5E0,8E0,2E0,1E0,4E0,2E0,1E0,8E0,2.9E1,4E0,1E0,3E0,5E0,1E0,1E0,6E0,2E0,2E0,2.7E1,2E0,1E0,4E0,1E0,5E0,1E0,1.9E1,8E0],"tree_param":{"num_deleted":"0","num_feature":"5","num_nodes":"43","size_leaf_vector":"1"}},{"base_weights":[-6.5954356E-3,-2.0722046E-1,2.9348237E-2,1.2313843E-2,-7.235718E-1,1.9987679E-1,-3.79153E-2,-1.23635106E-1,1.3182068E-1,-2.7169877E-1,-5.390854E-2,6.143327E-2,4.203771E-1,-3.2901955E-1,-6.2749763E-3,1.1271973E-1,2.8546652E-2,1.4070638E-1,-1.9686382E-1,2.5584185E-1,4.8999026E-2,-1.1172638E-1,-2.982216E-2,1.3400099E-1,-4.81486E-2,3.5375978E-3,1.6847992E-2,3.1280518E-2,2.2199097E-1,-1.1977387E-2,-7.661133E-2,2.310276E-2,8.84903E-2,-1.0497132E-1,-1.4098031E-2,2.0942688E-2,1.2588501E-3,8.666535E-2,2.4330141E-2,1.5220414E-2,-4.698131E-2],"categories":[],"categories_nodes":[],"categories_segments":[],"categories_sizes":[],"default_left":[0,0,0,0,0,0,0,0,0,0,0,0,0,0,0,0,0,0,0,0,0,0,0,0,0,0,0,0,0,0,0,0,0,0,0,0,0,0,0,0,0],"id":23,"left_children":[1,3,5,7,9,11,13,-1,15,-1,-1,17,19,21,23,-1,25,27,29,-1,-1,-1,-1,31,33,-1,-1,35,37,-1,-1,-1,-1,-1,39,-1,-1,-1,-1,-1,-1],"loss_changes":[4.748096E-1,1.1424782E0,6.4991814E-1,4.6010464E-1,1.3436162E-1,4.6260428E-1,3.755713E-1,0E0,1.6560233E-1,0E0,0E0,2.5293612E-1,5.2763855E-1,2.8409362E-3,2.2965875E-1,0E0,2.113673E-3,7.310775E-2,1.7350666E-2,0E0,0E0,0E0,0E0,5.984877E-2,3.0331573E-1,0E0,0E0,4.9246587E-3,2.369462E-2,0E0,0E0,0E0,0E0,0E0,2.6663935E-1,0E0,0E0,0E0,0E0,0E0,0E0],"parents":[2147483647,0,0,1,1,2,2,3,3,4,4,5,5,6,6,8,8,11,11,12,12,13,13,14,14,16,16,17,17,18,18,23,23,24,24,27,27,28,28,34,34],"right_children":[2,4,6,8,10,12,14,-1,16,-1,-1,18,20,22,24,-1,26,28,30,-1,-1,-1,-1,32,34,-1,-1,36,38,-1,-1,-1,-1,-1,40,-1,-1,-1,-1,-1,-1],"split_conditions":[3E0,2E0,1.2E1,3.3E1,5.3E1,1.1E1,1.4E1,-1.23635106E-1,1E0,-2.7169877E-1,-5.390854E-2,4E1,3.3E1,1.3E1,1.7E1,1.1271973E-1,4.7E1,3E0,4E0,2.5584185E-1,4.8999026E-2,-1.1172638E-1,-2.982216E-2,5.8E1,1.8E1,3.5375978E-3,1.6847992E-2,6E0,3E0,-1.1977387E-2,-7.661133E-2,2.310276E-2,8.84903E-2,-1.0497132E-1,5.1E1,2.0942688E-2,1.2588501E-3,8.666535E-2,2.4330141E-2,1.5220414E-2,-4.698131E-2],"split_indices":[0,0,0,1,2,0,0,0,0,0,0,2,1,0,0,0,1,3,0,0,0,0,0,1,0,0,0,0,4,0,0,0,0,0,1,0,0,0,0,0,0],"split_type":[0,0,0,0,0,0,0,0,0,0,0,0,0,0,0,0,0,0,0,0,0,0,0,0,0,0,0,0,0,0,0,0,0,0,0,0,0,0,0,0,0],"sum_hessian":[6.4E1,9E0,5.5E1,7E0,2E0,1.5E1,4E1,1E0,6E0,1E0,1E0,1E1,5E0,3E0,3.7E1,1E0,5E0,8E0,2E0,1E0,4E0,2E0,1E0,8E0,2.9E1,4E0,1E0,4E0,4E0,1E0,1E0,7E0,1E0,2E0,2.7E1,1E0,3E0,2E0,2E0,1.9E1,8E0],"tree_param":{"num_deleted":"0","num_feature":"5","num_nodes":"41","size_leaf_vector":"1"}},{"base_weights":[-6.6673867E-3,-1.7666778E-1,2.3808887E-2,9.803772E-3,-6.15036E-1,1.6174984E-1,-3.0602433E-2,-1.0508881E-1,1.1128889E-1,-2.3094407E-1,-4.5822144E-2,4.705672E-2,3.4506226E-1,-7.9710394E-2,-5.049856E-3,9.581223E-2,2.3379007E-2,1.1329142E-1,-1.6733296E-1,2.1746522E-1,3.723633E-2,-2.5280211E-2,2.3939769E-1,2.6879883E-3,1.4321137E-2,2.633667E-2,1.775879E-1,-1.0180664E-2,-6.511918E-2,-5.625407E-2,2.7769089E-2,4.633713E-3,1.0309525E-1,1.780243E-2,9.7503664E-4,7.839203E-3,6.267586E-2,2.1214329E-2,-3.33507E-2],"categories":[],"categories_nodes":[],"categories_segments":[],"categories_sizes":[],"default_left":[0,0,0,0,0,0,0,0,0,0,0,0,0,0,0,0,0,0,0,0,0,0,0,0,0,0,0,0,0,0,0,0,0,0,0,0,0,0,0],"id":24,"left_children":[1,3,5,7,9,11,13,-1,15,-1,-1,17,19,-1,21,-1,23,25,27,-1,-1,29,31,-1,-1,33,35,-1,-1,-1,37,-1,-1,-1,-1,-1,-1,-1,-1],"loss_changes":[3.409699E-1,8.234618E-1,4.252607E-1,3.3134222E-1,9.707713E-2,3.2015726E-1,2.449609E-1,0E0,1.2058256E-1,0E0,0E0,1.7515782E-1,4.1353613E-1,0E0,1.9397192E-1,0E0,1.6796021E-3,4.564087E-2,1.2535751E-2,0E0,0E0,3.1503624E-1,6.4735144E-2,0E0,0E0,3.6169633E-3,1.826781E-2,0E0,0E0,0E0,1.7493007E-1,0E0,0E0,0E0,0E0,0E0,0E0,0E0,0E0],"parents":[2147483647,0,0,1,1,2,2,3,3,4,4,5,5,6,6,8,8,11,11,12,12,14,14,16,16,17,17,18,18,21,21,22,22,25,25,26,26,30,30],"right_children":[2,4,6,8,10,12,14,-1,16,-1,-1,18,20,-1,22,-1,24,26,28,-1,-1,30,32,-1,-1,34,36,-1,-1,-1,38,-1,-1,-1,-1,-1,-1,-1,-1],"split_conditions":[3E0,2E0,1.2E1,3.3E1,5.3E1,1.1E1,1.4E1,-1.0508881E-1,1E0,-2.3094407E-1,-4.5822144E-2,4E1,3.3E1,-7.9710394E-2,4E0,9.581223E-2,4.7E1,3E0,4E0,2.1746522E-1,3.723633E-2,1.7E1,2.2E1,2.6879883E-3,1.4321137E-2,6E0,3E1,-1.0180664E-2,-6.511918E-2,-5.625407E-2,5.9E1,4.633713E-3,1.0309525E-1,1.780243E-2,9.7503664E-4,7.839203E-3,6.267586E-2,2.1214329E-2,-3.33507E-2],"split_indices":[0,0,0,1,2,0,0,0,0,0,0,2,1,0,4,0,1,3,0,0,0,2,0,0,0,0,1,0,0,0,1,0,0,0,0,0,0,0,0],"split_type":[0,0,0,0,0,0,0,0,0,0,0,0,0,0,0,0,0,0,0,0,0,0,0,0,0,0,0,0,0,0,0,0,0,0,0,0,0,0,0],"sum_hessian":[6.4E1,9E0,5.5E1,7E0,2E0,1.5E1,4E1,1E0,6E0,1E0,1E0,1E1,5E0,3E0,3.7E1,1E0,5E0,8E0,2E0,1E0,4E0,3.5E1,2E0,4E0,1E0,4E0,4E0,1E0,1E0,8E0,2.7E1,1E0,1E0,1E0,3E0,1E0,3E0,2.1E1,6E0],"tree_param":{"num_deleted":"0","num_feature":"5","num_nodes":"39","size_leaf_vector":"1"}},{"base_weights":[-5.291865E-3,-1.5057068E-1,2.0745277E-2,7.829666E-3,-5.227814E-1,1.3001728E-1,-2.2403438E-2,-8.932572E-2,9.40203E-2,-1.963028E-1,-3.8948823E-2,3.420882E-2,2.8399658E-1,-3.9205503E-2,2.0349121E-1,8.144074E-2,1.9200644E-2,8.922153E-2,-1.4223225E-1,1.8484497E-1,2.8300783E-2,-1.09929405E-1,2.0441575E-2,3.939057E-3,8.763199E-2,2.043457E-3,1.2171936E-2,4.8517227E-2,6.2228397E-2,-8.654023E-3,-5.5350497E-2,-7.343903E-2,-7.777119E-2,1.1460267E-1,-3.48156E-2,-6.1035156E-5,1.9437408E-2,-4.125163E-2,-2.5463104E-4,-1.474949E-1,4.5313784E-3],"categories":[],"categories_nodes":[],"categories_segments":[],"categories_sizes":[],"default_left":[0,0,0,0,0,0,0,0,0,0,0,0,0,0,0,0,0,0,0,0,0,0,0,0,0,0,0,0,0,0,0,0,0,0,0,0,0,0,0,0,0],"id":25,"left_children":[1,3,5,7,9,11,13,-1,15,-1,-1,17,19,21,23,-1,25,27,29,-1,-1,31,33,-1,-1,-1,-1,35,-1,-1,-1,-1,37,-1,39,-1,-1,-1,-1,-1,-1],"loss_changes":[2.4899556E-1,5.936762E-1,2.6694986E-1,2.3870124E-1,7.013893E-2,2.2632512E-1,1.6359332E-1,0E0,8.772424E-2,0E0,0E0,1.1946171E-1,3.198534E-1,1.6676763E-1,4.6771355E-2,0E0,1.3123523E-3,3.3239767E-2,9.055935E-3,0E0,0E0,5.902955E-2,4.5284197E-1,0E0,0E0,0E0,0E0,6.3562766E-3,0E0,0E0,0E0,0E0,7.340171E-2,0E0,4.6353102E-1,0E0,0E0,0E0,0E0,0E0,0E0],"parents":[2147483647,0,0,1,1,2,2,3,3,4,4,5,5,6,6,8,8,11,11,12,12,13,13,14,14,16,16,17,17,18,18,21,21,22,22,27,27,32,32,34,34],"right_children":[2,4,6,8,10,12,14,-1,16,-1,-1,18,20,22,24,-1,26,28,30,-1,-1,32,34,-1,-1,-1,-1,36,-1,-1,-1,-1,38,-1,40,-1,-1,-1,-1,-1,-1],"split_conditions":[3E0,2E0,1.2E1,3.3E1,5.3E1,1.1E1,4E0,-8.932572E-2,1E0,-1.963028E-1,-3.8948823E-2,4E1,3.3E1,2.9E1,2.2E1,8.144074E-2,4.7E1,3.8E1,4E0,1.8484497E-1,2.8300783E-2,1.3E1,3.1E1,3.939057E-3,8.763199E-2,2.043457E-3,1.2171936E-2,5E0,6.2228397E-2,-8.654023E-3,-5.5350497E-2,-7.343903E-2,1.7E1,1.1460267E-1,3.2E1,-6.1035156E-5,1.9437408E-2,-4.125163E-2,-2.5463104E-4,-1.474949E-1,4.5313784E-3],"split_indices":[0,0,0,1,2,0,4,0,0,0,0,2,1,2,0,0,1,2,0,0,0,0,2,0,0,0,0,1,0,0,0,0,2,0,2,0,0,0,0,0,0],"split_type":[0,0,0,0,0,0,0,0,0,0,0,0,0,0,0,0,0,0,0,0,0,0,0,0,0,0,0,0,0,0,0,0,0,0,0,0,0,0,0,0,0],"sum_hessian":[6.4E1,9E0,5.5E1,7E0,2E0,1.5E1,4E1,1E0,6E0,1E0,1E0,1E1,5E0,3.8E1,2E0,1E0,5E0,8E0,2E0,1E0,4E0,1.7E1,2.1E1,1E0,1E0,4E0,1E0,7E0,1E0,1E0,1E0,2E0,1.5E1,2E0,1.9E1,2E0,5E0,8E0,7E0,1E0,1.8E1],"tree_param":{"num_deleted":"0","num_feature":"5","num_nodes":"41","size_leaf_vector":"1"}},{"base_weights":[-4.472351E-3,-1.2829132E-1,1.7718043E-2,6.2713623E-3,-4.4436136E-1,1.0543537E-1,-1.6945258E-2,-7.5926974E-2,7.947867E-2,-1.6685715E-1,-3.310547E-2,2.55446E-2,2.3432922E-1,-3.1119518E-2,1.7296855E-1,6.922531E-2,1.5808105E-2,7.1521334E-2,-1.20900474E-1,1.5711823E-1,7.1704105E-2,-8.3337575E-2,1.3018868E-2,3.3485414E-3,7.4487306E-2,1.5527345E-3,1.0345459E-2,3.6382675E-2,5.2894596E-2,-7.3562623E-3,-4.7048952E-2,2.958069E-2,1.2098694E-2,-5.8750916E-2,-5.7035446E-2,9.1680914E-2,-3.15197E-2,1.8367768E-3,1.5994264E-2,-6.2633514E-2,-9.900209E-3,-1.2537117E-1,3.2433763E-3],"categories":[],"categories_nodes":[],"categories_segments":[],"categories_sizes":[],"default_left":[0,0,0,0,0,0,0,0,0,0,0,0,0,0,0,0,0,0,0,0,0,0,0,0,0,0,0,0,0,0,0,0,0,0,0,0,0,0,0,0,0,0,0],"id":26,"left_children":[1,3,5,7,9,11,13,-1,15,-1,-1,17,19,21,23,-1,25,27,29,-1,31,33,35,-1,-1,-1,-1,37,-1,-1,-1,-1,-1,-1,39,-1,41,-1,-1,-1,-1,-1,-1],"loss_changes":[1.8086654E-1,4.2809907E-1,1.7205866E-1,1.7201237E-1,5.0679624E-2,1.5877305E-1,1.1575009E-1,0E0,6.377344E-2,0E0,0E0,8.27107E-2,2.4482706E-1,9.097297E-2,3.3791676E-2,0E0,1.0129779E-3,2.6726056E-2,6.542962E-3,0E0,2.4314225E-4,4.2091638E-2,2.9632068E-1,0E0,0E0,0E0,0E0,3.772377E-3,0E0,0E0,0E0,0E0,0E0,0E0,5.1463835E-2,0E0,3.3163828E-1,0E0,0E0,0E0,0E0,0E0,0E0],"parents":[2147483647,0,0,1,1,2,2,3,3,4,4,5,5,6,6,8,8,11,11,12,12,13,13,14,14,16,16,17,17,18,18,20,20,21,21,22,22,27,27,34,34,36,36],"right_children":[2,4,6,8,10,12,14,-1,16,-1,-1,18,20,22,24,-1,26,28,30,-1,32,34,36,-1,-1,-1,-1,38,-1,-1,-1,-1,-1,-1,40,-1,42,-1,-1,-1,-1,-1,-1],"split_conditions":[3E0,2E0,1.2E1,3.3E1,5.3E1,1.1E1,4E0,-7.5926974E-2,1E0,-1.6685715E-1,-3.310547E-2,4E1,3.3E1,2.9E1,2.2E1,6.922531E-2,4.7E1,3.8E1,4E0,1.5711823E-1,4E0,1.3E1,3.1E1,3.3485414E-3,7.4487306E-2,1.5527345E-3,1.0345459E-2,3E1,5.2894596E-2,-7.3562623E-3,-4.7048952E-2,2.958069E-2,1.2098694E-2,-5.8750916E-2,6E0,9.1680914E-2,3.2E1,1.8367768E-3,1.5994264E-2,-6.2633514E-2,-9.900209E-3,-1.2537117E-1,3.2433763E-3],"split_indices":[0,0,0,1,2,0,4,0,0,0,0,2,1,2,0,0,1,2,0,0,4,0,2,0,0,0,0,1,0,0,0,0,0,0,1,0,2,0,0,0,0,0,0],"split_type":[0,0,0,0,0,0,0,0,0,0,0,0,0,0,0,0,0,0,0,0,0,0,0,0,0,0,0,0,0,0,0,0,0,0,0,0,0,0,0,0,0,0,0],"sum_hessian":[6.4E1,9E0,5.5E1,7E0,2E0,1.5E1,4E1,1E0,6E0,1E0,1E0,1E1,5E0,3.8E1,2E0,1E0,5E0,8E0,2E0,1E0,4E0,1.7E1,2.1E1,1E0,1E0,4E0,1E0,7E0,1E0,1E0,1E0,1E0,3E0,2E0,1.5E1,2E0,1.9E1,3E0,4E0,1E0,1.4E1,1E0,1.8E1],"tree_param":{"num_deleted":"0","num_feature":"5","num_nodes":"43","size_leaf_vector":"1"}},{"base_weights":[-4.107549E-3,-1.0928192E-1,1.4746939E-2,5.0373077E-3,-3.777059E-1,8.725357E-2,-1.3908014E-2,-6.4537816E-2,6.722151E-2,-1.4182892E-1,-2.8138734E-2,1.9366177E-2,1.9717152E-1,-2.5930552E-2,1.4702098E-1,5.8840945E-2,1.3046265E-2,6.826019E-2,-8.32634E-2,1.3355027E-1,5.8538817E-2,3.739753E-2,-5.546146E-2,2.8461458E-3,6.33133E-2,1.1791993E-3,8.793641E-3,4.749298E-3,1.0541687E-1,-6.643677E-3,-3.9992526E-2,2.5144959E-2,9.379578E-3,3.4427896E-1,-4.9697183E-2,-2.8069305E-1,-1.5611966E-2,-4.1503907E-4,3.4721375E-3,4.1738894E-2,1.0969544E-2,1.3385469E-1,2.1070862E-2,2.183075E-2,-3.9022066E-2,-1.4558029E-2,-1.0257187E-1,-4.700012E-2,1.2997368E-3],"categories":[],"categories_nodes":[],"categories_segments":[],"categories_sizes":[],"default_left":[0,0,0,0,0,0,0,0,0,0,0,0,0,0,0,0,0,0,0,0,0,0,0,0,0,0,0,0,0,0,0,0,0,0,0,0,0,0,0,0,0,0,0,0,0,0,0,0,0],"id":27,"left_children":[1,3,5,7,9,11,13,-1,15,-1,-1,17,19,21,23,-1,25,27,29,-1,31,33,35,-1,-1,-1,-1,37,39,-1,-1,-1,-1,41,43,45,47,-1,-1,-1,-1,-1,-1,-1,-1,-1,-1,-1,-1],"loss_changes":[1.3050714E-1,3.0876282E-1,1.1756327E-1,1.2398654E-1,3.66199E-2,1.1557424E-1,8.31381E-2,0E0,4.6329144E-2,0E0,0E0,6.0881272E-2,1.8022257E-1,7.500942E-2,2.4413913E-2,0E0,7.744229E-4,1.8378172E-2,9.282373E-3,0E0,8.26519E-4,3.6457047E-1,2.3795268E-1,0E0,0E0,0E0,0E0,1.834239E-4,6.518621E-3,0E0,0E0,0E0,0E0,5.243942E-2,1.1774274E-1,4.025495E-2,6.819705E-2,0E0,0E0,0E0,0E0,0E0,0E0,0E0,0E0,0E0,0E0,0E0,0E0],"parents":[2147483647,0,0,1,1,2,2,3,3,4,4,5,5,6,6,8,8,11,11,12,12,13,13,14,14,16,16,17,17,18,18,20,20,21,21,22,22,27,27,28,28,33,33,34,34,35,35,36,36],"right_children":[2,4,6,8,10,12,14,-1,16,-1,-1,18,20,22,24,-1,26,28,30,-1,32,34,36,-1,-1,-1,-1,38,40,-1,-1,-1,-1,42,44,46,48,-1,-1,-1,-1,-1,-1,-1,-1,-1,-1,-1,-1],"split_conditions":[3E0,2E0,1.2E1,3.3E1,5.3E1,1.1E1,4E0,-6.4537816E-2,1E0,-1.4182892E-1,-2.8138734E-2,4.2E1,3.3E1,2E0,2.2E1,5.8840945E-2,4.7E1,3E1,1E1,1.3355027E-1,4E0,2E0,2E0,2.8461458E-3,6.33133E-2,1.1791993E-3,8.793641E-3,7E0,3E0,-6.643677E-3,-3.9992526E-2,2.5144959E-2,9.379578E-3,1.9E1,1.7E1,1.4E1,1.3E1,-4.1503907E-4,3.4721375E-3,4.1738894E-2,1.0969544E-2,1.3385469E-1,2.1070862E-2,2.183075E-2,-3.9022066E-2,-1.4558029E-2,-1.0257187E-1,-4.700012E-2,1.2997368E-3],"split_indices":[0,0,0,1,2,0,4,0,0,0,0,1,1,4,0,0,1,1,0,0,4,3,3,0,0,0,0,0,4,0,0,0,0,0,0,0,0,0,0,0,0,0,0,0,0,0,0,0,0],"split_type":[0,0,0,0,0,0,0,0,0,0,0,0,0,0,0,0,0,0,0,0,0,0,0,0,0,0,0,0,0,0,0,0,0,0,0,0,0,0,0,0,0,0,0,0,0,0,0,0,0],"sum_hessian":[6.4E1,9E0,5.5E1,7E0,2E0,1.5E1,4E1,1E0,6E0,1E0,1E0,1E1,5E0,3.8E1,2E0,1E0,5E0,7E0,3E0,1E0,4E0,1.2E1,2.6E1,1E0,1E0,4E0,1E0,3E0,4E0,2E0,1E0,1E0,3E0,2E0,1E1,3E0,2.3E1,2E0,1E0,2E0,2E0,1E0,1E0,4E0,6E0,1E0,2E0,2E0,2.1E1],"tree_param":{"num_deleted":"0","num_feature":"5","num_nodes":"49","size_leaf_vector":"1"}},{"base_weights":[-2.0654532E-3,-9.3063354E-2,1.4221055E-2,4.06456E-3,-3.2105002E-1,7.2154045E-2,-8.733796E-3,-5.485611E-2,5.6889124E-2,-1.2055436E-1,-2.3918154E-2,1.4384877E-2,1.6603851E-1,-1.879472E-2,1.2496948E-1,5.001526E-2,1.0798137E-2,5.475235E-2,-6.994629E-2,1.1351853E-1,4.7888182E-2,3.677016E-2,-4.485208E-2,2.419281E-3,5.381699E-2,8.9721684E-4,7.475281E-3,2.57176E-2,3.8699344E-2,-5.3161625E-3,-3.399353E-2,2.1372987E-2,7.271576E-3,2.9263815E-1,-3.6354758E-2,-2.2576904E-1,-1.2830417E-2,1.2256623E-3,1.2276078E-2,1.1377717E-1,1.7910004E-2,1.6590271E-2,-2.8988866E-2,-1.2374497E-2,-8.205796E-2,-2.3100186E-2,5.436617E-3],"categories":[],"categories_nodes":[],"categories_segments":[],"categories_sizes":[],"default_left":[0,0,0,0,0,0,0,0,0,0,0,0,0,0,0,0,0,0,0,0,0,0,0,0,0,0,0,0,0,0,0,0,0,0,0,0,0,0,0,0,0,0,0,0,0,0,0],"id":28,"left_children":[1,3,5,7,9,11,13,-1,15,-1,-1,17,19,21,23,-1,25,27,29,-1,31,33,35,-1,-1,-1,-1,37,-1,-1,-1,-1,-1,39,41,43,45,-1,-1,-1,-1,-1,-1,-1,-1,-1,-1],"loss_changes":[9.765594E-2,2.2274363E-1,7.51014E-2,8.939339E-2,2.6456892E-2,8.438959E-2,5.7501085E-2,0E0,3.3634458E-2,0E0,0E0,4.127632E-2,1.3241935E-1,5.8116306E-2,1.7639462E-2,0E0,5.868974E-4,1.3928071E-2,7.051233E-3,0E0,1.0348568E-3,2.5387302E-1,1.5352136E-1,0E0,0E0,0E0,0E0,2.1348721E-3,0E0,0E0,0E0,0E0,0E0,3.7888974E-2,6.611349E-2,2.3966447E-2,4.906484E-2,0E0,0E0,0E0,0E0,0E0,0E0,0E0,0E0,0E0,0E0],"parents":[2147483647,0,0,1,1,2,2,3,3,4,4,5,5,6,6,8,8,11,11,12,12,13,13,14,14,16,16,17,17,18,18,20,20,21,21,22,22,27,27,33,33,34,34,35,35,36,36],"right_children":[2,4,6,8,10,12,14,-1,16,-1,-1,18,20,22,24,-1,26,28,30,-1,32,34,36,-1,-1,-1,-1,38,-1,-1,-1,-1,-1,40,42,44,46,-1,-1,-1,-1,-1,-1,-1,-1,-1,-1],"split_conditions":[3E0,2E0,1.2E1,3.3E1,5.3E1,1.1E1,4E0,-5.485611E-2,1E0,-1.2055436E-1,-2.3918154E-2,4.2E1,3.3E1,2E0,2.2E1,5.001526E-2,4.7E1,4E1,1E1,1.1351853E-1,4E0,2E0,2E0,2.419281E-3,5.381699E-2,8.9721684E-4,7.475281E-3,3E1,3.8699344E-2,-5.3161625E-3,-3.399353E-2,2.1372987E-2,7.271576E-3,1.9E1,1.7E1,1.4E1,1.8E1,1.2256623E-3,1.2276078E-2,1.1377717E-1,1.7910004E-2,1.6590271E-2,-2.8988866E-2,-1.2374497E-2,-8.205796E-2,-2.3100186E-2,5.436617E-3],"split_indices":[0,0,0,1,2,0,4,0,0,0,0,1,1,4,0,0,1,1,0,0,4,3,3,0,0,0,0,1,0,0,0,0,0,0,0,0,0,0,0,0,0,0,0,0,0,0,0],"split_type":[0,0,0,0,0,0,0,0,0,0,0,0,0,0,0,0,0,0,0,0,0,0,0,0,0,0,0,0,0,0,0,0,0,0,0,0,0,0,0,0,0,0,0,0,0,0,0],"sum_hessian":[6.4E1,9E0,5.5E1,7E0,2E0,1.5E1,4E1,1E0,6E0,1E0,1E0,1E1,5E0,3.8E1,2E0,1E0,5E0,7E0,3E0,1E0,4E0,1.2E1,2.6E1,1E0,1E0,4E0,1E0,6E0,1E0,2E0,1E0,1E0,3E0,2E0,1E1,3E0,2.3E1,3E0,3E0,1E0,1E0,4E0,6E0,1E0,2E0,7E0,1.6E1],"tree_param":{"num_deleted":"0","num_feature":"5","num_nodes":"47","size_leaf_vector":"1"}},{"base_weights":[-2.5153527E-4,-7.923965E-2,1.3857977E-2,3.2844543E-3,-2.7289072E-1,6.0199738E-2,-4.564611E-3,-4.662781E-2,4.8161097E-2,-1.02471545E-1,-2.0329285E-2,1.1240179E-2,1.3992564E-1,-4.9651008E-2,1.814161E-2,4.2512514E-2,8.951823E-3,4.4851303E-2,-5.8792114E-2,9.648972E-2,3.9257813E-2,9.401321E-3,-8.0793E-2,-2.3687363E-2,6.822792E-2,6.811524E-4,6.35376E-3,1.9930158E-2,3.28949E-2,-4.2541507E-3,-2.8894044E-2,1.8168641E-2,5.63736E-3,-2.9994393E-2,5.6971233E-2,-7.887039E-2,9.786988E-3,9.6709445E-2,2.0186106E-2,-5.767823E-4,8.716736E-3,6.73959E-3,3.55484E-2,-6.5564844E-3,6.791611E-2,1.0169636E-2,-1.9598007E-2],"categories":[],"categories_nodes":[],"categories_segments":[],"categories_sizes":[],"default_left":[0,0,0,0,0,0,0,0,0,0,0,0,0,0,0,0,0,0,0,0,0,0,0,0,0,0,0,0,0,0,0,0,0,0,0,0,0,0,0,0,0,0,0,0,0,0,0],"id":29,"left_children":[1,3,5,7,9,11,13,-1,15,-1,-1,17,19,21,23,-1,25,27,29,-1,31,33,-1,35,37,-1,-1,39,-1,-1,-1,-1,-1,-1,41,-1,43,-1,45,-1,-1,-1,-1,-1,-1,-1,-1],"loss_changes":[7.353955E-2,1.6070512E-1,4.808396E-2,6.4464636E-2,1.9118547E-2,6.088072E-2,4.2874165E-2,0E0,2.4406899E-2,0E0,0E0,2.8529407E-2,9.712557E-2,1.8413112E-1,6.0277782E-2,0E0,4.420822E-4,1.0733459E-2,5.329781E-3,0E0,1.0421015E-3,6.813592E-2,0E0,1.3069351E-1,1.5221225E-1,0E0,0E0,1.4518043E-3,0E0,0E0,0E0,0E0,0E0,0E0,1.6444296E-2,0E0,1.0775233E-1,0E0,1.6285812E-2,0E0,0E0,0E0,0E0,0E0,0E0,0E0,0E0],"parents":[2147483647,0,0,1,1,2,2,3,3,4,4,5,5,6,6,8,8,11,11,12,12,13,13,14,14,16,16,17,17,18,18,20,20,21,21,23,23,24,24,27,27,34,34,36,36,38,38],"right_children":[2,4,6,8,10,12,14,-1,16,-1,-1,18,20,22,24,-1,26,28,30,-1,32,34,-1,36,38,-1,-1,40,-1,-1,-1,-1,-1,-1,42,-1,44,-1,46,-1,-1,-1,-1,-1,-1,-1,-1],"split_conditions":[3E0,2E0,1.2E1,3.3E1,5.3E1,1.1E1,1.8E1,-4.662781E-2,1E0,-1.02471545E-1,-2.0329285E-2,4.2E1,3.3E1,1.7E1,3.2E1,4.2512514E-2,4.7E1,4E1,1E1,9.648972E-2,4E0,1.4E1,-8.0793E-2,1.9E1,3.4E1,6.811524E-4,6.35376E-3,5E0,3.28949E-2,-4.2541507E-3,-2.8894044E-2,1.8168641E-2,5.63736E-3,-2.9994393E-2,5.6E1,-7.887039E-2,2.2E1,9.6709445E-2,2.2E1,-5.767823E-4,8.716736E-3,6.73959E-3,3.55484E-2,-6.5564844E-3,6.791611E-2,1.0169636E-2,-1.9598007E-2],"split_indices":[0,0,0,1,2,0,0,0,0,0,0,1,1,0,2,0,1,1,0,0,4,0,0,0,1,0,0,1,0,0,0,0,0,0,1,0,1,0,0,0,0,0,0,0,0,0,0],"split_type":[0,0,0,0,0,0,0,0,0,0,0,0,0,0,0,0,0,0,0,0,0,0,0,0,0,0,0,0,0,0,0,0,0,0,0,0,0,0,0,0,0,0,0,0,0,0,0],"sum_hessian":[6.4E1,9E0,5.5E1,7E0,2E0,1.5E1,4E1,1E0,6E0,1E0,1E0,1E1,5E0,1.3E1,2.7E1,1E0,5E0,7E0,3E0,1E0,4E0,1.1E1,2E0,1.5E1,1.2E1,4E0,1E0,6E0,1E0,2E0,1E0,1E0,3E0,3E0,8E0,1E0,1.4E1,1E0,1.1E1,2E0,4E0,6E0,2E0,1.3E1,1E0,1E1,1E0],"tree_param":{"num_deleted":"0","num_feature":"5","num_nodes":"47","size_leaf_vector":"1"}},{"base_weights":[-2.8052697E-5,-6.745758E-2,1.2013435E-2,2.6626587E-3,-2.3195903E-1,5.0151825E-2,-3.1628492E-3,-3.963318E-2,4.0788922E-2,-8.710098E-2,-1.7280579E-2,8.587924E-3,1.17993675E-1,-4.2052463E-2,3.7668229E-3,3.6135867E-2,7.4361167E-3,3.1519573E-2,-6.3069664E-2,8.201523E-2,3.223877E-2,4.6728518E-2,-4.1243723E-3,5.163575E-4,5.4016113E-3,1.21593475E-2,2.7960205E-2,-3.822327E-3,-2.4559023E-2,1.54449465E-2,4.3670656E-3,5.7100933E-2,-3.0216489E-2,-4.6081544E-4,5.0941473E-3,6.393433E-2,1.3760377E-3,-4.4858553E-2,-2.9753724E-3],"categories":[],"categories_nodes":[],"categories_segments":[],"categories_sizes":[],"default_left":[0,0,0,0,0,0,0,0,0,0,0,0,0,0,0,0,0,0,0,0,0,0,0,0,0,0,0,0,0,0,0,0,0,0,0,0,0,0,0],"id":30,"left_children":[1,3,5,7,9,11,13,-1,15,-1,-1,17,19,-1,21,-1,23,25,27,-1,29,-1,31,-1,-1,33,-1,-1,-1,-1,-1,35,37,-1,-1,-1,-1,-1,-1],"loss_changes":[5.3587265E-2,1.15966424E-1,3.2571368E-2,4.649585E-2,1.3811693E-2,4.4103034E-2,3.94554E-2,0E0,1.7703414E-2,0E0,0E0,2.006342E-2,7.1139365E-2,0E0,4.8619274E-2,0E0,3.3142432E-4,9.614183E-3,1.7945571E-3,0E0,9.5195044E-4,0E0,6.402781E-2,0E0,0E0,5.543026E-4,0E0,0E0,0E0,0E0,0E0,9.7337455E-2,6.63292E-2,0E0,0E0,0E0,0E0,0E0,0E0],"parents":[2147483647,0,0,1,1,2,2,3,3,4,4,5,5,6,6,8,8,11,11,12,12,14,14,16,16,17,17,18,18,20,20,22,22,25,25,31,31,32,32],"right_children":[2,4,6,8,10,12,14,-1,16,-1,-1,18,20,-1,22,-1,24,26,28,-1,30,-1,32,-1,-1,34,-1,-1,-1,-1,-1,36,38,-1,-1,-1,-1,-1,-1],"split_conditions":[3E0,2E0,1.2E1,3.3E1,5.3E1,1.1E1,6E0,-3.963318E-2,1E0,-8.710098E-2,-1.7280579E-2,4E1,3.3E1,-4.2052463E-2,7E0,3.6135867E-2,4.7E1,3.8E1,4E0,8.201523E-2,4E0,4.6728518E-2,2E0,5.163575E-4,5.4016113E-3,5E0,2.7960205E-2,-3.822327E-3,-2.4559023E-2,1.54449465E-2,4.3670656E-3,2E0,2E0,-4.6081544E-4,5.0941473E-3,6.393433E-2,1.3760377E-3,-4.4858553E-2,-2.9753724E-3],"split_indices":[0,0,0,1,2,0,1,0,0,0,0,2,1,0,1,0,1,2,0,0,4,0,4,0,0,1,0,0,0,0,0,3,3,0,0,0,0,0,0],"split_type":[0,0,0,0,0,0,0,0,0,0,0,0,0,0,0,0,0,0,0,0,0,0,0,0,0,0,0,0,0,0,0,0,0,0,0,0,0,0,0],"sum_hessian":[6.4E1,9E0,5.5E1,7E0,2E0,1.5E1,4E1,1E0,6E0,1E0,1E0,1E1,5E0,1E0,3.9E1,1E0,5E0,8E0,2E0,1E0,4E0,1E0,3.8E1,4E0,1E0,7E0,1E0,1E0,1E0,1E0,3E0,1.1E1,2.7E1,2E0,5E0,2E0,9E0,3E0,2.4E1],"tree_param":{"num_deleted":"0","num_feature":"5","num_nodes":"39","size_leaf_vector":"1"}},{"base_weights":[3.8440412E-4,-5.7418823E-2,1.0699545E-2,2.1648407E-3,-1.9716899E-1,-6.0497284E-2,1.5871013E-2,-3.368912E-2,3.4558978E-2,-7.403641E-2,-1.4689636E-2,-3.692627E-4,-3.5744477E-2,4.091034E-2,-6.261891E-3,3.0715944E-2,6.189982E-3,2.4430466E-1,2.0699934E-3,-1.0370789E-1,1.3477784E-2,3.918457E-4,4.59137E-3,4.257202E-3,9.488373E-2,3.519036E-2,-9.2116036E-2,6.165568E-2,-7.035065E-2,-5.0365743E-3,3.0955387E-2,3.9450647E-3,5.8174897E-2,5.4473877E-3,-4.553776E-2,-2.0462037E-3,2.979126E-2,1.6563416E-2,-6.3029896E-3,-3.2478333E-3,1.0601807E-2],"categories":[],"categories_nodes":[],"categories_segments":[],"categories_sizes":[],"default_left":[0,0,0,0,0,0,0,0,0,0,0,0,0,0,0,0,0,0,0,0,0,0,0,0,0,0,0,0,0,0,0,0,0,0,0,0,0,0,0,0,0],"id":31,"left_children":[1,3,5,7,9,11,13,-1,15,-1,-1,-1,-1,17,19,-1,21,23,25,27,29,-1,-1,-1,-1,31,33,35,-1,37,39,-1,-1,-1,-1,-1,-1,-1,-1,-1,-1],"loss_changes":[3.9370503E-2,8.3695106E-2,2.1578912E-2,3.3544026E-2,9.977058E-3,1.3757472E-2,2.9628407E-2,0E0,1.2835615E-2,0E0,0E0,0E0,0E0,1.9699192E-1,5.718077E-2,0E0,2.470943E-4,6.1761066E-2,7.187006E-2,1.2260141E-1,8.245574E-3,0E0,0E0,0E0,0E0,5.6921784E-2,4.224083E-2,8.411422E-3,0E0,1.3670724E-2,2.7637817E-3,0E0,0E0,0E0,0E0,0E0,0E0,0E0,0E0,0E0,0E0],"parents":[2147483647,0,0,1,1,2,2,3,3,4,4,5,5,6,6,8,8,13,13,14,14,16,16,17,17,18,18,19,19,20,20,25,25,26,26,27,27,29,29,30,30],"right_children":[2,4,6,8,10,12,14,-1,16,-1,-1,-1,-1,18,20,-1,22,24,26,28,30,-1,-1,-1,-1,32,34,36,-1,38,40,-1,-1,-1,-1,-1,-1,-1,-1,-1,-1],"split_conditions":[3E0,2E0,6E0,3.3E1,5.3E1,7E0,3.4E1,-3.368912E-2,1E0,-7.403641E-2,-1.4689636E-2,-3.692627E-4,-3.5744477E-2,2E0,3.4E1,3.0715944E-2,4.7E1,6E0,2.7E1,1.5E1,5.3E1,3.918457E-4,4.59137E-3,4.257202E-3,9.488373E-2,2.7E1,9E0,1E1,-7.035065E-2,5E0,4E0,3.9450647E-3,5.8174897E-2,5.4473877E-3,-4.553776E-2,-2.0462037E-3,2.979126E-2,1.6563416E-2,-6.3029896E-3,-3.2478333E-3,1.0601807E-2],"split_indices":[0,0,1,1,2,0,1,0,0,0,0,0,0,3,2,0,1,0,1,0,2,0,0,0,0,2,0,0,0,0,0,0,0,0,0,0,0,0,0,0,0],"split_type":[0,0,0,0,0,0,0,0,0,0,0,0,0,0,0,0,0,0,0,0,0,0,0,0,0,0,0,0,0,0,0,0,0,0,0,0,0,0,0,0,0],"sum_hessian":[6.4E1,9E0,5.5E1,7E0,2E0,3E0,5.2E1,1E0,6E0,1E0,1E0,2E0,1E0,2.4E1,2.8E1,1E0,5E0,3E0,2.1E1,4E0,2.4E1,4E0,1E0,1E0,2E0,1.6E1,5E0,2E0,2E0,1.2E1,1.2E1,1.5E1,1E0,2E0,3E0,1E0,1E0,2E0,1E1,1E0,1.1E1],"tree_param":{"num_deleted":"0","num_feature":"5","num_nodes":"41","size_leaf_vector":"1"}},{"base_weights":[-1.4225887E-4,-4.8866272E-2,8.560998E-3,1.7642975E-3,-1.6759236E-1,2.6186908E-2,-7.587687E-3,-2.8635407E-2,2.9288156E-2,-6.293106E-2,-1.2485505E-2,5.544332E-2,-9.584867E-3,-5.2884676E-2,1.0757719E-2,2.6108552E-2,5.1600137E-3,1.9882202E-2,8.407402E-2,-2.387831E-2,1.8060302E-2,-3.0381776E-2,1.8657826E-2,2.966309E-4,3.9024355E-3,3.5639446E-2,-5.4779053E-3,1.4750671E-1,1.651306E-2,1.8997192E-2,-4.8482258E-2,1.1540223E-2,1.0025025E-3,8.232117E-2,-3.451756E-3,2.3483278E-3,1.8252565E-2,5.1174928E-2,1.1741639E-2,-2.760315E-3,7.572556E-3,-2.2888185E-4,1.1741639E-2,1.475525E-3,-2.2923661E-2,5.838089E-2,9.352112E-3,-3.916092E-2,5.0387736E-3],"categories":[],"categories_nodes":[],"categories_segments":[],"categories_sizes":[],"default_left":[0,0,0,0,0,0,0,0,0,0,0,0,0,0,0,0,0,0,0,0,0,0,0,0,0,0,0,0,0,0,0,0,0,0,0,0,0,0,0,0,0,0,0,0,0,0,0,0,0],"id":32,"left_children":[1,3,5,7,9,11,13,-1,15,-1,-1,17,19,-1,21,-1,23,25,27,29,31,-1,33,-1,-1,35,-1,37,39,41,43,-1,-1,45,47,-1,-1,-1,-1,-1,-1,-1,-1,-1,-1,-1,-1,-1,-1],"loss_changes":[2.798209E-2,6.0407378E-2,1.6138272E-2,2.4201592E-2,7.209651E-3,2.8788367E-2,9.47395E-2,0E0,9.303102E-3,0E0,0E0,1.3600521E-2,5.56813E-3,0E0,2.6670963E-2,0E0,1.8355613E-4,5.4588523E-3,3.18488E-2,1.0415187E-2,1.3732773E-3,0E0,3.8288537E-2,0E0,0E0,3.7292773E-3,0E0,3.3265427E-3,1.354517E-3,1.6218633E-3,9.324693E-3,0E0,0E0,3.4134008E-2,5.6229E-2,0E0,0E0,0E0,0E0,0E0,0E0,0E0,0E0,0E0,0E0,0E0,0E0,0E0,0E0],"parents":[2147483647,0,0,1,1,2,2,3,3,4,4,5,5,6,6,8,8,11,11,12,12,14,14,16,16,17,17,18,18,19,19,20,20,22,22,25,25,27,27,28,28,29,29,30,30,33,33,34,34],"right_children":[2,4,6,8,10,12,14,-1,16,-1,-1,18,20,-1,22,-1,24,26,28,30,32,-1,34,-1,-1,36,-1,38,40,42,44,-1,-1,46,48,-1,-1,-1,-1,-1,-1,-1,-1,-1,-1,-1,-1,-1,-1],"split_conditions":[3E0,2E0,1.7E1,3.3E1,5.3E1,3E0,1.8E1,-2.8635407E-2,1E0,-6.293106E-2,-1.2485505E-2,2E0,4.3E1,-5.2884676E-2,6E0,2.6108552E-2,4.7E1,3.1E1,4.2E1,2.7E1,4E0,-3.0381776E-2,2E0,2.966309E-4,3.9024355E-3,1E1,-5.4779053E-3,1.2E1,4E0,9E0,6E0,1.1540223E-2,1.0025025E-3,1.9E1,2E0,2.3483278E-3,1.8252565E-2,5.1174928E-2,1.1741639E-2,-2.760315E-3,7.572556E-3,-2.2888185E-4,1.1741639E-2,1.475525E-3,-2.2923661E-2,5.838089E-2,9.352112E-3,-3.916092E-2,5.0387736E-3],"split_indices":[0,0,0,1,2,4,0,0,0,0,0,4,1,0,1,0,1,2,1,2,4,0,4,0,0,0,0,0,0,0,0,0,0,0,3,0,0,0,0,0,0,0,0,0,0,0,0,0,0],"split_type":[0,0,0,0,0,0,0,0,0,0,0,0,0,0,0,0,0,0,0,0,0,0,0,0,0,0,0,0,0,0,0,0,0,0,0,0,0,0,0,0,0,0,0,0,0,0,0,0,0],"sum_hessian":[6.4E1,9E0,5.5E1,7E0,2E0,2.6E1,2.9E1,1E0,6E0,1E0,1E0,1.4E1,1.2E1,2E0,2.7E1,1E0,5E0,7E0,7E0,8E0,4E0,1E0,2.6E1,4E0,1E0,5E0,2E0,3E0,4E0,3E0,5E0,1E0,3E0,6E0,2E1,3E0,2E0,2E0,1E0,1E0,3E0,2E0,1E0,2E0,3E0,1E0,5E0,2E0,1.8E1],"tree_param":{"num_deleted":"0","num_feature":"5","num_nodes":"49","size_leaf_vector":"1"}},{"base_weights":[-6.825374E-4,-4.1578673E-2,6.6325325E-3,1.4476776E-3,-1.4245605E-1,-1.9153595E-2,1.6533643E-2,-2.4339296E-2,2.4834769E-2,-5.3491976E-2,-1.06132515E-2,-3.7484743E-2,3.837204E-2,6.3639715E-2,-5.1529985E-3,2.2192383E-2,4.3156943E-3,-1.9537607E-2,-8.1954956E-2,1.4404297E-2,1.7081833E-1,-6.682587E-2,7.3876954E-3,2.2705078E-4,3.316498E-3,-5.866496E-2,-5.845642E-3,-9.577434E-3,-4.486313E-2,-1.940579E-2,4.7804262E-2,4.174805E-3,6.554413E-2,4.55424E-2,-4.7075655E-2,-3.8839488E-3,1.8091055E-2,-5.7449343E-4,-2.5824739E-2,6.0278326E-3,-7.946015E-3,-1.8768311E-4,-4.1221622E-3,2.6332857E-3,-3.673096E-2,-2.09198E-3,2.258606E-2,2.7307891E-3,-1.0613823E-2,7.798767E-3,7.324219E-5],"categories":[],"categories_nodes":[],"categories_segments":[],"categories_sizes":[],"default_left":[0,0,0,0,0,0,0,0,0,0,0,0,0,0,0,0,0,0,0,0,0,0,0,0,0,0,0,0,0,0,0,0,0,0,0,0,0,0,0,0,0,0,0,0,0,0,0,0,0,0,0],"id":33,"left_children":[1,3,5,7,9,11,13,-1,15,-1,-1,17,-1,19,21,-1,23,25,27,29,31,33,35,-1,-1,37,39,41,-1,43,-1,-1,-1,45,-1,47,49,-1,-1,-1,-1,-1,-1,-1,-1,-1,-1,-1,-1,-1,-1],"loss_changes":[1.9721048E-2,4.361009E-2,1.4614109E-2,1.7465066E-2,5.208425E-3,4.7927126E-2,4.2212404E-2,0E0,6.7388765E-3,0E0,0E0,1.0370487E-2,0E0,6.6140264E-2,2.2922885E-2,0E0,1.3553843E-4,6.0858293E-3,1.8135399E-2,5.2097697E-2,2.6872806E-2,5.776442E-2,3.0863765E-3,0E0,0E0,4.502982E-3,5.886159E-3,1.0320594E-4,0E0,2.7208516E-2,0E0,0E0,0E0,5.2111465E-3,0E0,5.639284E-3,1.8276535E-3,0E0,0E0,0E0,0E0,0E0,0E0,0E0,0E0,0E0,0E0,0E0,0E0,0E0,0E0],"parents":[2147483647,0,0,1,1,2,2,3,3,4,4,5,5,6,6,8,8,11,11,13,13,14,14,16,16,17,17,18,18,19,19,20,20,21,21,22,22,25,25,26,26,27,27,29,29,33,33,35,35,36,36],"right_children":[2,4,6,8,10,12,14,-1,16,-1,-1,18,-1,20,22,-1,24,26,28,30,32,34,36,-1,-1,38,40,42,-1,44,-1,-1,-1,46,-1,48,50,-1,-1,-1,-1,-1,-1,-1,-1,-1,-1,-1,-1,-1,-1],"split_conditions":[3E0,2E0,2E1,3.3E1,5.3E1,4E0,3.4E1,-2.4339296E-2,1E0,-5.3491976E-2,-1.06132515E-2,3E0,3.837204E-2,1.8E1,3.4E1,2.2192383E-2,4.7E1,6E0,2.1E1,3.4E1,2.2E1,1.5E1,5.3E1,2.2705078E-4,3.316498E-3,7E0,2E0,7E0,-4.486313E-2,1.7E1,4.7804262E-2,4.174805E-3,6.554413E-2,1E1,-4.7075655E-2,3E0,4E0,-5.7449343E-4,-2.5824739E-2,6.0278326E-3,-7.946015E-3,-1.8768311E-4,-4.1221622E-3,2.6332857E-3,-3.673096E-2,-2.09198E-3,2.258606E-2,2.7307891E-3,-1.0613823E-2,7.798767E-3,7.324219E-5],"split_indices":[0,0,1,1,2,4,1,0,0,0,0,4,0,0,2,0,1,1,0,2,1,0,2,0,0,0,4,0,0,0,0,0,0,0,0,4,4,0,0,0,0,0,0,0,0,0,0,0,0,0,0],"split_type":[0,0,0,0,0,0,0,0,0,0,0,0,0,0,0,0,0,0,0,0,0,0,0,0,0,0,0,0,0,0,0,0,0,0,0,0,0,0,0,0,0,0,0,0,0,0,0,0,0,0,0],"sum_hessian":[6.4E1,9E0,5.5E1,7E0,2E0,1.5E1,4E1,1E0,6E0,1E0,1E0,1.4E1,1E0,1.2E1,2.8E1,1E0,5E0,1.1E1,3E0,9E0,3E0,4E0,2.4E1,4E0,1E0,2E0,9E0,2E0,1E0,8E0,1E0,1E0,2E0,2E0,2E0,1.2E1,1.2E1,1E0,1E0,4E0,5E0,1E0,1E0,7E0,1E0,1E0,1E0,9E0,3E0,8E0,4E0],"tree_param":{"num_deleted":"0","num_feature":"5","num_nodes":"51","size_leaf_vector":"1"}},{"base_weights":[-1.1698796E-3,-3.4289967E-2,5.4754084E-3,1.1882782E-3,-9.6673965E-2,-1.5851974E-2,1.38694765E-2,-2.068863E-2,2.106149E-2,-4.5468524E-2,-8.357239E-3,-3.1404622E-2,3.261566E-2,8.209839E-2,4.007975E-3,1.8864442E-2,3.6112468E-3,-1.6034445E-2,-6.9664E-2,1.1357117E-2,3.885956E-2,-2.327919E-2,1.6945496E-2,1.7211914E-4,2.8198243E-3,-4.9865723E-2,-4.2816163E-3,-8.143107E-3,-3.8134005E-2,4.8282623E-2,-8.129229E-2,4.0633395E-2,6.3645043E-3,-4.8751832E-4,-2.1952057E-2,4.581299E-3,-5.958557E-3,-1.6021729E-4,-3.504181E-3,2.8606797E-2,-9.172821E-3,-6.9250492E-3,-4.5362856E-2,-9.973967E-4,4.899216E-3],"categories":[],"categories_nodes":[],"categories_segments":[],"categories_sizes":[],"default_left":[0,0,0,0,0,0,0,0,0,0,0,0,0,0,0,0,0,0,0,0,0,0,0,0,0,0,0,0,0,0,0,0,0,0,0,0,0,0,0,0,0,0,0,0,0],"id":34,"left_children":[1,3,5,7,9,11,13,-1,15,-1,-1,17,-1,19,21,-1,23,25,27,-1,-1,29,31,-1,-1,33,35,37,-1,39,41,-1,43,-1,-1,-1,-1,-1,-1,-1,-1,-1,-1,-1,-1],"loss_changes":[1.4493766E-2,2.4460897E-2,1.0066151E-2,1.26053495E-2,1.088661E-2,3.441278E-2,2.6584532E-2,0E0,4.881301E-3,0E0,0E0,7.7037783E-3,0E0,5.588904E-3,1.3103494E-2,0E0,1.0009719E-4,4.5578526E-3,1.3102243E-2,0E0,0E0,5.3743273E-2,3.0483924E-2,0E0,0E0,3.2542394E-3,3.3496544E-3,7.4512835E-5,0E0,2.5188476E-2,2.4998136E-2,0E0,2.371836E-3,0E0,0E0,0E0,0E0,0E0,0E0,0E0,0E0,0E0,0E0,0E0,0E0],"parents":[2147483647,0,0,1,1,2,2,3,3,4,4,5,5,6,6,8,8,11,11,13,13,14,14,16,16,17,17,18,18,21,21,22,22,25,25,26,26,27,27,29,29,30,30,32,32],"right_children":[2,4,6,8,10,12,14,-1,16,-1,-1,18,-1,20,22,-1,24,26,28,-1,-1,30,32,-1,-1,34,36,38,-1,40,42,-1,44,-1,-1,-1,-1,-1,-1,-1,-1,-1,-1,-1,-1],"split_conditions":[4E0,2E0,2E1,3.3E1,5.3E1,4E0,2.7E1,-2.068863E-2,1E0,-4.5468524E-2,-8.357239E-3,3E0,3.261566E-2,2.7E1,3.4E1,1.8864442E-2,4.7E1,6E0,2.1E1,1.1357117E-2,3.885956E-2,2E0,3.3E1,1.7211914E-4,2.8198243E-3,7E0,2E0,7E0,-3.8134005E-2,3E0,1.3E1,4.0633395E-2,5.3E1,-4.8751832E-4,-2.1952057E-2,4.581299E-3,-5.958557E-3,-1.6021729E-4,-3.504181E-3,2.8606797E-2,-9.172821E-3,-6.9250492E-3,-4.5362856E-2,-9.973967E-4,4.899216E-3],"split_indices":[0,0,1,1,2,4,1,0,0,0,0,4,0,2,2,0,1,1,0,0,0,4,1,0,0,0,4,0,0,3,0,0,2,0,0,0,0,0,0,0,0,0,0,0,0],"split_type":[0,0,0,0,0,0,0,0,0,0,0,0,0,0,0,0,0,0,0,0,0,0,0,0,0,0,0,0,0,0,0,0,0,0,0,0,0,0,0,0,0,0,0,0,0],"sum_hessian":[6.4E1,1E1,5.4E1,7E0,3E0,1.5E1,3.9E1,1E0,6E0,1E0,2E0,1.4E1,1E0,4E0,3.5E1,1E0,5E0,1.1E1,3E0,3E0,1E0,1.1E1,2.4E1,4E0,1E0,2E0,9E0,2E0,1E0,5E0,6E0,1E0,2.3E1,1E0,1E0,4E0,5E0,1E0,1E0,3E0,2E0,4E0,2E0,1.2E1,1.1E1],"tree_param":{"num_deleted":"0","num_feature":"5","num_nodes":"45","size_leaf_vector":"1"}},{"base_weights":[-1.1853732E-3,-2.8787093E-2,4.356523E-3,9.803772E-4,-8.112526E-2,-1.3158798E-2,1.1253739E-2,-1.7584993E-2,1.7868042E-2,-3.8647845E-2,-6.684876E-3,-2.6357016E-2,2.7722169E-2,4.635268E-2,-5.444118E-3,1.6035462E-2,3.0288696E-3,-1.3207753E-2,-5.9215546E-2,1.2346649E-1,1.0871887E-2,-4.435185E-2,7.183075E-3,1.3183594E-4,2.3963929E-3,-4.238383E-2,-3.1341552E-3,-6.922404E-3,-3.2414246E-2,4.0397644E-3,4.6693422E-2,6.751404E-2,-3.8141888E-2,2.3223876E-3,-3.2207493E-2,1.685969E-2,-4.0262397E-3,-4.1427615E-4,-1.8658448E-2,3.482666E-3,-4.469299E-3,-1.373291E-4,-2.9777528E-3,8.802796E-3,3.302994E-2,5.227661E-3,-2.1084595E-2,-4.730225E-3,5.8914186E-3,1.1038971E-2,1.837667E-3,-9.75647E-3,1.7758688E-3],"categories":[],"categories_nodes":[],"categories_segments":[],"categories_sizes":[],"default_left":[0,0,0,0,0,0,0,0,0,0,0,0,0,0,0,0,0,0,0,0,0,0,0,0,0,0,0,0,0,0,0,0,0,0,0,0,0,0,0,0,0,0,0,0,0,0,0,0,0,0,0,0,0],"id":35,"left_children":[1,3,5,7,9,11,13,-1,15,-1,-1,17,-1,19,21,-1,23,25,27,29,31,33,35,-1,-1,37,39,41,-1,-1,-1,43,45,47,-1,49,51,-1,-1,-1,-1,-1,-1,-1,-1,-1,-1,-1,-1,-1,-1,-1,-1],"loss_changes":[1.0068193E-2,1.7217256E-2,6.792468E-3,9.099E-3,8.3567E-3,2.4728112E-2,2.3695432E-2,0E0,3.5343098E-3,0E0,0E0,5.6988765E-3,0E0,3.4226455E-2,1.40748555E-2,0E0,7.353681E-5,3.3940594E-3,9.466353E-3,1.20626055E-2,3.0337568E-2,2.0834772E-2,2.4541821E-3,0E0,0E0,2.351039E-3,1.9072444E-3,5.370476E-5,0E0,0E0,0E0,4.897166E-3,1.1940356E-2,1.8758271E-3,0E0,2.3426616E-3,3.310011E-3,0E0,0E0,0E0,0E0,0E0,0E0,0E0,0E0,0E0,0E0,0E0,0E0,0E0,0E0,0E0,0E0],"parents":[2147483647,0,0,1,1,2,2,3,3,4,4,5,5,6,6,8,8,11,11,13,13,14,14,16,16,17,17,18,18,19,19,20,20,21,21,22,22,25,25,26,26,27,27,31,31,32,32,33,33,35,35,36,36],"right_children":[2,4,6,8,10,12,14,-1,16,-1,-1,18,-1,20,22,-1,24,26,28,30,32,34,36,-1,-1,38,40,42,-1,-1,-1,44,46,48,-1,50,52,-1,-1,-1,-1,-1,-1,-1,-1,-1,-1,-1,-1,-1,-1,-1,-1],"split_conditions":[4E0,2E0,2E1,3.3E1,5.3E1,4E0,3.4E1,-1.7584993E-2,1E0,-3.8647845E-2,-6.684876E-3,3E0,2.7722169E-2,2E0,3.6E1,1.6035462E-2,4.7E1,6E0,2.1E1,6E0,2.7E1,1.5E1,3E0,1.3183594E-4,2.3963929E-3,7E0,2E0,7E0,-3.2414246E-2,4.0397644E-3,4.6693422E-2,2.7E1,9E0,3.8E1,-3.2207493E-2,1.5E1,1.1E1,-4.1427615E-4,-1.8658448E-2,3.482666E-3,-4.469299E-3,-1.373291E-4,-2.9777528E-3,8.802796E-3,3.302994E-2,5.227661E-3,-2.1084595E-2,-4.730225E-3,5.8914186E-3,1.1038971E-2,1.837667E-3,-9.75647E-3,1.7758688E-3],"split_indices":[0,0,1,1,2,4,1,0,0,0,0,4,0,3,2,0,1,1,0,0,1,0,4,0,0,0,4,0,0,0,0,2,0,1,0,0,0,0,0,0,0,0,0,0,0,0,0,0,0,0,0,0,0],"split_type":[0,0,0,0,0,0,0,0,0,0,0,0,0,0,0,0,0,0,0,0,0,0,0,0,0,0,0,0,0,0,0,0,0,0,0,0,0,0,0,0,0,0,0,0,0,0,0,0,0,0,0,0,0],"sum_hessian":[6.4E1,1E1,5.4E1,7E0,3E0,1.5E1,3.9E1,1E0,6E0,1E0,2E0,1.4E1,1E0,1.2E1,2.7E1,1E0,5E0,1.1E1,3E0,3E0,9E0,6E0,2.1E1,4E0,1E0,2E0,9E0,2E0,1E0,1E0,2E0,4E0,5E0,4E0,2E0,1.1E1,1E1,1E0,1E0,4E0,5E0,1E0,1E0,3E0,1E0,2E0,3E0,2E0,2E0,3E0,8E0,2E0,8E0],"tree_param":{"num_deleted":"0","num_feature":"5","num_nodes":"53","size_leaf_vector":"1"}},{"base_weights":[-1.162485E-3,-2.5765229E-2,3.2516208E-3,8.049011E-4,-8.8030495E-2,-1.0951996E-2,8.715187E-3,-1.4948273E-2,1.5156337E-2,-3.2850266E-2,-6.7634587E-3,-2.2154745E-2,2.3563387E-2,3.834651E-2,-4.868343E-3,1.3629914E-2,2.5380452E-3,-1.091512E-2,-5.033493E-2,9.910965E-2,1.0206604E-2,-3.5708837E-2,4.729561E-3,9.887696E-5,2.0370483E-3,-3.6026E-2,-2.2903443E-3,-5.884806E-3,-2.7552797E-2,3.4332278E-3,3.7355043E-2,5.562439E-2,-2.9342651E-2,-2.142639E-2,-2.1418764E-3,-3.189659E-2,1.1818314E-2,-3.5247803E-4,-1.5859224E-2,2.6477054E-3,-3.3515932E-3,-1.1672974E-4,-2.5314332E-3,6.8218233E-3,2.8074646E-2,4.180908E-3,-1.6339876E-2,-3.78418E-3,-1.3461686E-2,1.3644791E-2,9.6063054E-4],"categories":[],"categories_nodes":[],"categories_segments":[],"categories_sizes":[],"default_left":[0,0,0,0,0,0,0,0,0,0,0,0,0,0,0,0,0,0,0,0,0,0,0,0,0,0,0,0,0,0,0,0,0,0,0,0,0,0,0,0,0,0,0,0,0,0,0,0,0,0,0],"id":36,"left_children":[1,3,5,7,9,11,13,-1,15,-1,-1,17,-1,19,21,-1,23,25,27,29,31,33,35,-1,-1,37,39,41,-1,-1,-1,43,45,-1,-1,47,49,-1,-1,-1,-1,-1,-1,-1,-1,-1,-1,-1,-1,-1,-1],"loss_changes":[7.1427207E-3,1.661482E-2,4.441184E-3,6.5683937E-3,1.7493237E-3,1.7781865E-2,1.6689101E-2,0E0,2.5589708E-3,0E0,0E0,4.2016087E-3,0E0,2.1216724E-2,8.753005E-3,0E0,5.4105683E-5,2.5163968E-3,6.839616E-3,7.4843466E-3,1.9594563E-2,6.63203E-3,6.348539E-3,0E0,0E0,1.6983633E-3,1.0858851E-3,3.881337E-5,0E0,0E0,0E0,4.1131973E-3,7.2830073E-3,0E0,0E0,4.3480797E-4,5.655539E-3,0E0,0E0,0E0,0E0,0E0,0E0,0E0,0E0,0E0,0E0,0E0,0E0,0E0,0E0],"parents":[2147483647,0,0,1,1,2,2,3,3,4,4,5,5,6,6,8,8,11,11,13,13,14,14,16,16,17,17,18,18,19,19,20,20,21,21,22,22,25,25,26,26,27,27,31,31,32,32,35,35,36,36],"right_children":[2,4,6,8,10,12,14,-1,16,-1,-1,18,-1,20,22,-1,24,26,28,30,32,34,36,-1,-1,38,40,42,-1,-1,-1,44,46,-1,-1,48,50,-1,-1,-1,-1,-1,-1,-1,-1,-1,-1,-1,-1,-1,-1],"split_conditions":[3E0,2E0,2E1,3.3E1,5.3E1,4E0,3.4E1,-1.4948273E-2,1E0,-3.2850266E-2,-6.7634587E-3,3E0,2.3563387E-2,2E0,2E0,1.3629914E-2,4.7E1,6E0,2.1E1,6E0,2.7E1,3.2E1,3.8E1,9.887696E-5,2.0370483E-3,7E0,2E0,7E0,-2.7552797E-2,3.4332278E-3,3.7355043E-2,2.7E1,9E0,-2.142639E-2,-2.1418764E-3,1.5E1,4E1,-3.5247803E-4,-1.5859224E-2,2.6477054E-3,-3.3515932E-3,-1.1672974E-4,-2.5314332E-3,6.8218233E-3,2.8074646E-2,4.180908E-3,-1.6339876E-2,-3.78418E-3,-1.3461686E-2,1.3644791E-2,9.6063054E-4],"split_indices":[0,0,1,1,2,4,1,0,0,0,0,4,0,3,3,0,1,1,0,0,1,2,1,0,0,0,4,0,0,0,0,2,0,0,0,0,2,0,0,0,0,0,0,0,0,0,0,0,0,0,0],"split_type":[0,0,0,0,0,0,0,0,0,0,0,0,0,0,0,0,0,0,0,0,0,0,0,0,0,0,0,0,0,0,0,0,0,0,0,0,0,0,0,0,0,0,0,0,0,0,0,0,0,0,0],"sum_hessian":[6.4E1,9E0,5.5E1,7E0,2E0,1.5E1,4E1,1E0,6E0,1E0,1E0,1.4E1,1E0,1.2E1,2.8E1,1E0,5E0,1.1E1,3E0,3E0,9E0,6E0,2.2E1,4E0,1E0,2E0,9E0,2E0,1E0,1E0,2E0,4E0,5E0,2E0,4E0,3E0,1.9E1,1E0,1E0,4E0,5E0,1E0,1E0,3E0,1E0,2E0,3E0,2E0,1E0,3E0,1.6E1],"tree_param":{"num_deleted":"0","num_feature":"5","num_nodes":"51","size_leaf_vector":"1"}},{"base_weights":[-1.1974628E-3,-2.1912385E-2,2.5230136E-3,6.6947937E-4,-7.482656E-2,-8.796243E-3,7.270622E-3,-1.2705231E-2,1.2865339E-2,-2.792244E-2,-5.749512E-3,-1.7691612E-2,2.002945E-2,3.8853455E-2,-3.1519243E-3,1.1585999E-2,2.1362305E-3,-8.610652E-3,-4.278183E-2,9.111677E-3,8.11882E-2,-1.8982781E-2,3.179799E-3,7.6904296E-5,1.7303467E-3,-3.062439E-2,-1.8241189E-3,-4.9997964E-3,-2.341919E-2,2.1453857E-2,-4.348755E-3,2.9182434E-3,3.0529788E-2,1.4427185E-2,-2.7183535E-2,1.0095449E-2,-5.2823154E-3,-2.9983523E-4,-1.3481141E-2,1.9317628E-3,-2.2397724E-3,-9.8419194E-5,-2.1514893E-3,-8.560181E-4,8.473206E-3,-2.5821687E-3,2.2895051E-2,9.642792E-3,1.6738892E-3,-9.266663E-3,1.1520387E-3],"categories":[],"categories_nodes":[],"categories_segments":[],"categories_sizes":[],"default_left":[0,0,0,0,0,0,0,0,0,0,0,0,0,0,0,0,0,0,0,0,0,0,0,0,0,0,0,0,0,0,0,0,0,0,0,0,0,0,0,0,0,0,0,0,0,0,0,0,0,0,0],"id":37,"left_children":[1,3,5,7,9,11,13,-1,15,-1,-1,17,-1,19,21,-1,23,25,27,29,31,33,35,-1,-1,37,39,41,-1,43,-1,-1,-1,45,-1,47,49,-1,-1,-1,-1,-1,-1,-1,-1,-1,-1,-1,-1,-1,-1],"loss_changes":[5.064795E-3,1.1999101E-2,3.0733608E-3,4.742208E-3,1.2633931E-3,1.260762E-2,1.3289405E-2,0E0,1.8517703E-3,0E0,0E0,3.2771123E-3,0E0,1.1851345E-2,3.1676963E-3,0E0,3.948323E-5,1.886298E-3,4.9418192E-3,2.3505704E-3,4.8920773E-3,2.2845376E-2,1.399311E-3,0E0,0E0,1.22713E-3,5.6089397E-4,2.8085931E-5,0E0,9.0584205E-4,0E0,0E0,0E0,1.0636019E-2,0E0,1.1149503E-3,2.6881557E-3,0E0,0E0,0E0,0E0,0E0,0E0,0E0,0E0,0E0,0E0,0E0,0E0,0E0,0E0],"parents":[2147483647,0,0,1,1,2,2,3,3,4,4,5,5,6,6,8,8,11,11,13,13,14,14,16,16,17,17,18,18,19,19,20,20,21,21,22,22,25,25,26,26,27,27,29,29,33,33,35,35,36,36],"right_children":[2,4,6,8,10,12,14,-1,16,-1,-1,18,-1,20,22,-1,24,26,28,30,32,34,36,-1,-1,38,40,42,-1,44,-1,-1,-1,46,-1,48,50,-1,-1,-1,-1,-1,-1,-1,-1,-1,-1,-1,-1,-1,-1],"split_conditions":[3E0,2E0,2.2E1,3.3E1,5.3E1,4E0,3.3E1,-1.2705231E-2,1E0,-2.792244E-2,-5.749512E-3,3E0,2.002945E-2,2.9E1,3.6E1,1.1585999E-2,4.7E1,6E0,2.1E1,2.7E1,6E0,2E0,3E0,7.6904296E-5,1.7303467E-3,7E0,1.4E1,7E0,-2.341919E-2,1E0,-4.348755E-3,2.9182434E-3,3.0529788E-2,1.8E1,-2.7183535E-2,4.2E1,1.1E1,-2.9983523E-4,-1.3481141E-2,1.9317628E-3,-2.2397724E-3,-9.8419194E-5,-2.1514893E-3,-8.560181E-4,8.473206E-3,-2.5821687E-3,2.2895051E-2,9.642792E-3,1.6738892E-3,-9.266663E-3,1.1520387E-3],"split_indices":[0,0,1,1,2,4,1,0,0,0,0,4,0,2,2,0,1,1,0,2,0,4,4,0,0,0,2,0,0,2,0,0,0,0,0,1,0,0,0,0,0,0,0,0,0,0,0,0,0,0,0],"split_type":[0,0,0,0,0,0,0,0,0,0,0,0,0,0,0,0,0,0,0,0,0,0,0,0,0,0,0,0,0,0,0,0,0,0,0,0,0,0,0,0,0,0,0,0,0,0,0,0,0,0,0],"sum_hessian":[6.4E1,9E0,5.5E1,7E0,2E0,1.6E1,3.9E1,1E0,6E0,1E0,1E0,1.5E1,1E0,9E0,3E1,1E0,5E0,1.2E1,3E0,6E0,3E0,8E0,2.2E1,4E0,1E0,2E0,1E1,2E0,1E0,4E0,2E0,1E0,2E0,6E0,2E0,1.2E1,1E1,1E0,1E0,4E0,6E0,1E0,1E0,1E0,3E0,5E0,1E0,1E0,1.1E1,2E0,8E0],"tree_param":{"num_deleted":"0","num_feature":"5","num_nodes":"51","size_leaf_vector":"1"}},{"base_weights":[-1.1414748E-3,-1.8634796E-2,2.002716E-3,5.569458E-4,-6.360117E-2,8.6051095E-3,-4.006195E-3,-1.0798645E-2,1.0920933E-2,-2.3733903E-2,-4.886627E-3,1.7940776E-2,-2.8287447E-3,-1.71875E-2,1.846041E-3,9.848786E-3,1.797994E-3,-6.9122314E-3,2.2296024E-2,-7.2881524E-3,1.4465332E-2,-1.1457825E-2,4.7435053E-3,5.8593752E-5,1.4717103E-3,-2.5405886E-4,-2.8564455E-3,4.3701172E-2,1.1504364E-2,1.3637543E-3,-2.2769928E-2,7.3196413E-3,-8.1024173E-4,1.7024232E-2,5.607605E-4,5.9127808E-3,1.7351532E-2,-2.9348375E-3,6.607492E-3,-7.513864E-4,4.2663575E-3,-1.2041474E-2,-1.0803223E-3,7.5079785E-3,-2.4090959E-3],"categories":[],"categories_nodes":[],"categories_segments":[],"categories_sizes":[],"default_left":[0,0,0,0,0,0,0,0,0,0,0,0,0,0,0,0,0,0,0,0,0,0,0,0,0,0,0,0,0,0,0,0,0,0,0,0,0,0,0,0,0,0,0,0,0],"id":38,"left_children":[1,3,5,7,9,11,13,-1,15,-1,-1,17,19,-1,21,-1,23,25,27,29,31,-1,33,-1,-1,-1,-1,35,37,39,41,-1,-1,-1,43,-1,-1,-1,-1,-1,-1,-1,-1,-1,-1],"loss_changes":[3.6124722E-3,8.665255E-3,2.2561727E-3,3.4237355E-3,9.130528E-4,2.9328014E-3,9.460937E-3,0E0,1.3400529E-3,0E0,0E0,1.7777304E-3,1.108003E-3,0E0,3.4294745E-3,0E0,2.892584E-5,3.9414852E-5,2.5002086E-3,1.5044681E-3,5.7745446E-4,0E0,5.841196E-3,0E0,0E0,0E0,0E0,2.1676626E-4,2.4550038E-3,4.3351785E-4,1.187182E-3,0E0,0E0,0E0,5.665858E-3,0E0,0E0,0E0,0E0,0E0,0E0,0E0,0E0,0E0,0E0],"parents":[2147483647,0,0,1,1,2,2,3,3,4,4,5,5,6,6,8,8,11,11,12,12,14,14,16,16,17,17,18,18,19,19,20,20,22,22,27,27,28,28,29,29,30,30,34,34],"right_children":[2,4,6,8,10,12,14,-1,16,-1,-1,18,20,-1,22,-1,24,26,28,30,32,-1,34,-1,-1,-1,-1,36,38,40,42,-1,-1,-1,44,-1,-1,-1,-1,-1,-1,-1,-1,-1,-1],"split_conditions":[3E0,2E0,1.7E1,3.3E1,5.3E1,3E0,1.8E1,-1.0798645E-2,1E0,-2.3733903E-2,-4.886627E-3,1.2E1,5.4E1,-1.71875E-2,6E0,9.848786E-3,4.7E1,7E0,3.3E1,4E1,6.1E1,-1.1457825E-2,7E0,5.8593752E-5,1.4717103E-3,-2.5405886E-4,-2.8564455E-3,3.2E1,2E0,1.3E1,1.1E1,7.3196413E-3,-8.1024173E-4,1.7024232E-2,2E0,5.9127808E-3,1.7351532E-2,-2.9348375E-3,6.607492E-3,-7.513864E-4,4.2663575E-3,-1.2041474E-2,-1.0803223E-3,7.5079785E-3,-2.4090959E-3],"split_indices":[0,0,0,1,2,4,0,0,0,0,0,1,1,0,1,0,1,0,1,1,1,0,1,0,0,0,0,1,3,0,0,0,0,0,4,0,0,0,0,0,0,0,0,0,0],"split_type":[0,0,0,0,0,0,0,0,0,0,0,0,0,0,0,0,0,0,0,0,0,0,0,0,0,0,0,0,0,0,0,0,0,0,0,0,0,0,0,0,0,0,0,0,0],"sum_hessian":[6.4E1,9E0,5.5E1,7E0,2E0,2.6E1,2.9E1,1E0,6E0,1E0,1E0,1.4E1,1.2E1,2E0,2.7E1,1E0,5E0,2E0,1.2E1,1E1,2E0,1E0,2.6E1,4E0,1E0,1E0,1E0,3E0,9E0,7E0,3E0,1E0,1E0,1E0,2.5E1,2E0,1E0,3E0,6E0,6E0,1E0,1E0,2E0,6E0,1.9E1],"tree_param":{"num_deleted":"0","num_feature":"5","num_nodes":"45","size_leaf_vector":"1"}},{"base_weights":[-1.0118925E-3,-1.5847778E-2,1.6554424E-3,4.6348572E-4,-5.406189E-2,-8.192174E-3,5.7992935E-3,-9.178162E-3,9.270804E-3,-2.0173647E-2,-4.1542053E-3,-1.47333145E-2,1.446991E-2,2.6826223E-2,-3.1014804E-3,8.372498E-3,1.5131632E-3,-7.3723425E-3,-3.4973145E-2,6.8710325E-3,2.5320437E-2,-2.4123056E-2,3.4312373E-3,4.3945314E-5,1.2519837E-3,-2.2120157E-2,-2.6799983E-3,-3.1992595E-3,-1.9544221E-2,1.663208E-2,-1.214676E-2,-4.543813E-2,-1.9528199E-3,-7.43975E-3,1.8307496E-2,-2.1514893E-4,-9.738922E-3,2.6779177E-4,-2.746582E-3,2.7465821E-5,-1.4671326E-3,1.0922242E-2,2.029419E-4,-2.913666E-3,-1.7533494E-2,5.491638E-3,-3.976822E-3,1.1513901E-2,1.2666975E-3],"categories":[],"categories_nodes":[],"categories_segments":[],"categories_sizes":[],"default_left":[0,0,0,0,0,0,0,0,0,0,0,0,0,0,0,0,0,0,0,0,0,0,0,0,0,0,0,0,0,0,0,0,0,0,0,0,0,0,0,0,0,0,0,0,0,0,0,0,0],"id":39,"left_children":[1,3,5,7,9,11,13,-1,15,-1,-1,17,-1,19,21,-1,23,25,27,29,-1,31,33,-1,-1,35,37,39,-1,41,-1,43,-1,45,47,-1,-1,-1,-1,-1,-1,-1,-1,-1,-1,-1,-1,-1,-1],"loss_changes":[2.5984328E-3,6.2582614E-3,2.3327041E-3,2.471886E-3,6.593438E-4,6.9850804E-3,7.569439E-3,0E0,9.698525E-4,0E0,0E0,2.1259233E-3,0E0,1.320717E-2,4.0652845E-3,0E0,2.120182E-5,8.4034173E-4,3.6265897E-3,5.296274E-3,0E0,2.33228E-3,3.855754E-3,0E0,0E0,6.4082677E-4,2.6264426E-4,1.7143826E-5,0E0,2.8151264E-3,0E0,8.2641374E-4,0E0,2.3390534E-3,2.6651486E-3,0E0,0E0,0E0,0E0,0E0,0E0,0E0,0E0,0E0,0E0,0E0,0E0,0E0,0E0],"parents":[2147483647,0,0,1,1,2,2,3,3,4,4,5,5,6,6,8,8,11,11,13,13,14,14,16,16,17,17,18,18,19,19,21,21,22,22,25,25,26,26,27,27,29,29,31,31,33,33,34,34],"right_children":[2,4,6,8,10,12,14,-1,16,-1,-1,18,-1,20,22,-1,24,26,28,30,-1,32,34,-1,-1,36,38,40,-1,42,-1,44,-1,46,48,-1,-1,-1,-1,-1,-1,-1,-1,-1,-1,-1,-1,-1,-1],"split_conditions":[3E0,2E0,2.2E1,3.3E1,5.3E1,4E0,3.4E1,-9.178162E-3,1E0,-2.0173647E-2,-4.1542053E-3,3E0,1.446991E-2,1.8E1,2E0,8.372498E-3,4.7E1,6E0,2.1E1,1.7E1,2.5320437E-2,3.2E1,5.6E1,4.3945314E-5,1.2519837E-3,7E0,1.9E1,7E0,-1.9544221E-2,3E0,-1.214676E-2,1E1,-1.9528199E-3,5E0,6.1E1,-2.1514893E-4,-9.738922E-3,2.6779177E-4,-2.746582E-3,2.7465821E-5,-1.4671326E-3,1.0922242E-2,2.029419E-4,-2.913666E-3,-1.7533494E-2,5.491638E-3,-3.976822E-3,1.1513901E-2,1.2666975E-3],"split_indices":[0,0,1,1,2,4,1,0,0,0,0,4,0,0,3,0,1,1,0,0,0,2,1,0,0,0,2,0,0,4,0,0,0,0,1,0,0,0,0,0,0,0,0,0,0,0,0,0,0],"split_type":[0,0,0,0,0,0,0,0,0,0,0,0,0,0,0,0,0,0,0,0,0,0,0,0,0,0,0,0,0,0,0,0,0,0,0,0,0,0,0,0,0,0,0,0,0,0,0,0,0],"sum_hessian":[6.4E1,9E0,5.5E1,7E0,2E0,1.6E1,3.9E1,1E0,6E0,1E0,1E0,1.5E1,1E0,1.1E1,2.8E1,1E0,5E0,1.2E1,3E0,9E0,2E0,6E0,2.2E1,4E0,1E0,2E0,1E1,2E0,1E0,8E0,1E0,2E0,4E0,1.3E1,9E0,1E0,1E0,7E0,3E0,1E0,1E0,3E0,5E0,1E0,1E0,2E0,1.1E1,3E0,6E0],"tree_param":{"num_deleted":"0","num_feature":"5","num_nodes":"49","size_leaf_vector":"1"}},{"base_weights":[-1.1181171E-3,-1.3478088E-2,1.108987E-3,3.8528442E-4,-4.5954388E-2,-6.852094E-3,4.464722E-3,-7.800293E-3,7.869176E-3,-1.7147828E-2,-3.531647E-3,-1.24053955E-2,1.230011E-2,2.0804087E-2,-2.4503511E-3,7.1159364E-3,1.2741089E-3,-6.121122E-3,-2.9727936E-2,4.7073364E-3,2.025757E-2,-2.0086017E-2,3.0235623E-3,3.2958986E-5,1.0643005E-3,-1.8803915E-2,-2.105713E-3,-2.7211506E-3,-1.6612245E-2,3.483073E-2,-7.177353E-3,-3.862254E-2,-1.48407E-3,-1.474762E-2,1.0163251E-2,-1.8310547E-4,-8.278657E-3,5.889893E-4,-1.7471313E-3,2.2888184E-5,-1.247406E-3,2.5634766E-3,1.3110352E-2,2.7072146E-3,-7.69043E-3,-2.4765015E-3,-1.4903641E-2,4.3930057E-3,-8.829804E-3,4.5279874E-3,-1.40625E-3],"categories":[],"categories_nodes":[],"categories_segments":[],"categories_sizes":[],"default_left":[0,0,0,0,0,0,0,0,0,0,0,0,0,0,0,0,0,0,0,0,0,0,0,0,0,0,0,0,0,0,0,0,0,0,0,0,0,0,0,0,0,0,0,0,0,0,0,0,0,0,0],"id":40,"left_children":[1,3,5,7,9,11,13,-1,15,-1,-1,17,-1,19,21,-1,23,25,27,29,-1,31,33,-1,-1,35,37,39,-1,41,43,45,-1,47,49,-1,-1,-1,-1,-1,-1,-1,-1,-1,-1,-1,-1,-1,-1,-1,-1],"loss_changes":[1.8041984E-3,4.520016E-3,1.5266481E-3,1.7843815E-3,4.7614984E-4,5.0261915E-3,4.5704935E-3,0E0,7.015293E-4,0E0,0E0,1.5597851E-3,0E0,8.706839E-3,2.8602784E-3,0E0,1.5492133E-5,6.224502E-4,2.6198053E-3,3.830064E-3,0E0,1.7733241E-3,3.0681402E-3,0E0,0E0,4.6300888E-4,1.778508E-4,1.2375918E-5,0E0,3.2607722E-4,2.623617E-3,5.9715565E-4,0E0,3.4522498E-3,1.3154012E-3,0E0,0E0,0E0,0E0,0E0,0E0,0E0,0E0,0E0,0E0,0E0,0E0,0E0,0E0,0E0,0E0],"parents":[2147483647,0,0,1,1,2,2,3,3,4,4,5,5,6,6,8,8,11,11,13,13,14,14,16,16,17,17,18,18,19,19,21,21,22,22,25,25,26,26,27,27,29,29,30,30,31,31,33,33,34,34],"right_children":[2,4,6,8,10,12,14,-1,16,-1,-1,18,-1,20,22,-1,24,26,28,30,-1,32,34,-1,-1,36,38,40,-1,42,44,46,-1,48,50,-1,-1,-1,-1,-1,-1,-1,-1,-1,-1,-1,-1,-1,-1,-1,-1],"split_conditions":[3E0,2E0,2.2E1,3.3E1,5.3E1,4E0,3.4E1,-7.800293E-3,1E0,-1.7147828E-2,-3.531647E-3,3E0,1.230011E-2,1.8E1,2E0,7.1159364E-3,4.7E1,6E0,2.1E1,2E0,2.025757E-2,3.2E1,4.3E1,3.2958986E-5,1.0643005E-3,7E0,1.6E1,7E0,-1.6612245E-2,6E0,2.7E1,1E1,-1.48407E-3,5E0,4E0,-1.8310547E-4,-8.278657E-3,5.889893E-4,-1.7471313E-3,2.2888184E-5,-1.247406E-3,2.5634766E-3,1.3110352E-2,2.7072146E-3,-7.69043E-3,-2.4765015E-3,-1.4903641E-2,4.3930057E-3,-8.829804E-3,4.5279874E-3,-1.40625E-3],"split_indices":[0,0,1,1,2,4,1,0,0,0,0,4,0,0,3,0,1,1,0,3,0,2,1,0,0,0,2,0,0,0,2,0,0,0,4,0,0,0,0,0,0,0,0,0,0,0,0,0,0,0,0],"split_type":[0,0,0,0,0,0,0,0,0,0,0,0,0,0,0,0,0,0,0,0,0,0,0,0,0,0,0,0,0,0,0,0,0,0,0,0,0,0,0,0,0,0,0,0,0,0,0,0,0,0,0],"sum_hessian":[6.4E1,9E0,5.5E1,7E0,2E0,1.6E1,3.9E1,1E0,6E0,1E0,1E0,1.5E1,1E0,1.1E1,2.8E1,1E0,5E0,1.2E1,3E0,9E0,2E0,6E0,2.2E1,4E0,1E0,2E0,1E1,2E0,1E0,2E0,7E0,2E0,4E0,6E0,1.6E1,1E0,1E0,5E0,5E0,1E0,1E0,1E0,1E0,4E0,3E0,1E0,1E0,2E0,4E0,1.2E1,4E0],