{"learner":{"attributes":{"scikit_learn":"{\"_estimator_type\": \"regressor\"}"},"feature_names":["name","amenities","checkin_date","checkout_date","adults","children"],"feature_types":["int","int","int","int","int","int"],"gradient_booster":{"model":{"gbtree_model_param":{"num_parallel_tree":"1","num_trees":"100"},"iteration_indptr":[0,1,2,3,4,5,6,7,8,9,10,11,12,13,14,15,16,17,18,19,20,21,22,23,24,25,26,27,28,29,30,31,32,33,34,35,36,37,38,39,40,41,42,43,44,45,46,47,48,49,50,51,52,53,54,55,56,57,58,59,60,61,62,63,64,65,66,67,68,69,70,71,72,73,74,75,76,77,78,79,80,81,82,83,84,85,86,87,88,89,90,91,92,93,94,95,96,97,98,99,100],"tree_info":[0,0,0,0,0,0,0,0,0,0,0,0,0,0,0,0,0,0,0,0,0,0,0,0,0,0,0,0,0,0,0,0,0,0,0,0,0,0,0,0,0,0,0,0,0,0,0,0,0,0,0,0,0,0,0,0,0,0,0,0,0,0,0,0,0,0,0,0,0,0,0,0,0,0,0,0,0,0,0,0,0,0,0,0,0,0,0,0,0,0,0,0,0,0,0,0,0,0,0,0],"trees":[{"base_weights":[-0E0,-1.0787716E1,7.821094E1,8.489583E0,-1.8987804E1,2.5923216E1,3.121875E0,-3.8977273E0,2.4460938E1,-7.78125E-1,-3.4678978E1,-2.615625E1,5.703125E0,8.703125E0,2.1625001E0,-1.2028126E1,3.4013157E0,-1.55390625E1,-4.2575E1,-1.1937501E1,-2.8171875E0,4.995E0,-1.2416667E0,-2.4322916E1,7.2083335E0,-1.5187501E1,-1.635E1,-1.0992188E0,4.0078127E-1,-8.205001E0,-1.3781251E0,3.121875E0,1.21875E-1,-1.3781251E0,-5.442188E0],"categories":[],"categories_nodes":[],"categories_segments":[],"categories_sizes":[],"default_left":[0,0,0,0,0,0,0,0,0,0,0,0,0,0,0,0,0,0,0,0,0,0,0,0,0,0,0,0,0,0,0,0,0,0,0],"id":0,"left_children":[1,3,5,7,9,-1,-1,11,13,15,17,19,-1,-1,-1,-1,21,23,25,-1,-1,-1,27,29,31,-1,33,-1,-1,-1,-1,-1,-1,-1,-1],"loss_changes":[5.5685344E4,9.329582E3,3.5486523E3,3.6565005E3,1.1687996E4,0E0,0E0,6.106157E3,4.1880615E2,3.422718E3,2.6632656E3,9.9796924E2,0E0,0E0,0E0,0E0,1.1894286E3,1.7738062E3,2.3389492E3,0E0,0E0,0E0,9.855463E1,2.326919E2,6.1029953E1,0E0,2.192163E1,0E0,0E0,0E0,0E0,0E0,0E0,0E0,0E0],"parents":[2147483647,0,0,1,1,2,2,3,3,4,4,7,7,8,8,9,9,10,10,11,11,16,16,17,17,18,18,22,22,23,23,24,24,26,26],"right_children":[2,4,6,8,10,-1,-1,12,14,16,18,20,-1,-1,-1,-1,22,24,26,-1,-1,-1,28,30,32,-1,34,-1,-1,-1,-1,-1,-1,-1,-1],"split_conditions":[4E0,1.2E1,1E1,4E0,6E0,2.5923216E1,3.121875E0,4.1E1,2.1E1,1.4E1,2E0,3.7E1,5.703125E0,8.703125E0,2.1625001E0,-1.2028126E1,1.9E1,1.8E1,2E1,-1.1937501E1,-2.8171875E0,4.995E0,2.1E1,2.2E1,1.9E1,-1.5187501E1,1.5E1,-1.0992188E0,4.0078127E-1,-8.205001E0,-1.3781251E0,3.121875E0,1.21875E-1,-1.3781251E0,-5.442188E0],"split_indices":[4,0,1,0,1,0,0,2,1,0,5,2,0,0,0,0,0,0,1,0,0,0,0,1,0,0,0,0,0,0,0,0,0,0,0],"split_type":[0,0,0,0,0,0,0,0,0,0,0,0,0,0,0,0,0,0,0,0,0,0,0,0,0,0,0,0,0,0,0,0,0,0,0],"sum_hessian":[6.4E1,5.7E1,7E0,1.7E1,4E1,6E0,1E0,1E1,7E0,1.9E1,2.1E1,5E0,5E0,5E0,2E0,1E0,1.8E1,7E0,1.4E1,2E0,3E0,4E0,1.4E1,5E0,2E0,1E1,4E0,7E0,7E0,4E0,1E0,1E0,1E0,1E0,3E0],"tree_param":{"num_deleted":"0","num_feature":"6","num_nodes":"35","size_leaf_vector":"1"}},{"base_weights":[-8.030301E-2,-8.142173E0,5.837829E1,6.0434885E0,-1.4171434E1,1.9257244E1,2.6535943E0,-3.5512793E0,1.8480858E1,-9.3126905E-1,-2.5563791E1,-2.0768492E1,4.2773438E0,7.1062503E0,2.2057023E0,-1.0223907E1,2.6070526E0,-1.1669764E1,-3.1269688E1,-1.17375E1,-9.272189E0,3.7962015E0,-9.157349E-1,-1.8623228E1,6.127085E0,-1.1045454E1,-1.2809064E1,-1.2740632E0,-3.3620317E0,-8.1067544E-1,2.9557458E-1,-6.971062E0,-1.879187E0,2.6535943E0,1.0359421E-1,-1.1714058E0,-4.217696E0],"categories":[],"categories_nodes":[],"categories_segments":[],"categories_sizes":[],"default_left":[0,0,0,0,0,0,0,0,0,0,0,0,0,0,0,0,0,0,0,0,0,0,0,0,0,0,0,0,0,0,0,0,0,0,0,0,0],"id":1,"left_children":[1,3,5,7,9,-1,-1,11,13,15,17,19,-1,-1,-1,-1,21,23,25,-1,27,-1,29,31,33,-1,35,-1,-1,-1,-1,-1,-1,-1,-1,-1,-1],"loss_changes":[3.1108887E4,5.046331E3,1.7355039E3,2.213637E3,6.160499E3,0E0,0E0,3.6689648E3,2.893789E2,2.4346428E3,1.3792031E3,9.034175E2,0E0,0E0,0E0,0E0,6.8405994E2,1.104104E3,1.0648223E3,0E0,1.015564E0,0E0,5.3604465E1,1.96573E2,4.409411E1,0E0,7.5305176E-1,0E0,0E0,0E0,0E0,0E0,0E0,0E0,0E0,0E0,0E0],"parents":[2147483647,0,0,1,1,2,2,3,3,4,4,7,7,8,8,9,9,10,10,11,11,16,16,17,17,18,18,20,20,22,22,23,23,24,24,26,26],"right_children":[2,4,6,8,10,-1,-1,12,14,16,18,20,-1,-1,-1,-1,22,24,26,-1,28,-1,30,32,34,-1,36,-1,-1,-1,-1,-1,-1,-1,-1,-1,-1],"split_conditions":[4E0,1.2E1,1E1,4E0,6E0,1.9257244E1,2.6535943E0,4.1E1,1.8E1,1.4E1,2E0,1.1E1,4.2773438E0,7.1062503E0,2.2057023E0,-1.0223907E1,1.9E1,1.8E1,2E1,-1.17375E1,2E0,3.7962015E0,2.1E1,1.5E1,1.9E1,-1.1045454E1,1.5E1,-1.2740632E0,-3.3620317E0,-8.1067544E-1,2.9557458E-1,-6.971062E0,-1.879187E0,2.6535943E0,1.0359421E-1,-1.1714058E0,-4.217696E0],"split_indices":[4,0,1,0,1,0,0,2,1,0,5,1,0,0,0,0,0,0,1,0,0,0,0,1,0,0,0,0,0,0,0,0,0,0,0,0,0],"split_type":[0,0,0,0,0,0,0,0,0,0,0,0,0,0,0,0,0,0,0,0,0,0,0,0,0,0,0,0,0,0,0,0,0,0,0,0,0],"sum_hessian":[6.4E1,5.7E1,7E0,1.7E1,4E1,6E0,1E0,1E1,7E0,1.9E1,2.1E1,5E0,5E0,4E0,3E0,1E0,1.8E1,7E0,1.4E1,1E0,4E0,4E0,1.4E1,5E0,2E0,1E1,4E0,2E0,2E0,7E0,7E0,3E0,2E0,1E0,1E0,1E0,3E0],"tree_param":{"num_deleted":"0","num_feature":"6","num_nodes":"37","size_leaf_vector":"1"}},{"base_weights":[-2.1534987E-1,-6.2556376E0,4.3603653E1,4.075759E0,-1.0638796E1,1.4305381E1,2.2555552E0,-2.9833019E0,1.5594755E1,-9.990326E-1,-1.8918636E1,-1.7266876E1,9.685948E0,2.5996876E0,6.583516E0,-8.690321E0,1.997622E0,-8.930466E0,-2.2984417E1,-9.976875E0,-7.4177523E0,3.2947834E0,1.2888582E0,2.8851123E0,-6.753591E-1,-1.4511299E1,5.208023E0,-8.033057E0,-3.0132496E0,-1.0192505E0,-2.6896257E0,-5.978749E-1,2.1798535E-1,-5.4025717E0,-1.5033509E0,2.2555552E0,8.8055424E-2],"categories":[],"categories_nodes":[],"categories_segments":[],"categories_sizes":[],"default_left":[0,0,0,0,0,0,0,0,0,0,0,0,0,0,0,0,0,0,0,0,0,0,0,0,0,0,0,0,0,0,0,0,0,0,0,0,0],"id":2,"left_children":[1,3,5,7,9,-1,-1,11,13,15,17,19,21,-1,-1,-1,23,25,27,-1,29,-1,-1,-1,31,33,35,-1,-1,-1,-1,-1,-1,-1,-1,-1,-1],"loss_changes":[1.747693E4,2.669842E3,8.195752E2,1.5101632E3,3.253543E3,0E0,0E0,2.3387922E3,1.17846436E2,1.7341174E3,6.8815234E2,6.982012E2,1.7374268E0,0E0,0E0,0E0,3.9345966E2,7.068115E2,4.6717578E2,0E0,6.499939E-1,0E0,0E0,0E0,2.9155857E1,1.0910327E2,3.1857971E1,0E0,0E0,0E0,0E0,0E0,0E0,0E0,0E0,0E0,0E0],"parents":[2147483647,0,0,1,1,2,2,3,3,4,4,7,7,8,8,9,9,10,10,11,11,12,12,16,16,17,17,18,18,20,20,24,24,25,25,26,26],"right_children":[2,4,6,8,10,-1,-1,12,14,16,18,20,22,-1,-1,-1,24,26,28,-1,30,-1,-1,-1,32,34,36,-1,-1,-1,-1,-1,-1,-1,-1,-1,-1],"split_conditions":[4E0,1.2E1,1E1,4.1E1,6E0,1.4305381E1,2.2555552E0,4E0,7E0,1.4E1,2E0,1.1E1,2.1E1,2.5996876E0,6.583516E0,-8.690321E0,1.9E1,1.8E1,2E1,-9.976875E0,2E0,3.2947834E0,1.2888582E0,2.8851123E0,2.1E1,1.5E1,1.9E1,-8.033057E0,-3.0132496E0,-1.0192505E0,-2.6896257E0,-5.978749E-1,2.1798535E-1,-5.4025717E0,-1.5033509E0,2.2555552E0,8.8055424E-2],"split_indices":[4,0,1,3,1,0,0,0,1,0,5,1,1,0,0,0,0,0,1,0,0,0,0,0,0,1,0,0,0,0,0,0,0,0,0,0,0],"split_type":[0,0,0,0,0,0,0,0,0,0,0,0,0,0,0,0,0,0,0,0,0,0,0,0,0,0,0,0,0,0,0,0,0,0,0,0,0],"sum_hessian":[6.4E1,5.7E1,7E0,1.7E1,4E1,6E0,1E0,1.1E1,6E0,1.9E1,2.1E1,5E0,6E0,4E0,2E0,1E0,1.8E1,7E0,1.4E1,1E0,4E0,4E0,2E0,4E0,1.4E1,5E0,2E0,1E1,4E0,2E0,2E0,7E0,7E0,3E0,2E0,1E0,1E0],"tree_param":{"num_deleted":"0","num_feature":"6","num_nodes":"37","size_leaf_vector":"1"}},{"base_weights":[-2.30003E-1,-4.753304E0,3.259268E1,2.8575373E0,-7.978715E0,4.15761E0,1.2318399E1,-3.5480652E0,1.1308048E1,-8.93161E0,-5.4747148E0,4.877989E0,-1.9513157E1,4.4126787E0,1.2689805E0,1.5301859E0,-1.1855635E1,2.3588953E0,-8.153992E-1,-8.480343E0,-2.1517015E0,2.1926844E0,-4.9808043E-1,-1.7941578E1,-7.965832E0,-2.650576E-1,7.3472214E-1,-1.488224E0,-5.783478E0,1.3280457E0,-3.120053E0],"categories":[],"categories_nodes":[],"categories_segments":[],"categories_sizes":[],"default_left":[0,0,0,0,0,0,0,0,0,0,0,0,0,0,0,0,0,0,0,0,0,0,0,0,0,0,0,0,0,0,0],"id":3,"left_children":[1,3,5,7,9,-1,-1,11,13,-1,15,17,19,-1,-1,21,23,-1,-1,-1,-1,-1,25,27,29,-1,-1,-1,-1,-1,-1],"loss_changes":[9.8052705E3,1.4465885E3,7.001543E2,1.0144727E3,2.0743958E3,0E0,0E0,1.5749349E3,1.3035663E2,0E0,1.7166542E3,2.0276341E2,2.2941187E2,0E0,0E0,2.2633691E2,3.3054272E2,0E0,0E0,0E0,0E0,0E0,1.92033E1,2.5824219E1,4.6839124E2,0E0,0E0,0E0,0E0,0E0,0E0],"parents":[2147483647,0,0,1,1,2,2,3,3,4,4,7,7,8,8,10,10,11,11,12,12,15,15,16,16,22,22,23,23,24,24],"right_children":[2,4,6,8,10,-1,-1,12,14,-1,16,18,20,-1,-1,22,24,-1,-1,-1,-1,-1,26,28,30,-1,-1,-1,-1,-1,-1],"split_conditions":[4E0,1.2E1,1.1E1,4E0,1.4E1,4.15761E0,1.2318399E1,2E0,1.8E1,-8.93161E0,6E0,1.2E1,1.1E1,4.4126787E0,1.2689805E0,1.9E1,1.5E1,2.3588953E0,-8.153992E-1,-8.480343E0,-2.1517015E0,2.1926844E0,4E0,9E0,1.7E1,-2.650576E-1,7.3472214E-1,-1.488224E0,-5.783478E0,1.3280457E0,-3.120053E0],"split_indices":[4,0,0,0,0,0,0,0,1,0,1,1,1,0,0,0,1,0,0,0,0,0,5,1,1,0,0,0,0,0,0],"split_type":[0,0,0,0,0,0,0,0,0,0,0,0,0,0,0,0,0,0,0,0,0,0,0,0,0,0,0,0,0,0,0],"sum_hessian":[6.4E1,5.7E1,7E0,1.7E1,4E1,3E0,4E0,1E1,7E0,3E0,3.7E1,7E0,3E0,4E0,3E0,1.8E1,1.9E1,5E0,2E0,1E0,2E0,4E0,1.4E1,6E0,1.3E1,1.3E1,1E0,1E0,5E0,2E0,1.1E1],"tree_param":{"num_deleted":"0","num_feature":"6","num_nodes":"31","size_leaf_vector":"1"}},{"base_weights":[-1.9583036E-1,-3.6504133E0,2.4874374E1,1.8110038E0,-5.959074E0,3.2221482E0,9.361981E0,-3.0660222E0,9.912905E0,-6.921998E0,-4.0007563E0,-1.1965344E1,1.4999917E0,1.4096265E0,4.5896564E0,1.2112547E0,-8.752129E0,-7.2082906E0,-4.74736E0,1.6664392E0,-3.1734315E-1,-5.492669E0,-4.206223E0,-6.523193E-1,-1.7213608E0,-3.7135565E-1,1.9285013E-1,-2.8023713E0,-6.949982E-1],"categories":[],"categories_nodes":[],"categories_segments":[],"categories_sizes":[],"default_left":[0,0,0,0,0,0,0,0,0,0,0,0,0,0,0,0,0,0,0,0,0,0,0,0,0,0,0,0,0],"id":4,"left_children":[1,3,5,7,9,-1,-1,11,13,-1,15,17,-1,-1,-1,19,21,-1,23,-1,25,27,-1,-1,-1,-1,-1,-1,-1],"loss_changes":[5.720263E3,7.420884E2,3.8081738E2,7.416305E2,1.2818103E3,0E0,0E0,9.21209E2,1.2469647E2,0E0,9.516408E2,4.083247E2,0E0,0E0,0E0,1.2791385E2,2.664453E2,0E0,2.662964E-1,0E0,1.4053504E1,1.4948273E2,0E0,0E0,0E0,0E0,0E0,0E0,0E0],"parents":[2147483647,0,0,1,1,2,2,3,3,4,4,7,7,8,8,10,10,11,11,15,15,16,16,18,18,20,20,21,21],"right_children":[2,4,6,8,10,-1,-1,12,14,-1,16,18,-1,-1,-1,20,22,-1,24,-1,26,28,-1,-1,-1,-1,-1,-1,-1],"split_conditions":[4E0,1.2E1,1.1E1,4.1E1,1.4E1,3.2221482E0,9.361981E0,4E0,7E0,-6.921998E0,6E0,1.1E1,1.4999917E0,1.4096265E0,4.5896564E0,1.9E1,2E1,-7.2082906E0,2E0,1.6664392E0,2.1E1,1.5E1,-4.206223E0,-6.523193E-1,-1.7213608E0,-3.7135565E-1,1.9285013E-1,-2.8023713E0,-6.949982E-1],"split_indices":[4,0,0,3,0,0,0,0,1,0,1,1,0,0,0,0,0,0,0,0,0,1,0,0,0,0,0,0,0],"split_type":[0,0,0,0,0,0,0,0,0,0,0,0,0,0,0,0,0,0,0,0,0,0,0,0,0,0,0,0,0],"sum_hessian":[6.4E1,5.7E1,7E0,1.7E1,4E1,3E0,4E0,1.1E1,6E0,3E0,3.7E1,5E0,6E0,4E0,2E0,1.8E1,1.9E1,1E0,4E0,4E0,1.4E1,1.3E1,6E0,2E0,2E0,7E0,7E0,5E0,8E0],"tree_param":{"num_deleted":"0","num_feature":"6","num_nodes":"29","size_leaf_vector":"1"}},{"base_weights":[-1.7764059E-1,-2.817711E0,1.8985075E1,-5.642449E0,4.1030994E-1,2.4971638E0,7.115105E0,-2.3123182E1,-2.1962965E0,4.265367E0,-6.95533E0,-8.187774E0,-9.668404E-1,4.753355E-1,-6.125519E0,7.134237E0,1.5303497E0,-5.218567E-1,-2.4125526E0,1.159137E0,-2.3404439E-1,-8.01707E0,4.7729188E-1,1.3046569E0,4.4125924E0,-2.6644516E0,3.4364567E0,-1.6031212E-1,5.9558487E-1,-3.1485033E0,-6.8876725E-1,-1.0046021E0,-9.1767885E-2,-5.7649845E-1,1.6628319E0],"categories":[],"categories_nodes":[],"categories_segments":[],"categories_sizes":[],"default_left":[0,0,0,0,0,0,0,0,0,0,0,0,0,0,0,0,0,0,0,0,0,0,0,0,0,0,0,0,0,0,0,0,0,0,0],"id":5,"left_children":[1,3,5,7,9,-1,-1,11,13,15,17,-1,-1,19,21,23,25,-1,-1,-1,27,29,-1,-1,-1,31,33,-1,-1,-1,-1,-1,-1,-1,-1],"loss_changes":[3.341904E3,5.3117737E2,2.0616772E2,1.8166941E3,8.24726E2,0E0,0E0,3.2690454E2,2.8634244E2,1.3816391E2,4.2681335E1,0E0,0E0,4.1767223E1,1.7331241E2,1.2591263E2,9.710941E1,0E0,0E0,0E0,1.1058818E1,1.034953E2,0E0,0E0,0E0,5.4307747E0,1.0093846E2,0E0,0E0,0E0,0E0,0E0,0E0,0E0,0E0],"parents":[2147483647,0,0,1,1,2,2,3,3,4,4,7,7,8,8,9,9,10,10,13,13,14,14,15,15,16,16,20,20,21,21,25,25,26,26],"right_children":[2,4,6,8,10,-1,-1,12,14,16,18,-1,-1,20,22,24,26,-1,-1,-1,28,30,-1,-1,-1,32,34,-1,-1,-1,-1,-1,-1,-1,-1],"split_conditions":[4E0,3.8E1,1.1E1,2E0,3E0,2.4971638E0,7.115105E0,1.3E1,1.8E1,1.2E1,2E0,-8.187774E0,-9.668404E-1,9E0,2.4E1,1E1,1.5E1,-5.218567E-1,-2.4125526E0,1.159137E0,4E0,1.6E1,4.7729188E-1,1.3046569E0,4.4125924E0,1.4E1,4E1,-1.6031212E-1,5.9558487E-1,-3.1485033E0,-6.8876725E-1,-1.0046021E0,-9.1767885E-2,-5.7649845E-1,1.6628319E0],"split_indices":[4,2,0,4,4,0,0,1,1,0,0,0,0,0,1,0,0,0,0,0,5,0,0,0,0,1,2,0,0,0,0,0,0,0,0],"split_type":[0,0,0,0,0,0,0,0,0,0,0,0,0,0,0,0,0,0,0,0,0,0,0,0,0,0,0,0,0,0,0,0,0,0,0],"sum_hessian":[6.4E1,5.7E1,7E0,3E1,2.7E1,3E0,4E0,4E0,2.6E1,1.8E1,9E0,3E0,1E0,1.6E1,1E1,8E0,1E1,2E0,7E0,2E0,1.4E1,8E0,2E0,7E0,1E0,3E0,7E0,1.3E1,1E0,5E0,3E0,2E0,1E0,2E0,5E0],"tree_param":{"num_deleted":"0","num_feature":"6","num_nodes":"35","size_leaf_vector":"1"}},{"base_weights":[-1.0181262E-1,-2.1128705E0,1.4491083E1,-4.5248766E0,2.8916472E-1,4.8438907E0,4.3568346E-1,-6.3455243E0,-1.7928631E0,2.8712704E0,-5.1621733E0,4.2652175E-1,-5.386531E0,-6.766706E-1,4.335558E0,-4.174866E-1,-5.9308586E0,2.353012E0,-3.4724542E-1,-7.210455E0,3.818329E-1,-2.5226898E0,4.0155488E-1,2.2725453E0,3.5490282E0,-2.641569E0,-1.2787033E0,-1.3245392E-1,9.4860655E-1,-2.2706386E-1,3.3598546E-2,-3.0339828E0,-5.337948E-1,-1.0533173E0,6.6362E-2,1.0249063E0,-8.036805E-1],"categories":[],"categories_nodes":[],"categories_segments":[],"categories_sizes":[],"default_left":[0,0,0,0,0,0,0,0,0,0,0,0,0,0,0,0,0,0,0,0,0,0,0,0,0,0,0,0,0,0,0,0,0,0,0,0,0],"id":6,"left_children":[1,3,5,7,9,-1,-1,-1,11,13,15,17,19,21,23,-1,25,27,29,31,-1,33,-1,35,-1,-1,-1,-1,-1,-1,-1,-1,-1,-1,-1,-1,-1],"loss_changes":[1.9381829E3,3.3734442E2,1.4920764E2,1.2793982E3,4.370999E2,0E0,0E0,0E0,2.096665E2,1.1203308E2,2.0730164E1,2.6158207E1,1.30638E2,2.941718E1,2.0503537E2,0E0,8.3651733E-1,1.270006E1,2.530335E0,1.0813025E2,0E0,1.1624584E1,0E0,8.277829E1,0E0,0E0,0E0,0E0,0E0,0E0,0E0,0E0,0E0,0E0,0E0,0E0,0E0],"parents":[2147483647,0,0,1,1,2,2,3,3,4,4,8,8,9,9,10,10,11,11,12,12,13,13,14,14,16,16,17,17,18,18,19,19,21,21,23,23],"right_children":[2,4,6,8,10,-1,-1,-1,12,14,16,18,20,22,24,-1,26,28,30,32,-1,34,-1,36,-1,-1,-1,-1,-1,-1,-1,-1,-1,-1,-1,-1,-1],"split_conditions":[4E0,3.7E1,1E1,2E0,3E0,4.8438907E0,4.3568346E-1,-6.3455243E0,1.8E1,4E1,2E0,1.5E1,2.4E1,1.7E1,1.4E1,-4.174866E-1,2E0,3E0,2.1E1,1.6E1,3.818329E-1,1.9E1,4.0155488E-1,1.2E1,3.5490282E0,-2.641569E0,-1.2787033E0,-1.3245392E-1,9.4860655E-1,-2.2706386E-1,3.3598546E-2,-3.0339828E0,-5.337948E-1,-1.0533173E0,6.6362E-2,1.0249063E0,-8.036805E-1],"split_indices":[4,3,1,4,4,0,0,0,1,2,0,2,1,1,1,0,5,4,0,0,0,0,0,1,0,0,0,0,0,0,0,0,0,0,0,0,0],"split_type":[0,0,0,0,0,0,0,0,0,0,0,0,0,0,0,0,0,0,0,0,0,0,0,0,0,0,0,0,0,0,0,0,0,0,0,0,0],"sum_hessian":[6.4E1,5.7E1,7E0,2.8E1,2.9E1,6E0,1E0,3E0,2.5E1,2E1,9E0,1.6E1,9E0,6E0,1.4E1,2E0,7E0,4E0,1.2E1,7E0,2E0,3E0,3E0,1.2E1,2E0,1E0,6E0,1E0,3E0,6E0,6E0,4E0,3E0,2E0,1E0,1E1,2E0],"tree_param":{"num_deleted":"0","num_feature":"6","num_nodes":"37","size_leaf_vector":"1"}},{"base_weights":[-1.4483994E-1,-1.3141577E0,4.2449417E0,-2.68444E0,1.6291428E0,-8.02594E-1,-5.148979E0,5.352756E0,-1.2993292E0,-5.2144446E0,5.610908E-1,-4.625235E0,-1.113884E0,6.753723E-1,2.6000519E0,6.21438E-1,-9.730969E-1,-2.57708E0,-4.136902E-1,6.449707E-1,-1.118398E-1,-4.8114482E-2,-2.2453332E0,-8.794229E-2,3.6395645E-1,-5.3448945E-1,2.7608898E-1],"categories":[],"categories_nodes":[],"categories_segments":[],"categories_sizes":[],"default_left":[0,0,0,0,0,0,0,0,0,0,0,0,0,0,0,0,0,0,0,0,0,0,0,0,0,0,0],"id":7,"left_children":[1,3,-1,5,7,9,11,13,15,17,19,-1,21,-1,-1,-1,-1,-1,-1,-1,23,25,-1,-1,-1,-1,-1],"loss_changes":[1.1050688E3,2.5039561E2,0E0,1.9065857E2,2.2504492E2,1.5333513E2,7.286434E2,7.299695E1,8.53661E1,6.584161E1,2.1623644E1,0E0,9.4693565E1,0E0,0E0,0E0,0E0,0E0,0E0,0E0,3.9590716E0,2.346347E1,0E0,0E0,0E0,0E0,0E0],"parents":[2147483647,0,0,1,1,3,3,4,4,5,5,6,6,7,7,8,8,9,9,10,10,12,12,20,20,21,21],"right_children":[2,4,-1,6,8,10,12,14,16,18,20,-1,22,-1,-1,-1,-1,-1,-1,-1,24,26,-1,-1,-1,-1,-1],"split_conditions":[5E0,4.2E1,4.2449417E0,3.4E1,1.2E1,7E0,3.6E1,2E0,6E0,1.3E1,1.1E1,-4.625235E0,4.2E1,6.753723E-1,2.6000519E0,6.21438E-1,-9.730969E-1,-2.57708E0,-4.136902E-1,6.449707E-1,4E0,4E0,-2.2453332E0,-8.794229E-2,3.6395645E-1,-5.3448945E-1,2.7608898E-1],"split_indices":[4,3,0,2,0,2,3,0,1,0,0,0,2,0,0,0,0,0,0,0,5,0,0,0,0,0,0],"split_type":[0,0,0,0,0,0,0,0,0,0,0,0,0,0,0,0,0,0,0,0,0,0,0,0,0,0,0],"sum_hessian":[6.4E1,6E1,4E0,4.1E1,1.9E1,2.4E1,1.7E1,8E0,1.1E1,5E0,1.9E1,4E0,1.3E1,5E0,3E0,4E0,7E0,2E0,3E0,5E0,1.4E1,1.2E1,1E0,1.3E1,1E0,4E0,8E0],"tree_param":{"num_deleted":"0","num_feature":"6","num_nodes":"27","size_leaf_vector":"1"}},{"base_weights":[-1.3262083E-1,-1.022781E0,3.2261574E0,-2.0981288E0,1.2865883E0,1.4322853E-1,-3.3486319E0,2.828341E0,3.6190313E-1,4.7850496E-1,-5.9891764E-2,-1.0230847E1,-8.9510167E-1,2.1678097E0,-7.1765846E-1,-1.5265447E-1,3.9655113E-1,-3.8771021E0,-1.4940926E0,-4.1485696E0,3.8089275E-1,9.2299694E-1,4.569031E-1,3.0936357E-1,4.7570802E-2,-2.0616639E0,-3.2060853E-1,4.7388497E-1,-2.1808828E-1],"categories":[],"categories_nodes":[],"categories_segments":[],"categories_sizes":[],"default_left":[0,0,0,0,0,0,0,0,0,0,0,0,0,0,0,0,0,0,0,0,0,0,0,0,0,0,0,0,0],"id":8,"left_children":[1,3,-1,5,7,9,11,-1,13,-1,15,17,19,21,-1,-1,23,-1,-1,25,27,-1,-1,-1,-1,-1,-1,-1,-1],"loss_changes":[6.408949E2,1.541853E2,0E0,1.1819823E2,1.4714926E2,4.8137302E0,4.4675684E2,0E0,9.968505E1,0E0,3.275629E0,3.4607666E1,8.8759705E1,2.3465118E0,0E0,0E0,1.044783E0,0E0,0E0,4.298658E1,2.239649E1,0E0,0E0,0E0,0E0,0E0,0E0,0E0,0E0],"parents":[2147483647,0,0,1,1,3,3,4,4,5,5,6,6,8,8,10,10,11,11,12,12,13,13,16,16,19,19,20,20],"right_children":[2,4,-1,6,8,10,12,-1,14,-1,16,18,20,22,-1,-1,24,-1,-1,26,28,-1,-1,-1,-1,-1,-1,-1,-1],"split_conditions":[5E0,4.2E1,3.2261574E0,4E0,4.1E1,6E0,1.5E1,2.828341E0,1.2E1,4.7850496E-1,2.1E1,3.8E1,7E0,5E1,-7.1765846E-1,-1.5265447E-1,1.5E1,-3.8771021E0,-1.4940926E0,1.3E1,2.3E1,9.2299694E-1,4.569031E-1,3.0936357E-1,4.7570802E-2,-2.0616639E0,-3.2060853E-1,4.7388497E-1,-2.1808828E-1],"split_indices":[4,3,0,1,2,0,1,0,1,0,0,2,2,2,0,0,2,0,0,0,1,0,0,0,0,0,0,0,0],"split_type":[0,0,0,0,0,0,0,0,0,0,0,0,0,0,0,0,0,0,0,0,0,0,0,0,0,0,0,0,0],"sum_hessian":[6.4E1,6E1,4E0,4.1E1,1.9E1,1.5E1,2.6E1,1E0,1.8E1,1E0,1.4E1,6E0,2E1,1.1E1,7E0,7E0,7E0,3E0,3E0,5E0,1.5E1,3E0,8E0,1E0,6E0,2E0,3E0,7E0,8E0],"tree_param":{"num_deleted":"0","num_feature":"6","num_nodes":"29","size_leaf_vector":"1"}},{"base_weights":[-9.434744E-2,-7.70446E-1,2.4518776E0,-1.6309512E0,1.0751369E0,1.4293003E-1,-2.6217344E0,2.4040902E0,2.881827E-1,4.067299E-1,-2.831014E-2,-7.928904E0,-7.2783333E-1,1.6324526E0,-5.292735E-1,-1.1258412E-1,3.2219887E-1,-3.0047534E0,-3.8597374E0,-3.3010483E0,2.8261185E-1,7.15321E-1,3.3506063E-1,2.6296008E-1,3.533674E-2,-4.209488E-1,-1.6844193E0,-1.6493317E0,-2.4847299E-1,-3.32959E-2,9.279877E-1],"categories":[],"categories_nodes":[],"categories_segments":[],"categories_sizes":[],"default_left":[0,0,0,0,0,0,0,0,0,0,0,0,0,0,0,0,0,0,0,0,0,0,0,0,0,0,0,0,0,0,0],"id":9,"left_children":[1,3,-1,5,7,9,11,-1,13,-1,15,17,19,21,-1,-1,23,-1,25,27,29,-1,-1,-1,-1,-1,-1,-1,-1,-1,-1],"loss_changes":[3.696137E2,9.862964E1,0E0,7.4191055E1,1.06896194E2,3.3613625E0,2.656129E2,0E0,5.530137E1,0E0,1.9451578E0,2.0786255E1,5.5534863E1,1.9892578E0,0E0,0E0,8.0324495E-1,0E0,9.366711E0,2.8038918E1,1.804377E1,0E0,0E0,0E0,0E0,0E0,0E0,0E0,0E0,0E0,0E0],"parents":[2147483647,0,0,1,1,3,3,4,4,5,5,6,6,8,8,10,10,11,11,12,12,13,13,16,16,18,18,19,19,20,20],"right_children":[2,4,-1,6,8,10,12,-1,14,-1,16,18,20,22,-1,-1,24,-1,26,28,30,-1,-1,-1,-1,-1,-1,-1,-1,-1,-1],"split_conditions":[5E0,4.2E1,2.4518776E0,4E0,4.1E1,6E0,1.5E1,2.4040902E0,1.2E1,4.067299E-1,2.1E1,3.8E1,7E0,5E1,-5.292735E-1,-1.1258412E-1,1.5E1,-3.0047534E0,4.2E1,1.3E1,4.1E1,7.15321E-1,3.3506063E-1,2.6296008E-1,3.533674E-2,-4.209488E-1,-1.6844193E0,-1.6493317E0,-2.4847299E-1,-3.32959E-2,9.279877E-1],"split_indices":[4,3,0,1,2,0,1,0,1,0,0,2,2,2,0,0,2,0,2,0,2,0,0,0,0,0,0,0,0,0,0],"split_type":[0,0,0,0,0,0,0,0,0,0,0,0,0,0,0,0,0,0,0,0,0,0,0,0,0,0,0,0,0,0,0],"sum_hessian":[6.4E1,6E1,4E0,4.1E1,1.9E1,1.5E1,2.6E1,1E0,1.8E1,1E0,1.4E1,6E0,2E1,1.1E1,7E0,7E0,7E0,3E0,3E0,5E0,1.5E1,3E0,8E0,1E0,6E0,2E0,1E0,2E0,3E0,1.4E1,1E0],"tree_param":{"num_deleted":"0","num_feature":"6","num_nodes":"31","size_leaf_vector":"1"}},{"base_weights":[-6.825562E-2,-5.8186466E-1,1.8634278E0,-1.2731146E0,8.988533E-1,-2.807306E-1,-2.580697E0,2.0434778E0,2.2915168E-1,-2.6270344E0,4.3719712E-1,-2.261361E0,-6.2594277E-1,1.230245E0,-3.9033967E-1,-1.3194656E0,-1.925663E-1,4.427765E-1,-7.439168E-3,6.014193E-2,-1.4317566E0,1.6005982E-1,4.5357287E-1,-3.432214E-2,2.2351685E-1,-3.8739902E-1,2.4128316E-1],"categories":[],"categories_nodes":[],"categories_segments":[],"categories_sizes":[],"default_left":[0,0,0,0,0,0,0,0,0,0,0,0,0,0,0,0,0,0,0,0,0,0,0,0,0,0,0],"id":10,"left_children":[1,3,-1,5,7,9,11,-1,13,15,17,-1,19,21,-1,-1,-1,-1,23,25,-1,-1,-1,-1,-1,-1,-1],"loss_changes":[2.1325877E2,6.358065E1,0E0,5.377571E1,7.763452E1,4.326045E1,1.6970267E2,0E0,3.0707891E1,1.8273201E1,9.248072E0,0E0,4.0115692E1,1.5482178E0,0E0,0E0,0E0,0E0,1.292633E0,1.41124E1,0E0,0E0,0E0,0E0,0E0,0E0,0E0],"parents":[2147483647,0,0,1,1,3,3,4,4,5,5,6,6,8,8,9,9,10,10,12,12,13,13,18,18,19,19],"right_children":[2,4,-1,6,8,10,12,-1,14,16,18,-1,20,22,-1,-1,-1,-1,24,26,-1,-1,-1,-1,-1,-1,-1],"split_conditions":[5E0,4.2E1,1.8634278E0,3.4E1,4.1E1,7E0,3.6E1,2.0434778E0,1.2E1,1.3E1,1.1E1,-2.261361E0,4.2E1,2E0,-3.9033967E-1,-1.3194656E0,-1.925663E-1,4.427765E-1,4E0,4E0,-1.4317566E0,1.6005982E-1,4.5357287E-1,-3.432214E-2,2.2351685E-1,-3.8739902E-1,2.4128316E-1],"split_indices":[4,3,0,2,2,2,3,0,1,0,0,0,2,4,0,0,0,0,5,0,0,0,0,0,0,0,0],"split_type":[0,0,0,0,0,0,0,0,0,0,0,0,0,0,0,0,0,0,0,0,0,0,0,0,0,0,0],"sum_hessian":[6.4E1,6E1,4E0,4.1E1,1.9E1,2.4E1,1.7E1,1E0,1.8E1,5E0,1.9E1,4E0,1.3E1,1.1E1,7E0,2E0,3E0,5E0,1.4E1,1.2E1,1E0,4E0,7E0,1.3E1,1E0,4E0,8E0],"tree_param":{"num_deleted":"0","num_feature":"6","num_nodes":"27","size_leaf_vector":"1"}},{"base_weights":[-5.6842744E-2,-4.4751102E-1,1.4162037E0,-1.0035456E0,7.425373E-1,-2.3171692E-1,-2.0197775E0,1.7369568E0,1.721597E-1,-2.0909297E0,3.3763275E-1,-1.718634E0,-5.508641E-1,9.12309E-1,-9.5958424E-1,-1.0555725E0,-4.9746323E-1,1.1069387E0,7.40153E-3,3.0860314E-2,-1.2169923E0,4.5232204E-1,1.6389161E-1,-1.2087403E-1,-3.233967E-1,-2.0805131E-1,-6.0284425E-2,4.3191835E-1,1.7418367E-1,-7.402382E-2,7.818718E-2,-1.6454163E-1,3.2024598E-1],"categories":[],"categories_nodes":[],"categories_segments":[],"categories_sizes":[],"default_left":[0,0,0,0,0,0,0,0,0,0,0,0,0,0,0,0,0,0,0,0,0,0,0,0,0,0,0,0,0,0,0,0,0],"id":11,"left_children":[1,3,-1,5,7,9,11,-1,13,15,17,-1,19,21,23,-1,25,27,29,31,-1,-1,-1,-1,-1,-1,-1,-1,-1,-1,-1,-1,-1],"loss_changes":[1.23430244E2,4.1109364E1,0E0,3.2474976E1,5.658077E1,2.716952E1,9.491187E1,0E0,1.6790966E1,1.1899069E1,5.0727835E0,0E0,2.8676731E1,1.7914724E0,9.2963696E-2,0E0,9.3158245E-2,2.1501064E-1,1.0296459E0,8.3926525E0,0E0,0E0,0E0,0E0,0E0,0E0,0E0,0E0,0E0,0E0,0E0,0E0,0E0],"parents":[2147483647,0,0,1,1,3,3,4,4,5,5,6,6,8,8,9,9,10,10,12,12,13,13,14,14,16,16,17,17,18,18,19,19],"right_children":[2,4,-1,6,8,10,12,-1,14,16,18,-1,20,22,24,-1,26,28,30,32,-1,-1,-1,-1,-1,-1,-1,-1,-1,-1,-1,-1,-1],"split_conditions":[5E0,4.2E1,1.4162037E0,3.4E1,4.1E1,7E0,3.6E1,1.7369568E0,1.2E1,1.3E1,1.1E1,-1.718634E0,4.2E1,5E1,1.5E1,-1.0555725E0,2E0,1.8E1,2.1E1,4E1,-1.2169923E0,4.5232204E-1,1.6389161E-1,-1.2087403E-1,-3.233967E-1,-2.0805131E-1,-6.0284425E-2,4.3191835E-1,1.7418367E-1,-7.402382E-2,7.818718E-2,-1.6454163E-1,3.2024598E-1],"split_indices":[4,3,0,2,2,2,3,0,1,0,0,0,2,2,0,0,2,1,0,2,0,0,0,0,0,0,0,0,0,0,0,0,0],"split_type":[0,0,0,0,0,0,0,0,0,0,0,0,0,0,0,0,0,0,0,0,0,0,0,0,0,0,0,0,0,0,0,0,0],"sum_hessian":[6.4E1,6E1,4E0,4.1E1,1.9E1,2.4E1,1.7E1,1E0,1.8E1,5E0,1.9E1,4E0,1.3E1,1.1E1,7E0,2E0,3E0,5E0,1.4E1,1.2E1,1E0,3E0,8E0,2E0,5E0,1E0,2E0,2E0,3E0,7E0,7E0,8E0,4E0],"tree_param":{"num_deleted":"0","num_feature":"6","num_nodes":"33","size_leaf_vector":"1"}},{"base_weights":[-4.238199E-2,-3.3923653E-1,1.076316E0,-7.8566307E-1,6.15221E-1,-2.5933762E0,-4.7128627E-1,1.4764137E0,1.2956117E-1,-1.4606202E0,-2.3851395E-1,1.0423508E0,-8.5921323E-1,6.8996686E-1,-7.2724247E-1,-1.1490631E-1,2.92511E-2,3.9233372E-1,1.3499337E-1,-1.8989702E0,-1.5730286E-1,3.5055086E-1,1.20186366E-1,-9.6698E-2,-2.42548E-1,-1.0139489E0,-1.0751431E-1,-1.2809677E-1,7.0455784E-1],"categories":[],"categories_nodes":[],"categories_segments":[],"categories_sizes":[],"default_left":[0,0,0,0,0,0,0,0,0,0,0,0,0,0,0,0,0,0,0,0,0,0,0,0,0,0,0,0,0],"id":12,"left_children":[1,3,-1,5,7,9,11,-1,13,-1,15,17,19,21,23,-1,-1,-1,-1,25,27,-1,-1,-1,-1,-1,-1,-1,-1],"loss_changes":[7.126188E1,2.6475163E1,0E0,2.2646505E1,4.1188942E1,3.0987656E1,2.2621286E1,0E0,9.624768E0,0E0,2.3157366E-1,6.693878E-1,2.1595772E1,1.1934204E0,2.5992393E-3,0E0,0E0,0E0,0E0,2.6165482E1,1.3842766E1,0E0,0E0,0E0,0E0,0E0,0E0,0E0,0E0],"parents":[2147483647,0,0,1,1,3,3,4,4,5,5,6,6,8,8,10,10,11,11,12,12,13,13,14,14,19,19,20,20],"right_children":[2,4,-1,6,8,10,12,-1,14,-1,16,18,20,22,24,-1,-1,-1,-1,26,28,-1,-1,-1,-1,-1,-1,-1,-1],"split_conditions":[5E0,4.2E1,1.076316E0,4E0,4.1E1,1.7E1,1.1E1,1.4764137E0,1.2E1,-1.4606202E0,2E0,2.1E1,1.8E1,5E1,1.5E1,-1.1490631E-1,2.92511E-2,3.9233372E-1,1.3499337E-1,1.9E1,4E1,3.5055086E-1,1.20186366E-1,-9.6698E-2,-2.42548E-1,-1.0139489E0,-1.0751431E-1,-1.2809677E-1,7.0455784E-1],"split_indices":[4,3,0,0,2,1,0,0,1,0,0,1,0,2,0,0,0,0,0,1,2,0,0,0,0,0,0,0,0],"split_type":[0,0,0,0,0,0,0,0,0,0,0,0,0,0,0,0,0,0,0,0,0,0,0,0,0,0,0,0,0],"sum_hessian":[6.4E1,6E1,4E0,4.1E1,1.9E1,5E0,3.6E1,1E0,1.8E1,2E0,3E0,7E0,2.9E1,1.1E1,7E0,2E0,1E0,4E0,3E0,1.1E1,1.8E1,3E0,8E0,2E0,5E0,5E0,6E0,1.7E1,1E0],"tree_param":{"num_deleted":"0","num_feature":"6","num_nodes":"29","size_leaf_vector":"1"}},{"base_weights":[-1.2434505E-2,-2.3674661E-1,8.179981E-1,-5.872014E-1,5.110458E-1,-2.073077E0,-3.3037835E-1,1.2549523E0,9.7608864E-2,-1.4048951E0,-6.144989E-1,-1.761572E-1,-8.82351E-1,5.22199E-1,-1.6544324E-1,-1.8837357E-1,-3.4785005E-1,7.9556084E-1,-4.38143E-1,2.7167588E-1,8.813477E-2,-9.1925055E-2,2.4863435E-2,2.9817355E-1,1.046196E-1,-6.580416E-1,-4.5372218E-2],"categories":[],"categories_nodes":[],"categories_segments":[],"categories_sizes":[],"default_left":[0,0,0,0,0,0,0,0,0,0,0,0,0,0,0,0,0,0,0,0,0,0,0,0,0,0,0],"id":13,"left_children":[1,3,-1,5,7,9,11,-1,13,-1,15,17,-1,19,-1,21,-1,23,25,-1,-1,-1,-1,-1,-1,-1,-1],"loss_changes":[4.0582314E1,1.6286201E1,0E0,1.5342601E1,2.9955555E1,1.9962828E1,1.4379542E1,0E0,5.524298E0,0E0,9.42775E-1,9.513316E0,0E0,7.8481793E-1,0E0,1.5347297E-1,0E0,3.6242247E-1,1.4272884E1,0E0,0E0,0E0,0E0,0E0,0E0,0E0,0E0],"parents":[2147483647,0,0,1,1,3,3,4,4,5,5,6,6,8,8,10,10,11,11,13,13,15,15,17,17,18,18],"right_children":[2,4,-1,6,8,10,12,-1,14,-1,16,18,-1,20,-1,22,-1,24,26,-1,-1,-1,-1,-1,-1,-1,-1],"split_conditions":[5E0,4.2E1,8.179981E-1,4E0,4.1E1,1.1E1,4.2E1,1.2549523E0,1.2E1,-1.4048951E0,3E0,1.1E1,-8.82351E-1,5E1,-1.6544324E-1,2E0,-3.4785005E-1,2.1E1,1.4E1,2.7167588E-1,8.813477E-2,-9.1925055E-2,2.4863435E-2,2.9817355E-1,1.046196E-1,-6.580416E-1,-4.5372218E-2],"split_indices":[4,3,0,0,2,1,2,0,1,0,0,0,0,2,0,0,0,1,0,0,0,0,0,0,0,0,0],"split_type":[0,0,0,0,0,0,0,0,0,0,0,0,0,0,0,0,0,0,0,0,0,0,0,0,0,0,0],"sum_hessian":[6.4E1,6E1,4E0,4.1E1,1.9E1,5E0,3.6E1,1E0,1.8E1,1E0,4E0,3.5E1,1E0,1.1E1,7E0,3E0,1E0,7E0,2.8E1,3E0,8E0,2E0,1E0,4E0,3E0,3E0,2.5E1],"tree_param":{"num_deleted":"0","num_feature":"6","num_nodes":"27","size_leaf_vector":"1"}},{"base_weights":[-2.0016363E-2,-4.8253122E-1,7.9021865E-1,2.227068E-1,-8.8257855E-1,1.6014252E0,-1.5443993E-1,6.420482E-2,4.7617593E-1,-3.1673148E0,-7.897223E-2,4.1822624E-1,8.7363595E-1,8.4027104E-2,-4.0671635E-1,-3.150068E-2,5.560547E-2,2.0428391E-1,2.990326E-1,-3.9645693E-1,-1.0923982E0,-2.8481445E-1,6.056809E-1,2.1054727E-1,3.231079E-2,-4.427185E-2,-1.4055061E-1,-1.7340088E-2,-5.245209E-3,1.5791474E-1,1.1059952E-1,-1.0505244E0,4.045715E-2,-3.1471255E-3,4.6337895E-2,-5.1006013E-1,-9.019089E-2,7.7494815E-2,-2.7512515E-1],"categories":[],"categories_nodes":[],"categories_segments":[],"categories_sizes":[],"default_left":[0,0,0,0,0,0,0,0,0,0,0,0,0,0,0,0,0,0,0,0,0,0,0,0,0,0,0,0,0,0,0,0,0,0,0,0,0,0,0],"id":14,"left_children":[1,3,5,7,9,11,13,15,17,19,21,23,-1,-1,25,27,-1,-1,29,-1,-1,31,-1,-1,-1,-1,-1,-1,-1,-1,33,35,37,-1,-1,-1,-1,-1,-1],"loss_changes":[2.4739779E1,1.2045957E1,1.863884E1,6.12233E-1,4.932264E1,1.8942635E1,1.4293783E0,1.3337722E-1,1.4017105E-2,1.3124008E0,9.643622E0,6.289226E-1,0E0,0E0,5.895269E-2,1.5698452E-3,0E0,0E0,1.5598354E-1,0E0,0E0,5.023775E0,0E0,0E0,0E0,0E0,0E0,0E0,0E0,0E0,2.2864424E-2,2.4119635E0,3.3660295E0,0E0,0E0,0E0,0E0,0E0,0E0],"parents":[2147483647,0,0,1,1,2,2,3,3,4,4,5,5,6,6,7,7,8,8,9,9,10,10,11,11,14,14,15,15,18,18,21,21,30,30,31,31,32,32],"right_children":[2,4,6,8,10,12,14,16,18,20,22,24,-1,-1,26,28,-1,-1,30,-1,-1,32,-1,-1,-1,-1,-1,-1,-1,-1,34,36,38,-1,-1,-1,-1,-1,-1],"split_conditions":[4.2E1,4E0,1.2E1,3E0,1.5E1,5E0,6E0,2.1E1,1.5E1,9E0,4.1E1,5E1,8.7363595E-1,8.4027104E-2,1.5E1,1.4E1,5.560547E-2,2.0428391E-1,6E0,-3.9645693E-1,-1.0923982E0,7E0,6.056809E-1,2.1054727E-1,3.231079E-2,-4.427185E-2,-1.4055061E-1,-1.7340088E-2,-5.245209E-3,1.5791474E-1,2.1E1,1.3E1,1.5E1,-3.1471255E-3,4.6337895E-2,-5.1006013E-1,-9.019089E-2,7.7494815E-2,-2.7512515E-1],"split_indices":[3,1,0,5,1,0,1,0,2,1,2,2,0,0,0,2,0,0,0,0,0,2,0,0,0,0,0,0,0,0,0,0,0,0,0,0,0,0,0],"split_type":[0,0,0,0,0,0,0,0,0,0,0,0,0,0,0,0,0,0,0,0,0,0,0,0,0,0,0,0,0,0,0,0,0,0,0,0,0,0,0],"sum_hessian":[6.4E1,4.1E1,2.3E1,1.5E1,2.6E1,1.2E1,1.1E1,1E1,5E0,6E0,2E1,7E0,5E0,4E0,7E0,6E0,4E0,1E0,4E0,2E0,4E0,1.9E1,1E0,3E0,4E0,2E0,5E0,1E0,5E0,1E0,3E0,5E0,1.4E1,1E0,2E0,2E0,3E0,1.2E1,2E0],"tree_param":{"num_deleted":"0","num_feature":"6","num_nodes":"39","size_leaf_vector":"1"}},{"base_weights":[-1.7503357E-2,-3.6735898E-1,5.954733E-1,-1.6240553E0,-1.5364178E-1,9.356621E-1,3.5015702E-1,-8.9173204E-1,-2.0675278E-1,-4.9365573E-2,-5.861378E-1,6.2462658E-2,4.1200927E-1,-8.904114E-2,9.51004E-3,-2.0269567E-1,1.2279491E0,3.0410385E-1,-3.0780697E-1,-4.9087757E-1,4.1829336E-1,1.4796066E-1,5.148285E-1,1.6317558E-1,1.637302E-1,-3.5418704E-2,-1.0541344E-1,-1.04245275E-1,-5.4682964E-1,2.3077126E-1,5.716038E-2,2.4554444E-2,6.3859865E-2],"categories":[],"categories_nodes":[],"categories_segments":[],"categories_sizes":[],"default_left":[0,0,0,0,0,0,0,0,0,0,0,0,0,0,0,0,0,0,0,0,0,0,0,0,0,0,0,0,0,0,0,0,0],"id":15,"left_children":[1,3,5,7,9,-1,11,-1,13,15,-1,17,-1,-1,-1,19,21,23,25,27,29,-1,-1,-1,31,-1,-1,-1,-1,-1,-1,-1,-1],"loss_changes":[1.4158219E1,1.1030737E1,1.376465E1,1.0851854E1,6.8489265E0,0E0,6.684748E0,0E0,9.530045E-2,7.2995286E0,0E0,1.7935808E0,0E0,0E0,0E0,6.110938E0,5.8827305E-1,3.1490827E-1,2.4654627E-2,3.7592459E0,7.326704E-1,0E0,0E0,0E0,1.8787503E-2,0E0,0E0,0E0,0E0,0E0,0E0,0E0,0E0],"parents":[2147483647,0,0,1,1,2,2,3,3,4,4,6,6,8,8,9,9,11,11,15,15,16,16,17,17,18,18,19,19,20,20,24,24],"right_children":[2,4,6,8,10,-1,12,-1,14,16,-1,18,-1,-1,-1,20,22,24,26,28,30,-1,-1,-1,32,-1,-1,-1,-1,-1,-1,-1,-1],"split_conditions":[4.2E1,4E0,4.1E1,1.7E1,4.2E1,9.356621E-1,5E0,-8.9173204E-1,2E0,4E1,-5.861378E-1,1.2E1,4.1200927E-1,-8.904114E-2,9.51004E-3,3E0,1.8E1,5E1,1.5E1,2.1E1,1.5E1,1.4796066E-1,5.148285E-1,1.6317558E-1,2E0,-3.5418704E-2,-1.0541344E-1,-1.04245275E-1,-5.4682964E-1,2.3077126E-1,5.716038E-2,2.4554444E-2,6.3859865E-2],"split_indices":[3,0,2,1,2,0,4,0,0,2,0,1,0,0,0,4,0,2,0,0,2,0,0,0,0,0,0,0,0,0,0,0,0],"split_type":[0,0,0,0,0,0,0,0,0,0,0,0,0,0,0,0,0,0,0,0,0,0,0,0,0,0,0,0,0,0,0,0,0],"sum_hessian":[6.4E1,4.1E1,2.3E1,5E0,3.6E1,1E0,2.2E1,2E0,3E0,3.5E1,1E0,1.8E1,4E0,2E0,1E0,3.2E1,3E0,1.1E1,7E0,2.2E1,1E1,2E0,1E0,3E0,8E0,2E0,5E0,2.1E1,1E0,3E0,7E0,4E0,4E0],"tree_param":{"num_deleted":"0","num_feature":"6","num_nodes":"33","size_leaf_vector":"1"}},{"base_weights":[-9.164663E-3,-2.8709665E-1,4.775982E-1,-1.2987162E0,-1.1529087E-1,7.9531175E-1,2.6783818E-1,-8.9654166E-1,-3.6307067E-1,-2.6230918E-2,-4.982174E-1,4.955412E-2,3.13125E-1,8.084107E-3,-4.6731186E-1,-1.528896E-1,1.0252609E0,2.3383968E-1,-2.3306847E-1,-1.755478E-1,-1.706543E-2,-8.749809E-1,7.3046004E-3,1.18368536E-1,4.3760377E-1,1.2646066E-1,1.2443712E-1,-2.8335573E-2,-7.905961E-2,-4.5464003E-1,8.1198126E-2,-2.2455978E-1,6.124858E-2,1.866211E-2,4.853394E-2],"categories":[],"categories_nodes":[],"categories_segments":[],"categories_sizes":[],"default_left":[0,0,0,0,0,0,0,0,0,0,0,0,0,0,0,0,0,0,0,0,0,0,0,0,0,0,0,0,0,0,0,0,0,0,0],"id":16,"left_children":[1,3,5,7,9,-1,11,-1,13,15,-1,17,-1,-1,19,21,23,25,27,-1,-1,29,31,-1,-1,-1,33,-1,-1,-1,-1,-1,-1,-1,-1],"loss_changes":[8.93077E0,7.149957E0,1.0231573E1,8.401048E0,5.0489793E0,0E0,3.843769E0,0E0,2.1587217E-1,4.9512525E0,0E0,1.0440826E0,0E0,0E0,1.6018444E-1,3.823661E0,5.1788664E-1,1.9395816E-1,8.890897E-3,0E0,0E0,4.8127785E0,4.3190007E0,0E0,0E0,0E0,1.0850713E-2,0E0,0E0,0E0,0E0,0E0,0E0,0E0,0E0],"parents":[2147483647,0,0,1,1,2,2,3,3,4,4,6,6,8,8,9,9,11,11,14,14,15,15,16,16,17,17,18,18,21,21,22,22,26,26],"right_children":[2,4,6,8,10,-1,12,-1,14,16,-1,18,-1,-1,20,22,24,26,28,-1,-1,30,32,-1,-1,-1,34,-1,-1,-1,-1,-1,-1,-1,-1],"split_conditions":[4.2E1,4E0,4.1E1,1.1E1,4.2E1,7.9531175E-1,5E0,-8.9654166E-1,3.7E1,4E1,-4.982174E-1,1.2E1,3.13125E-1,8.084107E-3,3E0,2E0,1.8E1,5E1,1.5E1,-1.755478E-1,-1.706543E-2,1.3E1,7E0,1.18368536E-1,4.3760377E-1,1.2646066E-1,2E0,-2.8335573E-2,-7.905961E-2,-4.5464003E-1,8.1198126E-2,-2.2455978E-1,6.124858E-2,1.866211E-2,4.853394E-2],"split_indices":[3,0,2,1,2,0,4,0,2,2,0,1,0,0,5,4,0,2,0,0,0,1,2,0,0,0,0,0,0,0,0,0,0,0,0],"split_type":[0,0,0,0,0,0,0,0,0,0,0,0,0,0,0,0,0,0,0,0,0,0,0,0,0,0,0,0,0,0,0,0,0,0,0],"sum_hessian":[6.4E1,4.1E1,2.3E1,5E0,3.6E1,1E0,2.2E1,1E0,4E0,3.5E1,1E0,1.8E1,4E0,1E0,3E0,3.2E1,3E0,1.1E1,7E0,2E0,1E0,5E0,2.7E1,2E0,1E0,3E0,8E0,2E0,5E0,3E0,2E0,5E0,2.2E1,4E0,4E0],"tree_param":{"num_deleted":"0","num_feature":"6","num_nodes":"35","size_leaf_vector":"1"}},{"base_weights":[-1.20350765E-2,-3.6337832E-1,2.6366735E-1,-2.401176E-2,-7.4352497E-1,5.046811E-1,-1.23464964E-1,-5.613963E-1,1.306701E-1,7.321676E-3,9.599838E-1,2.2983837E-1,-4.6133518E-1,-3.422852E-1,1.3618469E-2,3.7585232E-1,7.540385E-3,1.9289207E-1,-2.910553E-1,-1.07199095E-1,1.5069752E0,-1.1588669E-1,8.446757E-1,-4.234852E-1,-1.23920985E-1,-9.105835E-2,6.615295E-2,1.0752106E-1,1.6506615E-1,6.1208453E-2,-1.11571886E-1,9.800606E-2,1.418335E-2,6.871033E-3,-3.7527084E-1,8.929825E-2,-2.8282928E-1,2.2974168E-1,7.460968E-1,3.6884766E-2,-1.9650994E-1,3.7196276E-1,8.141328E-3,4.776421E-2,-5.929375E-2,4.853516E-2,-8.290101E-3,4.9623873E-2,1.2140597E-2,-1.4043732E-1,-1.4506531E-2,-2.2668459E-2,-1.3569489E-1],"categories":[],"categories_nodes":[],"categories_segments":[],"categories_sizes":[],"default_left":[0,0,0,0,0,0,0,0,0,0,0,0,0,0,0,0,0,0,0,0,0,0,0,0,0,0,0,0,0,0,0,0,0,0,0,0,0,0,0,0,0,0,0,0,0,0,0,0,0,0,0,0,0],"id":17,"left_children":[1,3,5,7,-1,9,11,13,15,17,19,21,23,-1,25,27,29,31,33,35,37,39,41,-1,43,-1,-1,45,-1,47,-1,-1,-1,-1,49,-1,51,-1,-1,-1,-1,-1,-1,-1,-1,-1,-1,-1,-1,-1,-1,-1,-1],"loss_changes":[6.3921127E0,2.0755913E1,3.5145667E0,2.2345722E0,0E0,5.201301E0,1.8965929E0,2.0150514E0,6.311395E-1,7.205815E-1,7.1664248E0,1.7984041E0,2.3901803E0,0E0,3.2939023E-1,2.683587E-1,3.2822636E-1,1.4041436E-1,1.4079607E-1,4.3971533E-1,3.9063034E0,8.53141E-1,9.356258E-1,0E0,1.7758657E-1,0E0,0E0,3.380618E-2,0E0,2.3562472E-2,0E0,0E0,0E0,0E0,9.878498E-2,0E0,1.0633907E-1,0E0,0E0,0E0,0E0,0E0,0E0,0E0,0E0,0E0,0E0,0E0,0E0,0E0,0E0,0E0,0E0],"parents":[2147483647,0,0,1,1,2,2,3,3,5,5,6,6,7,7,8,8,9,9,10,10,11,11,12,12,14,14,15,15,16,16,17,17,18,18,19,19,20,20,21,21,22,22,24,24,27,27,29,29,34,34,36,36],"right_children":[2,4,6,8,-1,10,12,14,16,18,20,22,24,-1,26,28,30,32,34,36,38,40,42,-1,44,-1,-1,46,-1,48,-1,-1,-1,-1,50,-1,52,-1,-1,-1,-1,-1,-1,-1,-1,-1,-1,-1,-1,-1,-1,-1,-1],"split_conditions":[3.6E1,3.4E1,1.5E1,7E0,-7.4352497E-1,5E0,3E0,1.3E1,1.5E1,1.2E1,2E0,9E0,2E0,-3.422852E-1,2E0,3E0,3.4E1,5E1,3.7E1,1E1,1E1,6E0,1.9E1,-4.234852E-1,1.8E1,-9.105835E-2,6.615295E-2,7E0,1.6506615E-1,1.1E1,-1.11571886E-1,9.800606E-2,1.418335E-2,6.871033E-3,3E0,8.929825E-2,1.4E1,2.2974168E-1,7.460968E-1,3.6884766E-2,-1.9650994E-1,3.7196276E-1,8.141328E-3,4.776421E-2,-5.929375E-2,4.853516E-2,-8.290101E-3,4.9623873E-2,1.2140597E-2,-1.4043732E-1,-1.4506531E-2,-2.2668459E-2,-1.3569489E-1],"split_indices":[3,3,0,2,0,0,4,0,2,1,5,1,5,0,2,4,2,2,2,0,1,1,0,0,0,0,0,0,0,0,0,0,0,0,5,0,1,0,0,0,0,0,0,0,0,0,0,0,0,0,0,0,0],"split_type":[0,0,0,0,0,0,0,0,0,0,0,0,0,0,0,0,0,0,0,0,0,0,0,0,0,0,0,0,0,0,0,0,0,0,0,0,0,0,0,0,0,0,0,0,0,0,0,0,0,0,0,0,0],"sum_hessian":[6.4E1,2.8E1,3.6E1,2.5E1,3E0,2.2E1,1.4E1,5E0,2E1,1.1E1,1.1E1,7E0,7E0,2E0,3E0,6E0,1.4E1,7E0,4E0,4E0,7E0,5E0,2E0,1E0,6E0,1E0,2E0,3E0,3E0,1.3E1,1E0,3E0,4E0,1E0,3E0,1E0,3E0,5E0,2E0,4E0,1E0,1E0,1E0,1E0,5E0,2E0,1E0,1E0,1.2E1,2E0,1E0,2E0,1E0],"tree_param":{"num_deleted":"0","num_feature":"6","num_nodes":"53","size_leaf_vector":"1"}},{"base_weights":[-1.3022555E-2,-2.8730538E-1,2.0230784E-1,-2.4952522E-2,-5.762318E-1,3.9114314E-1,-1.0072683E-1,-4.5417276E-1,9.8870054E-2,2.1336873E-3,7.4755734E-1,-7.096965E-1,4.7552843E-2,-2.7382815E-1,3.3111572E-3,2.9242378E-1,1.9536337E-3,1.4904404E-1,-2.333496E-1,-8.8848874E-2,1.1768665E0,4.0599063E-2,-3.5996246E-1,7.179718E-1,-1.3961168E-1,-7.739869E-2,5.2923586E-2,8.5323334E-2,1.279255E-1,4.72532E-2,-9.483605E-2,7.595444E-2,1.0777588E-2,-8.1459045E-2,-1.2613678E-1,7.5904086E-2,-2.375679E-1,1.723076E-1,5.9687805E-1,3.1616822E-1,6.919098E-3,-1.6703339E-1,-4.2217255E-2,3.8827516E-2,-7.047272E-3,4.2180635E-2,8.77709E-3,-3.6477663E-2,5.8410647E-3,-1.8133545E-2,-1.1534043E-1,2.8033448E-2,-4.4469833E-2],"categories":[],"categories_nodes":[],"categories_segments":[],"categories_sizes":[],"default_left":[0,0,0,0,0,0,0,0,0,0,0,0,0,0,0,0,0,0,0,0,0,0,0,0,0,0,0,0,0,0,0,0,0,0,0,0,0,0,0,0,0,0,0,0,0,0,0,0,0,0,0,0,0],"id":18,"left_children":[1,3,5,7,-1,9,11,13,15,17,19,21,23,-1,25,27,29,31,33,35,37,-1,-1,39,41,-1,-1,43,-1,45,-1,-1,-1,47,-1,-1,49,-1,-1,-1,-1,-1,51,-1,-1,-1,-1,-1,-1,-1,-1,-1,-1],"loss_changes":[3.8971167E0,1.2379871E1,2.1566734E0,1.42673E0,0E0,3.1873207E0,1.3882153E0,1.2618011E0,3.93358E-1,4.4991857E-1,4.413486E0,1.4050208E0,1.7314596E0,0E0,2.2644313E-1,1.578688E-1,2.3106676E-1,8.514354E-2,1.07848495E-1,3.143152E-1,2.7746553E0,0E0,0E0,6.7599857E-1,4.2342076E-1,0E0,0E0,2.2235893E-2,0E0,1.940541E-2,0E0,0E0,0E0,1.8569866E-2,0E0,0E0,8.083822E-2,0E0,0E0,0E0,0E0,0E0,1.5767445E-1,0E0,0E0,0E0,0E0,0E0,0E0,0E0,0E0,0E0,0E0],"parents":[2147483647,0,0,1,1,2,2,3,3,5,5,6,6,7,7,8,8,9,9,10,10,11,11,12,12,14,14,15,15,16,16,17,17,18,18,19,19,20,20,23,23,24,24,27,27,29,29,33,33,36,36,42,42],"right_children":[2,4,6,8,-1,10,12,14,16,18,20,22,24,-1,26,28,30,32,34,36,38,-1,-1,40,42,-1,-1,44,-1,46,-1,-1,-1,48,-1,-1,50,-1,-1,-1,-1,-1,52,-1,-1,-1,-1,-1,-1,-1,-1,-1,-1],"split_conditions":[3.6E1,3.4E1,1.5E1,7E0,-5.762318E-1,5E0,1.8E1,1.3E1,1.5E1,1.2E1,2E0,4.2E1,2E0,-2.7382815E-1,2E0,3E0,3.4E1,5E1,3E0,1E1,1E1,4.0599063E-2,-3.5996246E-1,1.9E1,4E1,-7.739869E-2,5.2923586E-2,7E0,1.279255E-1,1.1E1,-9.483605E-2,7.595444E-2,1.0777588E-2,2E0,-1.2613678E-1,7.5904086E-2,1.4E1,1.723076E-1,5.9687805E-1,3.1616822E-1,6.919098E-3,-1.6703339E-1,1.9E1,3.8827516E-2,-7.047272E-3,4.2180635E-2,8.77709E-3,-3.6477663E-2,5.8410647E-3,-1.8133545E-2,-1.1534043E-1,2.8033448E-2,-4.4469833E-2],"split_indices":[3,3,0,2,0,0,0,0,2,1,5,2,5,0,2,4,2,2,0,0,1,0,0,0,2,0,0,0,0,0,0,0,0,0,0,0,1,0,0,0,0,0,0,0,0,0,0,0,0,0,0,0,0],"split_type":[0,0,0,0,0,0,0,0,0,0,0,0,0,0,0,0,0,0,0,0,0,0,0,0,0,0,0,0,0,0,0,0,0,0,0,0,0,0,0,0,0,0,0,0,0,0,0,0,0,0,0,0,0],"sum_hessian":[6.4E1,2.8E1,3.6E1,2.5E1,3E0,2.2E1,1.4E1,5E0,2E1,1.1E1,1.1E1,2E0,1.2E1,2E0,3E0,6E0,1.4E1,7E0,4E0,4E0,7E0,1E0,1E0,2E0,1E1,1E0,2E0,3E0,3E0,1.3E1,1E0,3E0,4E0,3E0,1E0,1E0,3E0,5E0,2E0,1E0,1E0,1E0,9E0,2E0,1E0,1E0,1.2E1,2E0,1E0,2E0,1E0,4E0,5E0],"tree_param":{"num_deleted":"0","num_feature":"6","num_nodes":"53","size_leaf_vector":"1"}},{"base_weights":[-1.3681735E-2,-1.6370538E-1,2.494297E-1,-7.890231E-1,-5.787803E-2,4.745682E-1,1.22718476E-1,-5.6409645E-1,-1.946991E-1,-2.8249952E-3,-3.059681E-1,2.4440564E-2,1.4148927E-1,-6.467819E-2,-1.0721741E-1,-6.245265E-2,6.738968E-1,1.0637411E-1,-3.0454446E-2,-4.2063394E-3,-3.6914065E-2,2.444439E-1,-1.510719E-1,3.450966E-2,2.687439E-1,5.8863834E-2,5.4626465E-2,-6.8573E-3,4.964447E-3,8.224716E-2,3.1060793E-2,-2.0460263E-1,-1.6886331E-2,8.192139E-3,2.1306153E-2],"categories":[],"categories_nodes":[],"categories_segments":[],"categories_sizes":[],"default_left":[0,0,0,0,0,0,0,0,0,0,0,0,0,0,0,0,0,0,0,0,0,0,0,0,0,0,0,0,0,0,0,0,0,0,0],"id":19,"left_children":[1,3,5,7,9,-1,11,-1,13,15,-1,17,-1,19,-1,21,23,25,-1,27,-1,29,31,-1,-1,-1,33,-1,-1,-1,-1,-1,-1,-1,-1],"loss_changes":[2.6065736E0,2.7337127E0,3.8579888E0,3.5254118E0,1.9567084E0,0E0,7.771518E-1,0E0,8.2651556E-2,1.4947348E0,0E0,2.0687798E-1,0E0,1.3601072E-2,0E0,9.6162456E-1,2.6901603E-1,4.506886E-2,0E0,1.5395489E-3,0E0,5.1095784E-3,1.32037E0,0E0,0E0,0E0,2.0915046E-3,0E0,0E0,0E0,0E0,0E0,0E0,0E0,0E0],"parents":[2147483647,0,0,1,1,2,2,3,3,4,4,6,6,8,8,9,9,11,11,13,13,15,15,16,16,17,17,19,19,21,21,22,22,26,26],"right_children":[2,4,6,8,10,-1,12,-1,14,16,-1,18,-1,20,-1,22,24,26,-1,28,-1,30,32,-1,-1,-1,34,-1,-1,-1,-1,-1,-1,-1,-1],"split_conditions":[4.2E1,4E0,4.1E1,1.1E1,4.2E1,4.745682E-1,5E0,-5.6409645E-1,3E0,4.1E1,-3.059681E-1,1.2E1,1.4148927E-1,4E1,-1.0721741E-1,1.1E1,1.8E1,5E1,-3.0454446E-2,2E0,-3.6914065E-2,2.3E1,1.4E1,3.450966E-2,2.687439E-1,5.8863834E-2,2E0,-6.8573E-3,4.964447E-3,8.224716E-2,3.1060793E-2,-2.0460263E-1,-1.6886331E-2,8.192139E-3,2.1306153E-2],"split_indices":[3,0,2,1,2,0,4,0,0,2,0,1,0,2,0,0,0,2,0,0,0,1,0,0,0,0,0,0,0,0,0,0,0,0,0],"split_type":[0,0,0,0,0,0,0,0,0,0,0,0,0,0,0,0,0,0,0,0,0,0,0,0,0,0,0,0,0,0,0,0,0,0,0],"sum_hessian":[6.4E1,4.1E1,2.3E1,5E0,3.6E1,1E0,2.2E1,1E0,4E0,3.5E1,1E0,1.8E1,4E0,3E0,1E0,3.3E1,2E0,1.1E1,7E0,2E0,1E0,7E0,2.6E1,1E0,1E0,3E0,8E0,1E0,1E0,5E0,2E0,3E0,2.3E1,4E0,4E0],"tree_param":{"num_deleted":"0","num_feature":"6","num_nodes":"35","size_leaf_vector":"1"}},{"base_weights":[-1.183683E-2,-1.3413893E-1,2.0268504E-1,-6.7066956E-1,-4.350858E-2,4.0338364E-1,9.457464E-2,-4.794823E-1,-1.6549377E-1,3.4444598E-3,-2.600727E-1,2.015686E-2,1.0753418E-1,-5.4977417E-2,-9.1133885E-2,-4.689542E-2,5.7281494E-1,8.182526E-2,-7.486534E-2,-3.5756428E-3,-3.1377412E-2,-1.3608074E-1,1.5195395E-1,2.9333496E-2,2.2843324E-1,5.933533E-2,5.330311E-2,-8.416749E-3,-2.5737764E-2,-5.8296206E-3,4.220581E-3,-8.073288E-2,2.3121186E-2,8.807144E-2,1.8645287E-2,6.2255864E-3,2.0681763E-2],"categories":[],"categories_nodes":[],"categories_segments":[],"categories_sizes":[],"default_left":[0,0,0,0,0,0,0,0,0,0,0,0,0,0,0,0,0,0,0,0,0,0,0,0,0,0,0,0,0,0,0,0,0,0,0,0,0],"id":20,"left_children":[1,3,5,7,9,-1,11,-1,13,15,-1,17,-1,19,-1,21,23,25,27,29,-1,31,33,-1,-1,-1,35,-1,-1,-1,-1,-1,-1,-1,-1,-1,-1],"loss_changes":[1.7325586E0,2.0131102E0,2.8357346E0,2.5471163E0,1.4334488E0,0E0,4.444216E-1,0E0,5.971323E-2,1.0586959E0,0E0,1.1746335E-1,0E0,9.827E-3,0E0,6.236491E-1,1.9436449E-1,2.9146321E-2,1.6849898E-3,1.112706E-3,0E0,7.0126724E-1,1.2164873E-1,0E0,0E0,0E0,4.168082E-3,0E0,0E0,0E0,0E0,0E0,0E0,0E0,0E0,0E0,0E0],"parents":[2147483647,0,0,1,1,2,2,3,3,4,4,6,6,8,8,9,9,11,11,13,13,15,15,16,16,17,17,18,18,19,19,21,21,22,22,26,26],"right_children":[2,4,6,8,10,-1,12,-1,14,16,-1,18,-1,20,-1,22,24,26,28,30,-1,32,34,-1,-1,-1,36,-1,-1,-1,-1,-1,-1,-1,-1,-1,-1],"split_conditions":[4.2E1,4E0,4.1E1,1.1E1,4.2E1,4.0338364E-1,5E0,-4.794823E-1,3E0,4.1E1,-2.600727E-1,1.2E1,1.0753418E-1,4E1,-9.1133885E-2,3E0,1.8E1,1E0,1.5E1,2E0,-3.1377412E-2,1.9E1,1.5E1,2.9333496E-2,2.2843324E-1,5.933533E-2,2E0,-8.416749E-3,-2.5737764E-2,-5.8296206E-3,4.220581E-3,-8.073288E-2,2.3121186E-2,8.807144E-2,1.8645287E-2,6.2255864E-3,2.0681763E-2],"split_indices":[3,0,2,1,2,0,4,0,0,2,0,1,0,2,0,4,0,0,0,0,0,1,2,0,0,0,0,0,0,0,0,0,0,0,0,0,0],"split_type":[0,0,0,0,0,0,0,0,0,0,0,0,0,0,0,0,0,0,0,0,0,0,0,0,0,0,0,0,0,0,0,0,0,0,0,0,0],"sum_hessian":[6.4E1,4.1E1,2.3E1,5E0,3.6E1,1E0,2.2E1,1E0,4E0,3.5E1,1E0,1.8E1,4E0,3E0,1E0,3.3E1,2E0,1.1E1,7E0,2E0,1E0,2.3E1,1E1,1E0,1E0,1E0,1E1,2E0,5E0,1E0,1E0,1.4E1,9E0,3E0,7E0,4E0,6E0],"tree_param":{"num_deleted":"0","num_feature":"6","num_nodes":"37","size_leaf_vector":"1"}},{"base_weights":[-8.18951E-3,-1.5747912E-1,1.0904261E-1,9.712513E-3,-3.614565E-1,2.155901E-1,-6.159973E-2,-2.756373E-1,9.077853E-2,-9.74528E-3,4.2295966E-1,-2.4615479E-1,1.3065529E-1,-1.6199493E-1,-8.468628E-3,1.0792084E-1,-3.7810136E-2,7.3301315E-2,-1.4067078E-1,-8.047485E-2,6.8473625E-1,1.1231691E-2,-5.391083E-1,1.9416733E-1,-3.5600934E-2,-6.672364E-2,4.109497E-2,8.0704585E-2,7.057343E-2,1.2688828E-1,4.7314456E-3,-4.6733856E-2,-7.746277E-2,6.436157E-2,-9.897309E-2,7.9351805E-2,3.890854E-1,-2.2756195E-1,-2.210621E-1,2.0526124E-2,-1.9302368E-2,3.0603409E-2,9.794835E-3,5.0434116E-2,1.713257E-2,-9.124756E-4,-2.6671601E-2,4.871521E-2,-6.732178E-3,2.4933243E-2,-1.2733613E-1],"categories":[],"categories_nodes":[],"categories_segments":[],"categories_sizes":[],"default_left":[0,0,0,0,0,0,0,0,0,0,0,0,0,0,0,0,0,0,0,0,0,0,0,0,0,0,0,0,0,0,0,0,0,0,0,0,0,0,0,0,0,0,0,0,0,0,0,0,0,0,0],"id":21,"left_children":[1,3,5,7,-1,9,11,13,15,17,19,21,23,-1,25,27,-1,29,31,33,35,-1,37,-1,39,-1,-1,41,-1,43,-1,45,-1,47,-1,-1,-1,49,-1,-1,-1,-1,-1,-1,-1,-1,-1,-1,-1,-1,-1],"loss_changes":[1.1547718E0,5.0899644E0,6.8599635E-1,6.2645847E-1,0E0,1.0788587E0,5.6438595E-1,4.191766E-1,9.16516E-2,1.4078636E-1,1.6365526E0,6.8482196E-1,7.1010447E-1,0E0,1.5494063E-1,5.0320268E-2,0E0,2.2661567E-2,4.3138877E-2,2.0187022E-1,1.7151189E0,0E0,7.8767896E-2,0E0,2.532948E-2,0E0,0E0,1.5099585E-2,0E0,1.9060671E-3,0E0,7.0998576E-3,0E0,3.7678238E-2,0E0,0E0,0E0,2.1878342E-1,0E0,0E0,0E0,0E0,0E0,0E0,0E0,0E0,0E0,0E0,0E0,0E0,0E0],"parents":[2147483647,0,0,1,1,2,2,3,3,5,5,6,6,7,7,8,8,9,9,10,10,11,11,12,12,14,14,15,15,17,17,18,18,19,19,20,20,22,22,24,24,27,27,29,29,31,31,33,33,37,37],"right_children":[2,4,6,8,-1,10,12,14,16,18,20,22,24,-1,26,28,-1,30,32,34,36,-1,38,-1,40,-1,-1,42,-1,44,-1,46,-1,48,-1,-1,-1,50,-1,-1,-1,-1,-1,-1,-1,-1,-1,-1,-1,-1,-1],"split_conditions":[3.6E1,3.4E1,1.5E1,7E0,-3.614565E-1,5E0,1.5E1,1.3E1,3.4E1,1.2E1,2E0,6E0,1.9E1,-1.6199493E-1,2E0,4E0,-3.7810136E-2,5E1,3E0,2.1E1,1E1,1.1231691E-2,4.2E1,1.9416733E-1,2E1,-6.672364E-2,4.109497E-2,2.1E1,7.057343E-2,1E0,4.7314456E-3,4E1,-7.746277E-2,1E1,-9.897309E-2,7.9351805E-2,3.890854E-1,1.8E1,-2.210621E-1,2.0526124E-2,-1.9302368E-2,3.0603409E-2,9.794835E-3,5.0434116E-2,1.713257E-2,-9.124756E-4,-2.6671601E-2,4.871521E-2,-6.732178E-3,2.4933243E-2,-1.2733613E-1],"split_indices":[3,3,0,2,0,0,1,0,2,1,5,1,0,0,2,5,0,2,0,1,1,0,2,0,0,0,0,0,0,0,0,2,0,0,0,0,0,0,0,0,0,0,0,0,0,0,0,0,0,0,0],"split_type":[0,0,0,0,0,0,0,0,0,0,0,0,0,0,0,0,0,0,0,0,0,0,0,0,0,0,0,0,0,0,0,0,0,0,0,0,0,0,0,0,0,0,0,0,0,0,0,0,0,0,0],"sum_hessian":[6.4E1,2.8E1,3.6E1,2.5E1,3E0,2.2E1,1.4E1,5E0,2E1,1.1E1,1.1E1,7E0,7E0,2E0,3E0,1.9E1,1E0,7E0,4E0,4E0,7E0,4E0,3E0,1E0,6E0,1E0,2E0,1.7E1,2E0,3E0,4E0,3E0,1E0,3E0,1E0,5E0,2E0,2E0,1E0,1E0,5E0,1.1E1,6E0,1E0,2E0,2E0,1E0,1E0,2E0,1E0,1E0],"tree_param":{"num_deleted":"0","num_feature":"6","num_nodes":"51","size_leaf_vector":"1"}},{"base_weights":[-9.026278E-3,-9.070969E-2,1.3429578E-1,-4.921646E-1,-2.3157274E-2,2.8451386E-1,5.7666946E-2,-3.5334092E-1,-1.1947632E-1,1.0996289E-2,-1.8790284E-1,1.4824315E-2,6.268067E-2,-3.9608E-2,-6.584244E-2,-2.4873622E-2,4.138565E-1,5.208842E-2,-4.292488E-2,-6.1086018E-2,3.7239075E-3,7.5712204E-2,-1.08268335E-1,2.1193314E-2,1.6504212E-1,4.2869568E-2,3.0842174E-2,-5.3863525E-3,-1.4476777E-2,-4.8179626E-3,-2.2670746E-2,1.5611268E-2,6.462479E-2,-8.910726E-2,1.6803257E-2,3.5961915E-3,1.1971175E-2],"categories":[],"categories_nodes":[],"categories_segments":[],"categories_sizes":[],"default_left":[0,0,0,0,0,0,0,0,0,0,0,0,0,0,0,0,0,0,0,0,0,0,0,0,0,0,0,0,0,0,0,0,0,0,0,0,0],"id":22,"left_children":[1,3,5,7,9,-1,11,-1,13,15,-1,17,-1,19,-1,21,23,25,27,29,-1,31,33,-1,-1,-1,35,-1,-1,-1,-1,-1,-1,-1,-1,-1,-1],"loss_changes":[7.731392E-1,1.1276113E0,1.4424849E0,1.3924569E0,7.6912194E-1,0E0,1.4595978E-1,0E0,3.124059E-2,5.3051424E-1,0E0,4.3123357E-2,0E0,5.227496E-3,0E0,2.9340032E-1,1.0145855E-1,1.8745191E-2,1.985319E-4,7.427279E-4,0E0,4.1709274E-2,6.0580117E-1,0E0,0E0,0E0,1.4010966E-3,0E0,0E0,0E0,0E0,0E0,0E0,0E0,0E0,0E0,0E0],"parents":[2147483647,0,0,1,1,2,2,3,3,4,4,6,6,8,8,9,9,11,11,13,13,15,15,16,16,17,17,18,18,19,19,21,21,22,22,26,26],"right_children":[2,4,6,8,10,-1,12,-1,14,16,-1,18,-1,20,-1,22,24,26,28,30,-1,32,34,-1,-1,-1,36,-1,-1,-1,-1,-1,-1,-1,-1,-1,-1],"split_conditions":[4.2E1,4E0,4.1E1,1.1E1,4.2E1,2.8451386E-1,5E0,-3.5334092E-1,3E0,4.1E1,-1.8790284E-1,1.2E1,6.268067E-2,2E0,-6.584244E-2,4E0,1.8E1,1E0,1.5E1,4E1,3.7239075E-3,4E0,1.9E1,2.1193314E-2,1.6504212E-1,4.2869568E-2,2E0,-5.3863525E-3,-1.4476777E-2,-4.8179626E-3,-2.2670746E-2,1.5611268E-2,6.462479E-2,-8.910726E-2,1.6803257E-2,3.5961915E-3,1.1971175E-2],"split_indices":[3,0,2,1,2,0,4,0,0,2,0,1,0,0,0,1,0,0,0,2,0,5,1,0,0,0,0,0,0,0,0,0,0,0,0,0,0],"split_type":[0,0,0,0,0,0,0,0,0,0,0,0,0,0,0,0,0,0,0,0,0,0,0,0,0,0,0,0,0,0,0,0,0,0,0,0,0],"sum_hessian":[6.4E1,4.1E1,2.3E1,5E0,3.6E1,1E0,2.2E1,1E0,4E0,3.5E1,1E0,1.8E1,4E0,3E0,1E0,3.3E1,2E0,1.1E1,7E0,2E0,1E0,1.5E1,1.8E1,1E0,1E0,1E0,1E1,2E0,5E0,1E0,1E0,1.4E1,1E0,8E0,1E1,4E0,6E0],"tree_param":{"num_deleted":"0","num_feature":"6","num_nodes":"37","size_leaf_vector":"1"}},{"base_weights":[-7.101675E-3,-1.09309494E-1,7.319909E-2,5.3628776E-3,-2.4820577E-1,1.9596536E-1,-1.4645258E-3,-2.0291393E-1,6.461516E-2,6.903215E-3,6.668949E-1,-1.5971719E-1,4.4766635E-2,-1.1177521E-1,-2.4932861E-2,4.04125E-2,5.8908086E-2,2.1051025E-1,-1.3951656E-1,1.8014146E-2,2.5474855E-1,1.2404593E-2,4.763672E-2,-5.9234623E-2,2.9516602E-2,4.9610563E-2,-1.8772889E-2,-1.17335E-1,4.6818542E-1,4.670105E-2,-1.2101212E-1,3.643799E-2,-4.018148E-4,3.9424896E-2,1.11204265E-2,3.165436E-3,-5.5966187E-2,1.7986909E-1,3.0814363E-2,-1.5576173E-2,3.89267E-2,6.899747E-3,-9.758377E-3],"categories":[],"categories_nodes":[],"categories_segments":[],"categories_sizes":[],"default_left":[0,0,0,0,0,0,0,0,0,0,0,0,0,0,0,0,0,0,0,0,0,0,0,0,0,0,0,0,0,0,0,0,0,0,0,0,0,0,0,0,0,0,0],"id":23,"left_children":[1,3,5,7,-1,9,11,13,15,17,19,-1,21,-1,23,25,-1,27,29,-1,-1,31,-1,-1,-1,33,-1,35,37,39,-1,-1,41,-1,-1,-1,-1,-1,-1,-1,-1,-1,-1],"loss_changes":[5.414801E-1,2.3922882E0,3.3943543E-1,3.3397406E-1,0E0,1.2418855E0,6.129212E-1,1.7189883E-1,5.902481E-2,3.5730273E-1,3.9144325E-1,0E0,8.2900256E-2,0E0,1.045264E-1,2.1103092E-2,0E0,4.7732246E-1,3.6278194E-1,0E0,0E0,2.6584346E-2,0E0,0E0,0E0,1.3597492E-2,0E0,2.8524917E-2,8.246082E-2,4.769189E-2,0E0,0E0,1.4280193E-2,0E0,0E0,0E0,0E0,0E0,0E0,0E0,0E0,0E0,0E0],"parents":[2147483647,0,0,1,1,2,2,3,3,5,5,6,6,7,7,8,8,9,9,10,10,12,12,14,14,15,15,17,17,18,18,21,21,25,25,27,27,28,28,29,29,32,32],"right_children":[2,4,6,8,-1,10,12,14,16,18,20,-1,22,-1,24,26,-1,28,30,-1,-1,32,-1,-1,-1,34,-1,36,38,40,-1,-1,42,-1,-1,-1,-1,-1,-1,-1,-1,-1,-1],"split_conditions":[3.6E1,3.4E1,4.2E1,7E0,-2.4820577E-1,4.1E1,4.3E1,1.3E1,4E0,3.8E1,1.5E1,-1.5971719E-1,5E0,-1.1177521E-1,2E0,3.4E1,5.8908086E-2,4E0,1E1,1.8014146E-2,2.5474855E-1,1E0,4.763672E-2,-5.9234623E-2,2.9516602E-2,9E0,-1.8772889E-2,3E0,1.5E1,2E0,-1.2101212E-1,3.643799E-2,7E0,3.9424896E-2,1.11204265E-2,3.165436E-3,-5.5966187E-2,1.7986909E-1,3.0814363E-2,-1.5576173E-2,3.89267E-2,6.899747E-3,-9.758377E-3],"split_indices":[3,3,2,2,0,3,2,0,5,3,1,0,4,0,2,2,0,0,0,0,0,0,0,0,0,2,0,0,0,0,0,0,1,0,0,0,0,0,0,0,0,0,0],"split_type":[0,0,0,0,0,0,0,0,0,0,0,0,0,0,0,0,0,0,0,0,0,0,0,0,0,0,0,0,0,0,0,0,0,0,0,0,0,0,0,0,0,0,0],"sum_hessian":[6.4E1,2.8E1,3.6E1,2.5E1,3E0,1.3E1,2.3E1,5E0,2E1,1E1,3E0,1E0,2.2E1,2E0,3E0,1.8E1,2E0,4E0,6E0,1E0,2E0,1.8E1,4E0,1E0,2E0,1.7E1,1E0,2E0,2E0,4E0,2E0,1E0,1.7E1,1E0,1.6E1,1E0,1E0,1E0,1E0,2E0,2E0,1E1,7E0],"tree_param":{"num_deleted":"0","num_feature":"6","num_nodes":"43","size_leaf_vector":"1"}},{"base_weights":[-5.656081E-3,-1.7758456E-1,2.8832452E-2,-2.6310885E-1,-1.9937133E-2,1.9491678E-1,-3.2633338E-2,1.3085259E-2,-4.7570802E-2,4.172287E-1,1.04569755E-1,-8.941956E-2,-1.1378753E-2,3.097229E-2,-1.1089325E-2,3.1141663E-2,2.0362474E-1,1.1068726E-2,1.3379478E-1,-5.0416507E-2,6.19327E-2,5.9814453E-3,-4.1534424E-2,4.246085E-2,1.1940766E-2,2.7754594E-2,-2.6656014E-1,2.8503928E-1,9.950002E-4,1.0766602E-3,2.6916505E-3,-1.7578126E-3,-1.693268E-2,3.9125546E-3,4.6094514E-2,-2.3559572E-3,-1.1054169E-1,1.0207444E-1,2.6193239E-2,-7.922974E-2,2.4127122E-2],"categories":[],"categories_nodes":[],"categories_segments":[],"categories_sizes":[],"default_left":[0,0,0,0,0,0,0,0,0,0,0,0,0,0,0,0,0,0,0,0,0,0,0,0,0,0,0,0,0,0,0,0,0,0,0,0,0,0,0,0,0],"id":24,"left_children":[1,3,5,-1,7,9,11,13,-1,15,17,-1,19,-1,21,-1,-1,-1,23,25,27,29,31,-1,-1,33,35,37,39,-1,-1,-1,-1,-1,-1,-1,-1,-1,-1,-1,-1],"loss_changes":[3.9054167E-1,1.1954371E0,5.6782854E-1,0E0,4.785459E-2,2.576489E-1,2.2791581E-1,2.0760164E-2,0E0,2.5740826E-1,1.8796831E-2,0E0,1.14737086E-1,0E0,4.4062063E-3,0E0,0E0,0E0,1.8754601E-4,4.4669914E-1,1.900548E-1,1.07333035E-5,1.264797E-3,0E0,0E0,3.5041004E-2,1.8166393E-1,3.0417442E-3,2.7391294E-1,0E0,0E0,0E0,0E0,0E0,0E0,0E0,0E0,0E0,0E0,0E0,0E0],"parents":[2147483647,0,0,1,1,2,2,4,4,5,5,6,6,7,7,9,9,10,10,12,12,14,14,18,18,19,19,20,20,21,21,22,22,25,25,26,26,27,27,28,28],"right_children":[2,4,6,-1,8,10,12,14,-1,16,18,-1,20,-1,22,-1,-1,-1,24,26,28,30,32,-1,-1,34,36,38,40,-1,-1,-1,-1,-1,-1,-1,-1,-1,-1,-1,-1],"split_conditions":[4E0,3.6E1,1.2E1,-2.6310885E-1,3E0,2E0,1.3E1,1E0,-4.7570802E-2,1E1,7E0,-8.941956E-2,1.5E1,3.097229E-2,3E0,3.1141663E-2,2.0362474E-1,1.1068726E-2,1.8E1,6E0,1.7E1,2E0,4E1,4.246085E-2,1.1940766E-2,4E0,1.5E1,1.9E1,2E0,1.0766602E-3,2.6916505E-3,-1.7578126E-3,-1.693268E-2,3.9125546E-3,4.6094514E-2,-2.3559572E-3,-1.1054169E-1,1.0207444E-1,2.6193239E-2,-7.922974E-2,2.4127122E-2],"split_indices":[0,3,0,0,0,4,0,0,0,0,0,0,1,0,4,0,0,0,1,1,1,0,2,0,0,5,0,0,5,0,0,0,0,0,0,0,0,0,0,0,0],"split_type":[0,0,0,0,0,0,0,0,0,0,0,0,0,0,0,0,0,0,0,0,0,0,0,0,0,0,0,0,0,0,0,0,0,0,0,0,0,0,0,0,0],"sum_hessian":[6.4E1,1E1,5.4E1,1E0,9E0,1.4E1,4E1,8E0,1E0,3E0,1.1E1,2E0,3.8E1,1E0,7E0,2E0,1E0,4E0,7E0,2.5E1,1.3E1,5E0,2E0,6E0,1E0,1.9E1,6E0,2E0,1.1E1,4E0,1E0,1E0,1E0,1.8E1,1E0,2E0,4E0,1E0,1E0,2E0,9E0],"tree_param":{"num_deleted":"0","num_feature":"6","num_nodes":"41","size_leaf_vector":"1"}},{"base_weights":[-5.088806E-3,-1.510953E-1,2.4205018E-2,-2.2364274E-1,-1.710968E-2,1.5646057E-1,-2.4771528E-2,1.0940552E-2,-4.0434267E-2,3.5074997E-1,7.865906E-2,-7.153626E-2,-7.699233E-3,2.632599E-2,-9.630203E-3,2.4913026E-2,1.7308044E-1,8.413697E-3,3.0138018E-2,2.7812252E-2,-8.0861606E-2,4.811605E-3,-3.5303753E-2,-1.6043091E-3,7.910386E-2,-1.1917878E-1,-2.1389643E-2,8.166504E-4,2.2888184E-3,-1.4945985E-3,-1.439209E-2,9.62896E-3,-7.78328E-2,1.3837542E-3,-1.4448167E-2],"categories":[],"categories_nodes":[],"categories_segments":[],"categories_sizes":[],"default_left":[0,0,0,0,0,0,0,0,0,0,0,0,0,0,0,0,0,0,0,0,0,0,0,0,0,0,0,0,0,0,0,0,0,0,0],"id":25,"left_children":[1,3,5,-1,7,9,11,13,-1,15,17,-1,19,-1,21,-1,-1,-1,-1,23,25,27,29,31,-1,-1,33,-1,-1,-1,-1,-1,-1,-1,-1],"loss_changes":[2.81668E-1,8.632679E-1,3.6013386E-1,0E0,3.4481622E-2,1.991505E-1,1.4773428E-1,1.5065948E-2,0E0,1.9429407E-1,1.0423608E-2,0E0,1.0357501E-1,0E0,3.1360474E-3,0E0,0E0,0E0,0E0,1.8775992E-1,2.3612353E-1,1.4557067E-5,9.1351476E-4,2.2556143E-1,0E0,0E0,8.5753575E-3,0E0,0E0,0E0,0E0,0E0,0E0,0E0,0E0],"parents":[2147483647,0,0,1,1,2,2,4,4,5,5,6,6,7,7,9,9,10,10,12,12,14,14,19,19,20,20,21,21,22,22,23,23,26,26],"right_children":[2,4,6,-1,8,10,12,14,-1,16,18,-1,20,-1,22,-1,-1,-1,-1,24,26,28,30,32,-1,-1,34,-1,-1,-1,-1,-1,-1,-1,-1],"split_conditions":[4E0,3.6E1,1.2E1,-2.2364274E-1,3E0,2E0,1.3E1,1E0,-4.0434267E-2,1E1,7E0,-7.153626E-2,4.2E1,2.632599E-2,3E0,2.4913026E-2,1.7308044E-1,8.413697E-3,3.0138018E-2,4E1,4.3E1,2E0,4E1,3.8E1,7.910386E-2,-1.1917878E-1,1.9E1,8.166504E-4,2.2888184E-3,-1.4945985E-3,-1.439209E-2,9.62896E-3,-7.78328E-2,1.3837542E-3,-1.4448167E-2],"split_indices":[0,3,0,0,0,4,0,0,0,0,0,0,2,0,4,0,0,0,0,2,2,0,2,3,0,0,0,0,0,0,0,0,0,0,0],"split_type":[0,0,0,0,0,0,0,0,0,0,0,0,0,0,0,0,0,0,0,0,0,0,0,0,0,0,0,0,0,0,0,0,0,0,0],"sum_hessian":[6.4E1,1E1,5.4E1,1E0,9E0,1.4E1,4E1,8E0,1E0,3E0,1.1E1,2E0,3.8E1,1E0,7E0,2E0,1E0,4E0,7E0,2.6E1,1.2E1,5E0,2E0,2.4E1,2E0,1E0,1.1E1,4E0,1E0,1E0,1E0,2.2E1,2E0,6E0,5E0],"tree_param":{"num_deleted":"0","num_feature":"6","num_nodes":"35","size_leaf_vector":"1"}},{"base_weights":[-6.745676E-3,-7.281362E-2,4.5219626E-2,-3.873385E-3,-1.5081654E-1,1.434555E-1,-1.3968785E-2,-1.1162058E-1,2.7095977E-2,3.588659E-2,4.0340614E-1,-1.0130196E-1,1.4786762E-2,-5.7229616E-2,-2.4356842E-2,5.563472E-2,-1.7137315E-2,1.8162842E-1,-7.334137E-2,2.0028306E-2,1.4801027E-1,3.615284E-2,-2.979374E-2,-3.9910126E-2,1.6864015E-2,2.295227E-2,3.702965E-2,-4.289627E-3,-1.7987825E-2,-7.2052E-2,3.7476602E-1,2.1853637E-2,-6.226578E-2,1.057018E-2,2.3108672E-2,-2.1636963E-3,-1.0835648E-2,2.4787905E-3,8.420236E-3,5.6282044E-3,-3.0787878E-3,1.9454957E-3,-3.43689E-2,1.4782563E-1,2.0819092E-2,-9.002686E-3,1.9929504E-2,6.188965E-4,4.5410157E-3],"categories":[],"categories_nodes":[],"categories_segments":[],"categories_sizes":[],"default_left":[0,0,0,0,0,0,0,0,0,0,0,0,0,0,0,0,0,0,0,0,0,0,0,0,0,0,0,0,0,0,0,0,0,0,0,0,0,0,0,0,0,0,0,0,0,0,0,0,0],"id":26,"left_children":[1,3,5,7,-1,9,11,13,15,17,19,-1,21,-1,23,25,27,29,31,-1,-1,33,35,-1,-1,37,-1,39,-1,41,43,45,-1,47,-1,-1,-1,-1,-1,-1,-1,-1,-1,-1,-1,-1,-1,-1,-1],"loss_changes":[2.2645329E-1,8.5755396E-1,2.1713763E-1,8.978288E-2,0E0,3.7699965E-1,2.2839223E-1,3.6792383E-2,2.7463041E-2,1.8843079E-1,8.8202536E-2,0E0,2.2984868E-2,0E0,4.250277E-2,2.5972176E-2,4.694281E-3,2.719788E-1,9.396945E-2,0E0,0E0,1.5917288E-2,8.821343E-4,0E0,0E0,5.194908E-4,0E0,1.2939696E-3,0E0,1.0758993E-2,7.3892355E-2,1.355321E-2,0E0,3.961057E-4,0E0,0E0,0E0,0E0,0E0,0E0,0E0,0E0,0E0,0E0,0E0,0E0,0E0,0E0,0E0],"parents":[2147483647,0,0,1,1,2,2,3,3,5,5,6,6,7,7,8,8,9,9,10,10,12,12,14,14,15,15,16,16,17,17,18,18,21,21,22,22,25,25,27,27,29,29,30,30,31,31,33,33],"right_children":[2,4,6,8,-1,10,12,14,16,18,20,-1,22,-1,24,26,28,30,32,-1,-1,34,36,-1,-1,38,-1,40,-1,42,44,46,-1,48,-1,-1,-1,-1,-1,-1,-1,-1,-1,-1,-1,-1,-1,-1,-1],"split_conditions":[3.6E1,3.4E1,4.2E1,7E0,-1.5081654E-1,4.1E1,4.3E1,1.3E1,2.3E1,3.8E1,1.5E1,-1.0130196E-1,1.2E1,-5.7229616E-2,2E0,3E0,3.4E1,4E0,1E1,2.0028306E-2,1.4801027E-1,7E0,1.5E1,-3.9910126E-2,1.6864015E-2,1.4E1,3.702965E-2,1.1E1,-1.7987825E-2,3E0,1.5E1,2E0,-6.226578E-2,2E0,2.3108672E-2,-2.1636963E-3,-1.0835648E-2,2.4787905E-3,8.420236E-3,5.6282044E-3,-3.0787878E-3,1.9454957E-3,-3.43689E-2,1.4782563E-1,2.0819092E-2,-9.002686E-3,1.9929504E-2,6.188965E-4,4.5410157E-3],"split_indices":[3,3,2,2,0,3,2,0,2,3,1,0,1,0,2,4,2,0,0,0,0,1,0,0,0,2,0,0,0,0,0,0,0,0,0,0,0,0,0,0,0,0,0,0,0,0,0,0,0],"split_type":[0,0,0,0,0,0,0,0,0,0,0,0,0,0,0,0,0,0,0,0,0,0,0,0,0,0,0,0,0,0,0,0,0,0,0,0,0,0,0,0,0,0,0,0,0,0,0,0,0],"sum_hessian":[6.4E1,2.8E1,3.6E1,2.5E1,3E0,1.3E1,2.3E1,5E0,2E1,1E1,3E0,1E0,2.2E1,2E0,3E0,1.2E1,8E0,4E0,6E0,1E0,2E0,1.5E1,7E0,1E0,2E0,9E0,3E0,7E0,1E0,2E0,2E0,4E0,2E0,1E1,5E0,2E0,5E0,3E0,6E0,1E0,6E0,1E0,1E0,1E0,1E0,2E0,2E0,4E0,6E0],"tree_param":{"num_deleted":"0","num_feature":"6","num_nodes":"49","size_leaf_vector":"1"}},{"base_weights":[-5.2099377E-3,-1.1257865E-1,1.6358532E-2,-1.6747399E-1,-1.2187195E-2,1.00356035E-1,-1.4771252E-2,8.099026E-3,-2.9214479E-2,2.480545E-1,4.2760212E-2,-4.198265E-2,-1.206649E-3,1.8912507E-2,-6.6490173E-3,5.3146362E-2,1.24916844E-1,5.5535887E-3,1.5771104E-2,1.1661377E-1,-1.849769E-2,3.1382244E-3,-2.4007162E-2,2.2659302E-3,2.1649934E-2,1.2565155E-1,-6.365204E-2,-1.02505274E-1,3.1648364E-3,4.6875002E-4,1.6525269E-3,8.010864E-5,-1.0883331E-2,-1.7303467E-3,-3.5595704E-2,-8.0019385E-2,4.959412E-3,1.796322E-2,-5.577197E-3],"categories":[],"categories_nodes":[],"categories_segments":[],"categories_sizes":[],"default_left":[0,0,0,0,0,0,0,0,0,0,0,0,0,0,0,0,0,0,0,0,0,0,0,0,0,0,0,0,0,0,0,0,0,0,0,0,0,0,0],"id":27,"left_children":[1,3,5,-1,7,9,11,13,-1,15,17,-1,19,-1,21,23,-1,-1,-1,25,27,29,31,-1,-1,-1,33,35,37,-1,-1,-1,-1,-1,-1,-1,-1,-1,-1],"loss_changes":[1.5236725E-1,4.8535037E-1,1.4529774E-1,0E0,1.807142E-2,1.16995364E-1,6.944478E-2,7.7118357E-3,0E0,1.0910982E-1,1.8813629E-3,0E0,7.9572126E-2,0E0,1.4344467E-3,2.0564822E-3,0E0,0E0,0E0,2.9906386E-1,6.2198177E-2,1.3801768E-5,9.0326427E-4,0E0,0E0,0E0,1.2050234E-2,1.4125183E-1,3.5659827E-2,0E0,0E0,0E0,0E0,0E0,0E0,0E0,0E0,0E0,0E0],"parents":[2147483647,0,0,1,1,2,2,4,4,5,5,6,6,7,7,9,9,10,10,12,12,14,14,15,15,19,19,20,20,21,21,22,22,26,26,27,27,28,28],"right_children":[2,4,6,-1,8,10,12,14,-1,16,18,-1,20,-1,22,24,-1,-1,-1,26,28,30,32,-1,-1,-1,34,36,38,-1,-1,-1,-1,-1,-1,-1,-1,-1,-1],"split_conditions":[4E0,3.6E1,1.2E1,-1.6747399E-1,3E0,2E0,1.4E1,1E0,-2.9214479E-2,1E1,7E0,-4.198265E-2,1.5E1,1.8912507E-2,3E0,6E0,1.24916844E-1,5.5535887E-3,1.5771104E-2,3.8E1,1.8E1,2E0,4E1,2.2659302E-3,2.1649934E-2,1.2565155E-1,1.4E1,2E0,2E0,4.6875002E-4,1.6525269E-3,8.010864E-5,-1.0883331E-2,-1.7303467E-3,-3.5595704E-2,-8.0019385E-2,4.959412E-3,1.796322E-2,-5.577197E-3],"split_indices":[0,3,0,0,0,4,0,0,0,0,0,0,0,0,4,0,0,0,0,2,0,0,2,0,0,0,1,5,5,0,0,0,0,0,0,0,0,0,0],"split_type":[0,0,0,0,0,0,0,0,0,0,0,0,0,0,0,0,0,0,0,0,0,0,0,0,0,0,0,0,0,0,0,0,0,0,0,0,0,0,0],"sum_hessian":[6.4E1,1E1,5.4E1,1E0,9E0,1.4E1,4E1,8E0,1E0,3E0,1.1E1,3E0,3.7E1,1E0,7E0,2E0,1E0,4E0,7E0,4E0,3.3E1,5E0,2E0,1E0,1E0,1E0,3E0,6E0,2.7E1,4E0,1E0,1E0,1E0,2E0,1E0,2E0,4E0,7E0,2E1],"tree_param":{"num_deleted":"0","num_feature":"6","num_nodes":"39","size_leaf_vector":"1"}},{"base_weights":[-4.148043E-3,-9.575584E-2,1.4248935E-2,-1.4235306E-1,-1.0429382E-2,8.1589766E-2,-1.07354885E-2,6.80542E-3,-2.4831392E-2,2.1084595E-1,3.170522E-2,-1.0845375E-1,-1.6684282E-4,1.6076662E-2,-5.7411194E-3,4.517619E-2,1.0617829E-1,4.220581E-3,3.8764954E-2,-3.7387088E-2,-8.991623E-3,9.9291995E-2,-1.4788235E-2,2.5482178E-3,-2.0406088E-2,1.9271851E-3,1.84021E-2,1.2600273E-2,2.4169923E-3,1.06803134E-1,-5.389023E-2,-8.2477026E-2,2.6621136E-3,3.5522462E-4,1.4053346E-3,6.866455E-5,-9.251405E-3,-1.3854981E-3,-3.0255891E-2,-6.401596E-2,3.7692264E-3,1.3248825E-2,-3.982326E-3],"categories":[],"categories_nodes":[],"categories_segments":[],"categories_sizes":[],"default_left":[0,0,0,0,0,0,0,0,0,0,0,0,0,0,0,0,0,0,0,0,0,0,0,0,0,0,0,0,0,0,0,0,0,0,0,0,0,0,0,0,0,0,0],"id":28,"left_children":[1,3,5,-1,7,9,11,13,-1,15,17,19,21,-1,23,25,-1,-1,27,-1,-1,29,31,33,35,-1,-1,-1,-1,-1,37,39,41,-1,-1,-1,-1,-1,-1,-1,-1,-1,-1],"loss_changes":[1.1090934E-1,3.505466E-1,9.3411855E-2,0E0,1.303128E-2,9.003336E-2,4.232464E-2,5.590393E-3,0E0,7.8828126E-2,9.487476E-4,1.3409294E-3,5.6728963E-2,0E0,1.0245021E-3,1.4851433E-3,0E0,0E0,4.5657903E-4,0E0,0E0,2.1580899E-1,4.0380128E-2,1.1937878E-5,6.528456E-4,0E0,0E0,0E0,0E0,0E0,8.790003E-3,8.97735E-2,1.9104771E-2,0E0,0E0,0E0,0E0,0E0,0E0,0E0,0E0,0E0,0E0],"parents":[2147483647,0,0,1,1,2,2,4,4,5,5,6,6,7,7,9,9,10,10,11,11,12,12,14,14,15,15,18,18,21,21,22,22,23,23,24,24,30,30,31,31,32,32],"right_children":[2,4,6,-1,8,10,12,14,-1,16,18,20,22,-1,24,26,-1,-1,28,-1,-1,30,32,34,36,-1,-1,-1,-1,-1,38,40,42,-1,-1,-1,-1,-1,-1,-1,-1,-1,-1],"split_conditions":[4E0,3.6E1,1.2E1,-1.4235306E-1,3E0,2E0,1.4E1,1E0,-2.4831392E-2,1E1,7E0,1.3E1,1.5E1,1.6076662E-2,3E0,6E0,1.0617829E-1,4.220581E-3,1.8E1,-3.7387088E-2,-8.991623E-3,3.8E1,1.8E1,2E0,4E1,1.9271851E-3,1.84021E-2,1.2600273E-2,2.4169923E-3,1.06803134E-1,1.4E1,2E0,2E0,3.5522462E-4,1.4053346E-3,6.866455E-5,-9.251405E-3,-1.3854981E-3,-3.0255891E-2,-6.401596E-2,3.7692264E-3,1.3248825E-2,-3.982326E-3],"split_indices":[0,3,0,0,0,4,0,0,0,0,0,0,0,0,4,0,0,0,1,0,0,2,0,0,2,0,0,0,0,0,1,5,5,0,0,0,0,0,0,0,0,0,0],"split_type":[0,0,0,0,0,0,0,0,0,0,0,0,0,0,0,0,0,0,0,0,0,0,0,0,0,0,0,0,0,0,0,0,0,0,0,0,0,0,0,0,0,0,0],"sum_hessian":[6.4E1,1E1,5.4E1,1E0,9E0,1.4E1,4E1,8E0,1E0,3E0,1.1E1,3E0,3.7E1,1E0,7E0,2E0,1E0,4E0,7E0,2E0,1E0,4E0,3.3E1,5E0,2E0,1E0,1E0,6E0,1E0,1E0,3E0,6E0,2.7E1,4E0,1E0,1E0,1E0,2E0,1E0,2E0,4E0,7E0,2E1],"tree_param":{"num_deleted":"0","num_feature":"6","num_nodes":"43","size_leaf_vector":"1"}},{"base_weights":[-3.4416786E-3,-8.144032E-2,1.2220626E-2,-1.2100068E-1,-8.917237E-3,6.682637E-2,-8.055152E-3,5.7271323E-3,-2.1107484E-2,1.7921829E-1,2.3793539E-2,-8.751297E-2,5.208066E-4,1.3664247E-2,-4.9438477E-3,3.8401287E-2,9.02504E-2,3.206177E-3,2.9010773E-2,-2.991028E-2,-7.6423646E-3,8.453979E-2,-1.1850245E-2,2.0802815E-3,-1.7344156E-2,1.638794E-3,1.5641786E-2,9.359306E-3,2.055359E-3,9.078369E-2,-4.563141E-2,2.420153E-2,-3.5320465E-2,2.709961E-4,1.1947632E-3,5.950928E-5,-7.86438E-3,-1.1077882E-3,-2.5717163E-2,-8.522645E-3,1.4425964E-2,-3.74794E-2,-4.0334067E-3],"categories":[],"categories_nodes":[],"categories_segments":[],"categories_sizes":[],"default_left":[0,0,0,0,0,0,0,0,0,0,0,0,0,0,0,0,0,0,0,0,0,0,0,0,0,0,0,0,0,0,0,0,0,0,0,0,0,0,0,0,0,0,0],"id":29,"left_children":[1,3,5,-1,7,9,11,13,-1,15,17,19,21,-1,23,25,-1,-1,27,-1,-1,29,31,33,35,-1,-1,-1,-1,-1,37,39,41,-1,-1,-1,-1,-1,-1,-1,-1,-1,-1],"loss_changes":[8.040175E-2,2.5319657E-1,6.1432865E-2,0E0,9.400603E-3,6.828391E-2,2.7984083E-2,4.0494795E-3,0E0,5.6950167E-2,5.1049655E-4,4.8465095E-4,4.049914E-2,0E0,7.328917E-4,1.0727141E-3,0E0,0E0,1.7394684E-4,0E0,0E0,1.5574244E-1,2.9623672E-2,9.835823E-6,4.7202985E-4,0E0,0E0,0E0,0E0,0E0,6.409171E-3,1.8958468E-2,3.948679E-2,0E0,0E0,0E0,0E0,0E0,0E0,0E0,0E0,0E0,0E0],"parents":[2147483647,0,0,1,1,2,2,4,4,5,5,6,6,7,7,9,9,10,10,11,11,12,12,14,14,15,15,18,18,21,21,22,22,23,23,24,24,30,30,31,31,32,32],"right_children":[2,4,6,-1,8,10,12,14,-1,16,18,20,22,-1,24,26,-1,-1,28,-1,-1,30,32,34,36,-1,-1,-1,-1,-1,38,40,42,-1,-1,-1,-1,-1,-1,-1,-1,-1,-1],"split_conditions":[4E0,3.6E1,1.2E1,-1.2100068E-1,3E0,2E0,1.4E1,1E0,-2.1107484E-2,1E1,7E0,1.3E1,1.5E1,1.3664247E-2,3E0,6E0,9.02504E-2,3.206177E-3,1.8E1,-2.991028E-2,-7.6423646E-3,3.8E1,2.5E1,2E0,4E1,1.638794E-3,1.5641786E-2,9.359306E-3,2.055359E-3,9.078369E-2,1.4E1,2E0,1.8E1,2.709961E-4,1.1947632E-3,5.950928E-5,-7.86438E-3,-1.1077882E-3,-2.5717163E-2,-8.522645E-3,1.4425964E-2,-3.74794E-2,-4.0334067E-3],"split_indices":[0,3,0,0,0,4,0,0,0,0,0,0,0,0,4,0,0,0,1,0,0,2,2,0,2,0,0,0,0,0,1,5,0,0,0,0,0,0,0,0,0,0,0],"split_type":[0,0,0,0,0,0,0,0,0,0,0,0,0,0,0,0,0,0,0,0,0,0,0,0,0,0,0,0,0,0,0,0,0,0,0,0,0,0,0,0,0,0,0],"sum_hessian":[6.4E1,1E1,5.4E1,1E0,9E0,1.4E1,4E1,8E0,1E0,3E0,1.1E1,3E0,3.7E1,1E0,7E0,2E0,1E0,4E0,7E0,2E0,1E0,4E0,3.3E1,5E0,2E0,1E0,1E0,6E0,1E0,1E0,3E0,1.3E1,2E1,4E0,1E0,1E0,1E0,2E0,1E0,4E0,9E0,3E0,1.7E1],"tree_param":{"num_deleted":"0","num_feature":"6","num_nodes":"43","size_leaf_vector":"1"}},{"base_weights":[-2.745291E-3,-3.6928374E-2,2.4121052E-2,-4.5431633E-3,-9.482575E-2,8.078003E-2,-9.935061E-3,-1.3957519E-2,7.5424194E-2,1.3921564E-2,2.444458E-1,-5.8879856E-2,6.6996035E-3,-7.3315166E-3,-1.8031312E-2,2.4879456E-3,3.1452943E-2,9.8480225E-2,-4.8466273E-2,2.1336365E-2,8.3554074E-2,1.6094208E-2,-1.2927055E-2,-3.7376404E-2,3.0907525E-3,-3.7612915E-2,2.0174663E-1,1.0739136E-2,-3.929596E-2,2.0507813E-4,2.1174112E-2,-8.8500977E-4,-4.7283173E-3,-2.3928834E-2,1.127243E-3,3.6460878E-3,-3.8661412E-3,1.0162354E-3,-1.7942049E-2,7.716522E-2,1.3620758E-2,-2.620697E-3,1.3295746E-2,1.1613465E-2,4.818171E-3],"categories":[],"categories_nodes":[],"categories_segments":[],"categories_sizes":[],"default_left":[0,0,0,0,0,0,0,0,0,0,0,0,0,0,0,0,0,0,0,0,0,0,0,0,0,0,0,0,0,0,0,0,0,0,0,0,0,0,0,0,0,0,0,0,0],"id":30,"left_children":[1,3,5,7,-1,9,11,13,15,17,19,-1,21,23,-1,-1,-1,25,27,-1,-1,29,31,33,35,37,39,41,-1,-1,43,-1,-1,-1,-1,-1,-1,-1,-1,-1,-1,-1,-1,-1,-1],"loss_changes":[6.0585093E-2,2.607406E-1,7.2197184E-2,2.1379448E-2,0E0,1.4979112E-1,7.570424E-2,7.2035734E-3,5.0552916E-3,6.280272E-2,3.8109273E-3,0E0,4.4488986E-3,7.3176464E-3,0E0,0E0,0E0,7.7857524E-2,3.56062E-2,0E0,0E0,1.238077E-3,1.797037E-4,1.0760804E-2,2.7631258E-3,2.932468E-3,1.4339276E-2,3.656976E-3,0E0,0E0,4.5441184E-4,0E0,0E0,0E0,0E0,0E0,0E0,0E0,0E0,0E0,0E0,0E0,0E0,0E0,0E0],"parents":[2147483647,0,0,1,1,2,2,3,3,5,5,6,6,7,7,8,8,9,9,10,10,12,12,13,13,17,17,18,18,21,21,22,22,23,23,24,24,25,25,26,26,27,27,30,30],"right_children":[2,4,6,8,-1,10,12,14,16,18,20,-1,22,24,-1,-1,-1,26,28,-1,-1,30,32,34,36,38,40,42,-1,-1,44,-1,-1,-1,-1,-1,-1,-1,-1,-1,-1,-1,-1,-1,-1],"split_conditions":[3.6E1,3.6E1,4.2E1,4E0,-9.482575E-2,4.1E1,4.3E1,3.4E1,9E0,3.8E1,1.5E1,-5.8879856E-2,1.2E1,7E0,-1.8031312E-2,2.4879456E-3,3.1452943E-2,4E0,1E1,2.1336365E-2,8.3554074E-2,2E0,1.5E1,1.3E1,2.1E1,3E0,1.5E1,6E0,-3.929596E-2,2.0507813E-4,1E0,-8.8500977E-4,-4.7283173E-3,-2.3928834E-2,1.127243E-3,3.6460878E-3,-3.8661412E-3,1.0162354E-3,-1.7942049E-2,7.716522E-2,1.3620758E-2,-2.620697E-3,1.3295746E-2,1.1613465E-2,4.818171E-3],"split_indices":[3,2,2,5,0,3,2,2,0,3,1,0,1,2,0,0,0,0,0,0,0,4,0,0,0,0,0,0,0,0,0,0,0,0,0,0,0,0,0,0,0,0,0,0,0],"split_type":[0,0,0,0,0,0,0,0,0,0,0,0,0,0,0,0,0,0,0,0,0,0,0,0,0,0,0,0,0,0,0,0,0,0,0,0,0,0,0,0,0,0,0,0,0],"sum_hessian":[6.4E1,2.8E1,3.6E1,2.6E1,2E0,1.3E1,2.3E1,2.4E1,2E0,1E1,3E0,1E0,2.2E1,2.2E1,2E0,1E0,1E0,4E0,6E0,1E0,2E0,1.5E1,7E0,5E0,1.7E1,2E0,2E0,4E0,2E0,4E0,1.1E1,2E0,5E0,2E0,3E0,1.1E1,6E0,1E0,1E0,1E0,1E0,3E0,1E0,1E0,1E1],"tree_param":{"num_deleted":"0","num_feature":"6","num_nodes":"45","size_leaf_vector":"1"}},{"base_weights":[-1.9172082E-3,-5.97555E-2,9.685309E-3,-8.862648E-2,-6.6467286E-3,-1.0664044E-2,3.8461104E-2,3.9113364E-3,-1.5250397E-2,-7.780914E-2,1.2804229E-3,1.8640137E-1,6.949997E-3,9.871674E-3,-3.8261414E-3,-4.4530234E-3,-3.7568666E-2,-5.0732084E-2,2.3510525E-2,6.684265E-2,1.1576843E-2,-1.635488E-2,3.7250943E-2,1.3961792E-3,-1.2995402E-2,1.7875672E-3,-3.7914277E-3,-1.5367508E-2,-5.0047304E-2,2.6735688E-2,1.5774155E-2,1.7084757E-2,-4.2681012E-2,6.559067E-2,-1.2751579E-2,1.5747071E-4,8.6288457E-4,4.4403077E-4,-6.2919618E-3,-7.0800784E-4,-5.7929996E-3,3.0723172E-3,1.8135453E-2,8.648682E-3,1.2016296E-3,-2.3280717E-2,8.7318424E-4,1.1302185E-2,-7.601166E-3],"categories":[],"categories_nodes":[],"categories_segments":[],"categories_sizes":[],"default_left":[0,0,0,0,0,0,0,0,0,0,0,0,0,0,0,0,0,0,0,0,0,0,0,0,0,0,0,0,0,0,0,0,0,0,0,0,0,0,0,0,0,0,0,0,0,0,0,0,0],"id":31,"left_children":[1,3,5,-1,7,9,11,13,-1,15,17,19,21,-1,23,25,-1,27,29,-1,-1,31,33,35,37,-1,-1,39,-1,-1,41,43,45,-1,47,-1,-1,-1,-1,-1,-1,-1,-1,-1,-1,-1,-1,-1,-1],"loss_changes":[4.419828E-2,1.3571173E-1,3.2616436E-2,0E0,4.864221E-3,2.6566038E-2,1.0592502E-1,2.1449819E-3,0E0,1.6834999E-2,3.4723792E-2,1.2927756E-2,1.4732431E-2,0E0,4.0122244E-4,3.309633E-4,0E0,3.4386303E-2,9.253217E-3,0E0,0E0,1.1293231E-2,8.4415145E-2,6.2277068E-6,3.774907E-4,0E0,0E0,3.6468264E-4,0E0,0E0,4.3249964E-3,8.061634E-4,1.1370728E-2,0E0,6.031654E-3,0E0,0E0,0E0,0E0,0E0,0E0,0E0,0E0,0E0,0E0,0E0,0E0,0E0,0E0],"parents":[2147483647,0,0,1,1,2,2,4,4,5,5,6,6,7,7,9,9,10,10,11,11,12,12,14,14,15,15,17,17,18,18,21,21,22,22,23,23,24,24,27,27,30,30,31,31,32,32,34,34],"right_children":[2,4,6,-1,8,10,12,14,-1,16,18,20,22,-1,24,26,-1,28,30,-1,-1,32,34,36,38,-1,-1,40,-1,-1,42,44,46,-1,48,-1,-1,-1,-1,-1,-1,-1,-1,-1,-1,-1,-1,-1,-1],"split_conditions":[4E0,3.6E1,1.5E1,-8.862648E-2,3E0,2E0,1.7E1,1E0,-1.5250397E-2,1.4E1,2E0,1.9E1,3.6E1,9.871674E-3,3E0,6E0,-3.7568666E-2,1.4E1,1.5E1,6.684265E-2,1.1576843E-2,1.1E1,3.8E1,2E0,4E1,1.7875672E-3,-3.7914277E-3,1.5E1,-5.0047304E-2,2.6735688E-2,1E1,1.8E1,1.6E1,6.559067E-2,1E1,1.5747071E-4,8.6288457E-4,4.4403077E-4,-6.2919618E-3,-7.0800784E-4,-5.7929996E-3,3.0723172E-3,1.8135453E-2,8.648682E-3,1.2016296E-3,-2.3280717E-2,8.7318424E-4,1.1302185E-2,-7.601166E-3],"split_indices":[0,3,1,0,0,4,1,0,0,0,5,0,2,0,4,0,0,1,2,0,0,0,2,0,2,0,0,0,0,0,1,1,0,0,0,0,0,0,0,0,0,0,0,0,0,0,0,0,0],"split_type":[0,0,0,0,0,0,0,0,0,0,0,0,0,0,0,0,0,0,0,0,0,0,0,0,0,0,0,0,0,0,0,0,0,0,0,0,0,0,0,0,0,0,0,0,0,0,0,0,0],"sum_hessian":[6.4E1,1E1,5.4E1,1E0,9E0,3.2E1,2.2E1,8E0,1E0,4E0,2.8E1,3E0,1.9E1,1E0,7E0,2E0,2E0,8E0,2E1,2E0,1E0,1.1E1,8E0,5E0,2E0,1E0,1E0,7E0,1E0,1E0,1.9E1,5E0,6E0,1E0,7E0,4E0,1E0,1E0,1E0,2E0,5E0,1.8E1,1E0,2E0,3E0,3E0,3E0,1E0,6E0],"tree_param":{"num_deleted":"0","num_feature":"6","num_nodes":"49","size_leaf_vector":"1"}},{"base_weights":[-1.5244704E-3,-5.081385E-2,8.361123E-3,-7.533303E-2,-5.6732176E-3,-8.923155E-3,3.2796778E-2,3.2992894E-3,-1.2963868E-2,-6.238098E-2,6.0140673E-4,1.5008163E-1,7.6999664E-3,8.3908085E-3,-3.2806396E-3,-3.7841797E-3,-3.0055238E-2,-4.1793823E-2,1.8742153E-2,5.3472903E-2,9.839631E-3,-1.2495677E-2,3.377194E-2,1.1494955E-3,-1.1047363E-2,1.5197755E-3,-3.2226564E-3,-1.1568069E-2,-4.253998E-2,2.2725679E-2,1.2104034E-2,1.35981245E-2,-3.3076696E-2,5.575104E-2,-8.465767E-3,1.2084961E-4,7.324219E-4,3.7765506E-4,-5.348969E-3,-1.6777039E-3,-5.899048E-3,2.199675E-3,1.5415193E-2,6.9183353E-3,9.304047E-4,-1.8042756E-2,6.7749026E-4,1.3337273E-3,-1.48269655E-2],"categories":[],"categories_nodes":[],"categories_segments":[],"categories_sizes":[],"default_left":[0,0,0,0,0,0,0,0,0,0,0,0,0,0,0,0,0,0,0,0,0,0,0,0,0,0,0,0,0,0,0,0,0,0,0,0,0,0,0,0,0,0,0,0,0,0,0,0,0],"id":32,"left_children":[1,3,5,-1,7,9,11,13,-1,15,17,19,21,-1,23,25,-1,27,29,-1,-1,31,33,35,37,-1,-1,39,-1,-1,41,43,45,-1,47,-1,-1,-1,-1,-1,-1,-1,-1,-1,-1,-1,-1,-1,-1],"loss_changes":[3.209642E-2,9.803186E-2,2.3522045E-2,0E0,3.5108216E-3,1.6839873E-2,6.654432E-2,1.5527032E-3,0E0,1.0696601E-2,2.3086658E-2,7.365234E-3,1.0952808E-2,0E0,2.8795996E-4,2.3915619E-4,0E0,2.5564488E-2,7.0303283E-3,0E0,0E0,6.894225E-3,5.9379086E-2,4.8042584E-6,2.72847E-4,0E0,0E0,2.770431E-4,0E0,0E0,3.3719477E-3,5.24465E-4,6.8304148E-3,0E0,4.450308E-3,0E0,0E0,0E0,0E0,0E0,0E0,0E0,0E0,0E0,0E0,0E0,0E0,0E0,0E0],"parents":[2147483647,0,0,1,1,2,2,4,4,5,5,6,6,7,7,9,9,10,10,11,11,12,12,14,14,15,15,17,17,18,18,21,21,22,22,23,23,24,24,27,27,30,30,31,31,32,32,34,34],"right_children":[2,4,6,-1,8,10,12,14,-1,16,18,20,22,-1,24,26,-1,28,30,-1,-1,32,34,36,38,-1,-1,40,-1,-1,42,44,46,-1,48,-1,-1,-1,-1,-1,-1,-1,-1,-1,-1,-1,-1,-1,-1],"split_conditions":[4E0,3.6E1,1.5E1,-7.533303E-2,3E0,2E0,1.7E1,1E0,-1.2963868E-2,1.4E1,2E0,1.9E1,3.6E1,8.3908085E-3,3E0,6E0,-3.0055238E-2,1.4E1,1.5E1,5.3472903E-2,9.839631E-3,1.1E1,3.8E1,2E0,4E1,1.5197755E-3,-3.2226564E-3,2.1E1,-4.253998E-2,2.2725679E-2,1E1,1.8E1,1.6E1,5.575104E-2,2.1E1,1.2084961E-4,7.324219E-4,3.7765506E-4,-5.348969E-3,-1.6777039E-3,-5.899048E-3,2.199675E-3,1.5415193E-2,6.9183353E-3,9.304047E-4,-1.8042756E-2,6.7749026E-4,1.3337273E-3,-1.48269655E-2],"split_indices":[0,3,1,0,0,4,1,0,0,0,5,0,2,0,4,0,0,1,2,0,0,0,2,0,2,0,0,0,0,0,1,1,0,0,1,0,0,0,0,0,0,0,0,0,0,0,0,0,0],"split_type":[0,0,0,0,0,0,0,0,0,0,0,0,0,0,0,0,0,0,0,0,0,0,0,0,0,0,0,0,0,0,0,0,0,0,0,0,0,0,0,0,0,0,0,0,0,0,0,0,0],"sum_hessian":[6.4E1,1E1,5.4E1,1E0,9E0,3.2E1,2.2E1,8E0,1E0,4E0,2.8E1,3E0,1.9E1,1E0,7E0,2E0,2E0,8E0,2E1,2E0,1E0,1.1E1,8E0,5E0,2E0,1E0,1E0,7E0,1E0,1E0,1.9E1,5E0,6E0,1E0,7E0,4E0,1E0,1E0,1E0,5E0,2E0,1.8E1,1E0,2E0,3E0,3E0,3E0,6E0,1E0],"tree_param":{"num_deleted":"0","num_feature":"6","num_nodes":"49","size_leaf_vector":"1"}},{"base_weights":[-1.5197754E-3,-4.3208037E-2,6.8455087E-3,-6.403313E-2,-4.840088E-3,-7.503394E-3,2.7135434E-2,2.7838813E-3,-1.1018372E-2,5.2039106E-3,-3.3391085E-2,1.0925293E-1,4.0973863E-3,7.1319584E-3,-2.811432E-3,-5.5512926E-4,4.378255E-2,3.8364956E-3,-7.883148E-2,1.1846924E-2,4.2779543E-2,-9.538014E-3,2.4038315E-2,9.460449E-4,-9.389241E-3,-1.167043E-2,3.6478043E-3,3.845215E-4,1.9317627E-2,1.7504883E-3,-2.319336E-4,-3.8274765E-2,-3.6158755E-2,1.0828654E-2,-2.5632586E-2,4.7387697E-2,-1.765878E-2,9.1552734E-5,6.2255864E-4,3.2043457E-4,-4.5455936E-3,-1.7131806E-3,-4.7180178E-3,1.897049E-3,-1.0510255E-3,1.3102341E-2,-2.40448E-2,5.870057E-3,4.7035218E-4,-1.39835365E-2,5.264282E-4,-1.2602234E-2,-1.9798279E-3],"categories":[],"categories_nodes":[],"categories_segments":[],"categories_sizes":[],"default_left":[0,0,0,0,0,0,0,0,0,0,0,0,0,0,0,0,0,0,0,0,0,0,0,0,0,0,0,0,0,0,0,0,0,0,0,0,0,0,0,0,0,0,0,0,0,0,0,0,0,0,0,0,0],"id":33,"left_children":[1,3,5,-1,7,9,11,13,-1,15,17,19,21,-1,23,25,27,29,31,-1,-1,33,35,37,39,41,43,-1,-1,-1,-1,45,-1,47,49,-1,51,-1,-1,-1,-1,-1,-1,-1,-1,-1,-1,-1,-1,-1,-1,-1,-1],"loss_changes":[2.2963502E-2,7.081446E-2,1.6216207E-2,0E0,2.5333636E-3,1.1029535E-2,4.306436E-2,1.1238126E-3,0E0,5.1343516E-3,1.891043E-2,6.000284E-3,5.3954264E-3,0E0,2.0661039E-4,1.0236257E-3,2.5452324E-3,6.8996065E-5,3.8423818E-3,0E0,0E0,4.21108E-3,4.7462184E-2,3.7085265E-6,1.9697301E-4,5.5239885E-5,3.2830535E-4,0E0,0E0,0E0,0E0,1.7226834E-2,0E0,4.548594E-4,4.1037453E-3,0E0,1.6077387E-3,0E0,0E0,0E0,0E0,0E0,0E0,0E0,0E0,0E0,0E0,0E0,0E0,0E0,0E0,0E0,0E0],"parents":[2147483647,0,0,1,1,2,2,4,4,5,5,6,6,7,7,9,9,10,10,11,11,12,12,14,14,15,15,16,16,17,17,18,18,21,21,22,22,23,23,24,24,25,25,26,26,31,31,33,33,34,34,36,36],"right_children":[2,4,6,-1,8,10,12,14,-1,16,18,20,22,-1,24,26,28,30,32,-1,-1,34,36,38,40,42,44,-1,-1,-1,-1,46,-1,48,50,-1,52,-1,-1,-1,-1,-1,-1,-1,-1,-1,-1,-1,-1,-1,-1,-1,-1],"split_conditions":[4E0,3.6E1,1.5E1,-6.403313E-2,3E0,7E0,2E0,1E0,-1.1018372E-2,4E0,1.5E1,4E1,3.6E1,7.1319584E-3,3E0,2E0,5E0,1.2E1,4.2E1,1.1846924E-2,4.2779543E-2,1.1E1,3.8E1,2E0,4E1,2.1E1,2.1E1,3.845215E-4,1.9317627E-2,1.7504883E-3,-2.319336E-4,1.8E1,-3.6158755E-2,2E0,1.6E1,4.7387697E-2,1.5E1,9.1552734E-5,6.2255864E-4,3.2043457E-4,-4.5455936E-3,-1.7131806E-3,-4.7180178E-3,1.897049E-3,-1.0510255E-3,1.3102341E-2,-2.40448E-2,5.870057E-3,4.7035218E-4,-1.39835365E-2,5.264282E-4,-1.2602234E-2,-1.9798279E-3],"split_indices":[0,3,1,0,0,1,4,0,0,5,0,2,2,0,4,5,0,0,2,0,0,0,2,0,2,0,0,0,0,0,0,0,0,5,0,0,0,0,0,0,0,0,0,0,0,0,0,0,0,0,0,0,0],"split_type":[0,0,0,0,0,0,0,0,0,0,0,0,0,0,0,0,0,0,0,0,0,0,0,0,0,0,0,0,0,0,0,0,0,0,0,0,0,0,0,0,0,0,0,0,0,0,0,0,0,0,0,0,0],"sum_hessian":[6.4E1,1E1,5.4E1,1E0,9E0,3.2E1,2.2E1,8E0,1E0,2.2E1,1E1,4E0,1.8E1,1E0,7E0,2E1,2E0,6E0,4E0,2E0,2E0,1.1E1,7E0,5E0,2E0,5E0,1.5E1,1E0,1E0,4E0,2E0,3E0,1E0,5E0,6E0,1E0,6E0,4E0,1E0,1E0,1E0,3E0,2E0,1.1E1,4E0,1E0,2E0,2E0,3E0,3E0,3E0,1E0,5E0],"tree_param":{"num_deleted":"0","num_feature":"6","num_nodes":"53","size_leaf_vector":"1"}},{"base_weights":[-1.4101468E-3,-3.6739003E-2,5.6812633E-3,-5.4428104E-2,-4.1275024E-3,-6.203391E-3,2.2486148E-2,2.351549E-3,-9.3658455E-3,4.2581973E-3,-2.7513677E-2,8.7402344E-2,4.2194566E-3,6.06308E-3,-2.407074E-3,-6.528582E-4,3.7216187E-2,2.9078892E-3,-6.460114E-2,3.971329E-2,1.2919236E-2,-1.1517335E-2,8.71955E-3,7.807414E-4,-7.980347E-3,-9.244283E-3,2.6097298E-3,3.2730104E-4,1.6419984E-2,1.3330079E-3,-1.8615724E-4,-2.9525757E-2,-3.0735398E-2,2.1503448E-2,-1.4441354E-2,6.958008E-5,5.2871706E-4,2.723694E-4,-3.8635256E-3,-4.9186707E-3,-1.3604737E-3,1.4833624E-3,-6.317139E-4,1.11373905E-2,-1.9235231E-2,-2.8589423E-4,4.027863E-2,-1.071167E-2,-1.4839172E-3],"categories":[],"categories_nodes":[],"categories_segments":[],"categories_sizes":[],"default_left":[0,0,0,0,0,0,0,0,0,0,0,0,0,0,0,0,0,0,0,0,0,0,0,0,0,0,0,0,0,0,0,0,0,0,0,0,0,0,0,0,0,0,0,0,0,0,0,0,0],"id":34,"left_children":[1,3,5,-1,7,9,11,13,-1,15,17,19,21,-1,23,25,27,29,31,-1,-1,-1,33,35,37,39,41,-1,-1,-1,-1,43,-1,45,47,-1,-1,-1,-1,-1,-1,-1,-1,-1,-1,-1,-1,-1,-1],"loss_changes":[1.6493266E-2,5.115458E-2,1.1124102E-2,0E0,1.8287174E-3,7.4741603E-3,2.6904702E-2,8.1349374E-4,0E0,3.7470423E-3,1.2598698E-2,4.269898E-3,3.9780326E-3,0E0,1.483631E-4,6.1276095E-4,1.8387102E-3,4.0681625E-5,3.6130939E-3,0E0,0E0,0E0,5.6400984E-3,2.8236611E-6,1.4229806E-4,1.2771587E-4,1.865665E-4,0E0,0E0,0E0,0E0,1.1602531E-2,0E0,3.0513827E-2,1.2367067E-3,0E0,0E0,0E0,0E0,0E0,0E0,0E0,0E0,0E0,0E0,0E0,0E0,0E0,0E0],"parents":[2147483647,0,0,1,1,2,2,4,4,5,5,6,6,7,7,9,9,10,10,11,11,12,12,14,14,15,15,16,16,17,17,18,18,22,22,23,23,24,24,25,25,26,26,31,31,33,33,34,34],"right_children":[2,4,6,-1,8,10,12,14,-1,16,18,20,22,-1,24,26,28,30,32,-1,-1,-1,34,36,38,40,42,-1,-1,-1,-1,44,-1,46,48,-1,-1,-1,-1,-1,-1,-1,-1,-1,-1,-1,-1,-1,-1],"split_conditions":[4E0,3.6E1,1.5E1,-5.4428104E-2,3E0,7E0,2E0,1E0,-9.3658455E-3,4E0,1.5E1,1.6E1,2E0,6.06308E-3,3E0,2E0,5E0,1.2E1,4.2E1,3.971329E-2,1.2919236E-2,-1.1517335E-2,3.8E1,2E0,4E1,1.4E1,3E0,3.2730104E-4,1.6419984E-2,1.3330079E-3,-1.8615724E-4,1.8E1,-3.0735398E-2,3.6E1,1.5E1,6.958008E-5,5.2871706E-4,2.723694E-4,-3.8635256E-3,-4.9186707E-3,-1.3604737E-3,1.4833624E-3,-6.317139E-4,1.11373905E-2,-1.9235231E-2,-2.8589423E-4,4.027863E-2,-1.071167E-2,-1.4839172E-3],"split_indices":[0,3,1,0,0,1,4,0,0,5,0,1,2,0,4,5,0,0,2,0,0,0,2,0,2,2,4,0,0,0,0,0,0,2,0,0,0,0,0,0,0,0,0,0,0,0,0,0,0],"split_type":[0,0,0,0,0,0,0,0,0,0,0,0,0,0,0,0,0,0,0,0,0,0,0,0,0,0,0,0,0,0,0,0,0,0,0,0,0,0,0,0,0,0,0,0,0,0,0,0,0],"sum_hessian":[6.4E1,1E1,5.4E1,1E0,9E0,3.2E1,2.2E1,8E0,1E0,2.2E1,1E1,4E0,1.8E1,1E0,7E0,2E1,2E0,6E0,4E0,1E0,3E0,1E0,1.7E1,5E0,2E0,5E0,1.5E1,1E0,1E0,4E0,2E0,3E0,1E0,1.1E1,6E0,4E0,1E0,1E0,1E0,1E0,4E0,1E1,5E0,1E0,2E0,1E1,1E0,1E0,5E0],"tree_param":{"num_deleted":"0","num_feature":"6","num_nodes":"49","size_leaf_vector":"1"}},{"base_weights":[-1.2682402E-3,-3.124029E-2,4.7492287E-3,-4.626389E-2,-3.5217286E-3,-5.1429053E-3,1.8735802E-2,1.9836426E-3,-7.96051E-3,3.4727014E-3,-2.268982E-2,3.3755496E-2,9.358493E-3,5.154419E-3,-2.0637512E-3,-7.1607315E-4,3.1636555E-2,2.1929059E-3,-5.2987672E-2,-6.0717263E-3,2.5340687E-2,6.4086914E-4,-6.7850747E-3,-4.1816714E-3,6.4201356E-4,2.7923586E-4,1.3957215E-2,1.0107423E-3,-1.4953615E-4,-2.2693634E-2,-2.6124574E-2,8.875529E-3,-1.801627E-2,3.4236148E-2,5.050659E-3,5.1269533E-5,4.4860842E-4,2.3117066E-4,-3.2844546E-3,1.2573787E-3,-1.9644601E-3,9.466553E-3,-1.538849E-2,4.959107E-3,2.746582E-4,-1.0773469E-2,1.3149262E-3,1.0011292E-2,-3.5561698E-3],"categories":[],"categories_nodes":[],"categories_segments":[],"categories_sizes":[],"default_left":[0,0,0,0,0,0,0,0,0,0,0,0,0,0,0,0,0,0,0,0,0,0,0,0,0,0,0,0,0,0,0,0,0,0,0,0,0,0,0,0,0,0,0,0,0,0,0,0,0],"id":35,"left_children":[1,3,5,-1,7,9,11,13,-1,15,17,-1,19,-1,21,23,25,27,29,31,33,35,37,-1,39,-1,-1,-1,-1,41,-1,43,45,-1,47,-1,-1,-1,-1,-1,-1,-1,-1,-1,-1,-1,-1,-1,-1],"loss_changes":[1.1871499E-2,3.6951784E-2,7.705995E-3,0E0,1.3196039E-3,5.0676465E-3,1.9173834E-2,5.890598E-4,0E0,2.7360108E-3,8.4090205E-3,0E0,5.579254E-3,0E0,1.06503445E-4,3.8606173E-4,1.3280918E-3,2.3839053E-5,3.188055E-3,2.3023617E-3,1.9238405E-2,2.1539627E-6,1.02801176E-4,0E0,5.378424E-4,0E0,0E0,0E0,0E0,7.824974E-3,0E0,3.5046056E-4,2.9633043E-3,0E0,5.1829997E-3,0E0,0E0,0E0,0E0,0E0,0E0,0E0,0E0,0E0,0E0,0E0,0E0,0E0,0E0],"parents":[2147483647,0,0,1,1,2,2,4,4,5,5,6,6,7,7,9,9,10,10,12,12,14,14,15,15,16,16,17,17,18,18,19,19,20,20,21,21,22,22,24,24,29,29,31,31,32,32,34,34],"right_children":[2,4,6,-1,8,10,12,14,-1,16,18,-1,20,-1,22,24,26,28,30,32,34,36,38,-1,40,-1,-1,-1,-1,42,-1,44,46,-1,48,-1,-1,-1,-1,-1,-1,-1,-1,-1,-1,-1,-1,-1,-1],"split_conditions":[4E0,3.6E1,1.5E1,-4.626389E-2,3E0,7E0,1.6E1,1E0,-7.96051E-3,4E0,1.5E1,3.3755496E-2,3.6E1,5.154419E-3,3E0,1.4E1,5E0,1.2E1,4.2E1,1.1E1,3.8E1,2E0,4E1,-4.1816714E-3,2.1E1,2.7923586E-4,1.3957215E-2,1.0107423E-3,-1.4953615E-4,1.8E1,-2.6124574E-2,1.8E1,1.6E1,3.4236148E-2,2E0,5.1269533E-5,4.4860842E-4,2.3117066E-4,-3.2844546E-3,1.2573787E-3,-1.9644601E-3,9.466553E-3,-1.538849E-2,4.959107E-3,2.746582E-4,-1.0773469E-2,1.3149262E-3,1.0011292E-2,-3.5561698E-3],"split_indices":[0,3,1,0,0,1,1,0,0,5,0,0,2,0,4,2,0,0,2,0,2,0,2,0,0,0,0,0,0,0,0,1,0,0,4,0,0,0,0,0,0,0,0,0,0,0,0,0,0],"split_type":[0,0,0,0,0,0,0,0,0,0,0,0,0,0,0,0,0,0,0,0,0,0,0,0,0,0,0,0,0,0,0,0,0,0,0,0,0,0,0,0,0,0,0,0,0,0,0,0,0],"sum_hessian":[6.4E1,1E1,5.4E1,1E0,9E0,3.2E1,2.2E1,8E0,1E0,2.2E1,1E1,1E0,2.1E1,1E0,7E0,2E1,2E0,6E0,4E0,1.1E1,1E1,5E0,2E0,1E0,1.9E1,1E0,1E0,4E0,2E0,3E0,1E0,5E0,6E0,1E0,9E0,4E0,1E0,1E0,1E0,1.3E1,6E0,1E0,2E0,2E0,3E0,3E0,3E0,3E0,6E0],"tree_param":{"num_deleted":"0","num_feature":"6","num_nodes":"49","size_leaf_vector":"1"}},{"base_weights":[-9.3536376E-4,-2.6558615E-2,4.2062933E-3,-3.932419E-2,-2.998352E-3,-4.258358E-3,1.6168345E-2,1.6801623E-3,-6.7657474E-3,-2.0970663E-2,1.9284057E-3,2.8692627E-2,8.208535E-3,4.3807984E-3,-1.7604828E-3,-5.086899E-3,-2.2206116E-2,-2.8405761E-2,9.058998E-3,-4.6017966E-3,2.1437211E-2,5.3660077E-4,-5.7678223E-3,-1.5996298E-3,-3.1097413E-3,5.973816E-4,-1.0950852E-2,1.1862946E-2,5.5576325E-3,-9.986115E-3,1.032049E-3,2.9100038E-2,4.180908E-3,4.0283205E-5,3.8223268E-4,1.9683839E-4,-2.7923584E-3,-3.554535E-3,8.459473E-4,9.080586E-4,8.046341E-3,-2.2939048E-3,8.016968E-3,7.7590947E-3,-2.6419505E-3],"categories":[],"categories_nodes":[],"categories_segments":[],"categories_sizes":[],"default_left":[0,0,0,0,0,0,0,0,0,0,0,0,0,0,0,0,0,0,0,0,0,0,0,0,0,0,0,0,0,0,0,0,0,0,0,0,0,0,0,0,0,0,0,0,0],"id":36,"left_children":[1,3,5,-1,7,9,11,13,-1,15,17,-1,19,-1,21,23,-1,25,27,29,31,33,35,37,-1,-1,-1,-1,39,-1,41,-1,43,-1,-1,-1,-1,-1,-1,-1,-1,-1,-1,-1,-1],"loss_changes":[8.675202E-3,2.6695203E-2,5.637854E-3,0E0,9.5273496E-4,3.4524775E-3,1.3764626E-2,4.258633E-4,0E0,7.207129E-3,5.6648417E-3,0E0,3.8268515E-3,0E0,7.6736564E-5,1.3069026E-4,0E0,1.3033226E-3,2.021693E-3,1.973653E-3,1.3937753E-2,1.6092168E-6,7.433025E-5,3.051757E-4,0E0,0E0,0E0,0E0,9.950771E-4,0E0,2.6568759E-3,0E0,3.0437943E-3,0E0,0E0,0E0,0E0,0E0,0E0,0E0,0E0,0E0,0E0,0E0,0E0],"parents":[2147483647,0,0,1,1,2,2,4,4,5,5,6,6,7,7,9,9,10,10,12,12,14,14,15,15,17,17,18,18,19,19,20,20,21,21,22,22,23,23,28,28,30,30,32,32],"right_children":[2,4,6,-1,8,10,12,14,-1,16,18,-1,20,-1,22,24,-1,26,28,30,32,34,36,38,-1,-1,-1,-1,40,-1,42,-1,44,-1,-1,-1,-1,-1,-1,-1,-1,-1,-1,-1,-1],"split_conditions":[4E0,3.6E1,1.5E1,-3.932419E-2,3E0,2E0,1.6E1,1E0,-6.7657474E-3,1.4E1,2E0,2.8692627E-2,3.6E1,4.3807984E-3,3E0,2.1E1,-2.2206116E-2,6E0,1.5E1,2E0,3.8E1,2E0,4E1,1.4E1,-3.1097413E-3,5.973816E-4,-1.0950852E-2,1.1862946E-2,1E1,-9.986115E-3,1.6E1,2.9100038E-2,2E0,4.0283205E-5,3.8223268E-4,1.9683839E-4,-2.7923584E-3,-3.554535E-3,8.459473E-4,9.080586E-4,8.046341E-3,-2.2939048E-3,8.016968E-3,7.7590947E-3,-2.6419505E-3],"split_indices":[0,3,1,0,0,5,1,0,0,1,4,0,2,0,4,0,0,0,2,2,2,0,2,2,0,0,0,0,1,0,0,0,4,0,0,0,0,0,0,0,0,0,0,0,0],"split_type":[0,0,0,0,0,0,0,0,0,0,0,0,0,0,0,0,0,0,0,0,0,0,0,0,0,0,0,0,0,0,0,0,0,0,0,0,0,0,0,0,0,0,0,0,0],"sum_hessian":[6.4E1,1E1,5.4E1,1E0,9E0,3.2E1,2.2E1,8E0,1E0,8E0,2.4E1,1E0,2.1E1,1E0,7E0,7E0,1E0,4E0,2E1,1.1E1,1E1,5E0,2E0,5E0,2E0,1E0,3E0,1E0,1.9E1,1E0,1E1,1E0,9E0,4E0,1E0,1E0,1E0,1E0,4E0,1.8E1,1E0,8E0,2E0,3E0,6E0],"tree_param":{"num_deleted":"0","num_feature":"6","num_nodes":"45","size_leaf_vector":"1"}},{"base_weights":[-7.004958E-4,-2.2583008E-2,3.6887429E-3,-3.3425905E-2,-2.5573731E-3,-3.5159949E-3,1.3865596E-2,1.4190674E-3,-5.7518007E-3,2.571106E-3,-1.5923934E-2,2.4389649E-2,7.105047E-3,3.7239075E-3,-1.5068054E-3,-4.1743688E-4,2.2633871E-2,8.9808874E-4,-3.628998E-2,-3.578186E-3,1.811357E-2,4.4250488E-4,-4.9031577E-3,-3.0212405E-3,5.687714E-4,1.0070801E-4,1.0084534E-2,5.493164E-4,-2.8686525E-4,-1.39045715E-2,-1.8874742E-2,8.992513E-3,-1.3841902E-2,2.473526E-2,3.4347535E-3,2.9296876E-5,3.2501222E-4,1.6708375E-4,-2.3735047E-3,1.0086647E-3,-1.2125015E-3,6.8389894E-3,-1.01211555E-2,4.6875E-3,5.310059E-4,-7.833481E-3,5.6648254E-4,2.961731E-3,-8.17566E-3],"categories":[],"categories_nodes":[],"categories_segments":[],"categories_sizes":[],"default_left":[0,0,0,0,0,0,0,0,0,0,0,0,0,0,0,0,0,0,0,0,0,0,0,0,0,0,0,0,0,0,0,0,0,0,0,0,0,0,0,0,0,0,0,0,0,0,0,0,0],"id":37,"left_children":[1,3,5,-1,7,9,11,13,-1,15,17,-1,19,-1,21,23,25,27,29,31,33,35,37,-1,39,-1,-1,-1,-1,41,-1,43,45,-1,47,-1,-1,-1,-1,-1,-1,-1,-1,-1,-1,-1,-1,-1,-1],"loss_changes":[6.326395E-3,1.9284176E-2,4.0814364E-3,0E0,6.8790466E-4,2.5333785E-3,9.907737E-3,3.082063E-4,0E0,1.3884921E-3,3.8011707E-3,0E0,2.6521592E-3,0E0,5.5134027E-5,2.0565274E-4,7.233006E-4,1.3860919E-5,2.105332E-3,1.6727383E-3,1.0105151E-2,1.2202188E-6,5.368694E-5,0E0,2.711693E-4,0E0,0E0,0E0,0E0,3.680617E-3,0E0,2.5976202E-4,1.4003378E-3,0E0,2.2445743E-3,0E0,0E0,0E0,0E0,0E0,0E0,0E0,0E0,0E0,0E0,0E0,0E0,0E0,0E0],"parents":[2147483647,0,0,1,1,2,2,4,4,5,5,6,6,7,7,9,9,10,10,12,12,14,14,15,15,16,16,17,17,18,18,19,19,20,20,21,21,22,22,24,24,29,29,31,31,32,32,34,34],"right_children":[2,4,6,-1,8,10,12,14,-1,16,18,-1,20,-1,22,24,26,28,30,32,34,36,38,-1,40,-1,-1,-1,-1,42,-1,44,46,-1,48,-1,-1,-1,-1,-1,-1,-1,-1,-1,-1,-1,-1,-1,-1],"split_conditions":[4E0,3.6E1,1.5E1,-3.3425905E-2,3E0,7E0,1.6E1,1E0,-5.7518007E-3,4E0,1.5E1,2.4389649E-2,3.6E1,3.7239075E-3,3E0,1.4E1,5E0,1.2E1,4.2E1,1.1E1,3.8E1,2E0,4E1,-3.0212405E-3,3E0,1.0070801E-4,1.0084534E-2,5.493164E-4,-2.8686525E-4,1.8E1,-1.8874742E-2,2E0,1.6E1,2.473526E-2,2.1E1,2.9296876E-5,3.2501222E-4,1.6708375E-4,-2.3735047E-3,1.0086647E-3,-1.2125015E-3,6.8389894E-3,-1.01211555E-2,4.6875E-3,5.310059E-4,-7.833481E-3,5.6648254E-4,2.961731E-3,-8.17566E-3],"split_indices":[0,3,1,0,0,1,1,0,0,5,0,0,2,0,4,2,0,0,2,0,2,0,2,0,4,0,0,0,0,0,0,5,0,0,1,0,0,0,0,0,0,0,0,0,0,0,0,0,0],"split_type":[0,0,0,0,0,0,0,0,0,0,0,0,0,0,0,0,0,0,0,0,0,0,0,0,0,0,0,0,0,0,0,0,0,0,0,0,0,0,0,0,0,0,0,0,0,0,0,0,0],"sum_hessian":[6.4E1,1E1,5.4E1,1E0,9E0,3.2E1,2.2E1,8E0,1E0,2.2E1,1E1,1E0,2.1E1,1E0,7E0,2E1,2E0,6E0,4E0,1.1E1,1E1,5E0,2E0,1E0,1.9E1,1E0,1E0,4E0,2E0,3E0,1E0,5E0,6E0,1E0,9E0,4E0,1E0,1E0,1E0,1.2E1,7E0,1E0,2E0,2E0,3E0,3E0,3E0,8E0,1E0],"tree_param":{"num_deleted":"0","num_feature":"6","num_nodes":"49","size_leaf_vector":"1"}},{"base_weights":[-6.4990704E-4,-1.9199025E-2,3.071733E-3,-2.8412247E-2,-2.1774292E-3,-8.245945E-3,7.5220107E-3,1.2020535E-3,-4.8889164E-3,1.781845E-2,-1.5631456E-2,9.5685326E-5,1.7563764E-2,3.165436E-3,-1.285553E-3,6.10199E-3,1.538086E-3,1.2502034E-2,-2.1883184E-2,-1.8309021E-2,4.6920776E-3,3.7963867E-2,-5.126953E-4,1.1062622E-4,-4.1656494E-3,-9.567261E-4,6.582642E-3,-3.7841797E-3,-1.578312E-2,-3.5273235E-3,-8.096314E-3,8.571625E-3,1.9314415E-3,2.7838137E-2,4.221598E-3,-6.7095077E-3,1.04599E-2,1.4190674E-4,-2.016449E-3,-3.9062503E-4,-2.2460937E-3,3.570557E-4,-1.9443512E-3,-1.7068046E-4,9.387677E-4,-6.3743596E-3,4.069519E-3,-3.845215E-3,-5.1086425E-4,1.0330201E-3,4.72641E-3],"categories":[],"categories_nodes":[],"categories_segments":[],"categories_sizes":[],"default_left":[0,0,0,0,0,0,0,0,0,0,0,0,0,0,0,0,0,0,0,0,0,0,0,0,0,0,0,0,0,0,0,0,0,0,0,0,0,0,0,0,0,0,0,0,0,0,0,0,0,0,0],"id":38,"left_children":[1,3,5,-1,7,9,11,13,-1,15,17,19,21,-1,23,-1,-1,25,27,29,31,33,35,-1,37,-1,-1,39,-1,41,-1,-1,43,-1,45,47,49,-1,-1,-1,-1,-1,-1,-1,-1,-1,-1,-1,-1,-1,-1],"loss_changes":[4.546128E-3,1.39318E-2,2.8322008E-3,0E0,4.9673684E-4,3.3585103E-3,2.9812527E-3,2.2288309E-4,0E0,2.372521E-5,2.5600628E-3,2.1161933E-3,6.288411E-3,0E0,3.9652612E-5,0E0,0E0,5.143528E-4,5.9183645E-3,5.462344E-4,1.2632948E-3,1.4408946E-2,7.501319E-4,0E0,3.8746628E-5,0E0,0E0,6.377697E-5,0E0,4.95182E-5,0E0,0E0,5.8683625E-5,0E0,1.7160667E-3,1.9223246E-4,9.4354094E-5,0E0,0E0,0E0,0E0,0E0,0E0,0E0,0E0,0E0,0E0,0E0,0E0,0E0,0E0],"parents":[2147483647,0,0,1,1,2,2,4,4,5,5,6,6,7,7,9,9,10,10,11,11,12,12,14,14,17,17,18,18,19,19,20,20,21,21,22,22,24,24,27,27,29,29,32,32,34,34,35,35,36,36],"right_children":[2,4,6,-1,8,10,12,14,-1,16,18,20,22,-1,24,-1,-1,26,28,30,32,34,36,-1,38,-1,-1,40,-1,42,-1,-1,44,-1,46,48,50,-1,-1,-1,-1,-1,-1,-1,-1,-1,-1,-1,-1,-1,-1],"split_conditions":[4E0,3.6E1,2E0,-2.8412247E-2,3E0,2E0,1.3E1,1E0,-4.8889164E-3,1.9E1,9E0,2E0,3E0,3.165436E-3,3E0,6.10199E-3,1.538086E-3,7E0,1.4E1,1.4E1,1.5E1,1.5E1,2E1,1.1062622E-4,4E1,-9.567261E-4,6.582642E-3,2.1E1,-1.578312E-2,6E0,-8.096314E-3,8.571625E-3,2.5E1,2.7838137E-2,1.6E1,7E0,1.1E1,1.4190674E-4,-2.016449E-3,-3.9062503E-4,-2.2460937E-3,3.570557E-4,-1.9443512E-3,-1.7068046E-4,9.387677E-4,-6.3743596E-3,4.069519E-3,-3.845215E-3,-5.1086425E-4,1.0330201E-3,4.72641E-3],"split_indices":[0,3,5,0,0,4,1,0,0,0,0,4,5,0,4,0,0,0,1,0,2,0,1,0,2,0,0,0,0,0,0,0,2,0,0,2,0,0,0,0,0,0,0,0,0,0,0,0,0,0,0],"split_type":[0,0,0,0,0,0,0,0,0,0,0,0,0,0,0,0,0,0,0,0,0,0,0,0,0,0,0,0,0,0,0,0,0,0,0,0,0,0,0,0,0,0,0,0,0,0,0,0,0,0,0],"sum_hessian":[6.4E1,1E1,5.4E1,1E0,9E0,1.5E1,3.9E1,8E0,1E0,3E0,1.2E1,2.3E1,1.6E1,1E0,7E0,2E0,1E0,2E0,1E1,4E0,1.9E1,7E0,9E0,5E0,2E0,1E0,1E0,7E0,3E0,2E0,2E0,1E0,1.8E1,2E0,5E0,6E0,3E0,1E0,1E0,5E0,2E0,1E0,1E0,6E0,1.2E1,1E0,4E0,2E0,4E0,2E0,1E0],"tree_param":{"num_deleted":"0","num_feature":"6","num_nodes":"51","size_leaf_vector":"1"}},{"base_weights":[-6.168072E-4,-1.6337307E-2,2.5385076E-3,-2.4150468E-2,-1.8707275E-3,-2.3977107E-3,9.510538E-3,1.0002984E-3,-4.1564945E-3,-1.2774997E-2,1.434021E-3,1.6557314E-2,4.9254675E-3,2.6916505E-3,-1.1177063E-3,-2.9754639E-3,-1.3675691E-2,-1.4752197E-2,5.219596E-3,-6.2072757E-3,7.130577E-3,2.7974448E-4,-3.540039E-3,-2.508545E-3,-1.0114397E-3,3.0441285E-4,-1.8947601E-2,7.285309E-3,3.0521392E-3,1.26622515E-2,-2.204895E-4,-3.6621095E-6,2.609253E-4,1.2130738E-4,-1.714325E-3,6.536866E-4,-1.7974854E-3,-2.332306E-3,-7.870102E-3,4.1608312E-4,5.203629E-3,6.7771915E-3,7.0299424E-4,-1.5959603E-3,2.6275637E-3],"categories":[],"categories_nodes":[],"categories_segments":[],"categories_sizes":[],"default_left":[0,0,0,0,0,0,0,0,0,0,0,0,0,0,0,0,0,0,0,0,0,0,0,0,0,0,0,0,0,0,0,0,0,0,0,0,0,0,0,0,0,0,0,0,0],"id":39,"left_children":[1,3,5,-1,7,9,11,13,-1,15,17,-1,19,-1,21,23,-1,25,27,-1,29,31,33,-1,35,-1,37,-1,39,41,43,-1,-1,-1,-1,-1,-1,-1,-1,-1,-1,-1,-1,-1,-1],"loss_changes":[3.2656756E-3,1.0060013E-2,1.9156542E-3,0E0,3.579301E-4,1.3304979E-3,4.5454693E-3,1.6198837E-4,0E0,2.7581216E-3,1.6088539E-3,0E0,1.3902509E-3,0E0,2.8071034E-5,7.6173936E-5,0E0,3.4996902E-4,7.936439E-4,0E0,8.567297E-4,1.0441369E-6,2.8040493E-5,0E0,1.2427662E-4,0E0,1.2168661E-4,0E0,4.5196532E-4,1.1764676E-3,5.0446927E-4,0E0,0E0,0E0,0E0,0E0,0E0,0E0,0E0,0E0,0E0,0E0,0E0,0E0,0E0],"parents":[2147483647,0,0,1,1,2,2,4,4,5,5,6,6,7,7,9,9,10,10,12,12,14,14,15,15,17,17,18,18,20,20,21,21,22,22,24,24,26,26,28,28,29,29,30,30],"right_children":[2,4,6,-1,8,10,12,14,-1,16,18,-1,20,-1,22,24,-1,26,28,-1,30,32,34,-1,36,-1,38,-1,40,42,44,-1,-1,-1,-1,-1,-1,-1,-1,-1,-1,-1,-1,-1,-1],"split_conditions":[4E0,3.6E1,1.5E1,-2.4150468E-2,3E0,2E0,1.6E1,1E0,-4.1564945E-3,1.4E1,2E0,1.6557314E-2,2E0,2.6916505E-3,3E0,1.4E1,-1.3675691E-2,6E0,1.5E1,-6.2072757E-3,3E0,2E0,4E1,-2.508545E-3,2.1E1,3.0441285E-4,3.8E1,7.285309E-3,1E1,3.8E1,2E1,-3.6621095E-6,2.609253E-4,1.2130738E-4,-1.714325E-3,6.536866E-4,-1.7974854E-3,-2.332306E-3,-7.870102E-3,4.1608312E-4,5.203629E-3,6.7771915E-3,7.0299424E-4,-1.5959603E-3,2.6275637E-3],"split_indices":[0,3,1,0,0,5,1,0,0,1,4,0,2,0,4,2,0,0,2,0,5,0,2,0,0,0,2,0,1,2,1,0,0,0,0,0,0,0,0,0,0,0,0,0,0],"split_type":[0,0,0,0,0,0,0,0,0,0,0,0,0,0,0,0,0,0,0,0,0,0,0,0,0,0,0,0,0,0,0,0,0,0,0,0,0,0,0,0,0,0,0,0,0],"sum_hessian":[6.4E1,1E1,5.4E1,1E0,9E0,3.2E1,2.2E1,8E0,1E0,8E0,2.4E1,1E0,2.1E1,1E0,7E0,7E0,1E0,4E0,2E1,1E0,2E1,5E0,2E0,1E0,6E0,1E0,3E0,1E0,1.9E1,1.1E1,9E0,4E0,1E0,1E0,1E0,4E0,2E0,2E0,1E0,1.8E1,1E0,5E0,6E0,6E0,3E0],"tree_param":{"num_deleted":"0","num_feature":"6","num_nodes":"45","size_leaf_vector":"1"}},{"base_weights":[-7.760855E-4,-1.3888272E-2,1.8604625E-3,-2.0528413E-2,-1.5914917E-3,-5.654812E-3,4.820061E-3,8.4940594E-4,-3.5339356E-3,1.38549805E-2,-1.1222839E-2,-5.6584675E-5,1.1421204E-2,2.2888184E-3,-9.5176697E-4,1.8417359E-3,5.5503845E-3,-2.5405884E-3,-2.0928701E-2,-1.2304688E-2,3.0082702E-3,-2.8211805E-3,2.4394564E-2,7.095337E-5,-3.0110676E-3,-2.1331788E-3,-8.719308E-4,6.113688E-3,-1.0793496E-2,-2.319336E-3,-1.8188477E-2,6.193543E-3,9.934275E-4,-1.0029384E-2,4.4815065E-3,1.9938659E-2,2.8806415E-3,1.0299683E-4,-1.4579773E-3,1.1077882E-3,-1.0308839E-3,-1.828766E-3,4.579926E-3,2.586365E-4,-1.3023377E-3,-6.689072E-3,-1.4957428E-3,8.066814E-4,-1.4523593E-4,1.9454958E-5,-5.2848817E-3,4.4231415E-3,-4.6615602E-4],"categories":[],"categories_nodes":[],"categories_segments":[],"categories_sizes":[],"default_left":[0,0,0,0,0,0,0,0,0,0,0,0,0,0,0,0,0,0,0,0,0,0,0,0,0,0,0,0,0,0,0,0,0,0,0,0,0,0,0,0,0,0,0,0,0,0,0,0,0,0,0,0,0],"id":40,"left_children":[1,3,5,-1,7,9,11,13,-1,15,17,19,21,-1,23,-1,-1,25,27,29,31,33,35,-1,37,-1,39,41,-1,43,45,-1,47,49,-1,-1,51,-1,-1,-1,-1,-1,-1,-1,-1,-1,-1,-1,-1,-1,-1,-1,-1],"loss_changes":[2.2729477E-3,7.268396E-3,1.250577E-3,0E0,2.5869164E-4,1.893589E-3,1.2883035E-3,1.1716879E-4,0E0,2.981926E-5,1.0423223E-3,9.3794364E-4,3.2099388E-3,0E0,2.028833E-5,0E0,0E0,5.4806274E-5,2.6618259E-3,2.5157334E-4,6.90201E-4,1.3019516E-3,7.953906E-3,0E0,2.0273883E-5,0E0,9.462471E-5,4.2831516E-4,0E0,2.303929E-5,5.1558483E-5,0E0,4.8900496E-5,5.372291E-4,0E0,0E0,3.9115964E-4,0E0,0E0,0E0,0E0,0E0,0E0,0E0,0E0,0E0,0E0,0E0,0E0,0E0,0E0,0E0,0E0],"parents":[2147483647,0,0,1,1,2,2,4,4,5,5,6,6,7,7,9,9,10,10,11,11,12,12,14,14,17,17,18,18,19,19,20,20,21,21,22,22,24,24,26,26,27,27,29,29,30,30,32,32,33,33,36,36],"right_children":[2,4,6,-1,8,10,12,14,-1,16,18,20,22,-1,24,-1,-1,26,28,30,32,34,36,-1,38,-1,40,42,-1,44,46,-1,48,50,-1,-1,52,-1,-1,-1,-1,-1,-1,-1,-1,-1,-1,-1,-1,-1,-1,-1,-1],"split_conditions":[4E0,3.6E1,2E0,-2.0528413E-2,3E0,2E0,1.3E1,1E0,-3.5339356E-3,4E1,1.4E1,2E0,3.6E1,2.2888184E-3,3E0,1.8417359E-3,5.5503845E-3,1.4E1,9E0,1.4E1,1.5E1,1.6E1,1.5E1,7.095337E-5,4E1,-2.1331788E-3,2.1E1,7E0,-1.0793496E-2,6E0,1.9E1,6.193543E-3,3E0,1.1E1,4.4815065E-3,1.9938659E-2,1.8E1,1.0299683E-4,-1.4579773E-3,1.1077882E-3,-1.0308839E-3,-1.828766E-3,4.579926E-3,2.586365E-4,-1.3023377E-3,-6.689072E-3,-1.4957428E-3,8.066814E-4,-1.4523593E-4,1.9454958E-5,-5.2848817E-3,4.4231415E-3,-4.6615602E-4],"split_indices":[0,3,5,0,0,4,1,0,0,2,1,4,2,0,4,0,0,2,0,0,2,0,0,0,2,0,2,0,0,0,0,0,4,0,0,0,0,0,0,0,0,0,0,0,0,0,0,0,0,0,0,0,0],"split_type":[0,0,0,0,0,0,0,0,0,0,0,0,0,0,0,0,0,0,0,0,0,0,0,0,0,0,0,0,0,0,0,0,0,0,0,0,0,0,0,0,0,0,0,0,0,0,0,0,0,0,0,0,0],"sum_hessian":[6.4E1,1E1,5.4E1,1E0,9E0,1.5E1,3.9E1,8E0,1E0,3E0,1.2E1,2.3E1,1.6E1,1E0,7E0,2E0,1E0,7E0,5E0,4E0,1.9E1,8E0,8E0,5E0,2E0,1E0,6E0,2E0,3E0,2E0,2E0,1E0,1.8E1,6E0,2E0,2E0,6E0,1E0,1E0,2E0,4E0,1E0,1E0,1E0,1E0,1E0,1E0,8E0,1E1,3E0,3E0,1E0,5E0],"tree_param":{"num_deleted":"0","num_feature":"6","num_nodes":"53","size_leaf_vector":"1"}},{"base_weights":[-6.200937E-4,-1.1819319E-2,1.6310258E-3,-1.7448807E-2,-1.3687133E-3,-1.8534805E-3,6.5596206E-3,7.035997E-4,-3.0029297E-3,-9.218004E-3,8.718872E-4,2.7873993E-2,1.9687652E-3,1.9454957E-3,-8.2969666E-4,-2.0332336E-3,-1.0004425E-2,-1.0458374E-2,3.52805E-3,1.0533143E-2,9.2468265E-4,6.593184E-3,-3.314972E-3,5.1879884E-5,-2.5583904E-3,-1.8127442E-3,-5.972726E-4,-1.970927E-3,-1.5459697E-2,5.264282E-3,1.9496918E-3,8.1888837E-4,2.1718344E-2,-5.6419373E-3,4.9591064E-4,8.69751E-5,-1.2382508E-3,4.8706058E-4,-1.2298584E-3,2.1972657E-4,-1.1066437E-3,-5.685425E-3,-1.2714387E-3,2.199675E-4,3.7593844E-3,-9.651184E-4,2.0004273E-3,1.284256E-2,-3.0693056E-3,-3.657532E-3,1.0817528E-3],"categories":[],"categories_nodes":[],"categories_segments":[],"categories_sizes":[],"default_left":[0,0,0,0,0,0,0,0,0,0,0,0,0,0,0,0,0,0,0,0,0,0,0,0,0,0,0,0,0,0,0,0,0,0,0,0,0,0,0,0,0,0,0,0,0,0,0,0,0,0,0],"id":41,"left_children":[1,3,5,-1,7,9,11,13,-1,15,17,19,21,-1,23,25,-1,27,29,-1,-1,31,33,-1,35,-1,37,39,41,-1,43,45,47,-1,49,-1,-1,-1,-1,-1,-1,-1,-1,-1,-1,-1,-1,-1,-1,-1,-1],"loss_changes":[1.6579793E-3,5.247871E-3,9.567129E-4,0E0,1.8611253E-4,6.703812E-4,2.1957E-3,8.5161766E-5,0E0,1.4925171E-3,7.892731E-4,6.0939905E-4,5.1054044E-4,0E0,1.4308345E-5,4.2447973E-5,0E0,1.8177234E-4,4.3047313E-4,0E0,0E0,9.429237E-4,5.996887E-4,0E0,1.4604573E-5,0E0,6.1100574E-5,1.6633898E-5,3.7229154E-5,0E0,2.4825477E-4,2.3391543E-4,2.4594287E-3,0E0,3.9908208E-4,0E0,0E0,0E0,0E0,0E0,0E0,0E0,0E0,0E0,0E0,0E0,0E0,0E0,0E0,0E0,0E0],"parents":[2147483647,0,0,1,1,2,2,4,4,5,5,6,6,7,7,9,9,10,10,11,11,12,12,14,14,15,15,17,17,18,18,21,21,22,22,24,24,26,26,27,27,28,28,30,30,31,31,32,32,34,34],"right_children":[2,4,6,-1,8,10,12,14,-1,16,18,20,22,-1,24,26,-1,28,30,-1,-1,32,34,-1,36,-1,38,40,42,-1,44,46,48,-1,50,-1,-1,-1,-1,-1,-1,-1,-1,-1,-1,-1,-1,-1,-1,-1,-1],"split_conditions":[4E0,3.6E1,1.5E1,-1.7448807E-2,3E0,2E0,1.7E1,1E0,-3.0029297E-3,1.4E1,2E0,1.9E1,1.5E1,1.9454957E-3,3E0,1.4E1,-1.0004425E-2,1.4E1,1.5E1,1.0533143E-2,9.2468265E-4,1.3E1,1.6E1,5.1879884E-5,4E1,-1.8127442E-3,2.1E1,6E0,1.9E1,5.264282E-3,1E1,3E0,3.8E1,-5.6419373E-3,2E0,8.69751E-5,-1.2382508E-3,4.8706058E-4,-1.2298584E-3,2.1972657E-4,-1.1066437E-3,-5.685425E-3,-1.2714387E-3,2.199675E-4,3.7593844E-3,-9.651184E-4,2.0004273E-3,1.284256E-2,-3.0693056E-3,-3.657532E-3,1.0817528E-3],"split_indices":[0,3,1,0,0,5,1,0,0,1,4,0,0,0,4,2,0,0,2,0,0,0,0,0,2,0,0,0,0,0,1,4,2,0,2,0,0,0,0,0,0,0,0,0,0,0,0,0,0,0,0],"split_type":[0,0,0,0,0,0,0,0,0,0,0,0,0,0,0,0,0,0,0,0,0,0,0,0,0,0,0,0,0,0,0,0,0,0,0,0,0,0,0,0,0,0,0,0,0,0,0,0,0,0,0],"sum_hessian":[6.4E1,1E1,5.4E1,1E0,9E0,3.2E1,2.2E1,8E0,1E0,8E0,2.4E1,3E0,1.9E1,1E0,7E0,7E0,1E0,4E0,2E1,2E0,1E0,1E1,9E0,5E0,2E0,1E0,6E0,2E0,2E0,1E0,1.9E1,8E0,2E0,1E0,8E0,1E0,1E0,4E0,2E0,1E0,1E0,1E0,1E0,1.8E1,1E0,5E0,3E0,1E0,1E0,1E0,7E0],"tree_param":{"num_deleted":"0","num_feature":"6","num_nodes":"51","size_leaf_vector":"1"}},{"base_weights":[-6.893451E-4,-1.0054155E-2,1.1961503E-3,-1.4831544E-2,-1.171875E-3,-1.6317656E-3,5.2015884E-3,5.883111E-4,-2.5520325E-3,-7.847256E-3,6.7108154E-4,9.503175E-3,2.5582747E-3,1.6525269E-3,-7.1525574E-4,-1.7414093E-3,-8.504105E-3,-8.888245E-3,2.9151554E-3,-1.8628439E-3,7.1487427E-3,4.0435792E-5,-2.1769207E-3,-1.5403748E-3,-5.2315847E-4,-1.6733805E-3,-1.3140361E-2,4.47464E-3,1.5693664E-3,8.739125E-4,-4.7950745E-3,1.0915375E-2,5.8670045E-4,7.324219E-5,-1.0528564E-3,7.8735355E-4,-6.921387E-4,1.8768311E-4,-9.4070437E-4,-4.83284E-3,-1.0803223E-3,1.5925358E-4,3.1951906E-3,-3.1082155E-3,9.100342E-4,2.6756288E-3,-1.2774877E-3],